tree
version=v4
num_class=1
num_tree_per_iteration=1
label_index=0
max_feature_idx=26
objective=binary sigmoid:1
feature_names=lag_7_log lag_28_log lag_364_log rolling_mean_7 rolling_mean_28 rolling_std_7 rolling_zero_count_7 day_of_week month week_of_year is_weekend day_of_month event_indicator cat_event snap_CA sell_price price_change_7 price_ratio_28 store_id dept_id cat_id days_since_last_sale last_nonzero_qty demand_freq_28 rolling_zero_count_28 avg_nonzero_qty_28 streak_zeros
feature_infos=[0:5.4806389808654785] [0:3.7135720252990723] [0:3.5835189819335938] [0:2.9709267616271973] [0.024755256250500679:2.4937803745269775] [0:1.9247679710388184] [0:7] [0:6] [1:12] [1:53] [0:1] [1:31] [0:1] -1:12:2:7:11:13:1:3:6:8:10:0:5:14:4 [0:1] [0.05000000074505806:30.979999542236328] [-0.9826388955116272:8.305084228515625] [0.017992544919252396:2.6590390205383301] -1:0:2 -1:6:3:2:1:5:4:0 -1:2:0:1 [1:28] [1:50] [0.035714287310838699:1] [0:27] [1:31] [0:27]
tree_sizes=6930 7018 6994 6990 7027 6959 6986 7035 6944 6962 6924 6979 6947

Tree=0
num_leaves=63
num_cat=5
split_feature=4 4 4 3 3 21 7 21 4 7 4 3 7 4 24 21 4 3 21 21 21 3 4 4 21 4 3 19 20 21 21 16 21 19 3 16 7 21 24 3 21 7 7 7 18 4 4 4 3 19 21 17 21 4 21 7 7 21 7 4 3 7
split_gain=263814 39818.8 33602.9 11561.1 9616.69 8520.06 7018.74 6103.3 5436.47 4566.74 3720.85 3087.35 2731.85 2453.21 2195.27 1587.39 1572.27 1410.68 1397.2 1346.27 1240.47 1179.42 1178.06 1052.64 1039.24 882.636 861.511 823.432 759.53 722.684 713.184 656.316 599.081 513.21 512.376 497.409 495.708 451.363 451.036 444.584 431.979 392.474 385.912 382.111 380.034 378.085 371.167 369.557 354.862 325.886 309.524 309.344 297.648 292.928 272.732 266.732 265.974 265.421 257.822 254.252 253.956 251.366
threshold=0.25180554389953619 0.13710470497608188 0.45781700313091284 1.0000000180025095e-35 1.0000000180025095e-35 8.5000000000000018 4.5000000000000009 4.5000000000000009 0.64979124069213878 4.5000000000000009 0.34476734697818762 0.28752511739730841 4.5000000000000009 0.18804455548524859 25.500000000000004 14.500000000000002 0.33414249122142797 1.0000000180025095e-35 2.5000000000000004 1.5000000000000002 10.500000000000002 0.53395280241966259 0.18310468643903735 0.88379147648811351 2.5000000000000004 0.083937149494886412 0.56027489900589 0 1 15.500000000000002 1.5000000000000002 0.0020476999925449495 1.5000000000000002 2 0.41677218675613409 0.039625413715839393 4.5000000000000009 2.5000000000000004 26.500000000000004 0.78383576869964611 3.5000000000000004 4.5000000000000009 4.5000000000000009 4.5000000000000009 3 0.5567322075366975 0.066744100302457823 0.30098840594291693 0.57755675911903392 4 2.5000000000000004 0.95246443152427684 1.5000000000000002 0.40041662752628332 3.5000000000000004 3.5000000000000004 4.5000000000000009 1.5000000000000002 4.5000000000000009 0.15907417237758639 0.39147421717643743 4.5000000000000009
decision_type=2 2 2 2 2 2 2 2 2 2 2 2 2 2 2 2 2 2 2 2 2 2 2 2 2 2 2 1 1 2 2 10 2 1 2 8 2 2 2 2 2 2 2 2 1 2 2 2 2 1 2 2 2 2 2 2 2 2 2 2 2 2
left_child=1 3 4 14 20 9 10 8 12 13 30 18 32 21 29 56 52 -9 27 23 58 33 34 42 53 61 37 35 -13 41 39 38 45 50 -11 44 -27 49 -16 -6 -18 -1 -10 -29 46 -4 -5 -32 -24 -15 -3 -21 -8 -12 -53 -19 -7 -14 -2 -35 -30 -20
right_child=2 5 7 11 6 15 16 17 19 22 24 28 57 26 31 -17 40 55 25 51 -22 -23 48 -25 -26 36 -28 43 60 -31 47 -33 -34 59 -36 -37 -38 -39 -40 -41 -42 -43 -44 -45 -46 -47 -48 -49 -50 -51 -52 54 -54 -55 -56 -57 -58 -59 -60 -61 -62 -63
leaf_value=-0.84322450043635744 -0.8119751463898478 -0.79723037894594062 -0.74295008877724367 -0.77566971936883133 -0.77218061970003693 -0.82933096296861641 -0.75171572158786315 -0.83619168425326984 -0.71904300118223197 -0.79588376140355532 -0.76114467338558567 -0.77163635590573199 -0.71898537005105845 -0.78543273786167711 -0.85707167326462985 -0.85947638067925347 -0.73916882543581053 -0.78574396934669555 -0.8449574762999803 -0.8226254081588068 -0.84560198506071749 -0.75487455134310177 -0.77788588303059258 -0.69173974678280581 -0.77111382457266386 -0.83173713079986977 -0.75497613502156757 -0.82950022235369358 -0.81121673840049802 -0.85706652753538304 -0.78656676322511321 -0.7949594479791775 -0.7491417341967419 -0.82163861474803657 -0.75375664807978371 -0.75516642916037968 -0.81567416841562623 -0.80153823028363913 -0.86853594908821019 -0.72086291696666827 -0.75424685150014692 -0.82832368998409422 -0.70312415127354611 -0.81373838690552025 -0.81999073844002324 -0.73176943401862093 -0.80920595547447249 -0.77728813083472115 -0.73583463132933769 -0.79696113289640813 -0.81146344267945125 -0.72602997927881274 -0.76268117681942116 -0.75330026048999932 -0.75682516143260081 -0.76029071736230203 -0.81442262824269296 -0.72983536923357251 -0.78778315211154881 -0.81244222689824364 -0.78337172035817426 -0.83254531924492758
leaf_weight=14809.253502592444 3638.6744272112846 6941.572610616684 19899.64683303237 1314.7893571406603 24689.336427494884 10464.859728634357 10333.345797970891 1076.5037218630314 12193.458421558142 16136.082728907466 25332.361464902759 2465.9725656211376 15114.203005865216 10857.049733459949 16841.261096537113 4345.9115672856569 27152.498416349292 1904.2707177698612 14170.154943928123 88.417128264904022 2863.1078490465879 904.05203798413277 25702.666808545589 7532.7058329433203 19645.89130449295 16383.900355055928 1265.1797351390123 12594.22862008214 4001.1251011192799 7260.4684552103281 21402.229056447744 358.88139864802361 23987.277967214584 12867.251576825976 755.79532308876514 470.34187969565392 6794.5772159993649 25095.290173977613 17501.605140000582 429.66331304609776 5768.3137791007757 6297.8030424565077 5556.731626033783 5535.5802217274904 3488.0853695720434 12232.048412263393 2217.5977309644222 21557.763310983777 512.07689908146858 15350.974045023322 8501.4046205431223 8660.3152320086956 15493.809338063002 22519.842008545995 786.5722511857748 2246.6907518655062 4189.8647799342871 9037.4577849060297 1580.4243422448635 18082.208978146315 1030.1029978990555 5729.0641315579414
leaf_count=60068 13475 24551 58186 4330 80339 40805 31237 4281 32362 56825 79275 8009 40104 36948 70943 18425 78234 6488 57753 338 11690 2765 85292 17670 63691 64330 3871 49132 14783 30584 73119 1260 71815 49055 2302 1440 25446 89978 75990 1149 17602 24485 13749 20610 13233 34222 8143 71392 1456 54243 31434 23668 48755 68479 2423 7009 15632 25087 5421 67059 3482 22547
internal_value=-0.784687 -0.818338 -0.753276 -0.837943 -0.765715 -0.801482 -0.763492 -0.732349 -0.729949 -0.797301 -0.769748 -0.824836 -0.737107 -0.803172 -0.853777 -0.832938 -0.749057 -0.785192 -0.828161 -0.713448 -0.819156 -0.811435 -0.7837 -0.707408 -0.761429 -0.83366 -0.795739 -0.818915 -0.79437 -0.843459 -0.777996 -0.862211 -0.743159 -0.812537 -0.793998 -0.80498 -0.827029 -0.796744 -0.862914 -0.771302 -0.74181 -0.838778 -0.714059 -0.824691 -0.808281 -0.738693 -0.796721 -0.78191 -0.777064 -0.792154 -0.805082 -0.729464 -0.758293 -0.757453 -0.728593 -0.771965 -0.825068 -0.723045 -0.804648 -0.81627 -0.805514 -0.841384
internal_weight=623961 301237 322724 139265 202407 161972 194325 120316 115089 142972 135577 76195.5 80270.6 99865 63069.3 19000.6 58748 5227.47 68698.3 34818.2 8082.21 47296.5 43106.6 25282.9 67498.1 43077.7 52568.5 25620.6 7497.2 28367.5 68079 34701.7 56119 46392.4 16891.9 7490.81 23178.5 51303.3 34342.9 25119 32920.8 21107.1 17750.2 18129.8 7020.47 32131.7 3532.39 42960 26214.7 26208 15443 9535.3 25827.2 47852.2 9446.89 4150.96 14654.7 24151.7 5219.1 30949.5 5031.23 19899.2
internal_count=2118469 1137209 981260 556568 643858 580641 613272 337402 319624 505779 437444 293238 229414 359904 263330 74862 175828 17778 266964 90210 30586 174864 145875 63781 211445 170076 185040 96888 26274 115137 225999 148193 164223 172099 59127 27146 89776 181169 146933 81488 95836 84553 46111 69742 25706 92408 12473 144511 86748 91191 55985 26429 79992 147754 26091 13497 56437 65191 18896 116114 18265 80300
cat_boundaries=0 1 2 3 4 5
cat_threshold=39 1 39 1 39
is_linear=0
shrinkage=1


Tree=1
num_leaves=63
num_cat=5
split_feature=4 3 4 4 3 21 10 4 23 4 3 10 10 21 10 3 4 21 21 21 24 21 4 4 21 4 4 19 4 10 21 21 21 3 16 21 21 3 21 4 21 19 16 21 20 10 19 3 21 10 16 4 4 23 19 21 21 17 3 10 21 21
split_gain=225987 33067.2 30685.3 12964.2 7840.3 5919.23 5704.32 5387.4 5211.37 3101.29 2966.46 2965.48 2754.65 1930.92 1703.52 1360.51 1324.15 1267.52 1127.74 1022.46 977.433 898.673 838.977 832.481 806.899 771.979 756.571 685.498 592.514 565.993 520.193 512.252 493.409 491.625 474.918 464.488 445.366 431.555 390.294 372.905 352.842 338.249 336.104 305.453 300.662 299.666 295.928 288.726 281.902 280.39 317.747 273.779 271.381 269.853 262.909 236.191 232.642 225.641 219.48 215.331 202.576 194.224
threshold=0.24546945095062259 1.0000000180025095e-35 0.4330617636442185 0.14908103644847873 1.0000000180025095e-35 5.5000000000000009 1.0000000180025095e-35 0.64979124069213878 0.12500000372529033 0.32394175231456762 0.30547615885734564 1.0000000180025095e-35 1.0000000180025095e-35 14.500000000000002 1.0000000180025095e-35 0.57755675911903392 0.3154692947864533 1.5000000000000002 10.500000000000002 2.5000000000000004 26.500000000000004 2.5000000000000004 0.083937149494886412 0.87045899033546459 8.5000000000000018 0.51804554462432872 0.19831891357898715 0 0.11194814741611482 1.0000000180025095e-35 2.5000000000000004 1.5000000000000002 1.5000000000000002 0.53395280241966259 0.039625413715839393 18.500000000000004 3.5000000000000004 0.69202229380607616 2.5000000000000004 0.19831891357898715 2.5000000000000004 1 0.0020476999925449495 1.5000000000000002 2 1.0000000180025095e-35 3 0.7932756543159486 2.5000000000000004 1.0000000180025095e-35 1.0000000180025095e-35 0.27258467674255377 0.36497980356216436 0.19642857462167743 4 5.5000000000000009 14.500000000000002 1.0348285436630251 0.12798282131552699 1.0000000180025095e-35 4.5000000000000009 5.5000000000000009
decision_type=2 2 2 2 2 2 2 2 2 2 2 2 2 2 2 2 2 2 2 2 2 2 2 2 2 2 2 1 2 2 2 2 2 2 8 2 2 2 2 2 2 1 10 2 1 2 1 2 2 2 10 2 2 2 1 2 2 2 2 2 2 2
left_child=1 8 4 10 18 7 9 12 20 30 14 15 25 29 19 26 60 23 59 27 35 47 -21 45 -7 48 41 34 31 53 37 54 44 39 58 49 -19 51 -27 -13 -18 57 -22 -14 -12 -9 -28 52 -4 50 -1 -6 -11 -10 -16 -23 -20 -5 -3 -2 -8 -32
right_child=2 3 5 11 6 24 16 17 13 21 32 33 43 -15 28 -17 40 36 56 22 42 55 -24 -25 -26 38 46 -29 -30 -31 61 -33 -34 -35 -36 -37 -38 -39 -40 -41 -42 -43 -44 -45 -46 -47 -48 -49 -50 -51 -52 -53 -54 -55 -56 -57 -58 -59 -60 -61 -62 -63
leaf_value=-0.021054194055404759 0.018763243133238249 0.0085398913841577048 0.076339503419063412 0.027798382171088459 0.043213230352040825 0.039587462665568826 0.066194634690966925 0.10189828074060581 -0.0046353307237538043 0.059959881761883008 0.07558579146449626 0.040172969656606501 0.1006642868465026 -0.023874301043079308 0.047299596285795512 0.075301867725071553 0.082908682477755347 0.095461954841163613 -0.0034564288850504189 -0.012689128892385238 -0.035925030649825822 0.055216334109875337 0.0025238629381386731 0.12532711775118308 -0.014206868017563941 0.086905467620584639 0.038077288018642325 0.0044816106010056589 0.025260101044602214 0.015624587379553018 0.042632831382137609 0.0052852990603523787 0.028522420519292064 0.083090204937164736 0.071106326587520141 -0.0309867919467058 0.063292386147972085 0.084435672328971367 0.072319111143560447 0.051103779009901734 0.072145040306937525 0.018820488957758254 0.027807387968050157 0.090582365062072623 0.043453483861385894 0.11579496117735273 0.028752314425176825 0.090842681172538561 0.066051281397646183 -0.008582533020741823 0.05652224799546704 0.052405319615451508 0.067605274676344279 0.0069170372153953726 0.017661373767309776 0.039707841962917712 -0.03350576072905647 0.066290135076255391 0.026535502926950477 0.039982472303681592 0.053672463008214391 0.030700235263320413
leaf_weight=17068.618476703763 3947.4189435839653 2837.1146377325058 30364.019806534052 12499.31758967042 12458.369941845536 2778.6726041436195 19525.174086540937 12371.880394682288 11513.545211836696 18699.142485275865 1250.3400172740221 15704.215787947178 18756.928429201245 7232.5514058768749 1096.2890074253082 1519.1641221344471 23910.124232545495 9070.0309222787619 2179.6595772653818 14288.623891621828 17242.129963546991 19980.32847456634 24778.190891906619 8409.9677926748991 930.29704341292381 27552.599681347609 14913.517427772284 17617.319297254086 12000.491052865982 8748.8453634828329 20218.542088404298 11585.878238633275 3153.6218617409468 900.45453676581383 471.86863619089127 7898.2264994233847 1222.7685564905405 891.03081895411015 5512.235835403204 15528.75565251708 11197.451056048274 23593.813393473625 209.22236701846123 12584.274206131697 1747.3253694325686 5675.3609299659729 21186.438420400023 1081.8742146342993 8548.1966017782688 6999.4062688797712 132.8976387232542 23228.526798009872 30729.730023369193 9011.3407801687717 2469.9972161650658 2803.3173137754202 914.48138040304184 392.86474072933197 4210.56924931705 1716.3945786803961 3879.4256853759289 4107.710737362504
leaf_count=71709 14489 10709 87807 44342 41548 9366 59180 31544 45884 58293 3689 53066 48196 30704 3636 4432 67119 23914 8688 58475 75990 63513 96235 18822 3802 75973 50889 68020 42993 32451 67673 44537 11108 2541 1403 34167 3752 2507 16240 50242 32990 86503 739 34046 5875 13415 74790 2964 25902 28313 432 74735 92494 34484 9100 9403 3963 1220 14998 5805 12343 14307
internal_value=0.0434682 0.0109129 0.0707954 0.0218895 0.0582028 0.0884409 0.0603055 0.0900918 -0.0150748 0.054625 0.00872444 0.0339725 0.084243 -0.000739814 0.00646136 0.0284714 0.0733337 0.106534 0.0119336 0.00202109 -0.025636 0.0615541 -0.00304015 0.112328 0.0260932 0.0788549 0.0274911 0.00988727 0.0169603 0.00497583 0.0462862 0.0103865 0.0423334 0.0466587 0.0225152 -0.0204576 0.0916414 0.0500554 0.0844742 0.045608 0.079476 0.0224129 -0.0351605 0.0966166 0.0568598 0.106269 0.0326234 0.0652732 0.0740797 -0.0170209 -0.0204542 0.0491966 0.0647132 0.00043644 0.0269569 0.0533086 -0.01234 0.0289498 0.0192921 0.0251951 0.0641195 0.0406182
internal_weight=635049 289803 345246 203746 201469 143777 192711 140068 86056.8 134199 97507.6 106239 103318 36506.3 91356.3 74105.1 58512.2 36750 8757.95 64203.7 49550.5 73294.4 39066.8 26457.2 3708.97 71977.1 72586 25136.9 27152.7 29273.7 60904.2 15152.2 6151.29 32133.4 7519.55 32099.1 10292.8 36577.9 33064.8 31233 35107.6 36486 17451.4 31341.2 2997.67 18047.2 36100 50510.7 38912.2 24200.9 17201.5 35686.9 49428.9 20524.9 3566.29 22783.6 3094.14 12892.2 7047.68 5663.81 23404.6 24326.3
internal_count=2118469 1093676 1024793 738803 632014 392779 599069 379611 354873 427437 370778 368025 288164 143523 350106 262176 171632 91447 32945 249840 211350 226667 154710 63781 13168 205922 257744 95130 100266 112819 200770 57273 20672 105849 27110 134621 27666 118790 92213 103308 100109 132065 76729 82242 9564 44959 125679 153751 113709 100454 72141 116283 150787 80368 12736 72916 12651 45562 25707 20294 71523 81980
cat_boundaries=0 1 2 3 4 5
cat_threshold=39 39 1 39 39
is_linear=0
shrinkage=0.05


Tree=2
num_leaves=63
num_cat=6
split_feature=4 4 21 4 6 24 10 21 21 10 21 4 10 4 4 5 23 21 21 4 4 21 21 10 19 21 10 21 20 16 10 19 21 16 6 21 19 21 21 5 4 4 19 10 21 4 16 4 17 6 4 17 23 6 21 10 4 19 4 10 17 16
split_gain=195319 29400.2 27015.5 10541.8 6554.17 6152.56 4580.52 4290.43 3397.89 2923.58 2856.14 2477.68 2207.77 1781.8 1614.2 1577.41 1271.88 1089.4 1089.36 980.151 807.286 776.423 771.61 757.53 752.11 720.15 561.273 531.13 517.752 496.645 481.462 463.238 451.087 441.424 387.158 377.081 380.062 376.427 347.01 345.527 330.928 328.948 319.017 314.847 283.786 268.286 266.546 243.553 236.029 235.585 235.431 233.157 212.793 210.674 209.458 208.626 200.608 189.402 188.162 187.578 184.36 181.291
threshold=0.23517058044672015 0.40427534282207495 8.5000000000000018 0.14908103644847873 6.5000000000000009 10.500000000000002 1.0000000180025095e-35 6.5000000000000009 15.500000000000002 1.0000000180025095e-35 2.5000000000000004 0.29751081764698034 1.0000000180025095e-35 0.090175997465848937 0.076369039714336409 0.45537915825843817 0.80357143282890331 11.500000000000002 2.5000000000000004 0.29751081764698034 0.51401847600936901 2.5000000000000004 4.5000000000000009 1.0000000180025095e-35 0 2.5000000000000004 1.0000000180025095e-35 9.5000000000000018 1 0.0020476999925449495 1.0000000180025095e-35 2 2.5000000000000004 -0.0012747687287628648 3.5000000000000004 4.5000000000000009 3 4.5000000000000009 21.500000000000004 0.36707685887813574 0.71769204735755932 0.49329029023647314 4 1.0000000180025095e-35 4.5000000000000009 0.18804455548524859 0.0038346755318343644 0.053495218977332122 0.96387380361557018 5.5000000000000009 0.36110092699527746 0.95100027322769176 0.37500000000000006 1.5000000000000002 4.5000000000000009 1.0000000180025095e-35 0.10112429410219194 5 1.1412778496742251 1.0000000180025095e-35 1.0576105713844302 -0.0019131507724523542
decision_type=2 2 2 2 2 2 2 2 2 2 2 2 2 2 2 2 2 2 2 2 2 2 2 2 1 2 2 2 1 10 2 1 2 10 2 2 1 2 2 2 2 2 1 2 2 2 10 2 2 2 2 2 2 2 2 2 2 1 2 2 2 10
left_child=2 4 3 10 6 16 11 9 13 18 15 35 21 47 49 24 22 55 20 57 -7 28 26 -16 39 50 40 -9 34 33 56 60 41 -10 -5 36 -2 42 -35 -1 -3 -11 -14 46 -21 -23 61 -4 -20 -12 -13 -34 -27 -22 -50 -6 -26 -8 -18 -51 -17 -15
right_child=1 5 8 12 17 7 19 27 29 32 14 25 37 43 23 31 58 -19 48 44 53 45 -24 -25 30 52 -28 -29 -30 -31 -32 -33 51 38 -36 -37 -38 -39 -40 -41 -42 -43 -44 -45 -46 -47 -48 -49 54 59 -52 -53 -54 -55 -56 -57 -58 -59 -60 -61 -62 -63
leaf_value=0.019021879883180673 0.046297042897594891 0.083830370859347067 -0.024993910527624591 0.063046628277302827 0.015430068607858997 0.068847626280953131 0.062742858344622454 0.02751495169528221 0.047939688445007039 0.084558490381785284 0.0034296750742593761 0.05442190866476998 0.053607826240068747 0.074548953738387089 0.0021050797844655443 0.05419249511766297 0.107982254292047 -0.016986023198673789 -0.00026753293719977868 0.072154992786438693 0.091156795317119732 0.015516775042944173 0.033014094758593245 0.016876190391529402 -0.00048955220961880211 0.04077779067944249 0.10168800440650108 -0.01932842025676236 0.026737637183241111 0.038881730940949571 0.019510066363177328 0.027657885471632049 -0.011829514750175097 -0.027040347167593595 0.035991672945346942 0.02919107761043311 0.036863609084754133 0.032254781847349139 -0.038214609408984287 0.038559235421484574 0.095397831976590325 0.095042515067343 0.040423509697794423 0.0094459586491991189 0.058132314422015677 0.024312236666343842 0.07417780907330504 -0.013839474060995961 0.062735215929595939 -0.015109580769623203 0.061434195121611183 0.077216904991608215 0.05025465064273163 0.078217070123862559 0.049476058874507893 0.034062599433434253 0.010208566879750062 0.052872703474019206 0.12457286785289082 -0.0044899432259201061 0.097691388795226722 -0.0039321459191811979
leaf_weight=7237.486294105649 20646.186378568411 15937.560799524188 10321.773871451616 1610.9861205071211 5012.1563832312822 42514.158435940742 9432.5560440719128 2046.2746039628983 175.32754369080067 16034.742492631078 2838.383466437459 31407.16133145988 7308.9958307445049 73.797752842307091 29032.520620703697 2321.0938487350941 4502.1327371895313 2559.6648039966822 162.2281292527914 29507.182607293129 3678.6167519688606 17459.074984967709 556.26115633547306 12382.159499749541 9189.1736304759979 9301.250013127923 11274.075067773461 858.98310774564743 23583.342512056231 255.43061694502831 7845.035797983408 2411.4837488979101 74.030547380447388 17006.33911383152 7401.7299863696098 7576.3726437240839 23825.455482274294 8012.3025244623423 11756.158256724477 3294.1745532751083 10135.147983893752 14081.028801187873 14142.838285818696 7058.473207488656 4118.474009051919 17234.699057742953 110.78284148871899 9312.3127082884312 15981.822920426726 14042.076900646091 19388.374495506287 8489.3285929560661 16368.263613253832 22121.489545553923 3669.0171060711145 2146.7541186064482 8374.8751529455185 13371.942240089178 2777.783355563879 5909.8222814053297 272.65858818590641 17041.528832539916
leaf_count=26108 66308 41763 44656 4828 18483 120962 27930 7106 615 41817 11104 96570 22816 229 112741 7235 10175 10673 598 82494 9329 63983 1855 45191 35935 30316 26627 3583 82695 872 28374 8441 278 73951 24899 26074 79357 27119 52872 11024 24731 34577 46355 26631 12316 60781 341 38562 47015 58349 57377 23109 51372 59605 11523 7298 31640 41121 5690 23504 706 67880
internal_value=0.040656 0.0643995 0.00875033 0.0181805 0.0510318 0.079278 0.053135 0.0737428 -0.0172917 0.0751193 0.00722111 0.0479205 0.0300909 -0.0085034 0.000640289 0.01754 0.0951682 0.0110084 0.070089 0.0650101 0.0730833 0.0250928 0.0914903 0.0065215 0.0138774 0.0536486 0.0923611 0.0136631 0.0306341 -0.0305128 0.00920789 0.0438379 0.0865799 -0.0311256 0.0408288 0.0395051 0.041262 0.0415053 -0.0316079 0.0251099 0.0883275 0.0894609 0.0449599 0.000551947 0.0704378 0.0198863 -0.00309216 -0.0197038 0.0597643 -0.0100468 0.0570987 0.0764464 0.0468211 0.0800626 0.0602601 0.0210185 0.00461126 0.0570064 0.114315 -0.0119643 0.058545 -0.00359303
internal_weight=644573 369556 275017 201905 194662 174895 184943 129712 73111.9 126806 105151 128513 96754 43918.7 64205 40946 45183 9718.58 88127.3 56430.2 68314.3 67289.8 37903 41414.7 35940.7 76465 37346.8 2905.26 32596.1 29193.3 25409.1 5005.24 38679.1 28937.8 9012.72 52048 44471.6 29464.1 28762.5 10531.7 26072.7 30115.8 21451.8 24284.6 33625.7 34693.8 17226.1 19634.1 19813.1 22790.3 50795.5 8563.36 25669.5 25800.1 19650.8 7158.91 17564 22804.5 7279.92 19951.9 2593.75 17115.3
internal_count=2118469 1078032 1040437 733828 607689 470343 571235 359502 306609 348813 400352 407374 333476 178299 250889 149463 110841 36454 249032 163861 189896 237186 94976 157932 133081 235635 93121 10689 112422 128310 95949 16382 99781 127438 29727 171739 145665 96290 126823 37132 66494 76394 69171 95081 94810 124764 68450 83218 59136 92957 153947 23387 81688 68934 58538 25781 67575 69051 15865 81853 7941 68109
cat_boundaries=0 1 2 3 4 5 6
cat_threshold=39 1 39 39 38 38
is_linear=0
shrinkage=0.05


Tree=3
num_leaves=63
num_cat=2
split_feature=4 3 4 4 3 4 23 7 21 3 21 4 7 7 21 7 3 4 21 24 4 20 4 21 21 21 21 4 7 4 7 3 21 3 21 21 17 21 4 4 7 21 4 3 25 3 3 21 23 17 13 3 24 4 17 21 21 17 5 7 4 21
split_gain=170037 25659.5 23334.9 9328.66 5959.97 4716.42 4320.35 4006.35 2647.27 2408.32 2131.27 2125.41 2098.65 2051.67 1559.86 1267.62 1051.53 1046.32 957.261 879.892 871.949 742.773 716.903 636.266 611.357 608.789 606.733 519.409 494.234 464.69 452.186 439.129 400.373 386.685 374.99 365.37 355.129 351.105 344.137 331.475 265.101 255.949 251.483 240.603 240.043 234.384 233.771 224.798 221.608 206.251 201.289 198.119 193.399 189.122 188.792 185.88 182.239 182.076 177.931 176.94 176.736 176.107
threshold=0.23755506426095965 1.0000000180025095e-35 0.41875624656677252 0.14908103644847873 1.0000000180025095e-35 0.60266521573066723 0.12500000372529033 4.5000000000000009 6.5000000000000009 0.28752511739730841 3.5000000000000004 0.3154692947864533 4.5000000000000009 4.5000000000000009 14.500000000000002 4.5000000000000009 0.56027489900589 0.80601242184638988 11.500000000000002 26.500000000000004 0.3154692947864533 0 0.11194814741611482 2.5000000000000004 6.5000000000000009 2.5000000000000004 2.5000000000000004 0.18804455548524859 4.5000000000000009 0.11194814741611482 4.5000000000000009 0.69202229380607616 19.500000000000004 0.49730309844017034 1.5000000000000002 10.500000000000002 1.0391831398010256 1.5000000000000002 0.50141057372093212 0.2762331366539002 4.5000000000000009 3.5000000000000004 0.18310468643903735 0.7932756543159486 1.4900000095367434 0.40041443705558782 0.40041443705558782 2.5000000000000004 0.19642857462167743 1.0188679099082949 1 0.71721953153610241 17.500000000000004 1.2136756181716921 1.0491030216217043 4.5000000000000009 9.5000000000000018 1.0096696019172671 0.78811833262443554 4.5000000000000009 0.36497980356216436 1.5000000000000002
decision_type=2 2 2 2 2 2 2 2 2 2 2 2 2 2 2 2 2 2 2 2 2 1 2 2 2 2 2 2 2 2 2 2 2 2 2 2 2 2 2 2 2 2 2 2 2 2 2 2 2 2 9 2 2 2 2 2 2 2 2 2 2 2
left_child=1 6 4 9 18 8 19 11 13 15 17 31 16 23 30 22 27 28 56 32 51 45 25 38 -12 36 43 49 -7 34 48 39 40 42 -17 -10 44 53 -4 55 57 -15 -14 60 -3 -11 59 -22 -8 61 -29 -9 -28 -19 -21 -6 -2 -1 -25 -23 -13 -5
right_child=2 3 5 12 7 10 14 20 35 21 24 26 33 41 -16 29 -18 37 -20 54 47 46 -24 58 -26 -27 52 50 -30 -31 -32 -33 -34 -35 -36 -37 -38 -39 -40 -41 -42 -43 -44 -45 -46 -47 -48 -49 -50 -51 -52 -53 -54 -55 -56 -57 -58 -59 -60 -61 -62 -63
leaf_value=-0.019856487820125755 0.025233621476459467 0.00027217001138911076 0.064265164251349025 0.024751539294502842 0.036436108007044762 0.08057742365712077 -0.0043067033730543438 0.054705991334484033 0.023979117885194599 0.03937099358710159 0.053998980395513853 0.051500313043853378 0.032505437229904295 0.081660304230496306 -0.021957649398127464 0.023036696619119529 0.065917944739249654 0.10090099142828642 -0.016683391110932557 -0.033487167246221555 0.07026189475689483 0.01210327465186976 0.0072733031140301057 0.057686818026815793 -0.011108965328498487 -0.0088514924285513375 0.048138654535221502 0.033552259048876092 0.093431681980079728 0.02193567155454329 0.013916188387408657 0.074175772630690112 -0.029907814754228497 0.068861196262012064 0.0040233327618318104 -0.027902911725120133 0.053697290470714948 0.08459329171121184 0.071912021082586985 0.042207727788280261 -0.0078693456217249526 0.067505579590858386 0.042233703592587657 0.079681113170327111 0.018530949945698063 0.067079446896575898 0.042679770556321252 0.061420670261823296 0.0062968301659843675 0.047325140184747289 0.025361933853477955 0.096756052562616046 0.038004859838750488 0.11673476593043847 0.011755265931174194 0.024911226529396938 0.0076724464333180519 0.018757106169634583 0.031897267648360504 0.029085909077765731 0.057472331516552816 0.01603372078692708
leaf_weight=17554.91262768209 4731.9640755355358 10314.820000097156 32830.618470177054 7834.3657486587763 22529.714613988996 24663.35390882194 11464.503071501851 25836.04630318284 1725.4960419386625 2668.43586191535 2301.4181458950043 24046.24365195632 9845.5754092484713 29901.620130077004 6996.9694716632366 3362.2959960103035 1511.6735192537308 9786.6941928416491 2442.8282457590103 16748.020552039146 22259.091252967715 5037.3521229326725 25710.838076531887 15780.451206386089 427.34486421942711 21736.63565813005 17442.334455028176 10536.069512113929 10751.040971800685 11069.622317373753 8661.0794338583946 888.68215319514275 6407.2596371024847 1130.8227724432945 11341.098704069853 422.24245390295982 361.88077740371227 2904.8870097249746 26725.347825586796 31757.361295744777 7289.9053565710783 3584.5010865181684 20478.036229938269 974.93024888634682 2180.64414742589 1070.6077938377857 1035.5006152838469 10651.22414380312 8641.4497264623642 625.03799234330654 28983.333831980824 283.57831794023514 6460.8167204707861 2348.9124261140823 233.59300714731216 4146.6355744749308 2149.3862565457821 310.48472726345062 699.76369841396809 2206.505504488945 25654.775396764278 22273.053735330701
leaf_count=75062 16521 39977 91265 27337 73477 61839 45798 76030 6018 8626 6752 72334 32716 74408 30256 11838 4256 21353 10276 75862 59676 18571 97667 45787 1689 88510 53495 35064 24802 39124 31780 2403 28569 3139 43472 1827 1122 7088 70839 100562 29830 9750 64796 2534 7888 3056 3340 30056 32955 1994 100165 691 20727 4596 867 14251 8062 1154 2233 7587 74214 80536
internal_value=0.0381181 0.00918625 0.060628 0.0188846 0.0492471 0.074591 -0.0139717 0.051134 0.0687542 0.00784384 0.0868464 0.0463498 0.0293774 0.0698322 -0.000784694 0.00491638 0.024657 0.0891743 0.0102037 -0.0236868 0.061986 0.0288102 0.000949623 0.0652902 0.0438007 -0.00375011 0.0519683 0.023769 0.0844801 0.0141977 0.00436506 0.0392861 -0.0187487 0.0401466 0.00837168 0.013776 0.00487391 0.100226 0.0676968 0.0387553 -0.015906 0.0801455 0.0390754 0.0550663 0.00345912 0.0473077 0.0204554 0.0674008 0.000250408 0.018893 0.0275606 0.0551631 0.0454 0.103967 -0.0328645 0.0346449 0.0197493 -0.019185 0.0565923 0.0172773 0.0545832 0.0183025
internal_weight=652732 285622 367109 201314 202256 164854 84308.2 192931 111670 98096.2 53183.7 133901 103218 109522 35764 86077.8 71763.5 50454.9 9324.18 48544.2 59029.9 12018.4 60304.8 76036.2 2728.76 34594 74579.1 70251.9 35414.4 25773 28767 59322.4 31562.6 31454.4 14703.4 2147.74 12857.3 15040.5 59556 58433.7 25155.3 33486.1 30323.6 50675.9 12495.5 3739.04 8279.36 32910.3 20106 30732.5 39519.4 26119.6 23903.2 12135.6 16981.6 26676.4 6881.35 17865.4 16480.2 7243.86 49701 30107.4
internal_count=2118469 1072914 1045555 720781 615309 430246 352133 580450 302127 370778 128119 413997 350003 294282 140789 329598 249352 119678 34859 211344 166453 41180 235164 210124 8441 137497 223304 245096 86641 94434 110533 190693 134615 100651 55310 7845 48987 33037 162104 188290 106046 84158 97512 149082 47865 11682 29498 89732 78753 109867 135229 76721 74222 25949 76729 87728 24583 76216 48020 26158 146548 107873
cat_boundaries=0 1 2
cat_threshold=1 16397
is_linear=0
shrinkage=0.05


Tree=4
num_leaves=63
num_cat=8
split_feature=24 24 3 3 24 26 23 26 10 10 25 23 26 10 3 3 26 26 24 26 26 24 19 10 25 10 25 20 10 26 16 16 3 10 26 24 23 13 26 25 17 18 24 19 25 19 26 23 26 26 26 25 26 24 25 25 18 17 24 16 19 24
split_gain=144694 24429.9 21377.2 5793.24 4713.72 4615.74 4495.55 3646.72 3250.51 2145.52 2108.6 1923.15 1657.68 1567.24 1506.82 1459.22 1210.9 1132.16 925.614 805.687 799.524 726.114 634.823 563.247 552.238 539.426 539.257 536.706 529.888 468.819 453.726 452.234 412.527 394.073 356.278 352.17 347.092 345.473 336.134 308.061 305.109 316.312 300.651 299.852 294.058 293.128 280.937 274.671 270.242 266.101 261.927 258.918 246.483 241.061 216.878 214.635 212.759 248.834 205.033 204.537 203.667 192.497
threshold=20.500000000000004 15.500000000000002 1.0000000180025095e-35 0.30547615885734564 11.500000000000002 4.5000000000000009 0.16071429103612903 14.500000000000002 1.0000000180025095e-35 1.0000000180025095e-35 1.3956521749496462 0.12500000372529033 8.5000000000000018 1.0000000180025095e-35 0.54537886381149303 0.86822861433029186 1.0000000180025095e-35 4.5000000000000009 18.500000000000004 2.5000000000000004 1.0000000180025095e-35 18.500000000000004 0 1.0000000180025095e-35 1.431677043437958 1.0000000180025095e-35 1.2440476417541506 1 1.0000000180025095e-35 5.5000000000000009 -0.0012747687287628648 0.0020476999925449495 0.78991845250129711 1.0000000180025095e-35 1.0000000180025095e-35 18.500000000000004 0.80357143282890331 2 12.500000000000002 1.414215683937073 1.0373270511627199 3 25.500000000000004 4 1.2752525210380556 5 1.0000000180025095e-35 0.053571430966258056 4.5000000000000009 1.0000000180025095e-35 1.0000000180025095e-35 1.5895721912384035 1.0000000180025095e-35 24.500000000000004 1.7445651888847353 1.3100961446762087 6 1.0411070585250857 24.500000000000004 0.0038346755318343644 7 21.500000000000004
decision_type=2 2 2 2 2 2 2 2 2 2 2 2 2 2 2 2 2 2 2 2 2 2 1 2 2 2 2 1 2 2 10 10 2 2 2 2 2 9 2 2 2 1 2 1 2 1 2 2 2 2 2 2 2 2 2 2 1 2 2 10 1 2
left_child=1 4 7 6 15 8 16 11 10 17 18 42 25 26 27 19 22 24 -3 23 32 39 40 51 -6 -7 60 46 45 55 -9 37 -12 59 -26 -22 -17 -32 -14 -10 41 -4 -2 -15 -23 56 -5 -39 -21 -28 -16 -1 -29 -47 -24 -11 -18 -58 -30 -13 -8 -45
right_child=2 5 3 14 9 12 13 30 21 29 20 33 38 43 50 36 28 -19 -20 48 35 44 54 -25 34 -27 49 52 58 -31 31 -33 -34 -35 -36 -37 -38 47 -40 -41 -42 -43 -44 61 -46 53 -48 -49 -50 -51 -52 -53 -54 -55 -56 -57 57 -59 -60 -61 -62 -63
leaf_value=0.06656379882903446 -0.0099929687680368369 0.040872195329361802 0.040304811212311734 0.052834281707909381 0.052671691187177516 0.023365761811354163 0.017844280643818666 0.048825595300880507 0.055324844266080503 0.06493888323750395 0.052511103207988477 -0.001860592018417536 0.0044335760148511072 0.038670730014856554 0.073004478532954345 0.086727379022736639 0.011245355804951694 0.023288851588650974 0.02867983349697896 0.055794802681816469 0.046546751912752149 0.042312322297635346 0.0061093622698784973 0.084638773844328608 0.065512827152870393 0.040670342927253411 0.030550102754647365 0.034231509087122025 0.014867223753487868 0.029841245415992881 -0.038554450357731376 0.036803337137748554 0.077650767617994332 0.01118542444397733 0.057354677663728641 0.036828161734543723 0.10227622116144615 -0.033211244061666582 -0.026268396508443259 0.06481434787524612 0.074180560289483152 0.012810403256105003 -0.021142824229810259 0.034298162340395399 0.053882887282755622 -0.00035481215342736253 0.034526015944843683 -0.021393400743421002 0.014794482114509616 0.018526248271712401 0.047675220136644623 0.07593681527747409 0.021080546820364431 -0.01024787484287224 0.031641895806883598 0.075013455877759358 -0.0058836688257664161 0.037885212731344237 0.0028348724983750491 0.06353264969191473 0.009112227090111058 0.02334517193296691
leaf_weight=11170.675768703222 10283.711403593421 32544.612288668752 2241.4413771182299 3742.3700824826956 25302.331096708775 12589.010752916336 9390.0245227664709 188.82616710662842 15568.063911527395 6486.3388129472733 27375.040680885315 20159.437596186996 3836.3730861693621 8058.0298208147287 2943.7614185363054 9915.2017059475183 4691.7197776883841 2315.5618218779564 29850.699814334512 2253.0321826934814 26977.094131216407 9495.4132013618946 8515.4237186312675 14330.620760142803 28175.157273590565 7014.8266524374485 5891.4616928249598 6276.6150123775005 5682.6976913660765 636.08792164921761 7772.2845321893692 259.30508740246296 1736.6530397832394 8824.0087065845728 25544.430699616671 14258.062933743 5643.3841466456652 8143.3958171904087 1161.2234456986189 19031.279864102602 381.41979570686817 1962.9944709092379 14680.476319253445 5988.3990786671638 13051.77732206881 9813.8102736920118 4770.126142308116 12423.439422830939 489.68618555366993 21051.440543189645 1566.0570408403873 21766.768575549126 8251.3135576546192 16532.098522678018 921.80311651527882 28952.2581307441 5263.6369296461344 345.95886346697807 9395.4416881799698 120.18692809343338 23494.958966121078 12176.532735273242
leaf_count=29166 42598 100627 7278 11085 72458 43022 33535 653 43785 17124 79289 79661 14738 25620 7729 22479 17672 7884 99520 6326 80326 29155 32172 32938 74302 21629 19688 20535 20516 2137 35936 873 4335 32538 70839 45132 11358 37601 5070 50237 1043 7080 64253 19164 37205 38299 15413 54615 1705 73922 4625 53204 28446 67692 3168 71389 20975 1180 36078 372 87489 41586
internal_value=0.0358134 0.0548328 0.00698215 0.0166858 0.0682537 0.0433834 0.0128574 -0.0140225 0.0460236 0.0622562 0.0417311 -0.00636828 0.0230051 0.0203787 0.0377796 0.0789929 0.00301355 0.0577544 0.0350394 0.0748315 0.0476663 0.0559942 0.0160455 0.0763605 0.0587643 0.0295583 0.0159111 0.0326055 -0.000519431 0.0724061 -0.0283983 -0.0289085 0.0540112 0.00236516 0.0616337 0.0431865 0.0923682 -0.0295101 -0.00269961 0.0605448 0.0312893 0.0274698 -0.01655 0.0305712 0.0490105 -0.00376563 0.042576 -0.0260604 0.0484772 0.0211557 0.0642111 0.0727583 0.0267628 -0.00656044 0.00859504 0.0731698 0.00338475 -0.00318281 0.00737006 -0.00147248 0.011614 0.0269416
internal_weight=659676 397472 262205 179350 182982 214490 151799 82855.1 189889 117412 132742 54067.8 24601.4 86050.8 27550.2 65569.4 65748.4 81337.5 62395.3 50010.8 70346.9 57146.5 14023.1 47268.1 79021.9 19603.8 59827.9 23040.4 51725.4 36074.7 28787.3 28598.4 29111.7 29103.6 53719.6 41235.2 15558.6 28339.1 4997.6 34599.3 4585.86 4204.44 24964.2 26223 22547.2 36647.2 8512.5 20566.8 2742.72 26942.9 4509.82 32937.4 14527.9 26345.9 9437.23 35438.6 10301.3 5609.6 15078.1 20279.6 32885 18164.9
internal_count=2118469 1127379 991090 641990 473309 654070 554157 349100 569611 316133 409229 219422 84459 301004 87833 157176 253153 225483 200147 123339 209082 160382 50741 115308 217599 64651 214634 75479 202412 90650 129678 129025 83624 112571 145141 125458 33837 128152 19808 94022 15401 14358 106851 86370 66360 145818 26498 92216 8031 93610 12354 82370 48981 105991 35340 88513 39827 22155 56594 80033 121024 60750
cat_boundaries=0 1 2 3 4 5 6 7 8
cat_threshold=39 1 2079 1 38 39 1 39
is_linear=0
shrinkage=0.05


Tree=5
num_leaves=63
num_cat=8
split_feature=4 4 21 4 4 21 7 21 7 21 21 7 21 4 5 4 24 4 4 19 21 4 21 21 7 21 5 7 19 21 16 21 19 16 19 24 13 21 4 7 21 21 24 13 6 21 21 19 7 17 4 5 19 4 17 21 6 7 4 7 17 17
split_gain=132123 21136.2 18183.5 7229.81 4792.27 4727.55 3002.68 2374.21 2018.89 1988.46 1953.18 1836.12 1690.64 1689.87 1187.02 935.611 850.099 833.656 769.208 683.918 650.886 643.782 630.394 585.237 466.684 436.361 436.272 424.654 389.855 377.386 375.152 372.437 371.822 339.36 324.098 308.23 304.903 279.421 273.119 267.276 247.428 240.671 238.264 237.738 228.546 220.995 220.469 212.795 205.306 185.589 179.874 176.554 176.406 176.06 175.83 174.521 173.558 165.99 163.371 162.452 160.768 156.087
threshold=0.22307416796684268 0.38785953819751745 9.5000000000000018 0.12432577461004259 0.59554484486579906 8.5000000000000018 4.5000000000000009 6.5000000000000009 4.5000000000000009 15.500000000000002 2.5000000000000004 4.5000000000000009 3.5000000000000004 0.29122117161750799 0.36707685887813574 0.090175997465848937 6.5000000000000009 0.083937149494886412 0.17356365174055102 0 1.5000000000000002 0.28077591955661779 12.500000000000002 2.5000000000000004 4.5000000000000009 10.500000000000002 0.33781032264232641 3.5000000000000004 1 2.5000000000000004 0.0020476999925449495 4.5000000000000009 2 -0.0025094118900597091 3 13.500000000000002 4 1.5000000000000002 0.50141057372093212 3.5000000000000004 1.5000000000000002 4.5000000000000009 26.500000000000004 5 4.5000000000000009 1.5000000000000002 5.5000000000000009 6 3.5000000000000004 0.94806605577468883 0.053495218977332122 0.56207054853439342 7 1.0877825617790224 1.0548181533813479 3.5000000000000004 2.5000000000000004 3.5000000000000004 0.18310468643903735 3.5000000000000004 0.95100027322769176 1.0294511914253237
decision_type=2 2 2 2 2 2 2 2 2 2 2 2 2 2 2 2 2 2 2 1 2 2 2 2 2 2 2 2 1 2 10 2 1 10 1 2 9 2 2 2 2 2 2 9 2 2 2 1 2 2 2 2 1 2 2 2 2 2 2 2 2 2
left_child=2 5 3 10 7 6 13 8 20 15 14 18 16 31 43 50 53 39 32 61 38 55 -7 -15 45 -9 -14 -19 44 52 33 34 37 -11 56 -22 -35 51 -3 -12 -10 -23 -38 57 -13 -18 -25 -30 -17 -37 -4 -5 54 -6 -20 -8 -2 -1 -49 -21 -42 -16
right_child=1 4 9 11 12 22 21 25 40 30 17 28 26 23 19 48 24 27 29 59 35 41 -24 46 -26 -27 -28 -29 47 -31 -32 -33 -34 36 -36 49 42 -39 -40 -41 60 -43 -44 -45 -46 -47 -48 58 -50 -51 -52 -53 -54 -55 -56 -57 -58 -59 -60 -61 -62 -63
leaf_value=0.0048543744509026432 0.056313713245052424 0.056433858509026796 -0.023312049116020753 0.02722099636747299 0.085210325025791289 0.010694203261109474 0.04739672055469045 0.024383045296333342 0.071716483227235908 0.041259507532188683 -0.014498925605394886 0.050637139287384891 -0.0071828556515511968 0.045993336947975888 0.039552891101447371 -0.0064146477342313952 0.073692220897870822 -0.0030724377852429678 0.031130445535163094 0.0078569363477547696 0.056135718852758587 0.05684189278387556 -0.021185611682343904 0.038677138007408372 0.081983594674816043 -0.022941303391973537 0.046650013637539428 0.0091406518325043602 0.015914638499816697 0.017359757509774598 0.032821592182140986 0.02270554690309963 0.0087394662892123446 -0.037350573496028897 0.029403906904914803 -0.0049331758857944601 -0.02089956985501288 0.01480955722119582 0.064152435210743208 -0.0042286500668109331 0.0044863046993497543 0.045270791147641737 -0.031989215679417364 -0.00073597123376134067 0.034384215506553045 0.064597696871225893 0.026173258000805267 0.025147045660858982 0.0044168828470573804 0.04811997035817564 -0.012621799725994554 0.061878279031516673 0.022899664926103888 0.098593666228202426 0.070429452007536628 0.037850278359906675 0.036581552279851035 0.016525089375645338 0.034057343401242578 0.025180652613439349 0.064390932746397053 0.072812459165925672
leaf_weight=6704.4133630990982 1175.1150289922953 31767.527670890093 8384.1740200519562 2909.2867303192616 7618.2402179092169 5512.1584697365761 15517.557714790106 2552.5781057476997 23636.424155980349 175.22688396275043 14357.31605809927 2883.7100325673819 441.14440730214119 47560.499427631497 3634.8437492698431 9744.1741169095039 20569.255208447576 15808.644999653101 7916.3609351664782 3071.7692210674286 18115.798751801252 31562.198575079441 2157.5173470824957 21271.336700350046 13230.847054675221 601.77567160129547 2555.5136987417936 12945.395406812429 3673.6694376915693 22187.734683185816 255.09043534100056 10204.92306214571 26179.347209170461 7289.1987611204386 27077.208961039782 165.60193534195423 12176.614244788885 9669.5783714950085 17967.894804418087 11340.222835794091 112.86893731355667 5248.4402388036251 8049.6859667897224 8468.2174039632082 8685.4620613008738 9924.1766215115786 4230.1146091967821 11464.358424916863 7938.7583774924278 28797.253547340631 7421.4366884231567 420.95441678166389 12350.477801904082 3648.0349104255438 295.43815661966801 6938.0758568942547 22036.81417812407 5586.9586635231972 9347.1988875120878 2420.654622733593 18772.947255685925 391.24455042183399
leaf_count=25313 3288 85608 37496 9659 16444 20289 44766 8601 56693 601 60689 8389 1698 138176 11398 39322 48574 62486 25604 11410 48848 84554 9345 64760 29334 2599 7309 48157 12558 77837 853 34467 96798 34319 87530 580 54098 34674 45636 45714 370 15194 37735 32686 27630 24848 13881 38418 30352 81668 31342 1150 42047 7077 791 21035 68778 19969 29393 8365 47370 1025
internal_value=0.0336153 0.0517027 0.00615893 0.0133808 0.0631828 0.0402234 0.0417546 0.058251 0.0592221 -0.0176708 0.00223817 0.0213828 0.0753013 0.037598 0.0124186 -0.00945317 0.0772944 -0.00342262 0.0172448 0.027039 0.0552329 0.0511214 0.00172544 0.042716 0.0741375 0.0153527 0.0387235 0.00242587 0.0307857 0.021883 -0.0275181 0.0314166 0.0121838 -0.0280742 0.0331842 0.0510179 -0.0285161 0.0190981 0.0592226 -0.00996692 0.0683043 0.0551924 -0.0253009 0.00571459 0.038403 0.0707328 0.0366033 0.0271594 -0.00155155 0.0478164 -0.0182929 0.031605 0.0267635 0.0895451 0.0325062 0.0444476 0.0375648 0.0101515 0.0291354 0.015465 0.0640332 0.0426819
internal_weight=665117 400970 264148 202713 200478 200492 192822 142491 139336 61434.4 84729.7 117984 57987.2 133556 30278.1 33488.5 54990.6 54451.6 81929.2 9518.51 96814.1 59266.3 7669.68 73062 43724.3 3154.35 2996.66 28754 36054.4 42750 27945.8 60494.1 39179.2 27690.7 50289.1 47078.7 27515.5 12999.8 49735.4 25697.5 42522.2 36810.6 20226.3 20759.6 11569.2 30493.4 25501.5 24485.2 17682.9 28962.9 15805.6 3330.24 20562.3 11266.3 8211.8 22455.6 23211.9 12291.4 20811.6 5492.42 18885.8 4026.09
internal_count=2117598 1119320 998278 732160 513257 606063 576429 377973 366773 266118 327212 404948 135284 410880 110166 138512 126277 217046 288560 32198 262340 165549 29634 216817 102756 11200 9007 110643 116388 146279 127606 194063 142281 126753 159596 131096 126152 45483 131244 106403 104433 99748 91833 77968 36019 73422 78641 80369 69674 82248 68838 10809 68442 23521 26395 65801 72066 45282 67811 19775 47740 12423
cat_boundaries=0 1 2 3 4 5 6 7 8
cat_threshold=39 38 39 39 2063 5149 16 39
is_linear=0
shrinkage=0.05


Tree=6
num_leaves=63
num_cat=6
split_feature=4 4 21 4 3 4 7 21 21 3 7 7 4 21 4 3 21 7 4 4 21 13 4 21 21 4 3 21 3 7 16 21 4 16 4 21 19 21 3 16 19 4 19 21 21 13 21 4 3 17 17 17 6 25 20 4 7 7 21 4 24 3
split_gain=116805 18731.9 16431.2 5887.4 4306.31 4083.93 2707.37 2428.17 2084.1 1747 1657.65 1578.12 1554.52 1512.47 1262.11 899.177 857.839 760.913 754.979 640.685 616.472 598.314 595.196 560.971 497.953 464.655 411.262 403.895 383.373 352.54 342.354 310.472 316.435 308.67 296.953 289.972 280.134 268.425 244.13 240.127 228.567 227.042 223.021 216.521 212.189 212.185 211.264 210.822 210.052 209.647 203.705 203.006 195.106 182.316 174.899 173.123 167.382 160.705 157.047 150.93 150.575 148.222
threshold=0.22307416796684268 0.39400099217891699 8.5000000000000018 0.12432577461004259 1.0000000180025095e-35 0.59554484486579906 4.5000000000000009 15.500000000000002 5.5000000000000009 0.24294267594814303 4.5000000000000009 4.5000000000000009 0.28706558048725134 2.5000000000000004 0.090175997465848937 0.49730309844017034 11.500000000000002 3.5000000000000004 0.80601242184638988 0.17356365174055102 5.5000000000000009 0 0.28470559418201452 8.5000000000000018 2.5000000000000004 0.49882876873016363 0.50991907715797435 2.5000000000000004 0.65352252125740062 4.5000000000000009 0.0020476999925449495 3.5000000000000004 0.090175997465848937 -0.0025094118900597091 0.076369039714336409 21.500000000000004 1 1.5000000000000002 0.76920759677886974 0.019084100611507896 2 0.18310468643903735 3 3.5000000000000004 2.5000000000000004 4 11.500000000000002 0.053495218977332122 0.39147421717643743 0.91238415241241466 1.0435591340065005 0.94916751980781566 1.5000000000000002 1.9574275612831118 5 0.47880940139293676 3.5000000000000004 4.5000000000000009 1.5000000000000002 0.33000957965850836 26.500000000000004 0.60692790150642406
decision_type=2 2 2 2 2 2 2 2 2 2 2 2 2 2 2 2 2 2 2 2 2 9 2 2 2 2 2 2 2 2 10 2 2 10 2 2 1 2 2 8 1 2 1 2 2 9 2 2 2 2 2 2 2 2 1 2 2 2 2 2 2 2
left_child=2 4 3 9 16 8 12 14 10 17 25 15 28 18 47 19 57 27 29 42 51 58 61 -10 38 37 36 39 40 -7 33 45 -33 -9 -29 60 -13 -3 59 -1 -6 -38 50 -21 -24 53 -16 -4 56 -12 -5 -15 -20 -19 -37 -51 -23 -2 -11 -14 -35 -8
right_child=1 5 7 11 6 13 22 30 23 21 49 26 24 20 46 -17 -18 31 52 43 -22 48 44 -25 -26 -27 -28 34 -30 -31 -32 32 -34 35 -36 54 41 -39 -40 -41 -42 -43 -44 -45 -46 -47 -48 -49 -50 55 -52 -53 -54 -55 -56 -57 -58 -59 -60 -61 -62 -63
leaf_value=0.0010914368354457958 0.011525265772227553 0.053142408018218915 -0.022099053314356049 0.015390430089773088 0.032529797745891341 0.066528495723501155 0.041513919325403215 0.038573350001740309 0.032637911818433014 0.05129774915619939 -0.0054427502639242268 0.014822384431023751 0.039319274038532151 -0.018035052544097326 0.0041675879432524193 0.046364016254120247 -0.01549775318262564 0.014076813453464482 0.087715824368288106 0.022766727891543537 0.0075121804213622804 0.0034307152344103062 0.055128145361762505 -0.0066744246759989764 0.034899126579772795 0.057155399159541868 0.060578658773529831 -0.014200345196236756 0.06281429225222375 0.077193354592635571 0.030826356140862928 -0.0049515491456375805 0.008844599579042281 -0.020341019149224038 -0.0032883420110858055 -0.043713779226120561 0.025919081745676149 0.04639910100244253 0.067684388953617003 0.039697130273419971 0.025932720611638312 0.034520986046463802 0.0082224638095840033 0.015120810782150027 0.047295324080222551 0.0034751906420844728 -0.0055434200953867674 -0.011530709236163368 0.036474174510092244 0.061776898889811138 0.053013906720949536 0.055370320222803728 0.076020007298548686 0.041379429713244181 -0.029746273426831751 0.068371427017553929 0.019611079571827457 0.026874328164174583 0.029338341465997231 0.044805049305103824 -0.03147503705629099 0.067212885109131232
leaf_weight=12671.531582519412 5723.9979046285152 29558.35408988595 9847.8291786909103 11574.092807427049 24776.03039470315 25440.766072973609 22015.160475865006 177.99048727750778 3881.6622048467398 1526.9295208156109 106.45718781650066 3490.6691942363977 20598.677195355296 95.494361162185669 14170.980306461453 2465.6437957435846 2915.6552233844995 7909.8296973109245 9081.7892745584249 25991.791596099734 794.79887400567532 3604.8797953277826 24952.03839251399 1184.0127309709787 27967.412699013948 33362.290678605437 1022.7964565455914 11985.658437728882 848.56255383789539 11164.224925816059 257.95102106034756 9315.4877355396748 7504.340748667717 11989.150706335902 12997.194074615836 3121.7404614984989 16457.497749239206 29537.63956142962 994.19979460537434 415.93043147027493 29748.778505340219 14386.653261259198 24932.721451386809 14393.039675220847 13261.276192098856 5372.6874202340841 9260.359756231308 9067.0081976652145 893.2607995569706 22000.489256620407 371.35633693635464 6194.8048681467772 5900.8293483704329 662.86650179326534 7974.525299936533 18255.375997528434 2872.8329378068447 2430.4597011059523 1749.3332235664129 32174.549219727516 4070.6171044707298 576.60662269592285
leaf_count=48564 20691 78509 44416 40731 77434 60530 63752 601 11989 4339 352 11877 60824 339 54599 7114 12449 28516 18286 87196 2830 13602 65236 4728 85049 85687 2696 50928 2203 24424 853 37497 27755 53872 51537 15342 53951 82088 2461 1304 96363 44203 91857 50342 36502 20291 37032 38422 2824 54260 1095 15936 12939 2123 37586 42844 10068 8021 5793 91144 19352 1450
internal_value=0.0316885 0.0485482 0.00583927 0.0133108 0.0381265 0.0596285 0.039824 -0.0149464 0.0549269 0.00284495 0.0561275 0.0205388 0.0359293 0.0706775 -0.00742593 0.0166395 0.00777797 -7.03528e-05 0.0736529 0.0156908 0.0490122 0.021693 0.0486058 0.0234484 0.0403117 0.0524364 0.0293311 -0.00479614 0.0294606 0.0697815 -0.0264882 0.00577739 0.00120346 -0.0270293 -0.00852367 -0.0274596 0.0284 0.0497721 0.0431269 0.00231903 0.0289413 0.0299218 0.0109258 0.0200419 0.0524102 0.0112937 0.000329455 -0.0170334 0.0137248 0.0645824 0.0165471 0.0542549 0.0831104 0.0161701 -0.0336766 0.0647677 0.0106076 0.016101 0.0394551 0.042664 -0.0231636 0.0421703
internal_weight=670050 405542 264507 194569 208983 196559 197913 69938.2 137886 79482.8 132821 115086 137108 58672.7 42346.2 79728.6 11070.1 68835.5 51587.6 77263 7085.1 10647.2 60805.1 5065.67 81734.8 92458.3 35357.6 38070.3 55373.4 36605 27592 30765.2 16819.8 27334 24982.9 27156 34334.8 59096 53767.4 13087.5 54524.8 30844.2 36878.2 40384.8 38213.3 13945.4 23431.3 18914.8 7370.97 40362.3 11945.4 6290.3 14982.6 8572.7 11096.3 40255.9 6477.71 8154.46 3276.26 52773.2 16059.8 22591.8
internal_count=2117598 1119320 998278 696203 623579 495741 582418 302075 360457 305141 343740 391062 415478 135284 174469 278335 41161 268515 116179 271221 19105 36626 166940 16717 239478 246284 112727 152333 176000 84954 127606 116182 65252 126753 102465 126152 110031 160597 154429 49868 173797 98154 133683 137538 101738 50930 91631 82838 26494 97456 41826 16275 31225 30639 52928 97104 23670 28712 10132 151968 73224 65202
cat_boundaries=0 1 2 3 4 5 6
cat_threshold=16413 16 39 39 12573 1
is_linear=0
shrinkage=0.05


Tree=7
num_leaves=63
num_cat=3
split_feature=24 23 3 25 23 21 21 3 7 7 23 25 7 24 24 21 21 3 21 24 23 17 25 16 21 7 13 21 23 21 21 21 21 3 16 7 7 13 3 5 21 24 3 7 24 21 24 5 16 7 25 7 21 25 13 16 16 3 16 5 25 25
split_gain=100430 16977.5 15864.9 4107.31 3415.23 3291.36 2851.68 2608.69 2364.76 1667.71 1464.41 1449.61 1299.57 1007.79 947.04 919.532 870.777 807.613 748.936 686.495 565.43 557.68 545.214 515.217 401.608 401.168 392.959 389.481 387.573 365.724 362.374 353.181 330.585 328.983 320.015 317.111 313.249 306.783 297.591 290.751 281.333 275.458 251.424 244.136 239.675 223.405 221.488 219.687 215.762 215.625 207.997 206.666 198.891 190.957 189.892 202.022 183.943 169.342 168.556 165.916 154.836 153.645
threshold=20.500000000000004 0.44642856717109686 1.0000000180025095e-35 1.1380952596664431 0.62500000000000011 6.5000000000000009 14.500000000000002 0.40041443705558782 4.5000000000000009 4.5000000000000009 0.12500000372529033 1.3956521749496462 4.5000000000000009 23.500000000000004 22.500000000000004 4.5000000000000009 11.500000000000002 0.86490574479103099 1.5000000000000002 17.500000000000004 0.33928571641445165 1.0341114997863772 1.4641025662422182 0.068376626819372191 1.5000000000000002 4.5000000000000009 0 2.5000000000000004 0.16071429103612903 3.5000000000000004 19.500000000000004 8.5000000000000018 1.5000000000000002 0.8069821596145631 0.017118472605943683 4.5000000000000009 4.5000000000000009 1 0.57755675911903392 1.0000000180025095e-35 1.5000000000000002 18.500000000000004 0.69202229380607616 4.5000000000000009 5.5000000000000009 3.5000000000000004 26.500000000000004 0.33781032264232641 -0.0025094118900597091 4.5000000000000009 1.3956521749496462 4.5000000000000009 2.5000000000000004 1.414215683937073 2 0.0020476999925449495 1.0000000180025095e-35 0.92194202542305004 0.0038346755318343644 0.33781032264232641 1.1937500238418581 1.3956521749496462
decision_type=2 2 2 2 2 2 2 2 2 2 2 2 2 2 2 2 2 2 2 2 2 2 2 8 2 2 9 2 2 2 2 2 2 2 8 2 2 9 2 2 2 2 2 2 2 2 2 2 10 2 2 2 2 2 9 10 10 2 10 2 2 2
left_child=1 5 6 13 9 8 10 12 11 15 46 19 14 35 52 22 51 29 33 -1 42 24 -3 26 38 34 -16 37 -29 43 -8 45 -28 -13 47 -4 58 -14 -9 -17 57 -20 -10 -6 -19 50 49 -15 -32 56 -11 -7 61 -22 -50 -56 -2 -24 -12 -27 -21 -5
right_child=2 4 3 7 17 16 30 21 20 31 36 18 27 25 23 39 -18 44 41 60 53 -23 40 -25 -26 59 32 28 -30 -31 48 -33 -34 -35 -36 -37 -38 -39 -40 -41 -42 -43 -44 -45 -46 -47 -48 -49 54 -51 -52 -53 -54 -55 55 -57 -58 -59 -60 -61 -62 -63
leaf_value=0.035886073630582466 -0.016298347398052596 0.044524601332163627 0.0076410648748788286 0.018674834059429348 0.061689819918481763 0.014919635157559003 -0.01899575765421074 0.038834804817922078 0.03926333317658845 0.055889179557948913 -0.0013514270102977881 0.043671434341610263 0.036346918641227778 -0.0085844652442709796 -0.00049426453335512852 0.0006508008331929647 -0.013421044839170294 0.085007257028249031 0.037670335515491496 0.021692678812751425 0.045737706170005582 0.074494930348723329 0.054730894566262789 0.052342476035834778 0.02762084931737345 0.0026341539373992535 0.021574484983810455 0.0092143837256513563 0.025193475833292029 0.04002135031883447 0.037760954789585792 -0.0070166396580444157 0.0072268305836499201 0.066049082544989077 0.031873234599438534 0.0197356697046276 0.010559035473388458 0.020583408091293543 0.062345244116037958 0.033262166970022676 0.048869403277447265 0.0295063800308095 0.073460509586904407 0.07118156876909805 0.072186575863185706 0.051019849323141367 -0.024175265731429266 0.0018673798506788687 -0.021681978674421704 -0.0034315160379505675 0.06441888802191563 0.027764948135743109 0.01537543867117536 0.052916363929415539 -0.034674502535770292 0.027890311665842261 0.05118783867156497 0.06848591682177195 0.059448968362980685 0.016248064385268223 0.02767971375923885 0.028221885843644164
leaf_weight=22637.116360098124 11915.803416773677 31227.818019643426 17708.240505903959 10040.529322400689 22537.655385658145 9379.0309987217188 15888.069675832987 4391.3432859033346 24703.693652406335 9629.3410326093435 19137.444012865424 28701.894135609269 9829.0774954408407 18701.721155166626 12594.581573024392 814.3398728966713 2391.3699854463339 6027.118681460619 29614.462949752808 18505.478338316083 16856.260449677706 1110.9334109425545 31115.366605848074 626.2026279270649 5549.4017421454191 8290.3128842264414 5213.9547684490681 5483.0913437157869 12333.94029790163 1596.8524720072746 117.47868722677231 192.10452698171139 17465.366608515382 1743.4772918969393 577.05370154976845 7811.4627250432968 8449.2103907763958 4660.0812098234892 1943.2859012782574 4263.3675866723061 27119.186166748405 15885.17696622014 549.83960109949112 9710.0397236794233 9277.9329498708248 5048.0284729301929 4860.8442138135433 6875.0168117582798 4748.7622802853584 5072.5086777955294 27934.446318045259 4703.5822478532791 20140.507002308965 20637.935611307621 10728.488961994648 130.43813398480415 101.70378810167313 2416.1962801516056 114.5716902166605 3066.1524374485016 25982.763965174556 7271.3952133059502
leaf_count=66763 52009 85465 65349 34124 53496 32627 71607 13065 70679 23959 75249 80129 30055 76573 48310 3065 10200 11813 85624 60759 45663 2712 78439 1835 17411 31492 17683 19891 39209 4513 392 754 64879 4160 1937 26261 30625 15384 4868 12680 71545 49036 1277 21320 20258 13196 22533 26540 22218 20908 64997 14793 69650 52679 52063 428 330 5548 344 10897 82083 23247
internal_value=0.0299125 0.0453448 0.00577927 0.0139932 0.0563656 0.0359789 -0.0125843 0.0194724 0.0377002 0.0523786 -0.00511053 0.0341507 0.0168723 0.00367832 0.0131921 0.0487491 0.0144733 0.0677028 0.0388826 0.0287969 0.0457933 0.0406127 0.0498939 0.00738903 0.0374444 -0.00153643 0.0065907 0.0252282 0.0202764 0.0633913 -0.0243226 0.0605996 0.010521 0.0449533 -0.00494385 0.0113434 0.00253312 0.0313168 0.0460488 0.0280332 0.0526583 0.0348203 0.0400084 0.0645482 0.0772362 0.0609045 -0.0147567 -0.00577482 -0.0297041 -0.0120775 0.0622326 0.0192105 0.0187545 0.0496893 -0.0302124 -0.033891 -0.0157264 0.0557224 -0.000989028 0.00631035 0.0251895 0.0226852
internal_weight=674151 411202 262949 181684 188910 222292 81265.3 118654 205818 139760 49652.1 143070 105659 63030 73352.5 96956.3 16474 49149.6 75945 67125.4 62747.7 12995 91878.6 35900.1 11884 37510.3 35273.9 32306.2 17817 33844.5 31613.2 42803.9 22679.3 30445.4 26153.8 25519.7 27701.2 14489.2 6334.63 5077.71 60650.7 45499.6 25253.5 32247.7 15305.1 42611.8 21950.9 25576.7 15725.2 17090 37563.8 14082.6 37452.4 37494.2 15607.7 10858.9 12017.5 33531.6 19252 11356.5 44488.2 17311.9
internal_count=2117598 1127520 990078 641372 471048 656472 348706 402323 598852 359648 201998 428554 364267 239049 259728 256742 57620 111400 218949 209605 170298 38056 240997 132707 35344 147439 130872 104539 59100 79329 146708 102906 82562 84289 105050 91610 106218 45439 17933 15745 155532 134660 71956 74816 32071 102152 95780 103113 75101 73247 88956 47420 127021 98342 74709 52491 52339 83987 75593 42389 142842 57371
cat_boundaries=0 1 2 3
cat_threshold=2528 28701 8352
is_linear=0
shrinkage=0.05


Tree=8
num_leaves=63
num_cat=10
split_feature=4 21 4 4 21 7 21 4 21 4 21 7 4 5 21 19 4 7 4 5 21 19 7 21 4 21 7 19 17 16 17 21 13 7 13 7 17 21 16 22 19 21 4 17 7 4 19 21 23 17 17 4 18 17 19 15 11 13 8 7 25 21
split_gain=92560.7 15265.9 12923.2 6498.61 3796.18 2532.33 2297.66 1765.46 1742.42 1684.12 1655.79 1276.38 1125.8 1077.19 982.813 935.182 796.744 767.254 654.954 604.757 523.202 453.543 451.391 426.074 394.965 303.357 298.584 288.301 287.663 268.133 262.062 258.277 246.375 229.476 227.333 224.871 215.418 209.669 209.008 199.654 194.627 193.598 187.784 176.652 172.894 171.065 169.418 166.153 166.11 160.465 158.961 158.845 158.242 172.715 154.836 150.252 145.417 327.973 467.857 168.582 143.704 138.696
threshold=0.23755506426095965 9.5000000000000018 0.45781700313091284 0.14908103644847873 6.5000000000000009 4.5000000000000009 2.5000000000000004 0.66372266411781322 2.5000000000000004 0.32394175231456762 16.500000000000004 4.5000000000000009 0.090175997465848937 0.23336254805326465 10.500000000000002 0 0.090175997465848937 4.5000000000000009 0.35105699300765997 0.36707685887813574 4.5000000000000009 1 3.5000000000000004 1.5000000000000002 0.96263203024864208 4.5000000000000009 4.5000000000000009 2 0.94806605577468883 0.0020476999925449495 1.0501966476440432 4.5000000000000009 3 3.5000000000000004 4 4.5000000000000009 1.0556191802024844 1.5000000000000002 -1.0000000180025095e-35 4.5000000000000009 5 2.5000000000000004 0.55080026388168346 1.060838580131531 3.5000000000000004 0.18804455548524859 6 14.500000000000002 0.053571430966258056 0.94806605577468883 1.0301992893218996 0.053495218977332122 7 1.0514129996299746 8 1.7749999761581423 23.500000000000004 9 11.500000000000002 2.5000000000000004 1.9574275612831118 11.500000000000002
decision_type=2 2 2 2 2 2 2 2 2 2 2 2 2 2 2 1 2 2 2 2 2 1 2 2 2 2 2 1 2 10 2 2 9 2 9 2 2 2 10 2 1 2 2 2 2 2 1 2 2 2 2 2 1 2 1 2 2 9 2 2 2 2
left_child=1 3 4 8 5 9 7 17 15 27 16 20 33 -8 54 19 51 42 37 52 21 30 -14 -11 35 34 -17 41 -15 32 -5 44 38 43 -13 55 60 -7 -12 49 -18 50 -4 -10 -30 -23 -39 -16 -34 -25 -2 -3 -1 -54 -6 -9 -51 58 59 -58 -21 -42
right_child=2 10 6 11 14 18 13 24 12 23 29 25 22 28 47 26 40 -19 -20 36 -22 45 -24 39 -26 -27 -28 -29 31 -31 -32 -33 48 -35 -36 -37 -38 46 -40 -41 61 -43 -44 -45 -46 -47 -48 -49 -50 56 -52 -53 53 -55 -56 -57 57 -59 -60 -61 -62 -63
leaf_value=0.020647704864292099 0.035062842723541786 -0.021064324954799506 0.049568509730736988 0.024506308582125436 0.029313872241465505 0.046800942433961178 -0.0059749797233101566 0.05337898839741393 -0.012496959159882789 0.043515247591491724 0.034062945295557936 0.035236082839576154 6.1306200225060123e-05 -0.010911633863073259 -0.0036327667637049278 0.0036441555414813559 0.0058553829680417051 0.062575874458758521 0.052214776614584929 0.026717714712913562 0.010554590744068644 0.012595300519932864 0.010606619523208495 -0.002680648185715547 0.079161776451665333 0.021676317689563698 0.014700720685583021 0.026280855775945123 0.043414591173140338 0.028619079350354834 0.05527117492053929 0.034579648550757812 -0.0287625781730553 -0.0030300465290092156 0.024810840476469365 0.07289591945649336 0.065650594755674183 0.02100474460865679 -0.03569577219164647 0.017523538809781757 0.00044727134712849631 0.027968821284198437 0.055439977098891979 0.030247374466841011 0.05308476845953293 0.019509815137236965 0.040517371240734484 -0.028145524179484113 -0.018732873830578478 0.038993020634303294 0.060836880813841088 -0.011510227008780502 0.0029680695239791364 0.0445503143880066 0.016322675971182182 0.065054948384246566 0.055519857603960165 0.034555365004426221 -0.082677588517358694 -0.0060828956160541934 0.044192414086279171 -0.0094693941991018885
leaf_weight=3730.8502525389194 20137.881847932935 9356.6211758255959 32901.11743709445 22516.685142278671 3222.3381884992123 16958.621575519443 1097.9374412298203 3349.3918129354715 16317.416281834245 42385.373762667179 109.03400754928589 17353.284309342504 22429.763385817409 230.13646200299263 2444.698486879468 19410.631620317698 5643.4852129220963 24715.786988094449 31030.076631933451 4095.1548696607351 19594.612397700548 15969.183288246393 18533.756458595395 250.03302212059498 7196.1882919222116 9900.6415448188782 8909.7669122219086 35103.990533232689 10083.34070007503 224.76537992060184 714.41684155166149 4565.4776535183191 7176.4251599907875 13223.284646511078 7872.4433250576258 8251.0508119761944 510.41522669792175 1253.3962649405003 6489.7668123394251 1316.5600340813398 6295.5779581516981 12597.078731298447 23301.082630544901 245.18889564275742 8560.0934922099113 20356.342878505588 22300.806037187576 964.1063149869442 9734.3010509908199 37885.421744570136 617.21993221342564 8138.3149081319571 3401.2898641526699 269.45009933412075 8491.9804275482893 15775.725138425827 199.25243797898293 11791.878391444683 142.67573046684265 250.42571337521076 1653.3066687881947 8011.750609010458
leaf_count=12719 58988 43175 83831 72486 10219 44675 4283 7980 69578 114339 362 51244 86827 797 9866 73397 21910 56243 77147 12905 69379 56028 66643 836 14288 31753 30939 108321 26694 734 1917 13101 35098 53085 24532 17323 1272 3723 32182 4042 24487 38790 56382 891 21142 67311 61095 4449 44739 106403 1588 35110 12511 794 28294 35312 523 33726 597 832 4792 32969
internal_value=0.0282673 0.00678627 0.0441661 0.0127605 0.0373398 0.0389075 0.0563215 0.0592739 0.00424274 0.0354595 -0.0153808 0.0211628 -0.000545598 0.0424251 0.0130599 0.0123125 -0.00883184 0.0552325 0.0467474 0.0230542 0.0176424 0.0199742 0.00483262 0.0397961 0.0687324 0.0290952 0.00712032 0.0294907 0.0446925 -0.0257128 0.0254419 0.0452441 -0.0262325 -0.00794224 0.0320067 0.0659905 0.034512 0.0425596 -0.0344896 0.0367548 -0.00200179 0.0328511 0.052003 -0.0118637 0.0478552 0.0164658 0.0395055 -0.0105678 -0.022976 0.0372558 0.0358298 -0.0166203 0.0133955 0.0060229 0.0199359 0.0630107 0.0374546 0.0327475 -0.00375175 0.0212084 0.0317451 -0.00510193
internal_weight=677559 288188 389371 227008 249344 234221 140027 115490 112730 162678 61180 114278 70749.4 24537 15123.1 41980.9 37445.7 80918 71542.9 13660.5 79151.2 59556.6 40963.5 94221.6 34572.4 35126.4 28320.4 68456.2 23439 23734.3 23231.1 23208.9 23509.5 29785.9 25225.7 27376.2 6258.88 40512.8 6598.8 51836.2 19950.8 33352.2 56202.2 16562.6 18643.4 36325.5 23554.2 3408.8 16910.7 50519.7 20755.1 17494.9 7401.59 3670.74 11714.3 19125.1 50269.7 12384.2 592.354 449.678 5748.46 14307.3
internal_count=2117598 1071769 1045829 801003 708453 655625 337376 271359 426353 468985 270766 374650 277024 66017 52828 149329 157651 196456 186640 44993 267121 197742 153470 261298 74903 107529 104336 207687 61734 113115 74403 60937 112381 123554 75776 60615 18969 109493 32544 146959 79366 99366 140213 70469 47836 123339 64818 14315 79837 142917 60576 78285 26024 13305 38513 43292 142081 35678 1952 1355 17697 57456
cat_boundaries=0 1 2 3 4 5 6 7 8 9 10
cat_threshold=39 39 39 2127 12301 40 16 1 40 2147
is_linear=0
shrinkage=0.05


Tree=9
num_leaves=63
num_cat=10
split_feature=4 4 26 4 4 26 7 26 3 26 7 7 4 26 4 3 7 23 16 4 4 20 26 26 26 4 26 3 23 7 3 3 16 19 16 20 26 26 26 3 26 19 18 7 17 3 7 3 19 26 19 26 4 20 4 26 4 22 19 22 17 18
split_gain=82678.8 13698.4 12108.3 4684.85 3151.5 3072.57 2011.34 1551.11 1474.2 1466.31 1259.77 1140.54 1132.95 1128.49 707.714 689.255 628.511 602.025 498.957 494.327 465.505 463.897 435.784 435.693 419.355 373.138 346.689 338.749 328.541 312.34 306.231 304.062 244.481 228.671 221.654 248.948 213.735 203.682 200.05 199.871 192.874 192.368 288.121 184.013 178.778 174.186 169.126 167.643 167.535 167.004 164.983 160.53 159.936 157.522 147.016 142.904 142.055 139.34 137.711 137.569 136.132 134.326
threshold=0.22307416796684268 0.39400099217891699 8.5000000000000018 0.12432577461004259 0.60581919550895702 7.5000000000000009 4.5000000000000009 4.5000000000000009 0.24294267594814303 15.500000000000002 4.5000000000000009 4.5000000000000009 0.28706558048725134 2.5000000000000004 0.090175997465848937 0.49730309844017034 4.5000000000000009 0.76785713434219371 0.017118472605943683 0.18310468643903735 0.27258467674255377 0 11.500000000000002 2.5000000000000004 9.5000000000000018 0.50141057372093212 3.5000000000000004 0.40041443705558782 0.089285716414451613 4.5000000000000009 0.65352252125740062 0.12798282131552699 0.0020476999925449495 1 -0.0025094118900597091 2 3.5000000000000004 1.0000000180025095e-35 1.5000000000000002 0.8069821596145631 1.0000000180025095e-35 3 4 3.5000000000000004 0.91238415241241466 1.1443359255790713 4.5000000000000009 0.30547615885734564 5 1.0000000180025095e-35 6 1.0000000180025095e-35 0.18310468643903735 7 0.053495218977332122 2.5000000000000004 0.083937149494886412 6.5000000000000009 8 3.5000000000000004 1.0270948410034182 9
decision_type=2 2 2 2 2 2 2 2 2 2 2 2 2 2 2 2 2 2 8 2 2 1 2 2 2 2 2 2 2 2 2 2 10 1 10 1 2 2 2 2 2 1 1 2 2 2 2 2 1 2 1 2 2 1 2 2 2 2 1 2 2 1
left_child=2 5 3 8 7 6 12 10 16 14 25 15 30 17 54 19 18 29 26 37 -8 -10 -7 39 58 40 53 33 -28 51 36 -15 34 -13 -11 -36 50 -5 -22 48 -3 42 -18 -16 -12 -19 -37 -23 -14 -46 -2 -6 -35 -1 -4 -21 -43 -51 -9 -42 -44 -55
right_child=1 4 9 11 13 22 20 24 21 32 44 27 23 31 43 -17 41 45 -20 55 38 47 -24 -25 -26 -27 28 -29 -30 -31 -32 -33 -34 52 35 46 -38 -39 -40 -41 59 56 60 -45 49 -47 -48 -49 -50 57 -52 -53 -54 61 -56 -57 -58 -59 -60 -61 -62 -63
leaf_value=-0.0056174468747142541 0.028567583248950215 0.044478963199462283 -0.02021767657967594 0.015677068748615866 0.058710782278808105 0.0082591599865204247 0.034012640092056665 0.046001828137628306 0.034231225901297548 0.033083052621970886 -0.0086974934226331287 0.012809193270782749 0.038138144686532177 -0.010831993538043608 -0.0063640839982425411 0.039465925309590956 0.026985166098490328 0.067742094767908739 0.032821362671613417 0.019599655013127118 0.04583262375533248 0.0072542732608677669 -0.018338811553606973 0.026270287621170431 -0.021365506711632089 0.048123649909797964 -0.017855925367054326 0.041824466299471758 -0.0049244615272328032 0.065579395200940124 0.053751296632711845 0.035990652788298473 0.026943248701683166 0.021273920981684555 -0.034506612386631726 -0.025728012087525384 0.017180258062758649 0.0075577163555762931 0.038812637352120143 0.059057773407185925 0.039821251709123352 -0.0010459510775517272 5.6464180433292541e-05 0.0035547473456838982 0.057253744356140182 0.081048093530584397 -0.01472046360472011 0.024069357489115199 0.03285495147571544 0.051363563114626837 0.022543286941921915 0.050763802919478775 0.028627235275193005 0.0062530000915432364 -0.010992115856348007 0.013143685369719549 0.0079781737758777109 0.0098867114389884422 0.020757520351403786 0.026867095608718208 0.039584668933882218 -0.0024977342813887827
leaf_weight=10894.143208131194 21526.695735916495 31025.293161779642 9263.4504870176315 9986.7128602713346 19733.624878942966 5662.9739320129156 19517.408524960279 638.82683806121349 3401.7049846947193 161.77894674241543 111.92150363326073 4831.0369007885456 25930.270532146096 405.04547734558582 10472.131007149816 2531.3164304941893 2461.6797025352716 7764.0352313369513 909.47234262526035 23424.757382959127 28079.517939731479 5344.9461691975594 2115.0318955481052 17013.46187479794 561.69331596791744 35513.956372156739 7374.9649801105261 2567.0480318516493 14710.748188763857 12579.272233307362 872.81778560578823 2400.1253873407841 226.76111683249474 16148.629636049271 5866.2073799818754 12135.266692280769 9793.3729896396399 34122.682560041547 15923.248462870717 868.85318051278591 28690.671790719032 8500.7024516761303 2527.1853593140841 8447.2708391845226 24176.23911704123 3614.884046420455 4902.3718500733376 2051.8697311878204 41039.175297901034 17860.936128273606 25732.056133940816 9403.071067288518 13660.346986427903 9099.211609467864 8096.9048856496811 13530.047446727753 8953.0740705430508 205.16833007335663 4036.1401621550322 2210.7629906386137 238.28449441492558 8464.1323460191488
leaf_count=43682 64992 80263 43175 34205 44974 20531 55407 1802 10299 534 362 16043 72211 1559 42832 7114 8371 16381 2945 76787 71923 19613 9430 51457 2472 88721 32512 7130 59611 27076 2203 6624 734 52109 29645 58535 32233 123754 43104 2073 77321 33091 9538 32561 55868 6897 22992 6714 117038 43115 80977 22680 41106 34533 35110 46700 32301 594 12705 6327 765 33237
internal_value=0.0267402 0.0406769 0.0049397 0.0106876 0.0500533 0.0318761 0.0330392 0.0461655 0.00168907 -0.0149107 0.0471663 0.017014 0.029746 0.06014 -0.00862499 0.0137727 -0.000825 0.061773 -0.0038817 0.0129703 0.0404413 0.0189489 0.00102573 0.0334262 0.0194469 0.0440366 -0.0045423 0.0242965 -0.00924288 0.0589912 0.0243549 0.0292279 -0.0247008 0.0229973 -0.0252089 -0.025621 0.023905 0.00939615 0.0432925 0.0352207 0.0416926 0.00610903 0.0145154 -0.00193519 0.0543664 0.0719703 -0.0225611 0.0119197 0.0349113 0.0545336 0.0252984 0.0561465 0.0246357 -0.000894005 -0.0159152 0.0172361 0.00358074 0.0508929 0.0243519 0.0388947 0.0034655 0.00203557
internal_weight=680313 415007 265307 205735 200932 214075 206297 145032 84932.1 59572.1 139795 120803 142777 55900.1 36279.8 83595.5 74133.6 53094.9 51452.7 81064.2 63520.2 10798.5 7778.01 84851.8 5236.66 97440.7 50543.2 37207.1 22085.7 41716 57924.9 2805.17 23292.4 34640 23065.6 22903.8 57052.1 44109.4 44002.8 67838.3 61926.7 22680.9 5227.15 18919.4 42354.3 11378.9 17037.6 7396.82 66969.4 42242.3 47258.8 29136.7 29809 28457.5 17360.4 36954.8 17453.8 18066.1 4674.97 30901.4 2765.47 17563.3
internal_count=2117598 1119320 998278 732160 495741 623579 593618 369550 327212 266118 352571 404948 423184 126191 153678 288560 290586 118008 206520 281446 170434 36626 29961 242779 16979 252632 203575 116388 92123 94730 180405 8183 112440 109258 111706 111172 178202 157959 115027 191322 163911 84066 18674 75393 99939 23278 81527 26327 189249 99577 145969 67654 93215 111452 78285 123487 65392 43709 14507 83648 10303 67770
cat_boundaries=0 1 2 3 4 5 6 7 8 9 10
cat_threshold=1 17 1 38 1 37 39 2 8 1
is_linear=0
shrinkage=0.05


Tree=10
num_leaves=63
num_cat=10
split_feature=4 21 4 4 21 24 21 7 4 21 7 4 21 21 21 4 7 5 19 7 4 3 3 19 24 3 7 3 21 4 21 21 21 19 21 19 3 21 7 3 17 7 7 13 9 17 19 7 21 2 7 7 17 17 19 19 19 19 21 21 17 17
split_gain=73205.4 13804.6 9477.41 5488.32 2611.81 2029.51 1857.58 1730.86 1639.16 1502.48 1151.94 1036.92 991.68 970.22 840.998 787.745 766.939 753.136 516.326 514.406 441.928 414.407 354.225 329.635 326.821 310.607 292.181 289.81 281.991 260.972 248.543 232.601 231.384 229.906 227.351 218.4 213.264 209.006 199.379 183.589 169.94 169.742 167.72 183.656 182.642 160.941 158.993 158.876 153.968 147.703 143.538 141.726 183.856 139.766 138.435 133.445 132.769 128.83 125.505 124.411 119.121 118.317
threshold=0.25180554389953619 8.5000000000000018 0.45781700313091284 0.14908103644847873 5.5000000000000009 25.500000000000004 2.5000000000000004 4.5000000000000009 0.71303147077560436 1.5000000000000002 3.5000000000000004 0.3403813391923905 6.5000000000000009 9.5000000000000018 13.500000000000002 0.076369039714336409 4.5000000000000009 0.40032443404197698 0 3.5000000000000004 0.35476483404636389 0.57755675911903392 0.17749333381652835 1 23.500000000000004 0.48822747170925146 4.5000000000000009 1.2853417396545412 4.5000000000000009 0.56104457378387462 1.5000000000000002 23.500000000000004 19.500000000000004 2 2.5000000000000004 3 0.8746294677257539 14.500000000000002 3.5000000000000004 0.90948817133903515 0.96909040212631237 3.5000000000000004 1.0000000180025095e-35 4 47.500000000000007 0.93583726882934581 5 4.5000000000000009 1.5000000000000002 1.0000000180025095e-35 4.5000000000000009 4.5000000000000009 1.0096696019172671 1.0566480755805971 6 7 8 9 4.5000000000000009 8.5000000000000018 0.8915190100669862 0.93954041600227367
decision_type=2 2 2 2 2 2 2 2 2 2 2 2 2 2 2 2 2 2 1 2 2 2 2 1 2 2 2 2 2 2 2 2 2 1 2 1 2 2 2 2 2 2 2 9 2 2 1 2 2 10 2 2 2 2 1 1 1 1 2 2 2 2
left_child=1 3 4 9 7 14 8 11 16 17 18 36 38 26 24 22 29 35 25 46 55 28 40 53 50 42 -6 47 33 -4 39 51 56 -12 -20 -1 48 -15 58 -13 -11 -42 -5 44 -44 -32 -17 -10 -2 57 -3 52 -7 -19 -24 -9 -16 -21 -8 -14 -22 -40
right_child=2 5 6 10 13 31 12 20 27 15 21 30 59 37 32 19 -18 23 34 49 60 -23 54 -25 -26 -27 -28 -29 -30 -31 45 -33 -34 -35 -36 -37 -38 -39 61 -41 41 -43 43 -45 -46 -47 -48 -49 -50 -51 -52 -53 -54 -55 -56 -57 -58 -59 -60 -61 -62 -63
leaf_value=0.018895027047859843 0.030835777943648029 0.0021601247252340909 0.044103533361398217 0.026167604841140127 0.017034145432940181 -0.023155767557609418 0.03847169733370806 0.043519314868337551 0.059415203458206223 -0.032556867858146328 0.031671137293734629 0.039011604237258579 0.012653808082768048 -2.1924704616124502e-06 -0.0017202343166320599 0.006223390624845687 0.056887348089954694 0.037678181329235422 0.015840562300626145 0.00073217967406713567 -0.021148794724813166 0.054655567880709591 0.018828805936490927 0.019063812618167805 -0.0056651112589392854 0.039869006283900638 0.031041061252256114 0.077858067314288959 0.018715969143868621 0.050609434414180733 -0.013369771566135662 -0.030701604134417165 -0.025693040226913395 0.023867230373659069 0.0086396845136011546 0.0063886485921758208 0.069818989380155017 -0.02935486152172169 -0.00949295526029721 0.070234356156724131 -0.011153034458112283 -0.0023700495812599971 0.014300234272353343 0.017832791270575635 -0.053109810977325582 0.034059103171159281 -0.0017115429781422839 0.068656395910593082 0.025881138415818308 0.020236981044235755 0.013116971909328409 -0.013665916608220344 0.015105141021428646 0.071243853772061133 0.0010321813795101697 0.03638508606770257 -0.014208248030361144 0.010702622715411053 0.024140067351240746 -0.01452966088966532 0.04705055703837821 0.046134682661431885
leaf_weight=4933.7552426606417 25792.336788654327 10355.319640532136 35980.007763937116 6952.6830048114061 10204.057670667768 15670.053345099092 10234.22476413846 10264.925401389599 15595.09894451499 682.4769127368927 14818.739722937346 37386.965462073684 1050.8081752359867 3143.5700210481882 2859.9360578507185 8931.4678148627281 27628.845498710871 2940.5268394947052 22097.14964479208 4003.4144380539656 64.010122254490852 1161.7160412371159 1580.7896081358194 3644.563791975379 12641.79312042892 2007.6799758523703 5865.2350963354111 3402.7635259479284 15502.451008453965 27016.729587644339 179.40468314290047 6321.8615259677172 3555.9530595391989 27830.091164663434 21761.497353687882 12026.03850632906 303.77342237532139 751.4317829310894 96.252124279737473 477.29212345182896 12305.425279319286 9951.5044015645981 220.50389264523983 19540.299913212657 184.33687604963779 43332.638036459684 21464.524923920631 6651.3937373161316 40087.437622770667 3276.5048377811909 4202.7785693258047 6575.0209012329578 320.18078742921352 347.24526795744896 3509.8946297466755 23494.737910434604 8478.7928805351257 17255.415769398212 1798.8446243107319 701.95523463189602 30135.800785079598 10907.644158065319
leaf_count=16514 74129 40123 90556 21912 32945 75136 26778 26494 34282 3024 43480 99145 3483 12200 12174 32972 62149 8466 73067 14766 214 2862 5639 12358 51971 5514 16760 6563 49755 64067 612 32060 17377 85868 75446 44207 671 3565 326 1053 52438 39711 726 63506 750 119932 83445 13693 119728 11196 14985 30394 1236 793 13802 62740 37722 61107 5273 2903 73863 27097
internal_value=0.025298 0.00734346 0.0402339 0.0130952 0.0340084 -0.0120174 0.0504499 0.03564 0.0530993 0.00467008 0.0199113 0.032662 0.0380225 0.0167204 -0.00501346 0.00148823 0.0499406 0.0157183 0.0156952 0.00496866 0.0425104 0.0250834 -0.00533227 0.0296037 0.000216188 0.0208881 0.0221471 0.0642593 0.0244924 0.0468938 0.0364422 -0.0222234 -0.0145638 0.026592 0.012265 0.0100422 0.028014 -0.00566686 0.040781 0.0394055 -0.00798022 -0.00722624 0.0194788 0.0171468 -0.015992 0.0338634 0.000621367 0.0621787 0.027821 0.0103541 0.00532367 -0.0198478 -0.0223892 0.0411019 0.00659875 0.0385783 -0.011073 0.00883064 0.0363299 0.00176418 0.0469058 0.0456476
internal_weight=682461 309912 372548 238931 231484 70981.7 141065 211519 116275 106854 132077 147560 24789.7 19964.3 42094.6 82961.4 90625.6 23892.1 72764.2 54931.3 63959.5 59313 28030.1 6932.34 27199.9 28905.5 16069.3 25649.3 58151.3 62996.7 81376.3 28887.1 14894.7 42648.8 43858.6 16959.8 66183.5 3895 23037 37864.3 22939.4 22256.9 26897.8 19945.1 404.841 43512 30396 22246.5 65879.8 24535.3 14558.1 22565.3 15990.2 3287.77 5090.68 33759.7 11338.7 21258.8 12033.1 1752.76 30199.8 11003.9
internal_count=2117723 1136502 981221 823324 644051 313178 337170 578581 271310 400438 422886 415270 65860 65470 174352 318100 216772 82338 240921 203486 163311 181965 114614 21617 107079 92408 49705 54538 179103 154623 220742 138826 67273 129348 148513 60721 194528 15765 59474 100198 95173 92149 86894 64982 1476 120544 116417 47975 193857 87069 55108 106766 76372 9259 19441 89234 49896 75873 32051 6386 74077 27423
cat_boundaries=0 1 2 3 4 5 6 7 8 9 10
cat_threshold=39 39 38 39 2050 39 39 36 40 17
is_linear=0
shrinkage=0.05


Tree=11
num_leaves=63
num_cat=7
split_feature=4 3 4 4 21 24 6 7 21 4 3 7 4 21 21 7 3 7 4 4 23 19 21 19 7 7 24 21 21 21 3 17 21 25 4 19 7 4 21 6 3 19 21 3 22 3 19 4 6 17 14 17 21 17 18 3 4 19 17 17 2 7
split_gain=65693 11773.3 9518.04 3891.82 2461.83 2371.49 1728.33 1681.61 1247.99 1169.33 1108.49 1104.22 988.234 928.613 874.19 671.167 661.161 612.9 506.462 500.843 434.801 376.647 319.503 311.028 298.166 268.695 255.985 239.721 235.625 223.986 219.584 218.721 211.565 203.47 196.403 194.571 192.644 183.558 176.455 169.634 169.197 166.225 162.732 162.697 161.234 157.377 153.917 151.624 150.46 159.798 146.403 143.928 142.691 141.823 134.685 129.347 121.989 120.082 119.252 117.2 114.219 113.362
threshold=0.24546945095062259 1.0000000180025095e-35 0.45781700313091284 0.12432577461004259 5.5000000000000009 25.500000000000004 2.5000000000000004 4.5000000000000009 5.5000000000000009 0.3403813391923905 0.30547615885734564 4.5000000000000009 0.74925592541694652 13.500000000000002 10.500000000000002 3.5000000000000004 0.49730309844017034 4.5000000000000009 0.17356365174055102 0.33000957965850836 0.16071429103612903 0 1.5000000000000002 1 4.5000000000000009 4.5000000000000009 11.500000000000002 8.5000000000000018 23.500000000000004 1.5000000000000002 0.75254356861114513 0.9572732448577882 19.500000000000004 1.9574275612831118 0.27258467674255377 2 4.5000000000000009 0.19831891357898715 2.5000000000000004 1.0000000180025095e-35 0.82713115215301525 3 1.5000000000000002 0.40041443705558782 7.5000000000000009 0.12798282131552699 4 0.031995705328881748 5.5000000000000009 0.96091267466545116 1.0000000180025095e-35 0.93583726882934581 14.500000000000002 1.0417852401733401 5 0.49730309844017034 0.58062031865119945 6 0.86838769912719738 0.94806605577468883 1.0000000180025095e-35 4.5000000000000009
decision_type=2 2 2 2 2 2 2 2 2 2 2 2 2 2 2 2 2 2 2 2 2 1 2 1 2 2 2 2 2 2 2 2 2 2 2 1 2 2 2 2 2 1 2 2 2 2 1 2 2 2 2 2 2 2 1 2 2 1 2 2 10 2
left_child=1 5 4 10 7 13 12 9 17 30 15 16 24 20 25 21 18 26 41 46 61 45 33 43 56 -6 -8 -10 47 40 34 -19 57 -17 -2 50 -22 55 -23 -14 -11 53 -12 54 59 -3 -9 -7 -24 -50 -20 -31 -16 -5 -13 60 -4 -15 -21 -28 -25 -1
right_child=2 3 6 11 14 28 8 19 27 29 42 23 39 32 52 22 -18 31 35 58 36 38 48 37 -26 -27 44 -29 -30 51 -32 -33 -34 -35 -36 -37 -38 -39 -40 -41 -42 -43 -44 -45 -46 -47 -48 -49 49 -51 -52 -53 -54 -55 -56 -57 -58 -59 -60 -61 -62 -63
leaf_value=-0.0077941538987730333 0.021578336938866495 -0.00023986371318499814 0.04442709359788316 0.012702995224384436 0.015223587600004486 -0.023991625124545009 0.046186892397490409 0.039038446342669654 0.019412554176257181 0.036700243968633299 0.040519012267558226 0.032318227438192924 0.072513904897392942 -0.0016735139976882811 -0.0025357764370019437 0.013812632984409715 0.035191976287581535 -0.0083690957388646969 0.017127273387027547 -0.02589262744539271 0.0026910470764303796 -0.00081234529289091943 0.011004851098605523 0.015282173713616396 0.056530019742337713 0.027604850960948668 -0.0038000468437181228 -0.013886554459470138 -0.029650248035512007 -0.012739232580332627 0.052568689231024202 0.051429925591592852 -0.024684353934641134 0.044160383942305419 0.027196080433645221 0.013998656639069035 0.013418634821735964 0.025845180324729052 -0.0089513374638926779 0.061356554566443636 0.057895597814158144 0.0064248473854707049 0.01931939776876182 0.044387995660358129 0.015981629504995223 0.011850521584602949 0.031515096694084505 -0.015778879285684468 -0.03081921703156076 0.0027365108082422589 0.025567486190715111 0.032175526935045544 -0.026800121547573927 0.04356166231741504 0.021932407651443851 0.048371248141245049 0.050752977914035394 -0.013610330937718344 0.043586222882941505 0.039588433006686685 0.026445472414030936 0.0013159124309583031
leaf_weight=11451.227404788136 22209.558074384928 5969.5715893059969 15519.417625710368 11263.393353506923 12269.088068440557 8803.1608315259218 18219.564496874809 12778.988033428788 2393.6047815680504 37091.168723702431 1838.0765744149685 7473.9628428816795 4749.6544426232576 2838.6578390151262 2225.5460715293884 6639.2586790621281 3645.4906744062901 153.75062382221222 15279.432662472129 61.707624882459641 13799.796529039741 10952.010209456086 6358.5467348992825 14442.793703317642 13232.76436252892 6820.1148312240839 156.10861288011074 697.85240329802036 6221.3286465704441 178.8886751383543 758.12534849345684 23325.502089262009 3497.5586616545916 602.57680444419384 52065.05488024652 34713.784977003932 6007.5029736459255 11249.298136219382 16995.973244547844 12154.783157557249 967.18825995922089 24075.849947318435 1786.8433549255133 1713.1348917931318 751.99156880378723 4900.2266798913479 16646.481807217002 15566.751476839185 361.8927935063839 17797.304859876633 7748.2779937386513 43569.524968326092 832.76255185902119 385.13775904476643 5370.1170181930065 336.30206571519375 15042.37193159759 8329.6794929653406 38407.294197052717 34892.097183257341 2725.594638556242 4864.5187810063362
leaf_count=47971 67882 23445 38259 38534 39923 43468 43833 33427 7369 97968 5178 21661 9356 12092 9003 22943 10159 486 49044 210 52747 42361 22808 46428 29277 19674 488 2903 32060 612 1820 53552 17314 1742 151005 115296 20873 33048 70596 25865 2230 87162 5818 4477 2113 17403 45230 72386 1541 67592 24098 119932 3993 1085 16233 864 34876 37295 94675 88793 8385 18862
internal_value=0.0239701 0.0062279 0.0374997 0.0123682 0.0315766 -0.0099659 0.0478493 0.033144 0.0430496 0.0302982 0.00310587 0.0172626 0.0542218 -0.00334155 0.0156713 0.00172079 0.0143014 0.0442923 0.0134865 0.039718 0.000966223 -0.00268948 0.00711134 0.0239019 0.0502573 0.0196475 0.0413601 0.0118939 -0.0209637 0.0344331 0.0257898 0.0510381 -0.0139521 0.0163391 0.0255164 0.0163816 0.005945 0.0208535 -0.00576003 0.0644922 0.0372392 0.00880685 0.0300712 0.029888 0.0389034 0.00520543 0.0348066 -0.0187459 0.00438548 0.00206734 0.0199589 0.0319917 -0.00914513 0.0137123 0.0279765 0.0176571 0.047541 -0.0105905 0.0434746 0.039395 0.0170549 -0.0050777
internal_weight=684176 296005 388171 214625 246881 81380.2 141289 224734 80590.5 156840 74202.3 140423 60699 50788.9 22147.5 70577.4 97111.4 77499 93465.9 67894.5 36123 38817.8 31759.6 43311.2 43794.6 19089.2 54019.8 3091.46 30591.2 81806.8 75032.7 23479.3 14665.9 7241.84 74274.6 57741.5 19807.3 28754 27948 16904.4 38058.4 35724.4 3624.92 14557.2 35800.2 10869.8 29425.5 24369.9 24517.7 18159.2 23027.7 43748.4 3058.31 11648.5 12844.1 17504.7 30561.8 11168.3 38469 35048.2 17168.4 16315.7
internal_count=2117723 1092969 1024754 737901 687584 355068 337170 614991 199537 441449 281427 456474 137633 207154 72593 270431 325378 189265 315219 173542 140453 153805 116626 131096 102412 59597 135227 10272 147914 220742 220707 54038 66701 24685 218887 188438 73620 88725 112957 35221 100198 126781 10996 42371 91394 40848 78657 115854 91941 69133 73142 120544 12996 39619 37894 55677 73135 49387 94885 89281 54813 66833
cat_boundaries=0 1 2 3 4 5 6 7
cat_threshold=39 38 39 39 38 1 40
is_linear=0
shrinkage=0.05


Tree=12
num_leaves=63
num_cat=12
split_feature=4 21 4 4 21 7 21 21 23 4 4 7 21 5 21 7 4 21 21 4 19 21 7 13 21 16 24 19 13 7 21 4 16 13 13 18 15 7 21 17 5 25 17 17 16 19 19 7 13 21 21 17 17 17 17 18 17 4 7 13 8 21
split_gain=59033.2 11243.9 7968.11 4797.26 2300.13 1619.84 1499.95 1360.83 1265.3 1238.25 1082.58 1050.35 758.118 752.72 636.475 596.087 577.149 527.701 526.557 481.401 455.133 340.889 315.471 290.084 286.774 272.485 231.838 217.668 211.894 210.921 201.409 201.233 200.947 209.509 198.301 185.269 182.869 172.218 167.065 162.135 158.597 153.752 152.625 151.317 151.136 150.668 149.193 146.862 143.695 139.329 138.643 138.572 137.593 137.292 136.191 153.063 138.711 134.091 121.809 245.026 389.613 121.052
threshold=0.25180554389953619 9.5000000000000018 0.48274765908718115 0.13898614048957827 6.5000000000000009 4.5000000000000009 2.5000000000000004 2.5000000000000004 0.089285716414451613 0.73800858855247509 0.3403813391923905 3.5000000000000004 6.5000000000000009 0.36707685887813574 11.500000000000002 4.5000000000000009 0.076369039714336409 2.5000000000000004 15.500000000000002 0.35476483404636389 0 1.5000000000000002 3.5000000000000004 1 1.5000000000000002 1.0000000180025095e-35 3.5000000000000004 2 3 3.5000000000000004 2.5000000000000004 0.18804455548524859 -1.0000000180025095e-35 4 5 6 2.7000000476837163 3.5000000000000004 24.500000000000004 0.94806605577468883 0.82901987433433544 1.5638586878776553 0.99789008498191845 1.044247627258301 -0.067049305886030183 7 8 3.5000000000000004 9 1.5000000000000002 21.500000000000004 1.0548181533813479 0.93583726882934581 1.0308337807655337 1.0679888725280764 10 0.99069091677665722 0.044373333454132087 1.0000000180025095e-35 11 11.500000000000002 1.5000000000000002
decision_type=2 2 2 2 2 2 2 2 2 2 2 2 2 2 2 2 2 2 2 2 1 2 2 9 2 10 2 1 9 2 2 2 10 9 9 1 2 2 2 2 2 2 2 2 10 1 1 2 9 2 2 2 2 2 2 1 2 2 2 9 2 2
left_child=1 3 4 7 5 10 9 13 25 15 30 17 39 28 36 35 37 23 29 45 51 34 -18 43 58 32 -11 -23 54 -10 53 -19 -3 -34 -13 -4 -6 -9 42 -8 52 -36 -35 -5 -28 -7 -31 -41 -29 -46 -20 -15 -26 -2 55 57 -57 -1 -12 60 -60 -47
right_child=2 8 6 11 14 19 12 16 18 26 24 21 -14 20 -16 -17 22 31 50 -21 -22 27 -24 -25 40 -27 44 48 -30 46 -32 -33 33 38 41 -37 -38 -39 -40 47 -42 -43 -44 -45 49 61 -48 -49 -50 -51 -52 -53 -54 -55 -56 56 -58 -59 59 -61 -62 -63
leaf_value=0.030723691204561494 0.026345323318933103 0.043628333128261351 0.040363459990363219 0.022482227201881921 0.005831654054814504 0.019581047629269998 -0.0087434105241753751 -0.011301059708579702 -0.0067183295354622174 0.071712654252189353 0.04032624749912149 0.019044230748303224 -0.0017924842690942777 0.028213194548760912 -0.015291008193988043 0.052697541415322569 -0.001896536714741098 0.00544372401881019 -0.013496262442223274 0.042360739934204084 0.011939070319255741 0.022478072721601822 0.0071618978267289305 0.014460210368641641 -0.0094765480838232188 0.024997258107301829 -0.047189416534027001 0.017855808816524578 -0.00074582514017226126 -0.0098521878950714962 0.02114079220187565 0.012429365377069167 -0.015789552203219512 -0.044024789939871752 0.02775727125641364 0.046138107007637888 0.0196178273442244 -0.0029332011193855395 -0.035165655138863709 0.032960854357427065 0.0064762569787549353 0.040736002699530295 -0.02132649359147229 0.048663826082587971 0.059727809323469432 0.038437770956846279 0.005277603781989746 0.041858912162652848 0.0081128922798989044 0.04879123066810051 -0.02900184676895683 0.055894008701822331 0.030792060443339243 0.047733391318700996 0.040419623184172603 -0.032240549647133625 0.0040803676059145717 0.010501571010574509 0.019423158411183798 0.034859046589463503 -0.090980212342385902 0.032411470151124465
leaf_weight=937.32797932624817 43096.806934684515 117.74628123641014 27307.295319959521 11601.480548024178 3483.5578358918428 1768.4478272199631 193.73743842542171 13661.998832836747 13493.385135293007 3339.7739249616861 11020.463982343674 5473.8560606837273 1369.4923024773598 5237.6258973330259 1993.8922489732504 24267.945201560855 21109.451074123383 19050.907711818814 7610.1411487013102 37004.533758193254 7787.5457723289728 25824.295330554247 17645.183456718922 28597.128601491451 212.77983005344868 318.69056563079357 34.359687983989716 16888.509948119521 9415.8037850260735 1973.299926429987 25678.216713964939 22476.821849435568 9450.2960803061724 788.04700797796249 10909.413652047515 28345.003029182553 7781.3069313764572 11184.668519213796 3364.5014500468969 9725.8643544316292 689.56343969702721 2889.1089395731688 12423.859166517854 579.80479823052883 14907.605316773057 14563.721611902118 9133.4016348272562 8886.4768612384796 4955.6794587224722 3630.8129801601171 1779.6935326755047 495.36243465542793 51272.608380198479 764.2740815281868 335.02176916599274 274.33396142721176 6226.7011987417936 6553.5666818916798 553.32284946739674 33359.862578168511 93.293884232640266 19549.414236560464
leaf_count=3112 123812 404 66960 35586 11771 4976 651 59688 55880 6529 28162 16907 5044 15613 8937 54188 82892 68268 35788 90026 27125 79236 63607 93840 723 1094 116 53283 35904 8014 77117 74357 45769 4121 31962 67518 24807 45341 18061 25515 2096 7836 61075 1490 31656 37248 35228 21856 16401 8270 9120 1200 140037 1953 986 1132 22904 23278 1545 87279 377 52052
internal_value=0.022727 0.00660543 0.0360821 0.0112827 0.0310188 0.0321405 0.0465767 0.00285936 -0.0127458 0.0490445 0.0294224 0.0169754 0.0341205 0.0104468 0.010746 0.046157 -0.00158597 0.0131924 -0.00636292 0.0383586 0.0198639 0.0216266 0.00222769 0.0172328 0.0328303 -0.020944 0.0595752 0.0193575 0.00508385 -0.00251782 0.0246588 0.00922483 -0.0215043 -0.0217993 0.0272389 0.0433048 0.0153551 -0.00753452 -0.0252004 0.036736 0.0303065 0.0304533 -0.0226811 0.0237098 0.057392 0.034231 0.0025849 0.0372097 0.0156505 0.0575864 -0.0164359 0.0305535 0.0306255 0.0267182 0.0089098 0.00816106 0.00254644 0.013033 0.0357545 0.0342727 0.00342191 0.0349742
internal_weight=685459 310565 374894 250112 252886 239627 122008 100865 60453.1 101833 166741 149247 20175.6 37263.3 13258.8 79920.2 63601.3 82306.1 33989.9 72886.1 13520.5 66940.9 38754.6 40778.4 97201.9 26463.1 21912.6 47668.5 23742.8 24600.1 69539.3 41527.7 26144.4 26026.7 19272.4 55652.3 11264.9 24846.7 16576.4 18806.1 52175 13798.5 13211.9 12181.3 18572.8 35881.6 11106.7 18612.3 21844.2 18538.4 9389.83 5732.99 51485.4 43861.1 14327 13991.9 6501.04 7490.89 45026.9 34006.5 646.617 34113.1
internal_count=2117723 1136502 981221 861948 692918 647403 288303 382782 274554 235237 463101 479166 53066 131254 45515 188666 251528 273541 144030 184302 43938 205625 146499 130916 260219 130524 46571 148920 87316 99122 202882 142625 129430 129026 56705 134478 36578 105029 83257 48022 142856 39798 65196 37076 40042 94276 43242 47371 69684 39926 44908 16813 140760 125765 51412 50426 24036 26390 117363 89201 1922 89300
cat_boundaries=0 1 2 3 4 5 6 7 8 9 10 11 12
cat_threshold=39 24607 46 21533 416 2531 1 16 17 12564 1 2114
is_linear=0
shrinkage=0.05


end of trees

feature_importances:
days_since_last_sale=174
rolling_mean_28=140
day_of_week=87
rolling_mean_7=70
dept_id=55
price_ratio_28=48
rolling_zero_count_28=32
price_change_7=31
streak_zeros=31
is_weekend=24
demand_freq_28=20
avg_nonzero_qty_28=20
cat_event=19
rolling_std_7=14
rolling_zero_count_7=10
store_id=9
cat_id=9
last_nonzero_qty=4
lag_364_log=2
month=2
sell_price=2
week_of_year=1
day_of_month=1
snap_CA=1

parameters:
[boosting: gbdt]
[objective: binary]
[metric: binary_logloss]
[tree_learner: serial]
[device_type: cpu]
[data_sample_strategy: bagging]
[data: ]
[valid: ]
[num_iterations: 1000]
[learning_rate: 0.05]
[num_leaves: 63]
[num_threads: 0]
[seed: 42]
[deterministic: 0]
[force_col_wise: 0]
[force_row_wise: 0]
[histogram_pool_size: -1]
[max_depth: -1]
[min_data_in_leaf: 20]
[min_sum_hessian_in_leaf: 0.001]
[bagging_fraction: 0.8]
[pos_bagging_fraction: 1]
[neg_bagging_fraction: 1]
[bagging_freq: 5]
[bagging_seed: 400]
[bagging_by_query: 0]
[feature_fraction: 0.8]
[feature_fraction_bynode: 1]
[feature_fraction_seed: 30056]
[extra_trees: 0]
[extra_seed: 12879]
[early_stopping_round: 0]
[early_stopping_min_delta: 0]
[first_metric_only: 0]
[max_delta_step: 0]
[lambda_l1: 0.1]
[lambda_l2: 0.1]
[linear_lambda: 0]
[min_gain_to_split: 0]
[drop_rate: 0.1]
[max_drop: 50]
[skip_drop: 0.5]
[xgboost_dart_mode: 0]
[uniform_drop: 0]
[drop_seed: 17869]
[top_rate: 0.2]
[other_rate: 0.1]
[min_data_per_group: 100]
[max_cat_threshold: 32]
[cat_l2: 10]
[cat_smooth: 10]
[max_cat_to_onehot: 4]
[top_k: 20]
[monotone_constraints: ]
[monotone_constraints_method: basic]
[monotone_penalty: 0]
[feature_contri: ]
[forcedsplits_filename: ]
[refit_decay_rate: 0.9]
[cegb_tradeoff: 1]
[cegb_penalty_split: 0]
[cegb_penalty_feature_lazy: ]
[cegb_penalty_feature_coupled: ]
[path_smooth: 0]
[interaction_constraints: ]
[verbosity: -1]
[saved_feature_importance_type: 0]
[use_quantized_grad: 0]
[num_grad_quant_bins: 4]
[quant_train_renew_leaf: 0]
[stochastic_rounding: 1]
[linear_tree: 0]
[max_bin: 255]
[max_bin_by_feature: ]
[min_data_in_bin: 3]
[bin_construct_sample_cnt: 200000]
[data_random_seed: 175]
[is_enable_sparse: 1]
[enable_bundle: 1]
[use_missing: 1]
[zero_as_missing: 0]
[feature_pre_filter: 1]
[pre_partition: 0]
[two_round: 0]
[header: 0]
[label_column: ]
[weight_column: ]
[group_column: ]
[ignore_column: ]
[categorical_feature: 13,18,19,20]
[forcedbins_filename: ]
[precise_float_parser: 0]
[parser_config_file: ]
[objective_seed: 16083]
[num_class: 1]
[is_unbalance: 0]
[scale_pos_weight: 2.29629]
[sigmoid: 1]
[boost_from_average: 1]
[reg_sqrt: 0]
[alpha: 0.9]
[fair_c: 1]
[poisson_max_delta_step: 0.7]
[tweedie_variance_power: 1.5]
[lambdarank_truncation_level: 30]
[lambdarank_norm: 1]
[label_gain: ]
[lambdarank_position_bias_regularization: 0]
[eval_at: ]
[multi_error_top_k: 1]
[auc_mu_weights: ]
[num_machines: 1]
[local_listen_port: 12400]
[time_out: 120]
[machine_list_filename: ]
[machines: ]
[gpu_platform_id: -1]
[gpu_device_id: -1]
[gpu_use_dp: 0]
[num_gpu: 1]

end of parameters

pandas_categorical:[["FOODS_Cultural", "FOODS_National", "FOODS_No_Event", "FOODS_Religious", "FOODS_Sporting", "HOBBIES_Cultural", "HOBBIES_National", "HOBBIES_No_Event", "HOBBIES_Religious", "HOBBIES_Sporting", "HOUSEHOLD_Cultural", "HOUSEHOLD_National", "HOUSEHOLD_No_Event", "HOUSEHOLD_Religious", "HOUSEHOLD_Sporting"], ["CA_1", "CA_2", "CA_3", "CA_4"], ["FOODS_1", "FOODS_2", "FOODS_3", "HOBBIES_1", "HOBBIES_2", "HOUSEHOLD_1", "HOUSEHOLD_2"], ["FOODS", "HOBBIES", "HOUSEHOLD"]]
