tree
version=v4
num_class=1
num_tree_per_iteration=1
label_index=0
max_feature_idx=20
objective=binary sigmoid:1
feature_names=lag_7_log lag_28_log lag_364_log rolling_mean_7 rolling_mean_28 rolling_std_7 rolling_zero_count_7 day_of_week month week_of_year is_weekend day_of_month event_indicator cat_event snap_CA sell_price price_change_7 price_ratio_28 store_id dept_id cat_id
feature_infos=[0:4.0430512428283691] [0:4.2046928405761719] [0:5.4806389808654785] [0:4.0364475250244141] [0:3.7259581089019775] [0:1.9463034868240356] [0:7] [0:6] [1:12] [1:53] [0:1] [1:31] [0:1] -1:12:2:7:11:1:13:3:10:0:6:8:5:4:14 [0:1] [0.20000000298023224:29.969999313354492] [-0.88870340585708618:7.9849996566772461] [0.11129660904407501:5.9800000190734863] -1:0:2 -1:6:2:3:1:5:4:0 -1:2:0:1
tree_sizes=6902 6909 6879 6874 6993 6911 6908 6840 6936 6909 6863 6899 6925 6916 6923 6922 6939

Tree=0
num_leaves=63
num_cat=6
split_feature=4 4 4 4 6 5 4 6 6 5 7 7 7 4 6 16 4 19 4 19 16 4 7 4 7 6 4 19 6 4 6 5 19 7 6 16 16 4 13 6 6 5 16 6 6 6 19 6 6 17 7 4 4 6 4 4 4 0 17 4 7 4
split_gain=211354 39934 35244.9 8500.21 7736.25 7678.28 5614.93 4815.87 2652.63 1841.17 1780.44 1633.59 1534.32 1379.79 1342.57 1153.19 1021.29 956.784 857.419 641.524 629.75 508.795 450.581 433.501 365.13 357.734 349.516 345.711 339.294 314.397 299.016 284.353 267.114 264.742 260.114 233.587 229.389 196.938 188.293 179.859 171.302 170.153 164.272 159.558 156.921 154.08 150.14 145.217 144.755 144.426 138.66 135.632 134.757 123.109 120.66 119.994 117.044 112.332 111.364 110.087 107.192 102.682
threshold=0.16185995936393741 0.3734277486801148 1.0000000180025095e-35 0.65555155277252208 6.5000000000000009 1.0000000180025095e-35 0.25180554389953619 6.5000000000000009 5.5000000000000009 0.44643479585647589 4.5000000000000009 4.5000000000000009 4.5000000000000009 0.066744100302457823 1.5000000000000002 -1.0000000180025095e-35 0.51391854882240307 0 0.11194814741611482 1 0.0036915302043780689 0.95051136612892162 4.5000000000000009 0.30525432527065283 4.5000000000000009 3.5000000000000004 0.47880940139293676 2 3.5000000000000004 0.19831891357898715 4.5000000000000009 0.26106816530227667 3 4.5000000000000009 4.5000000000000009 0.012136891018599274 0.020456807687878612 0.30525432527065283 4 4.5000000000000009 2.5000000000000004 0.53324538469314586 0.0036915302043780689 1.5000000000000002 1.5000000000000002 3.5000000000000004 5 4.5000000000000009 2.5000000000000004 1.0171550512313845 3.5000000000000004 0.090175997465848937 0.22071419656276706 4.5000000000000009 0.083937149494886412 0.76346856355667125 0.19595894217491153 1.0000000180025095e-35 1.0385860800743105 0.4126639068126679 3.5000000000000004 0.076369039714336409
decision_type=2 2 2 2 2 2 2 2 2 2 2 2 2 2 2 8 2 1 2 1 10 2 2 2 2 2 2 1 2 2 2 2 1 2 2 10 8 2 9 2 2 2 10 2 2 2 1 2 2 10 2 2 2 2 2 2 2 2 10 2 2 2
left_child=2 4 15 7 6 13 12 10 14 18 16 23 19 35 21 -1 34 39 24 28 -17 -5 -20 40 36 55 -12 50 41 -21 48 -10 45 42 43 38 46 -13 -4 -11 -8 -2 51 -3 -25 -14 -7 -28 -18 54 -6 -15 -34 -19 -41 -16 -30 -32 -26 -45 -40 -48
right_child=1 3 5 8 27 9 11 -9 31 17 26 37 32 33 25 20 30 53 22 29 -22 -23 -24 44 58 -27 47 -29 56 -31 57 -33 52 -35 -36 -37 -38 -39 60 49 -42 -43 -44 59 -46 -47 61 -49 -50 -51 -52 -53 -54 -55 -56 -57 -58 -59 -60 -61 -62 -63
leaf_value=-0.92402940358040053 -0.89894088582561071 -0.85673255869618592 -1.0041367890871704 -0.82567350276927054 -0.94743991957973317 -0.95184703697064477 -0.87705633207913214 -0.96921963565277469 -1.0046694009148052 -0.87737717180539132 -0.85780021562137687 -0.88131850814905432 -0.86637015388611216 -0.98148426769934838 -0.84101464664502001 -1.0289395707754927 -0.85016951512570904 -0.91887945210811772 -0.94463574753463797 -0.93339517885975032 -0.92929165894508114 -0.80257557371331789 -0.9251309744089512 -0.85544453485422012 -0.94543940999164378 -0.85814793116267163 -0.84139326919957147 -0.95968356688461554 -0.92111545485356205 -0.91987217368671648 -0.87216515924646787 -0.91814748798761359 -0.91048215209778816 -0.95761467508631193 -0.88436941951589942 -0.92074608000770708 -0.89473197261000714 -0.86971788103972991 -0.99405427007498648 -0.8870560752068839 -0.90223279327992312 -0.86080114964324883 -0.88095449614368526 -0.8795730490959941 -0.89021330830496292 -0.89290398590109865 -0.96902314315504268 -0.86172510392769996 -0.86130987613984777 -0.85840237289298615 -0.92993551933695118 -0.96893021373722099 -0.89648320282893323 -0.94188781232709262 -0.91757896596275912 -0.82872716379542177 -0.91003298277904998 -0.90416831558097455 -0.8971507722102624 -0.87162554233151823 -0.98256201216569539 -0.95751605135706985
leaf_weight=267.74490442872047 995.36636859178543 1409.8665499389172 2778.3857861459255 4401.0512864142656 2557.8470490127802 3125.1341565400362 711.46809642016888 1120.0316913425922 183.08004105091095 941.02714481949806 10176.270134195685 6504.8610502183437 621.72160695493221 3324.7096272408962 3804.6659142673016 25335.78997926414 5365.205887824297 772.32835210859776 9741.8129353374243 7869.4992028772831 159.42573140561581 5238.505736425519 4256.0234637707472 331.45131129026413 4897.1073844581842 2009.3729815781116 7173.3088672161102 4202.5786977857351 3614.6504673212767 9487.3131166249514 1059.2998469173908 197.02496995031834 4904.8322847783566 4050.6154197603464 6634.6534016132355 113.42871755361557 131.33157129585743 8433.6333462446928 4583.5118274837732 452.28684896230698 14144.841593712568 416.05512061715126 48.239063426852226 6457.734846457839 18548.863980948925 4701.6471185535192 5181.1810902506113 1009.649296104908 6482.2989352047443 155.26296125352383 2032.6545280069113 6094.8601351976395 2659.5860365629196 2364.6641989648342 1152.1180657744408 4252.4642614126205 7050.5397219508886 372.88108153641224 122.42998358607292 13682.004037305713 3645.9467272609472 3098.8056090474129
leaf_count=960 3259 3877 12732 10405 9916 12284 2136 4645 840 2829 28120 19875 1784 14295 9720 123868 14317 2720 37427 29135 582 10882 15320 906 18863 5561 18360 16930 12831 33531 3116 692 16763 16215 20523 402 423 24553 20423 1414 46893 1165 147 19591 58724 15042 21475 2839 18195 430 7438 25255 8627 9004 4039 10215 24057 1245 398 40157 15725 12401
internal_value=-0.914057 -0.883271 -0.978192 -0.857195 -0.904445 -0.957491 -0.900117 -0.866493 -0.828985 -0.942898 -0.86457 -0.888536 -0.913438 -0.979044 -0.826462 -1.02723 -0.870311 -0.917168 -0.947814 -0.919739 -1.02832 -0.813119 -0.938705 -0.894632 -0.955517 -0.83924 -0.851604 -0.949231 -0.910786 -0.926028 -0.858875 -0.959833 -0.899049 -0.968312 -0.8757 -0.992089 -0.960415 -0.874768 -0.992825 -0.89532 -0.901026 -0.887688 -0.972889 -0.873031 -0.889602 -0.889953 -0.961173 -0.8439 -0.856264 -0.904496 -0.939754 -0.973361 -0.905644 -0.936329 -0.908967 -0.834527 -0.913788 -0.880489 -0.944259 -0.874173 -0.988941 -0.964723
internal_weight=267613 180819 86794.2 81029.4 99789.4 61031.2 90996.3 60943.2 20086.2 36391.5 59823.2 48675.1 42321.2 24639.7 19706.1 25763 41463.9 5837.69 30553.8 29433.4 25495.2 9639.56 13997.8 33736.6 16556 10066.5 18359.2 8793.08 12076.6 17356.8 13279.7 380.105 12887.8 13518.4 28184.3 11121.3 11536.5 14938.5 11007.8 2700.7 14856.3 1411.42 9467.81 21549.6 18880.3 5323.37 11405.1 8182.96 11847.5 1759.67 4590.5 9419.57 7564.42 3136.99 1604.4 8057.13 10665.2 1432.18 5019.54 20139.7 8229.46 8279.99
internal_count=926496 556865 369631 223300 333565 244221 299281 174985 48315 139027 170340 153087 146194 105194 46783 125410 121021 20436 118591 103978 124450 21287 52747 108659 65844 25496 49319 34284 41312 62666 36873 1532 42216 55912 84148 49282 46583 44428 48880 8712 49029 4424 39697 63625 59630 16826 46160 21199 32512 5883 17354 39550 25390 11724 5453 19935 36888 4361 19261 59748 36148 33876
cat_boundaries=0 1 2 3 4 5 6
cat_threshold=39 39 104 39 27670 39
is_linear=0
shrinkage=1


Tree=1
num_leaves=63
num_cat=7
split_feature=4 4 4 3 5 3 3 4 3 4 7 7 4 7 16 3 3 7 17 3 6 4 4 4 20 3 7 16 15 4 4 3 7 3 16 20 3 4 3 4 13 20 6 0 20 16 5 4 4 4 4 4 13 7 3 7 3 20 4 15 15 16
split_gain=179569 32610.8 32118.2 7645.19 6830.01 6120.22 5351.2 4090.34 1973.78 1879.72 1277.72 1272.59 1262.2 1203 1075.06 989.625 902.289 879.531 590.107 579.564 546.911 394.274 380.265 376.647 342.608 325.086 295.927 294.937 278.779 273.289 265.513 246.342 237.591 221.482 210.299 206.277 203.282 199.146 191.626 182.785 176.217 168.235 154.697 150.793 144.747 142.738 139.181 138.952 137.996 126.986 123.142 120.164 116.58 109.104 100.225 99.9956 96.961 95.1338 94.092 93.0479 90.272 89.1685
threshold=0.16185995936393741 1.0000000180025095e-35 0.36114145815372473 0.80056384205818187 1.0000000180025095e-35 1.0000000180025095e-35 1.0000000180025095e-35 0.25180554389953619 0.30547615885734564 0.54079309105873119 4.5000000000000009 4.5000000000000009 0.066744100302457823 4.5000000000000009 -1.0000000180025095e-35 1.1457504034042361 0.56027489900589 4.5000000000000009 1.0048210620880129 0.73491072654724132 4.5000000000000009 0.19831891357898715 0.76346856355667125 0.11194814741611482 0 0.56027489900589 4.5000000000000009 0.017118472605943683 2.9000000953674321 0.43737004697322851 0.30525432527065283 0.12798282131552699 4.5000000000000009 0.21398087590932849 0.012136891018599274 1 0.71768486499786388 0.11423088610172273 0.12798282131552699 0.51391854882240307 2 3 5.5000000000000009 1.0000000180025095e-35 4 0.0036915302043780689 0.85875758528709423 0.22071419656276706 0.67078363895416271 0.45016935467720037 0.090175997465848937 0.30946086347103124 5 4.5000000000000009 1.3952113986015322 4.5000000000000009 0.43144677579402929 6 0.076369039714336409 2.7749999761581425 2.7000000476837163 -0.0017213814426213501
decision_type=2 2 2 2 2 2 2 2 2 2 2 2 2 2 8 2 2 2 10 2 2 2 2 2 1 2 2 8 10 2 2 2 2 2 10 1 2 2 2 2 9 1 2 2 1 10 2 2 2 2 2 2 9 2 2 2 2 1 2 10 10 10
left_child=1 14 5 6 12 28 39 10 17 11 16 29 34 19 -1 22 21 23 -16 30 26 41 46 27 -10 47 48 33 -2 -8 -9 37 45 52 40 -33 51 -19 -22 -4 61 -7 -31 -40 -23 50 -5 -12 -11 -13 -14 -15 -6 -30 -17 -42 -26 -35 -54 -34 -52 -3
right_child=2 4 3 15 8 7 9 13 24 20 25 49 32 36 18 54 -18 31 -20 -21 38 44 -24 -25 56 -27 -28 -29 53 42 -32 35 59 57 -36 -37 -38 -39 43 -41 55 -43 -44 -45 -46 -47 -48 -49 -50 -51 60 -53 58 -55 -56 -57 -58 -59 -60 -61 -62 -63
leaf_value=0.043102794247967868 0.0077131711567195674 0.082712657305829509 0.010939424958273877 0.11594439210884311 0.018302149129023993 0.049088965812583707 0.081127117521687053 0.063026238976027396 0.085969564526460665 0.10338760432420445 0.060348666967477732 0.098938593068191527 -0.010621351788764362 0.080896693956008084 -0.057228829709343336 0.13957025357877789 0.10046694793246765 0.021023858500936854 0.036507119798045155 0.11857647238818028 0.042881503618734662 0.057544736907870646 0.13225647546104555 0.023795038677474668 0.044035693492204396 0.11470438413547245 0.1209206812664969 0.075127152801234859 0.021842802943092616 0.091121418179705441 0.072263324198828929 0.062067297305202884 -0.0013764028053173463 0.0085047895054315668 0.046091991872894297 0.037254296707925377 0.13004758219701112 0.040948180690983292 0.099873589840510701 -0.02749296840679278 -0.021452728288510418 0.035513003948562605 0.067633369692854148 0.0704267634898781 0.047494700093941848 0.081646331913146047 0.086408832690804918 0.071053753965456171 0.11430751880245359 0.10822918681684786 -0.009632219831915298 0.090223688223359411 0.0016914944386907352 0.036984805361918414 0.15264389526707631 -0.009372797701720342 0.073619219876952344 0.041633371550632403 0.012286305277965148 0.016293740301439003 0.0047258300238288836 -0.033428052607356484
leaf_weight=273.27293479442596 3075.601875141263 16.511094689369202 1013.1308497190475 5917.4108347594738 2259.593190446496 3021.1842062473297 18146.001550465822 15089.686468556523 1220.6749657690525 8321.7115219831467 8096.5020677149296 9350.5213822126389 3308.014518648386 7166.0350377857685 24652.808077558875 2585.5595807731152 769.11904941499233 3835.6706743687391 168.92593958973885 572.57695758342743 239.53624184429646 5167.1629057973623 5146.7269424051046 11112.493752390146 1230.0385226309299 329.2648754119873 5708.351249858737 177.46750985085964 3935.0365508794785 15552.523372799158 16115.515100464225 1090.9783376008272 980.70329244434834 304.89925849437714 115.93460994958878 3623.6831224560738 260.6327722966671 1865.2399182021618 1340.6676911711693 445.24963204562664 5709.9703914374113 9374.7995932400227 737.40638813376427 647.62394481897354 11763.955507352948 50.14016105234623 430.81078192591667 4868.8420777916908 4478.7835184633732 6128.2993473112583 1429.7836998850107 6733.1674948334694 5683.9306016117334 1708.0039140880108 3500.7422898858786 2450.2462127059698 358.8124820291996 753.10467892885208 3320.5997824370861 3093.1011519432068 4669.0039524883032 2719.3113173246384
leaf_count=960 12385 53 4069 14373 8779 10349 53351 48480 3543 21716 26316 24990 14295 21092 123839 5367 2093 14700 611 1412 823 17040 11205 42216 4304 829 13462 539 15100 43457 49508 3574 4067 1220 402 13082 604 6608 3596 2020 25591 33979 2297 1990 40517 147 1213 15071 10914 15541 6116 18875 23483 6195 6636 10557 1113 2667 13199 12148 19139 12679
internal_value=0.0521331 -0.00748431 0.0795937 0.101217 0.0121486 0.0598135 0.094008 0.0637162 0.0257626 0.0959649 0.0527067 0.090707 -0.00828503 0.074115 -0.0555046 0.130782 0.0470032 0.0224366 -0.0565906 0.0687125 0.10862 0.0456006 0.122144 0.0170971 0.0660417 0.0656175 0.111439 0.011142 0.0198265 0.0853527 0.067797 0.0345404 0.0019439 0.0102194 -0.020854 0.0429983 0.0862387 0.0275442 0.0851959 -0.000791797 -0.0215672 0.0388225 0.0900589 0.0902887 0.0505625 -0.00240427 0.113942 0.0643696 0.10721 0.102618 -0.00285367 0.0854159 0.00816425 0.0264274 0.147093 -0.0178045 0.0507239 0.0320927 0.00559298 0.0120388 0.00135884 -0.0326031
internal_weight=274213 86474.9 187738 89691.1 61379.9 98047.1 72109.8 89328.4 36837.2 70651.4 43390.8 49914.8 24542.7 45937.6 25095 17581.3 30096.2 34027.7 24821.7 31777.8 20736.7 29327.1 11494.9 23612.1 2809.53 13294.6 18508.8 12499.6 8718.64 34435.9 31205.2 10415.6 13530.7 12322.1 11012 4714.66 14159.8 5700.91 2227.83 1458.38 10896 12396 16289.9 1988.29 16931.1 9456.94 6348.22 12965.3 12800.5 15478.8 9406.8 13899.2 11264.1 5643.04 6086.3 8160.22 1588.85 1058 9004.53 4073.8 6098.79 2735.82
internal_count=926496 369631 556865 237020 244221 319845 198226 286165 139027 192137 146194 139636 105194 139971 125410 38794 103978 130067 124450 99400 52501 101885 26791 92103 8960 42216 46092 49887 33680 99105 97988 37964 55912 49348 49282 16656 40571 21308 6409 6089 48880 44328 45754 5586 57557 39697 15586 41387 32630 40531 39550 39967 45461 21295 12003 36148 5417 3887 36682 16215 25255 12732
cat_boundaries=0 1 2 3 4 5 6 7
cat_threshold=1 1 27670 1 1 8204 2
is_linear=0
shrinkage=0.05


Tree=2
num_leaves=63
num_cat=9
split_feature=4 4 4 4 5 6 4 6 6 5 7 7 4 6 16 7 19 4 4 16 19 4 5 7 6 7 4 6 19 6 19 4 7 6 16 4 13 5 19 18 6 6 5 4 6 16 7 6 4 7 19 4 19 4 6 7 5 4 7 2 7 5
split_gain=154078 29040.1 27671.1 6109.45 5680.85 5416.46 3283.39 3251.14 2081.88 1257.16 1236.76 1157.54 1106.54 1093.9 1003.84 918.163 658.741 582.524 568.257 552.704 527.643 403.695 358.093 306.707 300.14 287.036 286.203 272.602 266.703 245.071 224.075 222.156 205.821 195.984 189.602 177.557 165.353 164.708 138.848 155.538 138.788 136.21 131.987 127.188 118.642 115.375 109.062 108.299 107.209 104.523 102.653 101.518 99.5725 97.3544 95.1011 94.0023 93.1533 92.1584 89.4717 89.038 96.1092 86.5452
threshold=0.14908103644847873 1.0000000180025095e-35 0.35476483404636389 0.60421898961067211 1.0000000180025095e-35 6.5000000000000009 0.25180554389953619 6.5000000000000009 5.5000000000000009 0.44643479585647589 4.5000000000000009 4.5000000000000009 0.066744100302457823 1.5000000000000002 -1.0000000180025095e-35 4.5000000000000009 0 0.11194814741611482 0.46778385341167456 0.0036915302043780689 1 0.95051136612892162 0.26106816530227667 4.5000000000000009 3.5000000000000004 3.5000000000000004 0.18393540382385257 3.5000000000000004 2 2.5000000000000004 3 0.45781700313091284 4.5000000000000009 5.5000000000000009 1.0000000180025095e-35 0.29136346280574804 4 0.54324269294738781 5 6 4.5000000000000009 1.5000000000000002 0.53324538469314586 0.76346856355667125 4.5000000000000009 0.0036915302043780689 3.5000000000000004 5.5000000000000009 0.090175997465848937 4.5000000000000009 7 0.3900627344846726 8 0.22071419656276706 4.5000000000000009 3.5000000000000004 0.78100335597991954 0.19595894217491153 4.5000000000000009 0.89587974548339855 4.5000000000000009 0.53027001023292553
decision_type=2 2 2 2 2 2 2 2 2 2 2 2 2 2 8 2 1 2 2 10 1 2 2 2 2 2 2 2 1 2 1 2 2 2 10 2 9 2 1 1 2 2 2 2 2 10 2 2 2 2 1 2 1 2 2 2 2 2 2 2 2 2
left_child=1 14 5 7 12 6 11 10 13 17 18 20 34 21 -1 29 49 25 44 52 27 -5 -10 -19 43 38 -22 42 46 37 40 -12 45 41 36 -31 -3 -8 39 -6 -13 -20 -2 58 51 48 -7 -17 -14 61 -9 -4 -16 -32 -33 -38 -46 -29 -15 60 -18 -11
right_child=2 4 3 8 9 28 15 50 22 16 31 30 32 24 19 47 59 23 33 -21 26 -23 -24 -25 -26 -27 -28 57 -30 35 53 54 -34 -35 -36 -37 55 -39 -40 -41 -42 -43 -44 -45 56 -47 -48 -49 -50 -51 -52 -53 -54 -55 -56 -57 -58 -59 -60 -61 -62 -63
leaf_value=0.040189512779326038 0.061026014481839225 -0.031491468644718218 0.073402007077805462 0.11561862842724013 0.031180886791403961 0.019175761437664137 0.07294437959863341 0.034486894819784883 -0.030482510382994613 0.046986855655163466 0.090765566938134645 0.079213501472608028 -0.010140673890016591 0.10050086482127485 -0.051296373081402939 0.080495123988758868 0.020139965074186326 0.022107362254560545 0.10069786369185987 0.035896024219523648 0.02835422169867681 0.13399445797827356 0.050486590454479896 0.038577176146881435 0.091575654820377703 0.020388686251811946 0.041888604985935468 0.042601573404498938 0.0087266969818947503 0.057005397127521368 0.051006435065704639 0.10325627342714667 0.011194661169568045 0.059609896660636909 0.042487233250135086 0.065035587820790428 -0.021908218123703162 0.10990828299729788 0.00338531909759675 0.0064531991543962377 0.062967130854870809 0.086846586074961193 0.092548123472991017 0.11471876964625392 0.07188457203415996 0.073373543248261328 0.03411637361483387 0.068341144658860598 0.0011996756087898014 0.080118506437276318 -0.0003947957869719212 0.080848723667519246 -0.058716609331007891 0.062433924081427554 0.08866095362564258 -0.011061429043861322 0.041408116492655876 0.051876836416383937 0.11247763131058652 0.061144880157548334 0.041019455059711885 0.069528040981754219
leaf_weight=278.29993003606796 1077.233396217227 2692.3620806932449 7176.4800197333097 6082.3112941384315 1116.1346970945597 2748.8590222299099 1516.8327718228102 252.20827756822109 239.50947898626328 882.8857654184103 11661.163554221392 1993.4217486828566 3291.9998413920403 5125.7559004276991 9180.4638894796371 11393.866661548615 1820.5684261918068 9216.0109152495861 2006.7846938967705 164.89424309134483 5542.7339594215155 5908.4698492139578 317.27430072426796 4079.8807605654001 3462.616132542491 7539.2277277261019 13260.067136079073 4216.3998313844204 4338.7013947367668 11716.981455370784 5524.4231844991446 7887.2825152873993 3909.8545963615179 613.66116818785667 119.87473902106285 16778.960662901402 4489.4459761977196 377.63953872025013 6642.5967841148376 1479.5904647558928 3897.5305055677891 16028.068344637752 482.495565995574 4726.1486103236675 7421.3709683716297 49.669918462634087 2202.7818219512701 2197.6044937968254 5677.9711672663689 771.63495089113712 1082.988268211484 12826.632888972759 14804.977870047092 2827.4226850271225 1312.9304865449667 3603.8542609214783 260.79499903321266 7403.1772499233484 2271.8108597695827 199.54054790735245 791.895602196455 829.09587348997593
leaf_count=960 3338 12725 20596 13100 4114 10518 4374 927 1120 2915 29963 5611 14295 12325 46890 31368 6836 34701 4837 582 20172 10882 1021 14196 8803 28673 45384 14385 17312 36895 17965 18597 15488 1879 409 50548 20423 888 27157 5900 11910 42259 1238 10215 21464 142 7889 6398 23504 2189 4489 35186 76978 8627 3400 15725 852 24057 5052 644 2749 2457
internal_value=0.0484852 -0.0083397 0.0727123 0.0917648 0.0105861 0.0542022 0.0579461 0.0837102 0.111384 0.0233005 0.0852453 0.0486406 -0.00828083 0.113317 -0.0542074 0.0677259 0.045765 0.0193444 0.0806923 -0.0552955 0.0433596 0.124675 0.0156482 0.0271618 0.104578 0.0131489 0.0378792 0.0511101 0.0178494 0.0628932 0.0604983 0.095357 0.00161298 0.0874423 -0.0200112 0.0617341 -0.0207067 0.0803207 0.00723992 0.017023 0.0683508 0.0883887 0.0707858 0.10829 0.0761452 -0.00254004 0.0257717 0.0785308 -0.00296177 0.0645548 0.00644774 0.0781777 -0.0559228 0.0548108 0.101175 -0.017058 0.0708512 0.0485119 0.104181 0.028834 0.0264722 0.0579097
internal_weight=279794 83632.7 196161 96664.3 59204.1 99497.1 90206.8 68530.4 28133.9 35369.1 67195.2 46224.9 23835 27577.1 24428.6 43981.9 5295.62 30073.4 46333.8 24150.3 31982.1 11990.8 556.784 13295.9 15586.3 16777.5 18802.8 13179.3 9290.34 30390.4 14242.8 20861.4 12929.5 18648.5 10905.5 28495.9 10785.7 1894.47 9238.32 2595.73 5890.95 18034.9 1559.73 12123.7 27685.3 9019.64 4951.64 13591.5 8969.97 2483.62 1335.2 20003.1 23985.4 8351.85 9200.21 8093.3 7682.17 11619.6 7397.57 2812 2612.46 1711.98
internal_count=926496 360652 565844 246967 235242 318877 283158 184449 62518 132531 179033 152687 102711 60377 125410 130471 17790 114741 127073 124450 108574 23982 2141 48897 36395 65844 65556 43018 35719 92705 44113 51960 53429 48975 49282 87443 48873 5262 37171 10014 17521 47096 4576 27592 78098 37941 18407 37766 37799 7561 5416 55782 123868 26592 21997 36148 22316 38442 17377 10229 9585 5372
cat_boundaries=0 1 2 3 4 5 6 7 8 9
cat_threshold=39 39 104 39 27670 39 1 72 88
is_linear=0
shrinkage=0.05


Tree=3
num_leaves=63
num_cat=14
split_feature=3 3 3 3 1 19 19 7 3 1 3 7 16 16 7 19 2 1 7 1 18 3 15 15 2 7 7 13 1 2 16 3 7 19 3 19 19 19 6 3 3 15 2 16 3 15 18 7 1 13 1 3 18 19 19 15 1 2 7 7 2 5
split_gain=133229 29882.4 7758.08 4155.33 2117.8 1835.16 1614.33 1406.81 1391.35 1050.7 806.808 752.27 736.771 657.185 583.689 518.012 420.153 339.264 312.409 308.499 292.229 290.332 239.383 247.211 236.621 231.82 230.29 223.448 218.108 211.592 211.571 198.597 197.451 185.301 152.832 150.944 148.707 148.341 130.016 124.46 120.363 117.258 116.529 112.851 110.513 99.5361 99.6237 97.535 94.7261 92.5864 92.1354 90.2026 85.7897 115.24 84.0217 82.2813 74.5204 81.0756 73.9369 100.178 73.4484 72.9335
threshold=1.0000000180025095e-35 0.33574859797954565 0.67533552646636974 0.17749333381652835 1.0000000180025095e-35 0 1 4.5000000000000009 0.98187780380249035 1.0000000180025095e-35 0.50991907715797435 4.5000000000000009 0.0036915302043780689 -0.0031034912681207056 4.5000000000000009 2 1.0000000180025095e-35 1.0000000180025095e-35 3.5000000000000004 1.0000000180025095e-35 3 0.48095728456974035 2.7999999523162846 2.6750000715255742 1.0000000180025095e-35 4.5000000000000009 4.5000000000000009 4 1.0000000180025095e-35 1.2424533367156985 -1.0000000180025095e-35 1.3952113986015322 4.5000000000000009 5 0.24294267594814303 6 7 8 2.5000000000000004 0.60894009470939647 0.24294267594814303 2.4850000143051152 1.0000000180025095e-35 0.0059603839181363591 0.24294267594814303 2.7749999761581425 9 4.5000000000000009 1.0000000180025095e-35 10 1.0000000180025095e-35 0.86490574479103099 11 12 13 7.9349999427795419 0.89587974548339855 0.89587974548339855 4.5000000000000009 2.5000000000000004 0.89587974548339855 0.77850425243377697
decision_type=2 2 2 2 2 1 1 2 2 2 2 2 10 8 2 1 2 2 2 2 1 2 10 8 2 2 2 9 2 2 8 2 2 1 2 1 1 1 2 2 2 10 2 10 2 10 1 2 2 9 2 2 1 1 1 10 2 2 2 2 2 2
left_child=4 3 7 9 6 14 26 10 32 15 17 16 13 58 28 20 19 24 60 44 25 37 23 52 36 -2 30 -6 40 -24 -1 -10 38 34 -13 -11 -3 -9 51 -12 -5 -22 54 49 -7 46 -29 -37 -16 -32 -23 -4 -15 -54 -20 -43 57 -18 59 -8 -17 -34
right_child=1 2 8 5 27 11 12 21 31 35 39 33 -14 22 48 18 56 -19 42 -21 41 50 29 -25 -26 -27 -28 45 -30 -31 43 -33 61 -35 -36 47 -38 -39 -40 -41 -42 55 -44 -45 -46 -47 -48 -49 -50 -51 -52 -53 53 -55 -56 -57 -58 -59 -60 -61 -62 -63
leaf_value=0.056475895473885943 0.037947402198719726 0.061371730515260847 0.090541783686251515 0.047714672312220104 0.0082920705272424757 0.027973434206725087 0.04212191960028619 0.082731546004094547 0.11159331634975465 0.053033028334696058 0.073152630197323334 0.051393249024950217 0.042606608329462864 -0.043719306955290138 0.067269636607396752 0.017623164715842337 0.045507049943057834 0.070264817780609112 0.030461437543489872 0.04706344697434231 0.016224783184464481 0.083961286490175799 -0.03078749358563786 -0.058860502962123487 0.067538781620412783 0.058892060923813452 -0.010048379699938107 -0.027604933476118684 0.063827193231123541 -0.051993442349566668 -0.016862109736342817 0.12584557920835937 0.10380956445139647 0.038307183214030205 0.064021096819255024 0.03584575223991484 0.050706425822271417 0.07087194841409758 0.08130838097494969 0.081123645024305649 0.056923476943220336 0.03607990878850123 0.041622468432989487 0.056311422688007685 0.036825912331800291 -6.5510090827286191e-05 -0.0022633396007730095 0.04907048468393712 0.077331104561110503 -0.02409134926081169 0.09306901082421104 0.10025266161085256 -0.027214579107599085 -0.048681658638626141 0.017114189411399104 0.018774090226908478 0.068801207734584188 0.05876417469236736 0.011107683420515735 0.13463961988480552 0.03571041223207358 0.087251189797722437
leaf_weight=89.104736357927322 4538.2151849716902 8459.2723706960678 7923.6109609156847 6080.6833911836147 4899.8185232579708 7185.5839651226997 107.42657305300236 8214.6806171834469 6817.6698099970818 4852.9898416101933 13060.597810283303 4556.4293462634087 299.32344672083855 4415.1986018866301 5894.33589848876 11772.181696221232 3984.5809473842382 12925.269895136356 6123.5387473404408 4745.403326138854 1449.3666687458754 5555.3260146081448 12158.838837459683 1988.8301926404238 7304.8861258178949 1866.4247574955225 7678.5117665231228 964.80434906482697 7026.0015846192837 1303.3930028825998 8283.9293145388365 3840.5319234579802 5544.5524317324162 1567.2128446400166 5078.9202721267939 3873.534264177084 7011.3777986168861 6099.9179576933384 2725.9527401328087 7888.9151895195246 8575.4774085283279 3481.4902568310499 1895.5631975531578 47.323402598500252 6942.3354963064194 1695.7096793800592 649.24996004998684 2186.0625190138817 3911.7588114589453 10321.551214307547 5632.7789446413517 3464.3813723772764 2507.1730429977179 909.50236639380455 1587.501772582531 857.78784540295601 542.67499698698521 1631.2342139780521 96.288243517279625 40.346713557839394 590.01558887958527 765.23502115905285
leaf_count=290 15351 24570 18740 19491 19582 25622 368 20731 13530 14944 35103 14185 1000 22282 16633 44346 12959 35602 21586 15119 5353 13816 58560 10607 20701 5680 33881 4355 20358 6777 37679 6652 11918 5143 14651 13260 21732 16596 6824 20094 25919 11850 6335 149 23404 7005 2725 6890 10296 48094 13113 7542 11939 4673 5902 3153 1543 4976 364 91 2047 1815
internal_value=0.0452594 0.0626601 0.0808049 0.0444447 -0.0220236 0.0522742 -0.0258704 0.0727544 0.102083 0.0326811 0.0683634 0.0445406 -0.0353113 -0.036318 0.0611396 0.028366 0.0397322 0.063791 0.0237337 0.0360305 0.0366619 0.0825078 -0.0371738 -0.0431118 0.0601166 0.0440526 -0.0173363 0.00152034 0.056579 -0.0328414 -0.0203311 0.116731 0.094438 0.0553236 0.0579905 0.0461888 0.0566113 0.077786 0.0911441 0.0761549 0.0531035 0.0285466 0.0305092 -0.0206985 0.032324 -0.00850243 -0.0174152 0.0405513 0.0712845 -0.020895 0.0885479 0.0934973 -0.0391112 -0.0331539 0.0277762 0.0326606 0.0510748 0.0493597 0.0452799 0.0674899 0.0184871 0.101804
internal_weight=284489 226032 113235 112797 58456.3 67722.6 50246.7 82153 31081.9 45074.7 56650.3 36234.4 23826.3 23527 31488.3 34162.1 25031.8 35700.8 21968.8 18873.3 12193.3 25502.7 23282.9 9820.7 22775.5 6404.64 26420.4 8209.58 21682.2 13462.2 18741.9 10658.2 20423.7 11202.6 9635.35 10912.6 15470.7 14314.6 14113.9 20949.5 14656.2 5788.64 9606.6 18652.8 14127.9 3309.76 1614.05 6059.6 9806.09 18605.5 11188.1 11388 7831.87 3416.68 7711.04 4339.28 6158.49 5615.82 244.062 147.773 12362.2 6309.79
internal_count=926496 656075 289079 366996 270421 210299 236754 222058 67021 156697 157802 117602 116661 115661 92697 121603 83623 102605 80216 64145 41387 64256 114838 49501 67003 21031 120093 33667 65768 65337 86212 20182 46839 33979 28836 35094 46302 37327 33106 55197 45410 20356 33823 85922 49026 14085 7080 20150 26929 85773 26929 26282 38894 16612 27488 15003 19478 17935 823 459 46393 13733
cat_boundaries=0 1 2 3 4 5 6 7 8 9 10 11 12 13 14
cat_threshold=39 88 39 1 13456 72 39 39 39 1 24704 1 6 72
is_linear=0
shrinkage=0.05


Tree=4
num_leaves=63
num_cat=7
split_feature=4 4 4 3 5 3 3 4 4 3 4 16 3 10 10 10 4 10 16 3 6 19 4 19 4 15 19 10 16 10 4 4 3 4 3 3 4 20 6 4 3 4 4 3 4 0 5 4 19 5 0 10 19 10 16 13 16 3 16 0 15 2
split_gain=119136 25442.5 20374.8 4531.07 4119.03 3548.07 3309.83 2542.58 1276.86 1246.16 1010.28 887.643 830.814 789.14 749.285 730.923 610.28 561.875 488.789 420.811 389.749 269.331 270.423 257.167 238.975 231.149 227.182 225.016 190.682 176.101 174.471 168.616 165.436 156.808 154.828 152.252 149.788 144.199 136.402 134.345 132.127 131.224 130.133 129.44 127.861 116.827 113.461 101.222 95.2051 92.3961 89.6776 88.7171 86.5506 85.4595 84.1591 87.6287 83.9424 83.2101 82.326 79.7153 78.2257 77.7556
threshold=0.14908103644847873 1.0000000180025095e-35 0.35476483404636389 0.80056384205818187 1.0000000180025095e-35 1.0000000180025095e-35 1.0000000180025095e-35 0.23755506426095965 0.51707252860069286 0.30547615885734564 0.066744100302457823 -1.0000000180025095e-35 0.59523358941078197 1.0000000180025095e-35 1.0000000180025095e-35 1.0000000180025095e-35 0.83616241812706005 1.0000000180025095e-35 0.0036915302043780689 0.74264022707939159 4.5000000000000009 0 0.090175997465848937 1 0.27688255906105047 2.9000000953674321 2 1.0000000180025095e-35 0.020456807687878612 1.0000000180025095e-35 0.50356465578079235 0.17383629083633426 0.76588472723960888 0.044373333454132087 0.17749333381652835 0.12798282131552699 0.43737004697322851 3 1.0000000180025095e-35 0.28104855120182043 0.17749333381652835 0.57928836345672619 0.083937149494886412 1.237843453884125 0.066744100302457823 1.0000000180025095e-35 0.85875758528709423 0.090175997465848937 4 0.96834698319435131 1.0000000180025095e-35 1.0000000180025095e-35 5 1.0000000180025095e-35 -0.0031034912681207056 6 1.0000000180025095e-35 0.40041443705558782 0.0036915302043780689 1.0000000180025095e-35 2.7749999761581425 1.0000000180025095e-35
decision_type=2 2 2 2 2 2 2 2 2 2 2 8 2 2 2 2 2 2 10 2 2 1 2 1 2 10 1 2 8 2 2 2 2 2 2 2 2 1 2 2 2 2 2 2 2 2 2 2 1 2 2 2 1 2 10 9 10 2 10 2 10 2
left_child=1 11 5 6 10 25 30 12 15 17 33 -1 13 26 19 36 43 21 52 24 27 28 -23 57 -9 -2 58 41 40 47 -4 -28 39 54 45 42 -8 -37 -18 -16 -6 -10 -19 46 59 -22 53 -12 -15 -38 -36 -27 -13 -5 -3 -56 -35 -11 -7 -42 -31 -50
right_child=2 4 3 16 9 7 8 14 20 23 29 18 -14 48 32 -17 38 35 -20 -21 34 22 -24 -25 -26 51 31 -29 -30 60 -32 -33 -34 56 50 37 49 -39 -40 -41 44 -43 -44 -45 -46 -47 -48 -49 61 -51 -52 -53 -54 -55 55 -57 -58 -59 -60 -61 -62 -63
leaf_value=0.035038883087336624 0.0068508033831110376 0.064115803492922563 0.012392744953853818 0.087839768818835456 0.014441066190849726 0.040179194951211458 0.063834400067407107 0.047191908114352497 0.076857829067360425 0.05732054024959448 -0.0085298544576500306 -0.049610684180732195 0.088756909787508276 0.056453347815189014 0.059682500345852499 0.079076476542428137 0.11533365467402745 0.012720566964766764 0.031021282272401231 0.094551431271848493 0.054980018290858829 0.001420990321343876 0.014549209399785651 0.034622281405446875 0.055647569605150916 0.019432498410123192 0.022838921949165522 0.092951277915377106 0.071235392858135169 -0.0015013735621335191 -0.024075772427049311 0.034175855019553517 0.10851727253375905 -0.01288542008557899 0.078150253499745179 0.049489719144794136 0.070620291037835681 0.028718201244586784 0.10354891721760806 0.069042764323781564 0.064604813016850143 0.08599371079459639 0.027926445712431816 0.11193779118364922 0.024332391436522251 -0.0019827886322615717 0.069069517427024094 0.0025243711303845461 0.043538291213998825 0.0047391229662199046 0.058276119680253292 0.032558265673957115 -0.056724682327271292 0.098832264958159888 -0.035014460105036616 -0.020593182810867843 0.047433614244284869 0.081765880137273469 0.083750318787917472 -0.010905477853399598 0.015145508034649098 0.054922387482346374
leaf_weight=287.13415448367596 3212.8671170324087 26.647942140698433 1097.279686614871 5815.364533752203 4133.1394060701132 10702.193565651774 22032.249179065228 13115.989675983787 6329.0332029014826 774.955701187253 3261.8740741014481 8862.7728441059589 878.29205791652203 4431.6407419592142 6193.4725285023451 16663.014584288001 4540.0177509337664 2462.8006317466497 170.07283395528793 607.77565839886665 363.35853256285191 6428.0040223002434 10067.56044255197 1130.0248572975397 23109.55983042717 4232.557905331254 4511.0965055078268 7573.23971106112 186.05461412668228 923.40707714855671 467.63662968575954 12058.160718977451 227.06224276125431 5140.8805671036243 1769.6725662052631 1091.4459143280983 14516.698030158877 3581.3685698062181 5425.6189492493868 10145.178446859121 324.13360887765884 10497.976205065846 3288.0321030914783 707.93748609721661 2101.8122969418764 119.410404920578 625.38874274492264 5670.5325625985861 5905.8103469163179 53.593678921461105 842.28234334290028 1853.4092548638582 14078.859829619527 2570.3118775188923 1540.8464656174183 3938.3269676566124 58.202670753002167 638.23761914670467 109.72907422482967 39.020596563816071 2985.7411443889141 2019.915588080883
leaf_count=960 12980 89 4374 12773 15552 34254 59968 40348 15501 2209 14339 46890 2065 12711 17250 40023 7722 9274 582 1332 1060 25986 37910 3752 66983 16138 16110 16196 524 3843 2162 40470 454 23314 4372 3350 37526 12339 10333 26518 964 23920 11488 1291 7431 440 1557 23602 18391 183 2333 6601 76978 5233 7581 18113 185 1597 289 155 11645 5983
internal_value=0.0423662 -0.00810995 0.0628177 0.0786688 0.00918743 0.0471667 0.0735155 0.0500808 0.0749111 0.0197647 -0.00709459 -0.0523115 0.0406522 0.0395886 0.0572524 0.0703931 0.10022 0.0172176 -0.053397 0.0532792 0.0836633 0.0128972 0.00942802 0.0535146 0.0525864 0.0177031 0.0348543 0.0857846 0.0212862 0.00236116 0.00149099 0.031071 0.0660859 -0.0184381 0.0669343 0.026866 0.0664397 0.0335719 0.108919 0.0654953 0.0199082 0.0825583 0.0214157 0.0912988 0.0290722 0.0408827 0.0896755 -0.00151182 0.0500781 0.0703783 0.0717458 0.0234311 -0.0540232 0.0912108 -0.0243195 -0.0247517 -0.0122083 0.0678889 0.0405851 0.0564768 0.011212 0.0463824
internal_weight=288517 83191.9 205325 102010 59793 103315 82325.4 94015.9 80760.5 36246.6 23546.5 23398.8 40616.8 39738.5 53399 53265.6 19684.6 33703.4 23111.7 36833.3 27495 23279.7 16495.6 2543.22 36225.5 9298.83 27381.2 24400.2 6784.16 12841.6 1564.92 16569.3 16565.7 10704.9 3094.72 10423.6 36602.5 4672.81 9965.64 16338.7 6598.11 16827 5750.83 9719 2464.97 482.769 9011.07 8932.41 12357.4 14570.3 2611.95 6085.97 22941.6 8385.68 5505.82 5479.17 5199.08 1413.19 10811.9 363.154 3909.15 7925.73
internal_count=926496 360652 565844 246967 235242 318877 208058 283158 201522 132531 102711 125410 130273 128208 152885 137700 38909 124973 124450 108663 63822 88522 63896 7558 107331 35719 91123 55617 24626 53429 6536 56580 44222 49282 8205 36451 97677 15689 18055 43768 24102 39421 20762 20854 8550 1500 19563 37941 37085 37709 6705 22739 123868 18006 25783 25694 23499 3806 34543 1119 15488 24374
cat_boundaries=0 1 2 3 4 5 6 7
cat_threshold=39 39 39 1 38 88 27655
is_linear=0
shrinkage=0.05


Tree=5
num_leaves=63
num_cat=9
split_feature=4 4 4 5 3 3 3 4 3 4 4 17 3 7 7 7 7 17 4 3 6 4 19 19 18 17 4 3 4 4 19 3 7 17 4 19 7 4 4 20 17 17 6 20 19 3 3 5 4 17 2 4 7 4 4 6 7 19 4 11 12 7
split_gain=103577 23765.1 17529.9 3758.71 3478.82 3469.58 2766.09 2629.73 1195.87 1005.95 946.305 862.741 773.575 724.33 677.989 630.216 540.038 511.438 460.558 353.233 306.789 275.439 263.365 260.271 201.261 196.259 187.946 181.818 177.437 165.329 164.18 154.898 153.868 140.655 137.823 136.46 133.064 132.538 122.54 117.662 108.361 107.6 103.143 102.699 102.353 100.969 98.0755 99.0844 89.5322 88.5974 85.0808 83.9 83.7407 83.7284 79.7378 78.3178 78.1843 76.2111 72.8934 67.7878 90.2153 282.293
threshold=0.14908103644847873 1.0000000180025095e-35 0.3734277486801148 1.0000000180025095e-35 0.82493317127227794 1.0000000180025095e-35 1.0000000180025095e-35 0.25180554389953619 0.30547615885734564 0.53857204318046581 0.066744100302457823 0.99838578701019298 0.59523358941078197 4.5000000000000009 4.5000000000000009 4.5000000000000009 4.5000000000000009 1.0018162131309511 0.967443346977234 0.70947557687759411 3.5000000000000004 0.18813589215278628 0 1 2 1.0669480562210085 0.30525432527065283 0.17749333381652835 0.11194814741611482 0.12262380868196489 3 0.17749333381652835 4.5000000000000009 0.99999997019767772 0.044373333454132087 4 1.0000000180025095e-35 0.11423088610172273 0.47459125518798834 5 0.8661043941974641 1.0065997242927553 5.5000000000000009 6 7 0.71768486499786388 1.0658636689186098 0.87523949146270763 0.30946086347103124 0.89684268832206737 1.0000000180025095e-35 0.66354319453239452 3.5000000000000004 0.42278739809989935 0.69947713613510143 1.0000000180025095e-35 4.5000000000000009 8 0.18393540382385257 12.500000000000002 1.0000000180025095e-35 3.5000000000000004
decision_type=2 2 2 2 2 2 2 2 2 2 2 8 2 2 2 2 2 10 2 2 2 2 1 1 1 10 2 2 2 2 1 2 2 10 2 1 2 2 2 1 10 10 2 1 1 2 2 2 2 10 2 2 2 2 2 2 2 1 2 2 2 2
left_child=1 11 5 10 6 22 38 12 16 15 34 -1 13 21 19 36 23 44 46 26 32 41 52 24 -5 33 -9 -22 -25 -12 -10 37 51 -26 43 -15 -8 -18 -4 -33 -17 57 53 -3 -13 48 47 54 -16 -29 -23 -11 -2 -38 -6 -20 -31 -7 -37 -55 -61 -62
right_child=2 3 4 8 18 7 9 14 30 20 29 17 -14 35 45 40 31 -19 55 -21 27 50 -24 28 25 -27 -28 49 -30 56 -32 39 -34 -35 -36 58 42 -39 -40 -41 -42 -43 -44 -45 -46 -47 -48 -49 -50 -51 -52 -53 -54 59 -56 -57 -58 -59 -60 60 61 -63
leaf_value=0.034144267887567747 0.017530759266826641 -0.013032412557444004 0.011047884871657049 0.029606737023281045 0.081302886358921772 0.033369112845283461 0.069400038767204436 0.04701726804797806 0.065295544512409515 0.07635063365171503 -0.0012902921799720054 -0.047978429017749652 0.080437665180327453 0.054424372614647679 0.05934050542910816 -0.044319557415010084 0.016607387450946084 0.030131542551827664 0.10862454901032773 0.081188091679316898 0.037468439682309722 0.036084993657075772 0.0050897067205191576 0.0042572023913487805 -0.025779411965699769 0.062139701491632574 0.054186415825010298 -0.018833674913568424 0.014652946160528535 0.0062903675732184222 0.038620803712930883 0.050069330603818574 0.089889439907479593 0.012596246832893569 -0.011719049211237224 0.036965096542719483 0.058891246066866257 0.03185771632148144 -0.019961038954137384 0.029258690116041028 0.075493818734366905 0.060820098622974085 0.049504183823772183 -0.027802564390559725 -0.055663853149170876 0.091066225915853838 0.096031277453681424 0.062507294793540946 0.066631778615520887 0.072988715318843198 0.043397428094676643 0.084877389038589074 0.029020918131956227 0.068590172949787614 0.091579079318024031 0.098249924444137687 0.021248382815519547 0.024587992436355052 0.046708010310916558 0.063304901451026754 0.052866391391839108 -0.078353681915750858
leaf_weight=294.03278875350952 3549.942367374897 1724.1538877487183 719.35205341875553 3266.5075554549694 3954.5895110666752 4130.4842925816774 7215.3296285420656 16315.485958039761 1247.4367034584284 7224.4856343865395 8708.95449231565 8617.6285611540079 1134.6929455697536 5480.462922975421 7945.3440786153078 18.780858919024467 4552.7595842033625 187.62929083406925 3985.4468724578619 998.54281467199326 388.62746667861938 15411.419342339039 3236.2901210486889 9010.7929148077965 258.35360722243786 188.03673034906387 20869.844069540501 26.245526850223541 7541.5703079253435 2855.6882628500462 1347.9025097042322 878.17488586902618 5498.0321021527052 3125.1122289896011 5160.8938749134541 2708.7242159545422 9898.3667306303978 2075.8266498297453 571.6338607519865 3017.2209825217724 15871.433319523931 251.42836597561836 1620.8286020755768 3720.2175768911839 13641.58805949986 333.25572954118252 2626.0968264490366 469.36643938720226 9044.3797944188118 6993.385737285018 5379.4746534973383 4857.5932354032993 2872.5746034234762 6732.4187353253365 3667.7664029747248 3413.5930256098509 1259.6306571215391 7545.9041602313519 6669.6137707531452 8919.8349352329969 579.79942575097084 43.987025424838066
leaf_count=973 13527 7849 2865 11307 8562 13404 18081 48171 3257 16631 36724 46760 2630 15289 21110 72 16640 640 6548 2260 1202 49365 13056 35879 1090 544 58246 93 27975 11727 4266 2586 11177 11627 23470 8490 26383 6925 2622 10170 36747 728 4614 17936 76924 691 4979 1150 22662 16584 16636 10315 10244 16759 7231 6239 4796 26262 19729 22804 1557 190
internal_value=0.0399699 -0.00740759 0.0586967 0.00910386 0.0745196 0.0454553 0.0698907 0.0481123 0.0191341 0.0711253 -0.00652586 -0.0509277 0.0396335 0.0386601 0.055553 0.0670907 0.0166305 -0.0520424 0.0942387 0.0518299 0.0793431 0.0345018 0.0167861 0.0123978 0.0206061 0.0124297 0.0510411 0.0708003 0.00898863 0.00261174 0.0518462 0.0260372 0.0829424 0.00966382 -0.0175758 0.0478159 0.063341 0.0213844 -0.00267912 0.0339527 0.0753516 0.0284427 0.0617677 -0.0231263 -0.0527355 0.0637591 0.0876089 0.0848737 0.0632226 0.0726444 0.0379775 0.0797799 0.0226358 0.0625267 0.0862494 0.10384 0.0108704 0.0277446 0.0438482 0.064737 0.0620176 0.0435942
internal_weight=291855 82680.1 209175 59939.2 95297 113878 77180.1 104219 36509.7 75889.1 23429.5 22740.9 48712.2 47577.5 55506.9 50900.8 33914.4 22446.8 18116.9 38183.9 24988.4 32718.7 9658.81 23390.4 6838.01 3571.5 37185.3 7408.26 16552.4 12824.3 2595.34 10524 17580.1 3383.47 10605.3 14858.8 35010.6 6628.59 1290.99 3895.4 15890.2 11927.8 27795.2 5444.37 22259.2 17323 10717.8 8091.72 16989.7 7019.63 20790.9 12082.1 6422.52 26174.4 7622.36 7399.04 4115.32 11676.4 9378.34 16276 9543.62 623.786
internal_count=925970 360065 565905 234768 223405 342500 188696 305673 132266 183209 102502 125297 152533 149903 153140 127207 124743 124324 34709 108677 56002 106395 36827 88422 24568 13261 106417 17879 63854 53247 7523 36321 38123 12717 49255 43508 90388 23565 5487 12756 36819 40394 72307 25785 123684 44463 21922 16943 43772 16677 66001 26946 23771 67693 15793 12787 16523 39666 28219 41310 24551 1747
cat_boundaries=0 1 2 3 4 5 6 7 8 9
cat_threshold=106 39 1 38 38 1 2 88 39
is_linear=0
shrinkage=0.05


Tree=6
num_leaves=63
num_cat=10
split_feature=4 4 4 4 5 3 3 4 3 3 7 3 17 4 3 7 7 17 3 7 4 6 19 13 4 3 19 19 4 4 3 4 4 19 19 4 17 3 3 19 7 13 15 3 20 7 3 6 4 7 4 17 19 4 3 4 17 17 12 5 7 0
split_gain=91236.7 20421.5 16896.9 4241.57 3111.97 2262.85 1965.07 1571.15 1404.78 1050.72 856.441 832.619 808.91 737.673 627.966 552.568 523.155 481.015 381.623 370.728 364.159 295.561 278.002 226.17 195.414 184.454 160.696 160.539 157.472 155.902 149.631 140.602 127.833 127.589 121.436 116.054 112.276 109.868 103.221 102.744 101.581 100.83 97.6819 97.562 114.812 96.3139 95.5073 94.579 94.2775 93.5723 86.6824 86.4935 84.3962 82.7047 79.0835 81.6568 78.8728 76.9438 76.4873 74.892 68.9649 67.5496
threshold=0.13862537592649463 1.0000000180025095e-35 0.32391723990440374 0.56121996045112621 1.0000000180025095e-35 1.0000000180025095e-35 1.0000000180025095e-35 0.22307416796684268 0.17749333381652835 0.28752511739730841 4.5000000000000009 1.0726715326309206 0.99838578701019298 0.066744100302457823 0.51579323410987865 4.5000000000000009 4.5000000000000009 1.0018162131309511 0.63381916284561168 4.5000000000000009 0.42278739809989935 3.5000000000000004 0 1 0.7143303155899049 1.0000000180025095e-35 2 3 0.45016935467720037 0.27688255906105047 0.76920759677886974 0.18393540382385257 0.044373333454132087 4 5 0.11194814741611482 1.0669480562210085 0.98187780380249035 0.76588472723960888 6 3.5000000000000004 7 2.7749999761581425 0.12798282131552699 8 4.5000000000000009 1.3646032810211184 5.5000000000000009 0.083937149494886412 1.0000000180025095e-35 0.11423088610172273 1.0068965554237368 9 0.28104855120182043 0.39147421717643743 0.10510900244116785 0.89684268832206737 0.99999997019767772 1.0000000180025095e-35 0.7096153497695924 4.5000000000000009 1.0000000180025095e-35
decision_type=2 2 2 2 2 2 2 2 2 2 2 2 8 2 2 2 2 10 2 2 2 2 1 9 2 2 1 1 2 2 2 2 2 1 1 2 10 2 2 1 2 9 10 2 1 2 2 2 2 2 2 10 1 2 2 2 10 10 2 2 2 2
left_child=1 12 5 6 13 23 34 14 25 19 20 21 -1 32 15 26 18 39 29 27 30 24 54 40 45 -5 51 36 -12 -9 49 -28 41 48 -4 -29 57 47 53 -14 -2 -3 -25 50 -45 -10 -13 59 -15 -8 -21 -7 -17 58 55 -11 -23 -6 -18 -22 -26 -58
right_child=2 4 3 8 9 7 10 16 11 22 28 46 17 33 -16 52 38 -19 -20 43 37 56 -24 42 60 -27 31 35 -30 -31 -32 -33 -34 -35 -36 -37 -38 -39 -40 -41 -42 -43 -44 44 -46 -47 -48 -49 -50 -51 -52 -53 -54 -55 -56 -57 61 -59 -60 -61 -62 -63
leaf_value=0.032029083330723178 0.01602068279255181 -0.011902861790873416 0.023997186159459359 -0.022045465944272771 -0.0072144754345076535 0.032642629480481349 0.059220664942753354 0.039726305143104941 0.073522412712832927 0.060763075888987897 0.066171247008079789 0.09029253078709315 -0.046825418478117893 -0.00391229762703082 0.069029931487462448 0.047825939178774389 0.052573235166107117 0.028297058035313995 0.074497460688594933 0.014286379267332075 0.063340724135052415 -0.023008845099138271 0.028547172969239049 -0.0030798470061349859 0.082818387068444799 0.032595559377581622 0.020301842104645182 0.0035214138987043524 0.074472865148326836 0.046703403614235216 0.0771731953926513 0.029719856424077734 -0.011198605815780256 -0.006712564242255842 -0.002718827589607088 0.012943735027006149 0.055761467534089587 0.088067166572964928 0.093134105222770311 -0.054602886187927802 0.028904769948794647 -0.02688532894754303 0.013187345102482487 0.044175062581186642 0.023494209898039138 0.082733010838966711 0.10126645061888465 0.047374849574893386 0.0079599752054858464 0.052203751976633732 0.029231081965810063 0.059669543189429679 0.038069450271599435 0.058816964662499041 0.070008260839943048 0.033080932128995169 0.072596495258312452 0.017263517850846368 0.034976718578054532 0.053106402912346189 0.09184537771983603 0.061577247832862371
leaf_weight=297.6868035197258 3342.4702169746161 1698.0085176378489 700.09437038004398 304.12026466429234 341.66451379656792 9035.9107489436865 5998.6231876015663 18865.980370432138 9274.9956025034189 592.71888072788715 16667.083607643843 3836.2111330926418 8394.2993776500225 2307.0342524498701 1206.3602293133736 3879.1021185368299 8296.5398410260677 189.75327497720718 971.60860370099545 3978.7510132193565 22435.092392534018 23.739615902304649 1976.5324671268463 1595.9399057179689 6916.5121117532253 313.55595253407955 7813.043129503727 8714.3377898186445 8730.2823312431574 13947.147913306952 693.15218244493008 8056.2098973244429 5131.4780512154102 3462.0984438210726 1060.9010889232159 5231.0178025215864 181.17530630528927 408.31986753642559 173.76352740824223 13222.19896890223 2826.3320974558592 3684.0469159036875 2186.5656028389931 892.97717420756817 2713.9956320822239 4122.7190776914358 4170.806485503912 1080.7871878743172 6071.506350338459 23236.238042280078 1284.7554181367159 306.60827371478081 7676.496386051178 6111.819137185812 690.00012861192226 486.80470392107964 3409.9153342694044 5235.0434960275888 670.04364342987537 1953.6596576422453 3088.8825864940882 2375.6051976084709
leaf_count=973 12728 7769 2609 1450 1362 28747 15586 57095 20451 1606 39548 7017 46760 9891 2922 10907 22411 640 2229 14567 54916 86 6629 6648 13824 973 27528 34724 19142 39631 1510 26403 23470 14830 4411 19363 520 799 336 76924 9958 18016 8440 2653 9248 8318 6821 3023 24606 62606 4250 850 23421 15565 1684 1500 7737 18870 1957 5018 5757 5737
internal_value=0.0376047 -0.00926101 0.0541284 0.0666066 0.007135 0.0385823 0.0602789 0.0411655 0.0804806 0.0170557 0.0614121 0.0817217 -0.0498165 -0.00720824 0.0335298 0.0323647 0.0470784 -0.0509342 0.0436072 0.0137911 0.0579471 0.0778047 0.0419548 0.0159951 0.0803124 0.00568509 0.028214 0.00996922 0.0690254 0.0426922 0.0541893 0.0250677 -0.0168473 0.00135011 0.00802103 0.00705117 0.0169937 0.0622927 0.0547665 -0.0516301 0.0218894 -0.0222318 0.00630589 0.0222796 0.0286166 0.0763576 0.0960106 0.061879 0.00468474 0.0536439 0.0179356 0.0334949 0.0414198 0.0543234 0.0564453 0.0482888 0.0677004 0.0157628 0.0512593 0.0625213 0.0856066 0.0680739
internal_weight=294541 76777.9 217763 120801 54673.9 96961.9 82964.2 87010.6 37837.1 32319.8 81203.2 37219.4 22103.9 22354.2 37973.7 36767.4 49036.9 21806.3 33784.7 28573.7 55805.9 29212.4 3746.06 9951.31 23403.1 617.676 25211.8 19703.2 25397.4 32813.1 29928 15869.3 10513.5 11840.6 1761 13945.4 5757.88 25877.9 15252.2 21616.5 6168.8 5382.06 3782.51 8870.48 3606.97 13397.7 8007.02 25469.5 8378.54 29234.9 5263.51 9342.52 11555.6 15078.4 1769.52 1079.52 5809.26 5576.71 8966.58 24388.8 10005.4 5785.52
internal_count=925970 340855 585115 287339 215558 297776 209168 260002 78171 116976 202148 75748 125297 98582 120778 117856 139224 124324 98955 105557 143458 61910 11419 37774 48350 2423 83528 74839 58690 96726 79702 53931 49255 49327 7020 54087 20752 63756 40269 123684 22686 25785 15088 30718 11901 28769 13838 62957 34497 78192 18817 29597 34328 39933 4790 3106 13560 20232 24368 59934 19581 13474
cat_boundaries=0 1 2 3 4 5 6 7 8 9 10
cat_threshold=39 21680 39 39 106 74 88 232 1 38
is_linear=0
shrinkage=0.05


Tree=7
num_leaves=63
num_cat=13
split_feature=4 4 4 4 5 6 4 6 6 16 5 4 7 4 7 7 16 19 4 7 19 15 6 5 6 4 6 4 6 4 16 19 4 5 4 19 5 20 6 19 19 4 7 7 19 19 11 13 7 6 4 13 7 19 4 5 7 13 11 7 7 4
split_gain=80649.6 19014.3 15011.9 3273.33 2791.76 2423.61 1881.26 1504.67 1148.72 783.188 732.045 673.752 659.737 631.354 628.498 462.724 443.244 323.232 286.965 281.13 262.249 226.4 208.18 202.683 178.343 171.064 169.209 148.699 140.79 135.74 133.107 147.304 124.964 120.867 117.412 115.208 111.915 107.541 106.771 104.823 102.817 99.3626 96.6667 92.6474 87.4378 87.0245 85.4147 117.813 214.302 81.3257 79.9984 78.8887 75.346 71.0284 70.1895 69.2137 69.0264 128.495 221.199 116.44 67.6695 65.5543
threshold=0.13862537592649463 1.0000000180025095e-35 0.34867249429225927 0.59206321835517894 1.0000000180025095e-35 6.5000000000000009 0.23755506426095965 6.5000000000000009 5.5000000000000009 -0.0020747273229062553 0.44643479585647589 0.066744100302457823 4.5000000000000009 0.967443346977234 4.5000000000000009 4.5000000000000009 0.0022979209898039703 0 0.43737004697322851 3.5000000000000004 1 2.9000000953674321 2.5000000000000004 0.26106816530227667 2.5000000000000004 0.17786153405904773 4.5000000000000009 0.27688255906105047 4.5000000000000009 0.10510900244116785 1.0000000180025095e-35 2 0.076369039714336409 0.57034611701965343 0.45016935467720037 3 0.33781032264232641 4 3.5000000000000004 5 6 0.053495218977332122 4.5000000000000009 4.5000000000000009 7 8 19.500000000000004 9 3.5000000000000004 4.5000000000000009 0.031995705328881748 10 4.5000000000000009 11 0.076369039714336409 0.53027001023292553 1.0000000180025095e-35 12 24.500000000000004 3.5000000000000004 2.5000000000000004 0.18393540382385257
decision_type=2 2 2 2 2 2 2 2 2 8 2 2 2 2 2 2 10 1 2 2 1 10 2 2 2 2 2 2 2 2 10 1 2 2 2 1 2 1 2 1 1 2 2 2 1 1 2 9 2 2 2 9 2 1 2 2 2 9 2 2 2 2
left_child=1 9 5 7 11 6 14 12 13 -1 19 30 18 22 20 27 40 55 56 32 26 51 42 -10 -15 -22 33 -8 37 -21 31 -3 36 -2 -14 43 -6 -16 -20 -17 -11 45 -5 54 -9 -38 -29 48 60 -19 -33 -7 -24 -23 -13 -12 -4 58 -58 -60 -48 -30
right_child=2 4 3 8 10 21 15 44 23 16 17 35 34 24 28 39 -18 49 38 29 25 53 52 -25 -26 -27 -28 46 61 -31 -32 50 -34 -35 -36 -37 41 -39 -40 -41 -42 -43 -44 -45 -46 -47 47 -49 -50 -51 -52 -53 -54 -55 -56 -57 57 -59 59 -61 -62 -63
leaf_value=0.032221347096359564 0.039129979804119891 -0.031083647739323258 0.057354914994313479 0.075301599889213616 -0.0014600486509294523 -0.0023972667285815895 0.039348765134673558 0.031076303334409573 -0.025954669094557667 -0.045702624760730552 0.038873370193223497 -0.0083456930923817216 0.062949103311567708 0.092586681910562907 0.061021079470583543 0.046784317829544668 0.027164585682893223 0.036380971382936556 0.06234516741848331 0.014401312226506313 0.019487959746357964 0.031405911244038874 0.065593338552512911 0.032538770876284297 0.067896232968929007 0.029068447515408175 0.030668787352665303 0.048213679442424356 0.033709994934150452 0.025246773750466502 0.035953691731329653 -0.019664545920321325 0.011947949135878821 0.062181304233872442 0.070069334469387123 -0.006397970289706784 0.053203282458229188 0.04369311599609077 0.05584990570647437 0.056350048874886587 -0.053562916232373081 0.0033770411881518039 0.084220464696942318 0.012335375525354198 0.00023736919395475162 0.014273602201444871 0.06050707519625978 0.042869203185045605 -0.078824076149988848 0.016288590963080215 -0.010028204341097718 0.012725455940214295 0.075113061063262765 0.017662634938604368 0.0041939507486029141 0.055739848824179705 0.047831954007601984 0.051502949149415549 0.010677115672850167 -0.079893635561179663 0 0.04169391085848112
leaf_weight=294.44758230447769 3288.2593499720097 1533.2984460145235 5253.0565478652716 9975.9799465984106 4402.5019657611847 1913.3323128968477 13805.279323354363 280.59010882675648 242.80487026274204 8180.4294167309999 1311.6454062908888 1505.3335359692574 13172.59802120924 7517.5142693817616 1318.9556167125702 5005.1775043606758 184.95688632130623 670.01681743562222 15457.123632088304 7797.1451404392719 7824.4087231755257 1174.1399657577276 6715.5197488963604 379.16122861206532 813.54470670223236 11538.989695325494 8690.1458229422569 14685.116772294044 4452.9106076359749 4584.0534548908472 121.0155424028635 3813.7479275465012 9011.5733605027199 689.16557034850121 10399.251757502556 3451.4913110435009 229.47347602248192 2811.5903975069523 10776.380364209414 11555.138386026025 12818.845508515835 903.78337855637074 4404.5050918459892 2578.404619589448 1111.2757484316826 425.25664930045605 99.208489343523979 8047.2812121957541 56.437702208757401 2037.3008233755827 4957.1337520480156 1558.1456303447485 3036.8836522698402 5803.7412978708744 4312.2588382065296 1142.4636927843094 292.43709246814251 19930.801987722516 83.659183651208878 61.400966301560402 86.692749321460724 6130.1418128162622
leaf_count=937 9726 7804 13180 20231 17746 7952 40534 996 1193 46784 3858 6670 30506 12671 3269 13241 611 2067 36126 28367 27300 4076 15046 1130 1737 37069 27338 39998 13576 15397 410 18282 33474 1696 22413 14830 706 7944 26779 28912 76965 3536 8278 10016 4607 1635 255 22468 243 7227 22759 5962 6267 21458 17811 2963 774 51805 260 262 288 17549
internal_value=0.0354476 -0.00887084 0.0507808 0.0638662 0.00676074 0.0377699 0.0401622 0.0582027 0.0770152 -0.048744 0.0161021 -0.00687624 0.0591533 0.0783047 0.0328389 0.0465797 -0.0498698 0.0333737 0.0559995 0.0128428 0.0289088 0.0148554 0.0742057 0.0096954 0.0901771 0.0251845 0.0345538 0.0434537 0.0413942 0.0184173 -0.0161468 -0.0167595 0.0082327 0.0431268 0.0660908 0.00128099 0.00261522 0.0492288 0.0596774 0.0535218 -0.0505486 0.0141296 0.0780342 0.00444068 0.00668461 0.028962 0.04592 0.0418555 0.00614705 0.0211859 -0.0142028 0.00441893 0.068559 0.0200466 0.000948303 0.0465396 0.0522333 0.0509119 0.0222821 -0.0276538 0.0323293 0.0383354
internal_weight=296705 76266.6 220439 109904 54787.9 110534 100085 76818.6 33085.9 21478.7 32515.2 22272.7 75426.7 32463.9 46744.6 53340.3 21184.2 5161.43 51854.9 27353.8 32031 10449.4 24132.9 621.966 8331.06 19363.4 12667.6 36780 14713.6 12381.2 10425.2 10304.2 14972.6 3977.42 23571.8 11847.5 5961.02 4130.55 26233.5 16560.3 20999.3 1558.51 14380.5 8396 1391.87 654.73 22974.7 8289.62 242.339 2707.32 8770.88 3471.48 9752.4 6977.88 5817.59 2454.11 25621.4 20368.3 437.497 145.06 185.901 10583.1
internal_count=925970 340855 585115 254261 215558 330854 291406 187708 66553 125297 116976 98582 182105 64230 145467 145939 124360 16115 129186 100861 103129 39448 49822 2323 14408 64369 38760 103786 42338 43764 49255 48845 57097 11422 52919 49327 23623 11213 62905 42153 123749 5877 28509 34497 5603 2341 63252 23254 786 9294 41041 13914 21313 25534 24481 6821 66281 53101 1296 522 543 31125
cat_boundaries=0 1 2 3 4 5 6 7 8 9 10 11 12 13
cat_threshold=39 39 5 106 1 80 88 72 38 2114 1119 8 2130
is_linear=0
shrinkage=0.05


Tree=8
num_leaves=63
num_cat=7
split_feature=3 4 4 4 4 4 7 3 3 16 3 7 4 17 7 19 4 6 4 3 4 19 4 3 3 4 7 3 6 4 19 16 4 3 5 19 17 3 7 13 8 17 1 7 13 4 4 17 2 5 7 17 2 6 4 19 7 16 16 6 3 16
split_gain=71606.4 21146 11892.7 4419.38 3135.17 1551.36 872.575 858.895 832.962 734.761 676.653 576.576 569.982 427.733 392.96 359.153 317.621 293.588 253.018 210.267 199.147 189.492 175.985 149.446 147.036 141.331 135.828 134.11 131.652 124.938 122.94 121.672 118.321 115.045 112.922 103.908 103.828 103.126 102.994 187.826 403.907 101.128 98.3801 98.2877 93.7558 91.2175 90.2329 87.6305 84.5573 85.4081 83.7746 85.1099 83.4429 82.3375 78.3907 76.7643 73.8322 84.8724 75.6293 73.1447 72.1525 72.0202
threshold=1.0000000180025095e-35 0.27688255906105047 1.0000000180025095e-35 0.55311569571495067 0.14908103644847873 0.083937149494886412 4.5000000000000009 0.30547615885734564 0.97192925214767467 -0.0020747273229062553 0.60894009470939647 4.5000000000000009 0.3758122473955155 1.0018162131309511 4.5000000000000009 0 0.21289115399122241 3.5000000000000004 0.3758122473955155 0.72591215372085582 0.044373333454132087 1 0.12262380868196489 0.98908537626266491 1.3646032810211184 0.76346856355667125 4.5000000000000009 0.40041443705558782 5.5000000000000009 0.11194814741611482 2 0.020456807687878612 0.10510900244116785 0.17749333381652835 0.87218084931373607 3 1.0240074992179873 0.12798282131552699 1.0000000180025095e-35 4 11.500000000000002 0.8661043941974641 1.4978661537170412 4.5000000000000009 5 0.053495218977332122 0.090175997465848937 0.99999997019767772 1.0000000180025095e-35 0.82586780190467846 4.5000000000000009 1.0015358924865725 0.89587974548339855 4.5000000000000009 0.22071419656276706 6 4.5000000000000009 0.0016334261745214464 -0.085923429578542695 4.5000000000000009 0.85156461596488964 0.0059603839181363591
decision_type=2 2 2 2 2 2 2 2 2 8 2 2 2 10 2 1 2 2 2 2 2 1 2 2 2 2 2 2 2 2 1 8 2 2 2 1 10 2 2 9 2 10 2 2 9 2 2 10 2 2 2 10 2 2 2 1 2 10 10 2 2 10
left_child=2 4 9 6 7 20 12 14 17 -1 11 16 19 35 21 22 36 25 60 48 44 31 -7 34 -10 43 61 32 -19 -23 -13 37 -9 46 38 -11 52 47 -14 40 -40 -20 56 -5 -4 -39 -16 -2 49 -3 51 -22 -6 -41 -32 -35 57 58 -17 -43 -8 -24
right_child=1 3 5 8 10 15 18 27 24 13 -12 30 23 -15 33 42 -18 28 41 -21 50 29 26 -25 -26 -27 -28 -29 -30 -31 54 -33 -34 55 -36 -37 -38 45 39 53 -42 59 -44 -45 -46 -47 -48 -49 -50 -51 -52 -53 -54 -55 -56 -57 -58 -59 -60 -61 -62 -63
leaf_value=0.030279496769997551 -0.022043580283172048 0.041886949146508638 -0.010568913740895839 0.065014116347343207 0.024417297698938432 0.0041345050607253034 0.053687182400744486 0.05095812470866682 0.078843518955952346 -0.044626207200796596 0.066740147004891684 0.045964069033023504 0.058125806443965068 0.025171139070122136 0.01166936208986619 0.095533146316719608 0.034420076440951596 0.060203847090410906 -0.049363952234709414 0.070327832187096276 -0.012273475531287992 0.003423145541863792 0.012572730621595403 0.081078105937642309 0.09085941963396453 0.076643996362032368 0.025429258389405157 0.057665777667637336 0.034677039983364133 0.012090062001278193 0.033595252955885495 0.05623824730667655 0.023889731275699981 0.041571186534715476 0.02808814242595142 -0.052609601753877799 0.054607375262340989 0.04610556206343823 0.039154367844282494 0.053656845759405138 -0.079416694506059607 0.06474116772271224 -0.028211022784238895 0.073446614040556926 -0.025124126702122457 0.019574091295063913 0.023236319091818194 0.012140254173774677 0.047164120617827848 0.0019905358133260158 -0.00055397837543099706 0.033266481694470107 0.037269987424637649 0.047208529592765613 0.041765209645494558 0.024454409251859904 0.0088507892810459204 0.073487559207240816 -0.0039663107793177386 0.056848080618763633 0.090581174126199052 0.087898967028667827
leaf_weight=297.58667382597923 198.41453686356544 21299.16596609354 1672.7728530615568 11254.325608968735 18710.994756996632 3804.9708462804556 14635.944266006351 668.16911472380161 6500.9339101314545 7965.107416510582 1569.6913227885962 7365.129894644022 7769.545607611537 193.26522529125214 3171.6819126605988 19.077058613300323 21735.258650541306 6217.9161944687366 19.912866055965424 744.14230608940125 5715.9612798839808 9072.1520211994648 7074.177611798048 470.13234096765518 4213.4975702315569 5936.0331014990807 3120.6248747706413 1004.9128987491131 551.32588456571102 7680.2811076641083 6427.6145003437996 194.44771857559681 1023.7613287270069 912.16539220511913 462.12160594761372 12410.342087030411 306.82365986704826 365.50800541043282 562.96827894449234 22989.177112668753 82.207016944885254 13725.259936347604 311.30127584934235 5019.9625575691462 3595.296718120575 2874.5943742841482 3606.4216257333755 3347.3297643810511 10254.473446577787 135.26941458880901 2528.8196440041065 104.32151214778423 1356.3221115916967 6340.0365387499332 5430.9321156740189 3102.7821370661259 1893.669446259737 35.948067560791969 4440.3923595100641 3760.1892600655556 134.25306096673012 31.801215618848801
leaf_count=937 841 58105 7769 24209 60751 15546 35544 1800 11960 46777 3519 19498 18468 640 11525 55 64648 14089 75 1583 26389 35879 27030 893 6838 11350 10985 2526 1583 27975 19036 522 3197 2586 1284 76943 835 1134 1485 55876 353 29836 1432 9902 18020 9825 12025 12218 27180 434 10875 382 4121 16420 14758 10170 7513 102 18678 8716 242 83
internal_value=0.0334692 0.0451394 -0.0179336 0.0574728 0.0275148 0.000152413 0.0520275 0.0160129 0.071655 -0.047706 0.034321 0.0334911 0.0489322 -0.0488346 0.0138899 0.0087643 0.0302149 0.0672493 0.0588469 0.0440424 -0.0129587 0.0102921 0.013307 0.0530324 0.0835701 0.0700294 0.0167322 0.043189 0.0581261 0.00739249 0.0406671 0.017215 0.0345848 0.0218002 0.0526869 -0.049537 0.0257285 0.0161206 0.0529879 0.0516558 0.0236619 0.062916 -0.000766686 0.0676159 -0.0205714 0.0225699 0.0178248 0.0102254 0.0434248 0.0416354 -0.00815445 -0.0114558 0.0252864 0.0522454 0.0373062 0.0285098 0.000568947 -0.00291874 -0.00353741 0.0630444 0.0540235 0.0129118
internal_weight=298420 243204 55215.4 143079 100125 34349.1 103385 37222.6 39694 20866.3 62902.8 61333.1 71109.2 20568.7 34525.8 20732 42109.4 28979.6 32275.6 32433.1 13617.2 23732.7 14031.6 38676.2 10714.4 22210.3 10226.6 2696.84 6769.24 16752.4 19223.7 6980.29 1691.93 10793.1 38206.1 20375.4 20374.1 6785.85 37743.9 29974.4 645.175 17505.4 6700.39 16274.3 5268.07 3240.1 6778.1 3545.74 31688.9 21434.4 8349.1 5820.28 20067.3 29329.2 11858.5 4014.95 6389.09 4495.42 4459.47 17485.4 14770.2 7105.98
internal_count=925970 655814 270156 336425 319389 144859 256494 132223 79931 125297 187166 183647 182081 124360 124700 81424 130355 61133 74413 87302 63435 88394 53644 94779 18798 45461 38098 7523 15672 63854 53292 24540 4997 36306 93886 123720 65707 24018 92602 74134 1838 38627 27780 34111 25789 10959 23550 13059 85719 58539 37646 26771 64872 72296 33794 12756 26348 18835 18733 38552 35786 27113
cat_boundaries=0 1 2 3 4 5 6 7
cat_threshold=106 39 38 88 2130 232 7
is_linear=0
shrinkage=0.05


Tree=9
num_leaves=63
num_cat=9
split_feature=3 4 4 4 4 4 3 7 3 16 3 7 4 17 7 19 4 6 4 4 3 19 4 4 4 3 17 7 3 19 4 16 19 4 3 19 4 6 0 3 17 4 20 13 6 17 19 3 7 17 4 11 7 2 4 15 13 15 0 17 16 15
split_gain=63836.8 18918.3 11184.5 4020.22 2841.42 1403.95 864.337 767.387 762.165 689.865 608.928 515.619 445.708 403.221 349.626 321.277 302.708 278.824 200.455 183.977 182.171 168.914 157.675 156.626 147.29 129.38 122.076 120.015 118.06 112.841 111.759 107.218 104.699 103.972 103.401 99.2095 93.5302 92.4036 112.915 91.7026 96.6525 94.448 87.9195 87.3129 84.969 80.8761 80.2295 77.9093 76.4015 76.5238 76.3628 75.6166 75.2246 72.3305 71.1273 71.0004 69.5195 78.7611 68.7403 67.4074 66.6063 65.5011
threshold=1.0000000180025095e-35 0.28104855120182043 1.0000000180025095e-35 0.53857204318046581 0.14908103644847873 0.083937149494886412 0.97192925214767467 4.5000000000000009 0.30547615885734564 -0.0020747273229062553 0.60894009470939647 4.5000000000000009 0.3758122473955155 1.0018162131309511 4.5000000000000009 0 0.19831891357898715 3.5000000000000004 0.3758122473955155 0.044373333454132087 0.76588472723960888 1 0.66354319453239452 0.12262380868196489 1.1064110994338991 0.9558318853378297 0.94677045941352855 4.5000000000000009 0.40041443705558782 2 0.11194814741611482 0.020456807687878612 3 0.10510900244116785 0.12798282131552699 4 0.11423088610172273 5.5000000000000009 1.0000000180025095e-35 0.17749333381652835 0.99999997019767772 0.066744100302457823 5 6 4.5000000000000009 0.8661043941974641 7 0.81046715378761303 4.5000000000000009 1.0015358924865725 0.47880940139293676 11.500000000000002 4.5000000000000009 1.0000000180025095e-35 0.22071419656276706 2.5199999809265141 8 2.5199999809265141 1.0000000180025095e-35 1.0250142812728884 -0.085923429578542695 4.9849998950958261
decision_type=2 2 2 2 2 2 2 2 2 8 2 2 2 10 2 1 2 2 2 2 2 1 2 2 2 2 10 2 2 1 2 8 1 2 2 1 2 2 2 2 10 2 1 9 2 10 1 2 2 10 2 2 2 2 2 10 9 10 2 10 10 8
left_child=2 4 9 7 8 19 17 12 14 -1 11 16 20 32 21 23 46 22 -9 43 51 31 52 -7 -8 44 -19 55 33 -13 -23 39 61 -10 36 -18 -16 -28 -39 40 -2 58 -36 -4 -14 -20 59 -12 49 -21 60 -3 -5 -37 -31 -25 -29 -58 -41 -6 -17 -11
right_child=1 3 5 6 10 15 24 18 28 13 47 29 25 -15 34 50 35 26 45 48 -22 30 -24 27 -26 -27 37 56 -30 54 -32 -33 -34 -35 42 53 -38 38 -40 41 -42 -43 -44 -45 -46 -47 -48 -49 -50 -51 -52 -53 -54 -55 -56 -57 57 -59 -60 -61 -62 -63
leaf_value=0.028485716099842726 -0.0187190926159614 0.044155625112998483 -0.010098216634908765 0.059192955236960755 0.026844444227812698 0.0039203741948262288 0.073762462254974362 0.050989985989201694 0.047780302053906439 -0.038522303135570257 0.057002289850211232 0.043327590468101945 0.050531848572248531 0.023705251801175609 0.011818950294375179 0.075100077400692744 0.020541824951083601 0.0035615538978218948 -0.045104095606189054 -0.011732942651777815 0.069278676045098783 0.0032471770479974532 0.069852156154350961 0.00072659874037917167 0.085478396139430993 0.074852356693049779 0.057097101236909864 0.0383544205252907 0.054081800127646365 0.031614698965970148 0.011431393893175181 0.052604491946333744 -0.051664029431906511 0.022536868981874372 0.037915147250394354 0.030875125836622993 0.025281474705667984 0.05007254949032245 0.001355003534714658 0.052717413529893224 0.012618938693194234 0.01861579958267973 0.022193523847590664 -0.024197376462841882 0.044744058400079487 0.059145020218621926 0.019969084976122937 0.084380411831340027 -0.0005264210104563206 0.031156662755931958 -0.024183089417080399 0.039079784630025663 0.067515543740164483 0.0367640478436334 0.039293889950087472 0.014365734981520753 -0.0024957253935714015 0.023391198468647612 -0.014817096198313602 0.059962526461976078 0.00013248770737918968 -0.047777044175300418
leaf_weight=300.43981251120567 262.12163498997688 11803.903833314776 1663.9094598442316 8807.2387178391218 5347.5723892599344 3811.9789368063211 5689.6616577506065 14539.634410023689 676.75266824662685 3484.0831669270992 1329.4861272126436 7607.2477262169123 28214.960749477148 194.91770333051682 4045.7489392161369 29.668414756655693 2019.2310026437044 114.93238091468811 18.502892673015594 5681.2411101460457 580.33551877737045 9085.2556899636984 11524.106543824077 1135.232478633523 5112.8914130777121 500.37437564134598 7149.9482677578926 673.27947719395161 1017.5948635786772 6487.1799130290747 7715.7390242815018 197.41219036281109 12015.84374293685 1030.7748968601227 1166.6594851613045 19038.972943127155 1896.2836229652166 427.59630987048149 165.05781301856041 345.899285197258 3962.1917433142662 2212.875200688839 3762.3533919006586 3547.9601443707943 8216.0153144598007 16660.82528410852 9497.5853710919619 324.95986194908619 2528.1631571501493 105.78412738442421 329.90619060397148 19547.979236796498 3955.2106010466814 7204.3096082359552 5662.4848288595676 6008.7445939481258 340.22331455349922 2137.8451129794121 42.115254506468773 158.4328705817461 6337.845936909318 4272.6516545563936
leaf_count=937 1102 31061 7769 19250 16559 15546 10538 34853 1800 20783 3068 19915 68002 640 14559 88 6344 357 70 26389 1193 35879 22575 4554 8430 963 16053 2192 2526 19036 27975 522 76943 3197 3344 56759 6073 1101 545 965 14311 7480 12330 18020 21002 36558 31694 612 10875 382 1595 52767 7893 20768 15229 22559 1356 7437 160 396 26097 25994
internal_value=0.0316469 0.0425373 -0.0172456 0.0542731 0.0260964 0.000141859 0.0670702 0.0487815 0.0151299 -0.0466983 0.0324411 0.0316548 0.045833 -0.0478299 0.0131297 0.00829501 0.0285981 0.0629568 0.0552852 -0.0123974 0.0415056 0.0097387 0.0656071 0.0125715 0.0793089 0.0495744 0.0547635 0.0157863 0.0405918 0.0383484 0.0070019 0.0162522 -0.0485355 0.0325469 0.0205605 0.0316458 0.0161164 0.0555228 0.0365154 0.0152231 0.0106728 0.022611 0.0259164 -0.0197632 0.0492268 0.0590288 0.0228564 0.0623876 -0.00777974 -0.0109476 -0.000729816 0.0409911 0.0617731 0.0324797 0.0351654 0.0121991 0.0239161 0.0197554 0.0453724 0.027749 0.000483746 -0.0435651
internal_weight=299726 245126 54599.7 143029 102097 34331.8 42946.6 100083 37419.8 20267.9 64677.5 63023 68863.6 19967.5 34694.7 20804.7 43266.1 32144.1 31219 13527.1 31932.2 23823.6 24286.6 14107.3 10802.6 36931.4 7857.53 10295.3 2725.12 19756.9 16801 7022.62 19772.6 1707.53 10871 28262.5 5942.03 7742.6 592.654 6825.2 4224.31 2600.89 4929.01 5211.87 36431 16679.3 15003.6 1654.45 8315.19 5787.03 6697.42 31351.9 12762.4 26243.3 12149.7 7143.98 3151.35 2478.07 388.015 5506.01 6367.51 7756.73
internal_count=925970 655814 270156 333211 322603 144859 86742 246469 132223 125297 190380 186700 174988 124360 124700 81424 132520 67774 71481 63435 85021 88394 49718 53644 18968 89967 18056 38098 7523 54180 63854 24540 123720 4997 36306 83871 20632 17699 1646 24018 15413 8605 15674 25789 89004 36628 48649 3680 37646 26771 27780 83828 27143 77527 34265 27113 10985 8793 1125 16955 26185 46777
cat_boundaries=0 1 2 3 4 5 6 7 8 9
cat_threshold=106 39 38 88 16 1 232 39 128
is_linear=0
shrinkage=0.05


Tree=10
num_leaves=63
num_cat=19
split_feature=3 3 3 6 19 19 3 1 1 1 16 2 3 19 1 19 16 16 17 1 17 17 2 1 16 13 2 3 18 13 19 1 19 3 17 17 18 18 9 12 8 17 1 9 13 18 18 20 1 3 19 17 1 13 5 5 19 5 2 2 17 19
split_gain=57242.4 12963.9 3187.7 2647.4 1298.02 893.854 669.55 606.101 497.433 460.945 383.428 368.063 367.039 286.631 270.646 255.171 252.223 245.712 201.616 188.555 171.422 168.865 162.136 161.619 158.581 162.954 143.512 129.675 126.9 120.039 111.211 110.779 110.464 107.761 100.761 98.4914 98.2092 97.2167 93.8705 116.642 176.822 90.2787 82.4916 82.2983 82.0149 121.47 115.558 81.0331 76.0691 75.3913 73.2171 72.1667 70.8604 67.9923 66.9901 65.872 63.1902 63.133 63.1164 60.2117 59.482 57.4526
threshold=1.0000000180025095e-35 0.39147421717643743 0.81624054908752453 5.5000000000000009 0 1 0.54537886381149303 1.0000000180025095e-35 1.0000000180025095e-35 1.0000000180025095e-35 0.0022979209898039703 1.0000000180025095e-35 1.1922412514686587 2 1.0000000180025095e-35 3 -0.0031034912681207056 -1.0000000180025095e-35 0.99999997019767772 1.0000000180025095e-35 0.9815543293952943 0.96106252074241649 1.2424533367156985 0.89587974548339855 0.0022979209898039703 4 1.0000000180025095e-35 0.28752511739730841 5 6 7 0.89587974548339855 8 0.24294267594814303 0.91953128576278698 0.93283382058143627 9 10 51.500000000000007 1.0000000180025095e-35 11.500000000000002 0.94848614931106578 1.4978661537170412 51.500000000000007 11 12 13 14 0.89587974548339855 0.70947557687759411 15 1.0068965554237368 1.0000000180025095e-35 16 0.83621680736541759 0.78100335597991954 17 0.80047115683555614 1.0000000180025095e-35 0.89587974548339855 1.0010215044021609 18
decision_type=2 2 2 2 1 1 2 2 2 2 10 2 2 1 2 1 8 8 10 2 10 10 2 2 8 9 2 2 1 9 1 2 1 2 10 10 1 1 2 2 2 10 2 2 9 1 1 1 2 2 1 10 2 9 2 2 1 2 2 2 10 1
left_child=4 3 6 5 7 19 15 17 10 13 16 14 54 18 27 31 -6 -1 28 33 -19 -11 35 29 25 -22 32 50 -5 49 -23 51 -15 -2 -34 -18 47 58 -31 -40 -41 -21 60 -35 46 -46 -37 -27 59 57 -7 55 -17 -9 -4 -3 -16 -8 -20 -13 -10 -32
right_child=1 2 12 9 8 11 23 53 42 21 -12 48 -14 26 56 52 22 20 37 41 24 30 -24 -25 -26 36 -28 -29 -30 38 61 -33 34 43 -36 44 -38 -39 39 40 -42 -43 -44 -45 45 -47 -48 -49 -50 -51 -52 -53 -54 -55 -56 -57 -58 -59 -60 -61 -62 -63
leaf_value=0.034748719190002317 0.033246674647173936 0.046604018240258588 0.067696284777179913 0.033040967765904282 0.030553047981761273 0.023454140744927819 0.052685183279742101 0.011553977816449432 -0.0063840926519789249 -0.013341045128718388 0.035339045621508559 0.034136528972812857 0.080890171398093014 0.0059952320694689094 0.036437824084435459 0.03793296412352723 -0.058365899395704739 -0.046420987901399521 0.026850536063129912 0.0024265605620893307 -0.0095075044346101933 0.03513190056617807 -0.046008080463441715 0.059732711401230723 0.032369876473323435 -0.028290257451626902 0.022735918249461362 0.029295546265343565 -0.022340102422661934 0.046557076665888944 0.027575222492250546 0.054909451545773674 -0.037718380340159369 0.040798337764898829 0.015557763305774415 -0.01609089004348728 -0.012804418727419054 0.020927115544787159 0.043717320387897336 0.042869858606150113 -0.084981248879230892 0.045389567497066526 -0.031486386260677769 0.023409936712090608 -0.037445340857951502 -0.025521955823602362 -0.031592438741069352 -0.017853858084221571 0.049587308267815232 0.058169184853309089 0.013555057073729832 0.062411730239083502 0.04425864765001758 -2.6948355884090823e-05 0.056519862293447611 0.030407454924358347 0.023228375589758668 0.038845711393273578 0.037718626256409364 0.042306558309714776 0.057472344633231802 0.014833054679191585
leaf_weight=257.53475433588028 8097.1707208752632 21835.49793985486 11942.539696887136 144.89121863245964 161.60213404893875 11756.665540516376 16671.220315679908 2052.7981402426958 2608.8208441287279 229.08308276534081 216.87269453704357 7602.27993093431 6528.5926915407181 4024.7200335264206 8371.4914110153913 11722.343140542507 307.30074326694012 409.35545539855957 4939.6126212328672 123.53262175619602 11515.364177167416 5889.9577063024044 1876.7420421689749 8919.7916238456964 184.36808726191521 2494.572346970439 5257.2192023843527 9912.9508011192083 360.58384796977043 5713.3626392930746 5921.7335831075907 4910.8288292735815 89.075615808367729 18198.271946877241 16784.105648502707 2282.8072212338448 7173.0145934522152 5688.2229250073433 155.74409726262093 51.69498573243618 56.443740546703339 15097.265252873302 345.01927533745766 708.81519167125225 5354.2149936556816 3562.151409059763 2545.2078669369221 7345.2754296511412 1255.6296592354774 6936.8643483668566 2352.829094171524 705.07639770209789 7150.3742098063231 3294.167861610651 1521.4371030032635 648.96956656873226 1186.4272471368313 871.37657541036606 1837.1734049022198 3221.267802208662 36.87227189540863 1145.1346030533314
leaf_count=822 23175 53280 23037 446 504 37234 38088 7944 10936 791 687 21667 10953 14665 22941 31015 2004 2367 15067 378 54780 16348 11718 18854 606 13912 17061 28967 1420 13479 17986 11076 376 47932 57743 11802 35062 18182 374 125 236 37742 1622 2023 31549 19544 14519 36767 3078 14836 7931 1604 17563 13168 3205 1729 3512 2154 5238 8620 119 3729
internal_value=0.0297846 0.039999 0.0531638 0.0300132 -0.0168287 0.0353142 0.048998 -0.01104 -0.0272252 0.0211071 -0.0306773 0.0304299 0.0711554 0.018382 0.0277434 0.0449659 -0.0315676 -0.0138613 0.0244763 0.0405787 -0.0142914 0.0291927 -0.0321984 0.0538078 -0.013833 -0.0141319 0.0153443 0.0249111 -0.00645219 0.0520722 0.0299452 0.048062 0.0134918 0.0380782 0.0152669 -0.0303533 -0.0172459 0.0257506 0.0451344 0.0160176 -0.0238336 0.0450412 -0.00849176 0.0401468 -0.0297262 -0.0326462 -0.0242143 -0.0205004 0.037923 0.0537254 0.0218301 0.0466322 0.0403087 0.00443994 0.0664341 0.0461369 0.0348613 0.0519983 0.0297981 0.0365689 -0.00549012 0.0255353
internal_weight=300562 246538 106342 140196 54024.1 87884.6 86349.6 34726.5 19297.6 52311.5 16306.9 45659.5 19992.6 39125.6 33580.4 46973.1 16090 29379.5 12970.5 42225.1 29122 13185.9 15928.4 39376.5 28712.6 28528.2 26155.1 24022.4 505.475 30456.7 12956.8 28100.4 20897.9 27004.3 16873.2 14051.7 17012.9 12465 5977.25 263.883 108.139 15220.8 2990.71 18907.1 13744.4 8916.37 4828.02 9839.85 12079.2 24479.5 14109.5 23189.5 18872.7 5346.97 13464 22484.5 9557.92 17542.6 6776.79 10823.5 2645.69 7066.87
internal_count=926292 655860 241608 414252 270432 245200 204413 165428 105004 169052 92327 133950 37195 130198 100585 116267 91640 144316 40353 111250 143494 38854 91136 88146 141127 140521 89845 74132 1866 69292 38063 67689 72784 73130 58119 79418 85741 38487 14214 735 361 38120 12677 49955 77414 51093 26321 50679 33365 55078 45165 56613 48578 21112 26242 55009 26453 40242 20305 30287 11055 21715
cat_boundaries=0 1 2 3 4 5 6 7 8 9 10 11 12 13 14 15 16 17 18 19
cat_threshold=90 39 38 39 25761 1 13325 39 16 1 1 12296 1 1 1 72 9368 72 72
is_linear=0
shrinkage=0.05


Tree=11
num_leaves=63
num_cat=11
split_feature=4 4 4 4 4 5 6 6 7 16 7 4 5 6 4 7 17 4 19 4 6 17 7 5 4 6 6 6 6 16 19 19 13 6 4 5 15 17 17 17 19 7 7 16 19 17 19 7 13 8 19 7 13 8 17 18 6 7 5 15 17 4
split_gain=52433.8 13457.9 11154.2 2919.02 1461.72 1447.74 1137.73 754.329 605.631 591.515 541.312 530.778 497.657 457.685 454.37 384.139 338.019 312.262 201.921 199.893 188.888 177.809 161.759 158.811 156.941 153.06 145.3 140.499 128.634 118.144 140.089 112.871 106.021 103.593 101.766 93.7872 92.8557 89.5292 88.9083 87.7537 87.2052 82.4082 81.3675 83.2089 80.3209 78.4639 77.5773 76.4002 131.442 276.9 76.0858 87.9357 147.817 158.181 75.6316 104.896 73.6638 72.4877 71.0506 71.0158 68.0081 67.4726
threshold=0.12941215187311175 1.0000000180025095e-35 0.32391723990440374 0.60421898961067211 0.18813589215278628 1.0000000180025095e-35 6.5000000000000009 5.5000000000000009 4.5000000000000009 -1.0000000180025095e-35 4.5000000000000009 0.95051136612892162 0.44643479585647589 6.5000000000000009 0.066744100302457823 4.5000000000000009 1.0029450058937075 0.42278739809989935 0 0.23755506426095965 6.5000000000000009 1.0155657529830935 3.5000000000000004 0.26106816530227667 0.45016935467720037 2.5000000000000004 2.5000000000000004 3.5000000000000004 6.5000000000000009 0.011006937362253668 1 2 3 5.5000000000000009 0.083937149494886412 0.26106816530227667 2.7749999761581425 0.94848614931106578 1.0211657881736758 1.0044168233871462 4 4.5000000000000009 3.5000000000000004 -0.0053588801529258481 5 1.0084111690521242 6 1.0000000180025095e-35 7 11.500000000000002 8 1.0000000180025095e-35 9 11.500000000000002 1.0138264894485476 10 3.5000000000000004 4.5000000000000009 0.3703701794147492 2.5749999284744267 0.89684268832206737 0.10510900244116785
decision_type=2 2 2 2 2 2 2 2 2 8 2 2 2 2 2 2 10 2 1 2 2 10 2 2 2 2 2 2 2 10 1 1 9 2 2 2 10 10 10 10 1 2 2 10 1 10 1 2 9 2 1 2 9 2 10 1 2 2 2 8 10 2
left_child=1 9 4 6 15 14 10 11 13 -1 17 25 21 19 29 20 31 45 54 39 27 22 34 -9 -12 41 -13 -2 32 30 -3 59 60 -19 58 -17 -16 -27 50 -6 -29 -5 43 -32 -22 47 -8 -4 49 -49 -21 -52 53 -53 55 -14 -37 -38 -7 -11 -10 -24
right_child=2 5 3 7 8 12 46 23 28 16 24 26 18 -15 36 35 -18 33 -20 38 44 -23 61 -25 -26 37 -28 40 -30 -31 42 -33 -34 -35 -36 56 57 -39 -40 -41 -42 -43 -44 -45 -46 -47 -48 48 -50 -51 51 52 -54 -55 -56 -57 -58 -59 -60 -61 -62 -63
leaf_value=0.023423491531505053 0.035636382711365731 -0.028988750837995327 0.044467989998461029 0.060526653448535563 0.025117902880920796 -0.0027607334704642839 0.017295899245906503 -0.027933977519920584 -0.02281413952502935 -0.029280798395568453 0.048767199453479362 0.076493723814790929 0.044941511106603924 0.012064248741219951 -0.0074970004184107654 0.01653579021426313 0.01936068360498587 0.047518664072863065 0.015658506592154502 0.028224045256285531 0.011283969995293477 0.036451898258991811 0.0095964734507757461 0.026431449720205193 0.056378132794911141 -0.011869060886425319 0.055366927449449092 0.021397411904976786 0.025119415048300488 0.034689280757423169 0.093752801896140631 -0.04990759606771545 0.033596906357779191 0.032992687297846865 0.0078855159464850562 0.048557802225544927 0.00031020403316590797 0.055032485339758699 0.055610030632913809 0.048790582159388245 0.013976735097201782 0.069045807276347279 -0.0066411581831493666 -0.016859613839486198 -0.0030422083697808403 0.058004097743853872 -0.0031172279483836622 0.028100225558106141 0.038793370517081677 -0.079279914368408269 0.040547855387687147 0.01432876612134412 0.032933685365199014 -0.080183940073452087 0.066558341688243802 0.020481154893776665 0.028027458894091972 0.010595721908697196 0.015336819287374976 -0.043601826488170271 0.042016534767283044 0.018181111913960279
leaf_weight=306.69579078257084 1019.596464663744 1442.1521241217852 6347.4784582257271 9348.0028907805681 16722.420346170664 5341.0995359420776 867.64244340360165 216.07011234760284 40.40290093421936 1069.9117181748152 17226.021938323975 7844.2207202911377 1095.7579660117626 3862.7157910019159 2513.1770512759686 1787.6938456594944 192.37991073727608 30740.954561293125 2006.7039626091719 9433.1360838711262 2521.3581880927086 548.14416000247002 7730.0963212400675 354.59275087714195 11199.127484247088 50.136687502264977 911.5576087385416 6186.3733446598053 1691.3301691412926 123.07593986392021 16.952005013823509 13197.764661595225 6190.2027013003826 1281.8659581691027 7311.9011930525303 462.03822961449623 5484.1731732338667 8809.0566147267818 409.78534872829914 401.36903317272663 11781.902398318052 4105.8324650228024 3795.5447047501802 4736.3594845682383 1592.4790903329849 590.05359247326851 989.18953707814217 365.33901463449001 24053.944323599339 71.726910158991814 4068.4665378630161 225.61488717794418 15415.31479716301 54.964803293347359 214.61607256531715 732.56044888496399 8317.05448782444 2491.66977211833 603.49163094162941 4610.6898547858 15030.587857276201 3255.3261352926493
leaf_count=946 2794 7748 15605 18626 50244 21231 3226 1110 136 6477 39278 13383 2813 14663 10998 6474 622 71195 6726 26753 9569 1666 27681 1021 23571 155 1897 19320 5898 403 51 88308 16502 3433 26815 1130 23383 18728 978 1027 40080 7621 17749 23364 6623 1330 4177 989 61320 308 10756 673 42244 234 474 2153 24255 9680 2196 28939 37828 10715
internal_value=0.0282109 -0.0101273 0.0395549 0.0496806 0.0277142 0.00371455 0.0452477 0.0628128 0.0316644 -0.0454459 0.0460308 0.0638591 0.0109462 0.0286078 -0.00640791 0.019085 -0.0465538 0.0434613 0.0271972 0.0299752 0.0154724 0.00829119 0.00765408 0.00583702 0.0517662 0.0597633 0.0742955 0.0175769 0.0384016 -0.0139695 -0.0145697 -0.0472259 0.0394578 0.0469375 0.00393543 0.0269826 0.000882944 0.0546532 0.0324629 0.0256733 0.0165517 0.0631274 -0.0120884 -0.0164621 0.00575714 0.0399192 0.0064953 0.0395728 0.0383037 0.0102188 0.0321377 0.0339737 0.0322907 -0.00404602 0.0382636 0.0351453 0.0291091 0.00352414 -0.000922412 -0.0408341 0.0418145 0.012141
internal_weight=301408 68820.2 232588 125373 107215 49442.8 93733.3 31639.5 73546.3 19377.4 91876.5 31068.8 28839.7 50593.8 20603.1 33668.5 19070.7 63451.4 4049.64 46731.1 23101.7 24790.1 24241.9 570.663 28425.1 22313 8755.78 18987.9 22952.5 10114.1 9991.01 18878.4 21261.2 32022.8 13256.5 10566.8 10489 8859.19 29607.3 17123.8 17968.3 13453.8 8548.86 4753.31 4113.84 31428.5 1856.83 30838.5 24491 437.066 29197.5 19764.4 15695.9 280.58 2042.93 1828.32 8779.09 7975.84 5944.59 5680.6 15071 10985.4
internal_count=926292 321138 605154 286973 318181 195846 224432 62541 207936 125292 217029 60410 102470 147572 93376 110245 124346 154180 12166 132909 78386 90304 88638 2131 62849 45130 15280 62194 60364 49315 48912 123724 54466 74628 50242 31859 44061 18883 81638 51271 59400 26247 41164 23415 16192 79552 7403 78222 62617 1297 80660 53907 43151 907 5440 4966 25385 33063 23427 35416 37964 38396
cat_boundaries=0 1 2 3 4 5 6 7 8 9 10 11
cat_threshold=39 5 80 4108 39 104 90 2114 80 2114 1
is_linear=0
shrinkage=0.05


Tree=12
num_leaves=63
num_cat=12
split_feature=3 3 3 6 19 19 3 1 1 7 7 1 3 7 16 19 16 16 7 17 2 2 17 13 15 19 7 19 2 3 15 17 19 7 15 7 13 11 19 19 17 17 13 2 15 2 1 7 13 11 11 7 7 3 12 2 7 7 16 15 17 5
split_gain=45907.5 10794.3 2869.77 2154.17 1148.16 730.707 599.301 494.683 424.969 391.152 380.522 369.183 344.385 331.41 330.907 231.977 217.712 205.022 196.719 174.761 173.421 155.256 150.679 150.307 143.694 139.825 136.583 129.303 120.609 111.331 111.068 107.426 105.614 103.59 98.7403 94.7342 195.716 255.83 94.4763 93.8611 91.9775 89.926 79.6001 77.9148 76.7726 85.7273 75.554 75.1034 103.814 224.953 73.0212 70.4639 67.7556 66.9063 66.6206 65.631 64.7137 64.4551 62.0897 61.5253 61.353 59.6566
threshold=1.0000000180025095e-35 0.39147421717643743 0.82493317127227794 5.5000000000000009 0 1 0.60894009470939647 1.0000000180025095e-35 1.0000000180025095e-35 4.5000000000000009 4.5000000000000009 1.0000000180025095e-35 1.1922412514686587 4.5000000000000009 0.0022979209898039703 2 -0.0031034912681207056 -1.0000000180025095e-35 3.5000000000000004 0.99999997019767772 1.0000000180025095e-35 1.2424533367156985 0.9836849868297578 3 2.9000000953674321 4 4.5000000000000009 5 1.0000000180025095e-35 0.30547615885734564 2.6750000715255742 1.0000162720680239 6 4.5000000000000009 1.7749999761581423 1.0000000180025095e-35 7 24.500000000000004 8 9 0.9621081054210664 0.91953128576278698 10 1.0000000180025095e-35 3.8549998998641972 1.2424533367156985 1.0000000180025095e-35 1.0000000180025095e-35 11 24.500000000000004 9.5000000000000018 4.5000000000000009 4.5000000000000009 0.28752511739730841 1.0000000180025095e-35 1.0000000180025095e-35 4.5000000000000009 3.5000000000000004 -1.0000000180025095e-35 10.97499990463257 1.0068965554237368 0.83155864477157604
decision_type=2 2 2 2 1 1 2 2 2 2 2 2 2 2 10 1 8 8 2 10 2 2 10 9 10 1 2 1 2 2 8 10 1 2 10 2 9 2 1 1 10 10 9 2 10 2 2 2 9 2 2 2 2 2 2 2 2 2 10 8 10 2
left_child=4 3 6 5 7 13 10 17 14 20 27 15 34 35 16 19 -6 -1 31 -5 29 24 -13 -20 30 43 -21 47 38 46 -18 40 -12 61 -4 -2 37 -37 -17 -24 -19 -40 -42 53 58 -46 -7 -3 49 -49 -38 -43 -36 -11 -15 -29 -9 -51 -10 -25 -60 -8
right_child=1 2 12 11 8 9 33 56 44 25 32 22 -14 54 -16 28 21 18 23 26 -22 -23 39 59 -26 -27 -28 55 -30 -31 -32 -33 -34 -35 52 36 50 -39 41 -41 42 51 -44 -45 45 -47 -48 48 -50 57 -52 -53 -54 -55 -56 -57 -58 -59 60 -61 -62 -63
leaf_value=0.031325698291867737 0.038774161724939978 0.046153541400285825 0.050324438461081158 -0.007029693233910235 0.027621473319860493 0.018205330343569547 0.048691993748522233 -0.00016819381670978817 0.06418884550733843 0.029476746256202665 0.050203678100588282 -0.011053885200739858 0.07458846116350662 0.043728174292118199 0.03195849623511153 0.004972499846044828 -0.030419868576686271 -0.052404618530641683 -0.0057903035261973844 0.019543818001768524 0.030276076552733511 -0.044170984036980013 0.031412940318146142 -0.017384977909408482 -0.02376783321541745 0.020777918874142036 0.030948330419886746 0.032585467252948745 0.020306976079145375 0.02850665853602391 -0.046407260231564593 0.019835344498220792 0.041882914835348901 0.054764799878977637 0.059705915108972954 0.026374276941818577 0.036636005230642414 -0.051036783478681229 -0.036807270408836155 0.022655078522196361 -0.019896434880233332 0.011726570111594174 -0.012643388466997918 0.041950996431747503 0.005396075623256209 -0.045357190782743452 0.025514179314423083 0.03729985031472443 0.039972656854885089 -0.012007113954042591 0.030525255072355869 0.01884268526960552 0.068236334086751324 0.038253497105830814 0.030366283019966602 0.039335570582138449 0.01133682896712669 -0.082354408143859359 -0.016863157327080058 -0.0442157143164668 0.073180949959617894 0.036051223191123902
leaf_weight=262.28976200520992 6107.0699689090252 5193.3751607835293 2044.591925740242 506.54435606300831 163.98088754713535 13993.195436269045 17750.940593376756 3488.6676579415798 24.429482623934746 4990.9053285270929 11499.82155020535 269.87575571238995 6414.9666792303324 12385.265407174826 220.86564116179943 4050.411702722311 4700.2188710123301 183.02002528309822 10266.328392088413 8893.2865654379129 8146.6447683870792 1777.1074576973915 5941.9056721478701 1931.4241849482059 7426.1599512547255 1884.1936585903168 3729.1699770539999 10894.017978027463 5321.0168109089136 4925.4955942928791 1415.8566143959761 198.48833051323891 7276.2129798233509 8226.7360632419586 7675.6333153396845 307.59858378767967 7130.1009691804647 163.30940745770931 88.154560714960098 7144.1349346488714 8898.5035424977541 12056.396186426282 6904.6040470451117 3707.1814654618502 1109.3236993998289 89.839989885687828 4739.4408578723669 357.06745077669621 19708.598785027862 92.303831115365028 15668.582074955106 4895.5587650984526 3369.6116341799498 3861.6026597619057 1012.7316509634256 5402.0235909223557 1880.6082601547241 50.422446876764297 1736.9804288595915 240.56792491674423 19.009018748998642 990.02384021878242
leaf_count=822 15933 12238 4274 1866 504 44824 39356 14104 79 13986 25308 917 10953 29696 687 14665 28014 1161 49020 27907 22998 11718 16259 10236 41958 5525 10580 28572 17061 13746 9446 721 17190 17044 15093 856 18853 630 376 21678 46687 42179 34132 9307 4377 431 13714 889 48176 288 42674 15564 6196 9850 2608 13441 7008 214 7734 1537 56 2376
internal_value=0.0267603 0.0357543 0.04775 0.0267147 -0.0155207 0.0314632 0.0438814 -0.0100721 -0.0254907 0.027076 0.0411165 0.0187229 0.0650927 0.0361917 -0.0287891 0.0162948 -0.0296561 -0.0126657 -0.0130691 0.0217415 0.0239824 -0.0302698 0.0259108 -0.00833984 -0.0284449 0.0339062 0.0229138 0.0384541 0.0135736 0.0218148 -0.0341224 -0.0167032 0.0470287 0.0500812 0.0604381 0.0332269 0.0317706 -0.000456464 0.0118809 0.0266736 -0.0171573 0.0135119 -0.0167485 0.0358301 -0.00818967 0.00158606 0.0200549 0.0407667 0.039402 0.015772 0.0324225 0.013782 0.0623094 0.0333063 0.0427188 0.0348023 0.00386069 -0.0369347 -0.0147764 -0.0202676 -0.0158814 0.0480247
internal_weight=301804 248866 106946 141920 52938.3 89023.3 87441.5 34254.5 18683.8 46248.7 60473.8 52896.5 19504.8 42774.7 15704.2 39540.5 15483.3 28885.2 28622.9 13129 31804.8 15319.3 13355.9 12438.3 13542.2 14443.9 12622.5 41697.8 26411.5 23658.1 6116.08 16184.6 18776 26967.7 13089.8 29376.7 23269.6 470.908 21090.5 13086 15986.1 17040.1 15803.1 12559.7 2979.58 1199.16 18732.6 25401.8 20208.4 499.794 22798.7 16952 11045.2 8852.51 13398 16296 5369.28 142.726 1780.42 2171.99 1755.99 18741
internal_count=926292 655860 241608 414252 270432 245200 205092 165428 105004 133950 146316 169052 36516 111250 92327 130198 91640 144316 143494 40353 95282 91136 38854 60793 79418 38668 38487 103818 89845 72284 37460 82701 42498 58776 25563 78946 63013 1486 72784 37937 81980 58119 80819 33143 12677 4808 58538 61805 49567 1391 61527 57743 21289 23836 32304 42013 21112 502 7869 11773 7790 41732
cat_boundaries=0 1 2 3 4 5 6 7 8 9 10 11 12
cat_threshold=90 39 38 13728 72 39 39 3074 16 39 6156 10242
is_linear=0
shrinkage=0.05


Tree=13
num_leaves=63
num_cat=11
split_feature=4 4 4 3 4 3 4 5 3 16 7 3 7 7 3 17 3 3 4 6 17 4 7 4 19 4 4 3 4 3 19 17 7 19 4 16 19 19 16 12 5 5 19 7 4 7 13 8 5 7 13 4 19 17 7 13 7 13 8 3 7 5
split_gain=43291.3 11352.2 9784.7 2650.18 1862.1 1263.41 923.847 873.958 591.716 527.165 494.734 439.891 379.783 377.957 317.865 306.24 281.251 275.207 243.452 223.547 185.167 165.81 136.434 135.819 123.292 121.09 113.748 113.29 109.651 109.094 107.91 104.984 99.8476 91.2191 89.6332 84.2143 97.2651 82.9349 76.3138 70.2072 68.2741 68.2645 65.5165 64.5407 64.4142 63.7349 133.794 212.946 62.8528 59.7738 59.0078 58.989 58.9452 57.7543 57.6979 58.7965 57.0584 110.201 217.221 55.7205 54.4663 53.7554
threshold=0.11194814741611482 0.32391723990440374 1.0000000180025095e-35 0.86490574479103099 0.18813589215278628 1.0000000180025095e-35 0.51707252860069286 1.0000000180025095e-35 0.45096771419048315 -1.0000000180025095e-35 4.5000000000000009 0.24294267594814303 4.5000000000000009 4.5000000000000009 0.63381916284561168 1.0029450058937075 1.2433570027351382 1.0000000180025095e-35 0.053495218977332122 4.5000000000000009 1.0166091322898867 0.24181240797042849 4.5000000000000009 0.51804554462432872 0 0.4126639068126679 0.7143303155899049 0.70947557687759411 0.83616241812706005 1.0000000180025095e-35 1 0.95840704441070568 3.5000000000000004 2 0.25180554389953619 0.011006937362253668 3 4 -0.022222743369638916 1.0000000180025095e-35 0.76145061850547802 0.74529179930686962 5 3.5000000000000004 0.15346704423427585 1.0000000180025095e-35 6 11.500000000000002 0.80202060937881481 4.5000000000000009 7 0.41875624656677252 8 0.84858772158622753 1.0000000180025095e-35 9 1.0000000180025095e-35 10 11.500000000000002 0.8736957609653474 1.5000000000000002 0.77948111295700084
decision_type=2 2 2 2 2 2 2 2 2 8 2 2 2 2 2 10 2 2 2 2 10 2 2 2 1 2 2 2 2 2 1 10 2 1 2 10 1 1 10 2 2 2 1 2 2 2 9 2 2 2 9 2 1 10 2 9 2 9 2 2 2 2
left_child=2 4 9 5 8 23 13 18 12 -1 14 20 29 25 17 30 28 50 35 22 32 -19 26 52 -13 56 41 34 48 37 -11 -21 -9 54 -12 36 -4 -2 -20 40 51 -8 -14 -38 -35 -23 47 -47 -5 -40 -6 -15 -3 -24 -31 -56 -7 58 -58 -16 -37 -27
right_child=1 3 7 16 10 6 19 11 -10 15 27 24 42 39 59 -17 -18 21 38 31 -22 45 53 -25 -26 61 -28 -29 -30 33 -32 -33 -34 44 -36 60 43 -39 49 -41 -42 -43 -44 -45 -46 46 -48 -49 -50 -51 -52 -53 -54 -55 55 -57 57 -59 -60 -61 -62 -63
leaf_value=0.020455303054408597 0.0098447285567083431 0.020500483751565775 -0.027402170878578359 0.056373918224217272 0.0046142836827989843 0.039562742451249591 0.047832808133757947 0.00037562482233549074 0.042504275215588368 -0.039505467820655969 0.030830295457411283 0.038295997217730256 0.012873303092137224 0.044104604018032172 0.044792659808423153 0.017202376730616316 0.072627898873223892 0.022349290343849311 0.072960496032730915 -0.013971110034897625 0.036759827405850549 0.033207153821488471 -0.08063732606660011 -0.023039515064859184 0.015617318394969751 0.040476256713069335 0.055764013557022707 0.063006452491408155 0.064714971186656506 0.025673419246557458 -0.048542232973811869 0.039096222652239145 0.0080320532620238912 0.0078142053066807843 0.037099214898255038 -0.032441879813326448 -0.016287060320800878 -0.0019406861726806151 -0.0049692117955890342 0.035546488156402829 0.02897133777928081 0.035267705991537057 0.022672027789148237 -0.0068929217772537802 0.014160631208613123 0.01553445145748604 0.027789937439072911 -0.07849791774066861 0.040583492806670389 0.004182693301773184 0.017278789897138356 0.049560318672632886 0.0014481539028154708 0.056462955787947938 -0.019331086899360573 0.015722915277930676 0.023544049209204946 0.034472889474206778 -0.076869199571511837 0.070032206068107297 0.052052067270279959 0.026358273478262501
leaf_weight=311.10536125302315 3956.9828002303839 698.22399038076401 1219.2510902136564 5759.0195392519236 1582.8163171708584 5844.3060779571533 14537.897582426667 9371.3915898799896 1952.6172268539667 5491.9044474810362 11414.338329717517 1239.8247620463371 2115.5675409585238 12122.470621705055 950.7157624065876 194.54901273548603 5572.9341076910496 18299.789941430092 33.86820288002491 95.748252794146538 438.42004618048668 5687.1558178216219 7.5750043392181388 395.14104768633842 1253.314423084259 22176.066317841411 4711.826222345233 341.36840672791004 4659.5700049698353 1616.8208328783512 12547.267800718546 3265.4247885644436 7806.4686717092991 9039.0580351650715 11439.623075217009 25.151785209774971 4106.3040913045406 2393.1107090562582 5755.5656207054853 1794.57162758708 583.69645917415619 1172.7637824863195 11831.053269281983 3300.6738628745079 7178.6005398035049 331.51474437117577 21673.308721378446 73.462020441889763 711.80711126327515 2585.0022137463093 2276.6357787400484 8444.5534669756889 970.3146767616272 8970.5499552339315 115.63367123901844 6107.5117590725422 333.32341328263283 22150.466729074717 64.125633388757706 285.90498569607735 77.346704676747322 698.27976636588573
leaf_count=946 15418 2509 6807 11422 6381 14288 31703 36124 4816 35416 31102 3214 6968 27566 2177 622 9566 54263 103 317 1282 15164 29 1971 4161 52533 9491 671 8553 4907 88308 7838 27655 31855 28591 101 20690 10130 25874 4232 1411 2747 36220 15630 23570 973 59479 318 1579 10597 8282 18156 4033 17926 422 19314 905 56126 282 535 233 1790
internal_value=0.0253897 0.0343925 -0.0143956 0.0449058 0.0234368 0.0420645 0.042812 0.000390538 0.0155656 -0.0440661 0.0283385 0.00745722 0.0143795 0.0397242 0.0255919 -0.0451674 0.0634528 0.0249713 -0.00791797 0.0498062 0.00467479 0.0260459 0.0512033 0.0033117 0.0271146 0.0373362 0.0489421 0.0343964 0.0588578 0.0112457 -0.0458404 0.0375827 0.0038554 0.0127845 0.0339686 -0.0137611 -0.0142969 0.00541495 -0.00182698 0.0450593 0.045866 0.0468954 0.0212116 -0.0120854 0.0106172 0.0284821 0.0272646 -0.00148891 0.0546384 -0.00213214 0.0121432 0.0463451 0.00955616 0.0563458 0.0172314 0.0150647 0.0351531 0.0340097 0.00713574 0.0506372 0.0312582 0.0400456
internal_weight=302162 246404 55757.4 125741 120664 109037 106974 37212.6 46307 18544.8 74356.6 20109.4 44354.3 74211.9 51161.3 18233.7 16703.3 49924.7 17103.2 32761.8 17616.3 46065.2 29400.6 2063.68 2493.14 51266.6 20422.5 23195.3 11130.4 30407.7 18039.2 3361.17 17177.9 24057.6 22854 8728.73 8626.23 6350.09 8374.44 22945.3 21150.7 15710.7 13946.6 7406.98 16217.7 27765.4 22078.3 404.977 6470.83 8340.57 3859.45 20567 1668.54 8978.12 7839.97 6223.15 28392.2 22547.9 397.449 1236.62 102.498 22874.3
internal_count=926292 648529 277763 286973 361556 255853 247340 152471 153620 125292 207936 72436 148804 177289 147572 124346 31120 144860 80035 70051 65061 130197 61896 8513 7375 125924 43941 60364 21554 105616 123724 8155 63779 80068 59693 43461 43127 25548 36574 51365 47133 34450 43188 36320 55425 75934 60770 1291 13001 36471 14663 45722 6542 17955 24643 19736 71601 57313 1187 2712 334 54323
cat_boundaries=0 1 2 3 4 5 6 7 8 9 10 11
cat_threshold=39 80 39 5 104 17 2114 2375 74 2050 2114
is_linear=0
shrinkage=0.05


Tree=14
num_leaves=63
num_cat=10
split_feature=4 4 4 3 4 3 4 3 3 16 3 3 4 17 3 19 4 6 5 4 3 4 4 19 3 4 19 4 17 19 19 17 5 17 17 19 5 5 18 13 15 15 4 18 19 17 5 16 17 9 12 8 4 3 3 15 17 17 17 5 4 3
split_gain=38897.1 10378.4 9190.82 2527.12 1668.63 1137.58 862.264 790.706 530.541 497.186 384.866 322.616 292.315 289.824 278.238 254.758 218.559 207.904 181.477 166.505 155.406 129.858 123.398 120.49 112.193 188.344 108.617 107.433 103.176 97.926 95.3982 94.2679 89.5218 88.7113 87.4875 85.6915 82.7816 81.851 78.3135 76.7836 76.4278 70.9966 70.8681 66.4671 220.058 96.4098 63.279 60.7815 58.4783 57.4018 107.115 130.412 52.4533 52.154 52.1415 51.8844 51.8593 51.2075 51.1932 50.2103 49.6687 49.2903
threshold=0.11194814741611482 0.32391723990440374 1.0000000180025095e-35 0.86490574479103099 0.18813589215278628 1.0000000180025095e-35 0.51707252860069286 0.12798282131552699 0.45096771419048315 -1.0000000180025095e-35 0.65352252125740062 1.0000000180025095e-35 0.066744100302457823 1.0029450058937075 1.2545715570449831 0 0.27022470533847814 4.5000000000000009 1.0000000180025095e-35 0.4126639068126679 1.0000000180025095e-35 0.71974465250968944 0.51804554462432872 1 0.26697640120983129 0.066744100302457823 2 0.80816203355789196 1.0240074992179873 3 4 0.95840704441070568 0.77850425243377697 1.0683794021606448 0.89684268832206737 5 0.74756881594657909 0.86109396815299999 6 7 2.7350000143051152 2.5749999284744267 0.18393540382385257 8 9 0.98930099606513988 0.67669764161109935 0.012136891018599274 0.96348726749420177 51.500000000000007 1.0000000180025095e-35 11.500000000000002 0.044373333454132087 0.8736957609653474 0.30547615885734564 2.7999999523162846 1.0343682169914248 0.8661043941974641 0.84858772158622753 0.80202060937881481 0.090175997465848937 0.53046777844429027
decision_type=2 2 2 2 2 2 2 2 2 8 2 2 2 10 2 1 2 2 2 2 2 2 2 1 2 2 1 2 10 1 1 10 2 10 10 1 2 2 1 9 10 8 2 1 1 10 2 10 10 2 2 2 2 2 2 10 10 10 10 2 2 2
left_child=2 4 9 5 8 22 19 12 20 -1 11 39 18 26 27 24 28 21 30 37 23 36 40 -2 25 38 41 59 34 56 47 -19 49 -27 -13 -36 58 -7 55 -6 -3 -11 -31 44 -20 -45 -18 -4 -40 57 -51 -52 -32 -12 -17 -9 -22 -21 -8 -5 -14 -10
right_child=1 3 7 14 10 6 17 15 61 13 53 16 60 -15 -16 54 46 31 43 32 29 -23 -24 -25 -26 33 -28 -29 -30 42 52 -33 -34 -35 35 -37 -38 -39 48 -41 -42 -43 -44 45 -46 -47 -48 -49 -50 50 51 -53 -54 -55 -56 -57 -58 -59 -60 -61 -62 -63
