tree
version=v4
num_class=1
num_tree_per_iteration=1
label_index=0
max_feature_idx=20
objective=regression
feature_names=lag_7_log lag_28_log lag_364_log rolling_mean_7 rolling_mean_28 rolling_std_7 rolling_zero_count_7 day_of_week month week_of_year is_weekend day_of_month event_indicator cat_event snap_CA sell_price price_change_7 price_ratio_28 store_id dept_id cat_id
feature_infos=[0:4.430816650390625] [0:4.3174881935119629] [0:5.4806389808654785] [0:4.0847725868225098] [0:3.7321851253509521] [0:2.0472598075866699] [0:7] [0:6] [1:12] [1:53] [0:1] [1:31] [0:1] -1:2:12:7:1:3:0:11:13:10:6:5:8:4:14 [0:1] [0.20000000298023224:29.969999313354492] [-0.88870340585708618:7.9849996566772461] [0.13229076564311981:5.9699997901916504] -1:0:2 -1:6:2:1:3:5:0:4 -1:0:2:1
tree_sizes=5582 5874 5833 5765 5826 5856 5823 5807 5870 5831 5869 5822 5841 5782 5848 5819 5808 5925 5820 5897 5827 5838 5868 5920 5973 5832 5851 5900 5902 5814 5871 5824 5902 5888 5971 5872 5837 5923 5880 6022 5904 5937 5847 5881 5906 5931 5963 5877 5853 5960 5837 5908 5914 5925 5884 5823 5943 5899 5974 5861 5972 5914 5891 6006 6036 5916 5908 5954 5908 6019 6015 5906 5962 5977 5955 5930 5910 5925 5888 5935 5965 6012 5957 5977 5981 6013 5993 6014 5924 5934 5908 5926 5978 6020 5942 5964 5978 5951 6032 5836 5959 6100 5837 6021 6056 5906 5924 5918 5955 5774 6080 5997 6023 5907 5952 5990 5863 6106 6062 5906 5869 6120 5974 5962 6040 6022 6005 6016 6004 5972 5910 5994 6070 5983 6000 5967 5922 6111 5939 5967 5907 6053 5934 6009 5966 6013 6063 6019 5961 6085 5946 5777 5984 5982 6100 5933 5968 5921 6003 5961 6012 5939 6005 6048 6011 5938 6045 6062 5878 5877 5935 5941 5901 5888 5884 6084 5880 6037 5996 6026 5922 5978 5994 6047 5842 6147 5896 5996 6068 6028 6109 6022 6201 6258 5975 6060 6025 6053 6003 6102 5927 5918 5886 5871 5914 6052 6017 6084 6077 5908 6061 6052 6064 5953 6065 5982 5873 6048 6125 6033 5842 5934 6122 5984 5920 5865 5922 5963 6038 5917 5930 6120 5967 5902 6103 6046 5990 6025 6010 5954 5925 5820 5925 5968 6022 5975 6067 5886

Tree=0
num_leaves=63
num_cat=5
split_feature=4 4 4 5 4 15 4 0 5 0 4 15 15 4 5 15 2 20 5 7 4 0 5 15 15 4 6 15 5 19 6 7 0 19 4 7 6 15 7 15 4 0 5 15 9 2 4 6 15 5 15 0 17 13 2 15 4 9 19 4 6 15
split_gain=5713.59 1541.44 1104.86 370.1 301.973 196.336 187.489 177.067 130.343 95.2226 91.8126 86.032 71.0995 55.4842 55.3341 53.4006 46.3974 39.2333 37.6608 37.1728 34.1806 33.8301 31.3846 31.0839 30.222 28.6397 24.5186 23.0243 22.9574 21.4539 20.8568 20.69 20.3397 19.9991 19.4279 18.8614 18.2535 17.6866 17.3076 16.8012 15.6233 15.0943 14.9682 14.6874 13.8935 12.4797 12.2502 15.8083 13.3032 12.1075 11.9663 11.8187 11.284 11.2335 11.1411 10.8382 10.5946 10.4549 10.4517 10.3531 10.2821 9.80272
threshold=0.93793204426765453 1.8438280224800112 0.48311585187911993 0.6237381398677827 1.3762974739074709 3.5999999046325688 0.68526452779769909 2.6735538244247441 1.0548930764198305 2.4414010047912602 0.26231032609939581 1.8750000000000002 1.1999999880790713 0.30154648423194891 0.78808754682540905 1.1299999952316286 2.9174053668975835 0 1.2863663434982302 4.5000000000000009 2.6359319686889653 1.4978661537170412 0.86721205711364757 1.1299999952316286 2.8750000000000004 2.2373793125152592 1.0000000180025095e-35 1.9049999713897707 0.81447213888168346 1 1.0000000180025095e-35 4.5000000000000009 2.2499048709869389 2 0.37562237679958349 4.5000000000000009 1.5000000000000002 0.48999999463558203 4.5000000000000009 1.6599999666213991 1.1289001703262331 3.4175922870635991 0.83264794945716869 2.0399999618530278 39.500000000000007 2.4414010047912602 0.21289115399122241 2.5000000000000004 0.90500000119209301 1.3621731400489809 0.48999999463558203 1.7005987167358401 1.0502881407737734 3 2.3502402305603032 0.21500000357627871 1.1565098762512209 3.5000000000000004 4 0.87449872493743908 1.0000000180025095e-35 1.9750000238418581
decision_type=2 2 2 2 2 2 2 2 2 2 2 2 2 2 2 2 2 1 2 2 2 2 2 2 2 2 2 2 2 1 2 2 2 1 2 2 2 2 2 2 2 2 2 2 2 2 2 2 2 2 2 2 2 9 2 2 2 2 1 2 2 2
left_child=2 4 3 5 9 13 11 25 14 15 29 22 28 17 36 55 23 39 -10 40 -9 31 50 -6 51 -3 54 -15 -8 -7 32 59 -23 -29 53 -26 -5 -19 57 -1 45 42 -22 -38 -18 -17 -16 -48 -49 -24 -4 -13 -37 -12 -11 -2 -21 -25 -52 -14 -35 -27
right_child=1 7 6 8 16 10 12 20 18 26 34 24 21 27 46 19 44 37 -20 56 41 30 49 38 35 61 -28 33 -30 -31 -32 -33 -34 60 -36 52 43 -39 -40 -41 -42 -43 -44 -45 -46 -47 47 48 -50 -51 58 -53 -54 -55 -56 -57 -58 -59 -60 -61 -62 -63
leaf_value=0.94353481215614476 0.98348518714930955 0.9956274719861602 0.95700016059111248 0.95531385476387487 0.98698693031523566 0.93449319594779834 0.95335023849970368 1.0210482765469679 0.97117163209271595 0.99800302157222398 0.9349632991887149 0.94152415622424268 0.94314305409405874 0.94050584568704987 0.9594001301328644 0.95128745406211113 0.99646826289260093 0.94832876449650261 1.0237684163670999 0.95923428546269396 1.0398299334687828 0.95850087506822501 0.9580291293425155 0.99338120930244012 0.93769738303378913 0.99660898981154755 0.97384767034949116 0.93894986428102511 0.96708358918656234 0.93087640407022543 0.94992490070904367 0.94832386614994102 0.99313641335351877 0.94865544463415219 0.93532845093985872 0.94065469713244509 0.94404147780357228 0.93305272668642381 0.98069271410418757 0.93610383441693557 0.95747347759090828 1.0612148870707954 0.97896968700172482 0.93938969895654778 1.0360900785286247 0.98015590251436591 0.96073779068943199 0.95999541464091553 0.94455528345123108 1.0089574038045612 0.94015921793795654 0.95007739243010336 0.96992894348723779 0.93275328444158945 1.035911831208987 0.96738691789917097 0.96665609554766951 0.9699567189891376 0.94619220862153475 0.94817581010411822 0.93580796889782003 1.0170172279744674
leaf_weight=797 126 805 217 211 558 4532 863 323 167 89 7847 11542 7391 5501 299 3003 60 191 43 1455 255 287 432 50 15049 79 115 8195 473 52040 1550 3685 50 157 19638 7317 2197 19914 627 16503 1869 95 10.999999999999998 7475 37 38 222 158 1214 11.999999999999998 933 419 33 22900 26 672 730 1449 3567 1189 16412 286
leaf_count=797 126 805 217 211 558 4532 863 323 167 89 7847 11542 7391 5501 299 3003 60 191 43 1455 255 287 432 50 15049 79 115 8195 473 52040 1550 3685 50 157 19638 7317 2197 19914 627 16503 1869 95 11 7475 37 38 222 158 1214 12 933 419 33 22900 26 672 730 1449 3567 1189 16412 286
internal_value=0.938021 0.970632 0.936299 0.934464 0.963464 0.93388 0.942527 1.01278 0.942963 0.958594 0.932547 0.940699 0.94719 0.935988 0.942266 0.957668 0.977687 0.9347 0.982001 0.956287 1.03301 0.946148 0.946719 0.976452 0.939795 1.00094 0.990316 0.93758 0.958218 0.931164 0.952383 0.945188 0.963669 0.93693 0.934099 0.938711 0.940765 0.933198 0.973683 0.936446 0.953869 1.04368 1.03735 0.940447 1.01172 0.951651 0.950098 0.948348 0.946338 0.959432 0.945521 0.941824 0.940787 0.933314 1.00669 0.96994 0.961717 0.970745 0.944965 0.943841 0.935931 1.01263
internal_weight=254380 12758 241622 186613 10904 174627 55009 1854 11986 8123 106957 39521 15488 67670 11776 7893 2781 37405 210 7095 684 14152 5161 2684 34360 1170 230 30265 1336 56572 1887 12265 337 24764 50385 22399 9883 20105 2126 17300 4910 361 266 9672 97 3041 1893 1594 1372 444 4717 11961 7350 30747 115 798 2185 1499 4500 8580 16569 365
internal_count=254380 12758 241622 186613 10904 174627 55009 1854 11986 8123 106957 39521 15488 67670 11776 7893 2781 37405 210 7095 684 14152 5161 2684 34360 1170 230 30265 1336 56572 1887 12265 337 24764 50385 22399 9883 20105 2126 17300 4910 361 266 9672 97 3041 1893 1594 1372 444 4717 11961 7350 30747 115 798 2185 1499 4500 8580 16569 365
cat_boundaries=0 1 2 3 4 5
cat_threshold=1 5 3 53 80
is_linear=0
shrinkage=1


Tree=1
num_leaves=63
num_cat=2
split_feature=3 4 3 5 4 3 4 3 5 20 15 15 15 7 5 15 3 15 5 7 3 3 5 4 15 4 3 5 4 15 4 7 4 15 4 15 15 6 4 13 15 2 7 6 0 15 15 4 3 2 5 5 7 7 7 5 5 5 15 4 5 15
split_gain=5771.92 1286.53 1190.31 347.038 305.554 220.823 170.015 140.079 109.596 86.4591 80.9287 60.6621 58.4987 49.3045 46.7895 44.8794 36.9267 29.7875 29.1404 28.7992 28.7871 28.568 26.3766 25.804 25.7095 23.5146 23.1184 21.4149 20.4645 20.0239 19.5665 19.4331 17.1717 14.8329 14.8241 13.7774 12.5907 11.963 11.9338 11.9227 11.7214 11.6804 11.147 9.8166 9.26083 9.25235 9.17051 8.93959 8.55502 8.46892 8.45977 8.14684 7.88647 7.88467 7.82159 7.78456 7.38916 7.04776 7.01642 6.95178 6.88289 6.85998
threshold=1.2221247553825381 0.5325264334678651 1.9861801862716677 0.55199968814849865 0.87449872493743908 2.6270431280136113 0.31157881021499639 1.5295950770378115 0.84954759478569042 0 1.2849999666213991 2.9000000953674321 1.1299999952316286 4.5000000000000009 1.0141906142234804 2.8249999284744267 3.0978677272796635 1.9650000333786013 1.2318207621574404 4.5000000000000009 1.7841176986694338 2.2508821487426762 0.81675806641578685 0.69058117270469677 3.7300000190734868 0.65190309286117565 0.78354120254516613 0.92249307036399852 1.3762974739074709 0.79499998688697826 0.28706558048725134 4.5000000000000009 0.19859154522418979 1.6599999666213991 1.3293331861495974 2.8750000000000004 0.79499998688697826 3.5000000000000004 1.1042507290840151 1 0.48999999463558203 1.4978661537170412 4.5000000000000009 3.5000000000000004 1.0000000180025095e-35 2.8750000000000004 0.97500002384185802 0.19262365251779559 3.3760280609130864 2.0126758217811589 0.98069143295288097 0.66149342060089122 3.5000000000000004 4.5000000000000009 4.5000000000000009 0.77132835984230053 0.96726602315902721 1.1665362119674685 2.2000000476837163 1.1289001703262331 0.76145061850547802 1.8750000000000002
decision_type=2 2 2 2 2 2 2 2 2 1 2 2 2 2 2 2 2 2 2 2 2 2 2 2 2 2 2 2 2 2 2 2 2 2 2 2 2 2 2 9 2 2 2 2 2 2 2 2 2 2 2 2 2 2 2 2 2 2 2 2 2 2
left_child=1 3 7 6 10 21 9 14 15 24 22 36 34 23 28 29 -7 40 30 38 27 42 49 35 33 45 47 -9 51 -5 56 39 -19 46 43 -12 -8 -16 -14 -13 -11 52 44 -6 -4 -15 -1 -17 -18 -3 59 -2 -31 -34 -23 -22 -10 -40 61 -21 -36 -35
right_child=2 4 5 8 12 16 11 20 18 17 13 31 19 25 37 26 48 32 -20 50 55 54 -24 -25 -26 -27 -28 -29 -30 41 -32 -33 53 58 60 -37 -38 -39 57 -41 -42 -43 -44 -45 -46 -47 -48 -49 -50 -51 -52 -53 -54 -55 -56 -57 -58 -59 -60 -61 -62 -63
leaf_value=0.031316331070717247 0.01823464914190371 0.0092579137993791302 0.090168689734098931 0.012080477371850301 0.021236056974975315 0.087275777747638186 0.0072221198571699001 0.032653438538669914 0.01904127342999621 0.0098022714215170396 0.0029859692687654112 -0.0024341660909617344 0.010094905994447644 0.0066286350756643063 0.040597635822908776 0.0033772252866124258 0.10256197680160116 -0.0071460293189485853 0.063720472746340018 0.016643211136008144 0.043223186709531923 0.065762667609020414 0.021538273141137376 0.0047840429359089238 -0.0046572358597066618 0.0089649977119003136 0.0072005791603555764 0.049802914371374768 0.029684811468290714 0.0013835097784125993 0.010904402392407331 -0.0015589652202770889 -0.0061359171867124609 0.00073689347591653109 0.019198621948995437 2.9611931606705602e-05 1.6400194776513629e-05 0.09650727115055123 0.015325475881138523 -0.0045240391510141375 -0.0032371468469686773 0.0097761615176921793 0.063823518119915601 0.034968410549589705 0.049813793315458023 0.0028109353092409853 0.0039734493398300907 -0.001303166561076605 0.12270586726600939 0.02557583657663795 0.040645308007773558 0.023814667023391127 0.0041566867299119006 -0.0044352287373005533 0.078786794252163658 0.054753266626429778 0.033858432955516 0.045330514347375325 -0.001389684218737264 0.023775789674300905 0.048756022003541621 -0.0045913644362676762
leaf_weight=32 1942 2089 14.999999999999998 659 484 469 625 1561 233 177 6698 10789 3498 2713 291 1101 129 38725 31 1642 701 434 627 7546 12940 4931 922 208 698 5406 954 14866 20110 720 25 9582 20126 9.9999999999999982 1219 19090 6201 619 251 181 539 3842 724 13809 107 83 43 1004 4889 10355 170 193 135 20 11949 438 109 3701
leaf_count=32 1942 2089 15 659 484 469 625 1561 233 177 6698 10789 3498 2713 291 1101 129 38725 31 1642 701 434 627 7546 12940 4931 922 208 698 5406 954 14866 20110 720 25 9582 20126 10 1219 19090 6201 619 251 181 539 3842 724 13809 107 83 43 1004 4889 10355 170 193 135 20 11949 438 109 3701
internal_value=2.55836e-06 -0.00141659 0.0399735 -0.00314806 0.00614503 0.0726314 -0.00400212 0.029524 0.00193398 -0.0052431 0.00431341 -0.00200054 0.0152583 0.0036645 0.0235384 0.00124792 0.0954951 -0.00614545 0.0158254 0.0137651 0.0383879 0.0611819 0.0124978 0.00236694 -0.00297497 0.00635563 -0.000481758 0.0346754 0.0219694 0.00361455 0.0146938 -0.0030368 -0.0064469 -0.00170357 0.0280682 0.00124625 0.000233704 0.0425031 0.011593 -0.00377191 -0.00287435 0.0031028 0.0549649 0.0249859 0.0509315 0.00439185 0.00514142 -0.000957196 0.111764 0.00988493 0.0186085 0.0201388 0.00270098 -0.00555804 0.0694491 0.0457238 0.0244982 0.0158175 -0.00202002 0.0181486 0.0432973 -0.00372248
internal_weight=254380 245658 8722 199888 45770 2114 171130 6608 28758 105634 38111 65496 7659 35312 3945 27405 705 75568 1353 6860 2663 1409 2799 23826 30066 11486 15832 1769 3644 11573 1322 44745 69190 17126 799 16280 20751 301 4737 29879 6378 10914 805 665 554 6555 756 14910 236 2172 2123 2946 10295 30465 604 894 368 1239 16370 2080 134 4421
internal_count=254380 245658 8722 199888 45770 2114 171130 6608 28758 105634 38111 65496 7659 35312 3945 27405 705 75568 1353 6860 2663 1409 2799 23826 30066 11486 15832 1769 3644 11573 1322 44745 69190 17126 799 16280 20751 301 4737 29879 6378 10914 805 665 554 6555 756 14910 236 2172 2123 2946 10295 30465 604 894 368 1239 16370 2080 134 4421
cat_boundaries=0 1 2
cat_threshold=1 2079
is_linear=0
shrinkage=0.05


Tree=2
num_leaves=63
num_cat=6
split_feature=4 4 4 5 4 4 15 0 5 15 0 4 15 19 15 2 5 15 19 7 0 15 0 5 5 4 15 5 15 15 4 6 4 7 0 5 6 5 7 19 5 5 15 7 5 4 0 5 9 19 15 0 2 15 2 5 19 19 4 4 7 6
split_gain=4659.5 1262.66 905.085 295.737 245.254 167.988 165.283 144.938 95.9592 81.1517 78.5441 67.6763 58.6373 48.7362 47.7483 38.7538 34.3376 33.3456 33.9311 32.4818 28.6503 28.3901 28.2372 28.455 28.1477 27.7006 26.2551 24.6072 24.2243 24.1465 22.7795 22.739 22.3717 21.5637 19.1642 18.6215 17.5999 17.2209 16.9015 16.8691 15.578 15.2663 14.1619 14.0097 12.9334 12.6295 12.5647 12.8151 11.6875 11.5749 11.1077 11.0333 10.7272 10.671 10.6111 10.5655 10.5258 10.1672 10.023 9.50431 9.24581 8.89334
threshold=0.93793204426765453 1.8438280224800112 0.46863496303558355 0.66149342060089122 1.3762974739074709 0.68526452779769909 3.7999999523162846 2.6735538244247441 1.0548930764198305 1.9049999713897707 2.6735538244247441 0.26231032609939581 1.1999999880790713 0 1.1299999952316286 2.9174053668975835 0.82814118266105663 1.7749999761581423 1 4.5000000000000009 2.1383330821990971 0.48999999463558203 1.4978661537170412 1.2318207621574404 0.86390563845634472 2.6359319686889653 0.9650000035762788 1.2863663434982302 2.8750000000000004 0.90500000119209301 2.2373793125152592 1.0000000180025095e-35 0.31597642600536352 4.5000000000000009 2.1383330821990971 0.81447213888168346 1.5000000000000002 0.74740105867385875 4.5000000000000009 2 0.54545605182647716 0.48787817358970648 1.5649999976158144 4.5000000000000009 1.3621731400489809 1.1289001703262331 3.4175922870635991 0.86064782738685619 39.500000000000007 3 0.79499998688697826 2.1383330821990971 1.7005987167358401 2.8750000000000004 2.4414010047912602 0.47823351621627813 4 5 0.21289115399122241 0.86377212405204784 4.5000000000000009 1.0000000180025095e-35
decision_type=2 2 2 2 2 2 2 2 2 2 2 2 2 1 2 2 2 2 1 2 2 2 2 2 2 2 2 2 2 2 2 2 2 2 2 2 2 2 2 1 2 2 2 2 2 2 2 2 2 1 2 2 2 2 2 2 1 1 2 2 2 2
left_child=2 4 3 6 10 9 13 30 16 24 14 39 35 53 56 26 36 18 29 45 33 -20 23 28 50 -9 -6 -10 -11 -15 -3 -24 41 52 -28 -7 -5 -12 57 -8 -22 -19 -38 -30 -26 54 47 -27 -17 58 -4 -21 59 -1 -16 -41 -2 -13 -18 -14 -44 -34
right_child=1 7 5 8 15 12 11 25 27 22 37 38 20 17 19 48 49 32 21 51 40 -23 31 -25 44 46 34 -29 43 -31 -32 -33 61 -35 -36 -37 42 -39 -40 55 -42 -43 60 -45 -46 -47 -48 -49 -50 -51 -52 -53 -54 -55 -56 -57 -58 -59 -60 -61 -62 -63
leaf_value=0.001440716814810068 0.015931285767020496 0.05214366515793685 0.012138144055979259 0.021171483794393715 0.048457332001165039 0.013901543183472987 -0.0032033978447168661 0.075126303836855493 0.031526311998620091 0.0028576037144656214 0.077116710095715205 -0.0021973467812175904 0.0046178702550264154 0.013698881857501469 0.012035613974813621 0.05288829362940372 0.027949181486864462 -0.0046389159558899969 0.011728554977477077 0.020751496931318381 0.052912145025008239 -0.003803355770335492 0.023189413036769357 0.084973041049324641 0.017491850445640531 0.091914340886165569 0.030677922048198303 0.075640694860211036 -0.00071424916357929152 0.0015591622958686098 0.067318292947471242 0.0053573668847141922 0.011359817154885828 0.0099484476859805909 0.042169373844365213 0.02627274895914071 0.0095439560816501824 0.040332211453813792 -0.002308244091226307 -0.0066597909711518218 0.018763095595421227 -0.0012391400010872608 0.0010664686604952645 0.0018650525458833653 0.067982478087184994 0.017584391187121382 0.11152539275798137 0.032988120357293899 0.089252212089348359 0.0063491328250157983 0.0056649748074617404 0.035517831246623832 0.013424975918836547 -0.0011707078168897856 0.038657931089792347 -0.0039103739387230064 0.032539517062403461 -0.0046819856500380603 0.013880081150113183 0.008912119619975338 0.005332520818477661 -0.0018638216845069653
leaf_weight=10621 197 805 776 142 307 863 4408 323 156 12087 59 4942 7550 444 3018 60 163 22633 311 2072 43 5379 198 9.9999999999999982 508 256 1925 40 16369 5304 365 1858 128 4415 452 473 815 72 16012 47368 154 3871 3799 7760 12.999999999999998 1888 95 9.9999999999999982 37 486 4616 136 432 6191 38 3783 643 26984 586 1558 1911 15462
leaf_count=10621 197 805 776 142 307 863 4408 323 156 12087 59 4942 7550 444 3018 60 163 22633 311 2072 43 5379 198 10 508 256 1925 40 16369 5304 365 1858 128 4415 452 473 815 72 16012 47368 154 3871 3799 7760 13 1888 95 10 37 486 4616 136 432 6191 38 3783 643 26984 586 1558 1911 15462
internal_value=2.4873e-06 0.0294517 -0.00155247 -0.00330519 0.0229645 0.00379048 -0.00374029 0.0675992 0.00603453 0.00221997 0.0185752 -0.00501135 0.00827155 -0.0018701 0.0179443 0.0357822 0.00517632 -0.00260738 -0.000213432 0.0166177 0.0073256 -0.00294817 0.00137775 0.00105407 0.00767173 0.0859038 0.0346537 0.0405887 0.00103052 0.00249364 0.0568873 0.00707813 -0.00325837 0.00705768 0.0328669 0.0182868 0.00375656 0.0569836 -0.00363463 -0.00619913 0.0262654 -0.00414256 0.00337648 0.000115063 0.0187741 0.0143623 0.0955096 0.0897311 0.0668882 0.0128357 0.00659771 0.0216648 0.00571926 0.000478479 0.0123695 -0.00645529 0.0292298 -0.00429969 0.0167285 0.00535308 0.00249516 -0.00175486
internal_weight=254380 12758 241622 181939 10904 59683 173841 1854 8098 44195 8123 103497 15488 70344 7992 2781 7902 53532 11438 7152 14152 5690 38282 36226 5913 684 2684 196 36216 5748 1170 2056 42094 13955 2377 1336 6667 131 47938 55559 197 26504 6525 24129 521 4944 361 266 97 1235 5392 2208 9540 16812 3056 51151 840 31926 749 9108 5710 15590
internal_count=254380 12758 241622 181939 10904 59683 173841 1854 8098 44195 8123 103497 15488 70344 7992 2781 7902 53532 11438 7152 14152 5690 38282 36226 5913 684 2684 196 36216 5748 1170 2056 42094 13955 2377 1336 6667 131 47938 55559 197 26504 6525 24129 521 4944 361 266 97 1235 5392 2208 9540 16812 3056 51151 840 31926 749 9108 5710 15590
cat_boundaries=0 1 2 3 4 5 6
cat_threshold=3 44 5 44 80 5
is_linear=0
shrinkage=0.05


Tree=3
num_leaves=63
num_cat=8
split_feature=3 3 3 15 3 3 3 5 5 5 5 20 15 19 5 3 3 15 15 15 5 15 5 3 5 7 3 19 15 20 3 7 15 7 7 5 5 15 13 2 13 15 1 2 15 15 7 3 1 7 20 8 2 7 2 7 3 5 6 7 5 20
split_gain=4759.9 968.03 937.399 280.995 186.362 146.242 135.73 119.526 101.152 88.2309 83.2596 55.3926 47.2133 40.9377 40.8535 33.9577 31.4024 29.2104 28.4013 25.3284 22.2104 21.107 20.6069 19.5847 19.4717 18.6471 18.0117 17.1189 28.9195 15.1386 14.982 14.6393 14.5658 13.952 13.5093 13.4436 12.2849 11.9339 11.9312 10.7515 10.1881 12.5365 9.96023 9.60354 9.60065 9.3907 9.08056 8.92601 8.77954 8.50559 8.13825 10.863 8.01385 7.94978 7.91919 7.32776 7.31864 8.87261 7.25001 7.11395 7.06529 7.80673
threshold=1.2463152408599856 0.61386817693710338 2.0553385019302373 2.8249999284744267 0.85119923949241649 2.6270431280136113 1.6313176155090334 0.54864469170570385 0.47823351621627813 1.0800974965095522 0.77132835984230053 0 0.79499998688697826 1 1.0393413305282595 1.0717378258705141 3.3760280609130864 0.90500000119209301 0.48999999463558203 2.7350000143051152 0.74107086658477794 1.1999999880790713 0.67468816041946422 0.24294267594814303 0.8651537597179414 4.5000000000000009 1.4612298607826235 2 1.4900000095367434 3 2.2508821487426762 4.5000000000000009 0.9650000035762788 4.5000000000000009 4.5000000000000009 1.3621731400489809 0.83905214071273815 7.0799999237060556 4 1.2424533367156985 5 1.9049999713897707 1.2424533367156985 1.8688347935676577 1.1999999880790713 0.21500000357627871 4.5000000000000009 1.7841176986694338 1.8688347935676577 4.5000000000000009 6 5.5000000000000009 2.1383330821990971 4.5000000000000009 1.4978661537170412 4.5000000000000009 1.8404703736305239 0.96123886108398449 4.5000000000000009 3.5000000000000004 1.1981405019760134 7
decision_type=2 2 2 2 2 2 2 2 2 2 2 1 2 1 2 2 2 2 2 2 2 2 2 2 2 2 2 1 2 1 2 2 2 2 2 2 2 2 9 2 9 2 2 2 2 2 2 2 2 2 1 2 2 2 2 2 2 2 2 2 2 1
left_child=1 3 6 7 10 30 14 13 11 15 19 37 29 17 26 20 46 -1 -15 39 34 -12 38 55 42 36 45 28 32 -9 -4 44 -20 -21 -6 -16 47 43 -10 49 41 -19 54 -5 -17 -2 -7 -8 -30 -3 -37 -52 -24 -25 -14 -13 57 -27 -23 -40 -11 -62
right_child=2 4 5 8 9 16 25 12 22 60 21 23 24 18 35 31 -18 40 27 33 -22 58 52 53 -26 56 -28 -29 48 -31 -32 -33 -34 -35 -36 50 -38 -39 59 -41 -42 -43 -44 -45 -46 -47 -48 -49 -50 -51 51 -53 -54 -55 -56 -57 -58 -59 -60 -61 61 -63
leaf_value=0.014031364715892456 0.042871766386169019 0.0024057796125662371 0.051405234505518718 -0.0023319000312720683 0.0055767627330271016 0.078128705659373923 0.028581303588528364 0.03379503601946153 -0.00068369077830762607 0.029115632002515671 0.018591071045787295 -0.0063745598051706308 0.0023809377745862828 0.012118765903716156 0.035780076243666289 0.020122312129062087 0.11181011154315497 0.0010018307675213394 0.04055806099904289 -0.0002126145072265457 0.012615852792000943 0.0083914112532337149 0.0018114279708308732 -0.0049002381048037415 0.013379000205439879 0.038217597224994834 0.026706593909072259 -0.003749086301794196 -0.0018612886734780032 0.013141432049789591 0.063050027222680466 0.018066773324945343 0.0062251469294665853 0.0031082900996997017 0.0097969483013295687 0.02073301135903538 0.045563393795128665 -0.0048652986311827871 -0.0036291342236537774 0.0085451305078215588 0.0015477345776152525 -0.0039708312456539965 0.0074026331916590641 0.011777163401529083 0.01041922873718272 0.01922911226294078 0.09230365939115083 0.037405663394122927 0.012774550086600937 0.0057638684224348832 0.0468087637967032 0.095335981912168966 0.030172812365796938 -0.003305783105698866 0.0082764809660292159 -0.0050541208744448798 0.05181504733003825 0.065417510385780739 0.03661788218207173 -0.0016810010969132518 0.027313299389583157 0.052612721334537649
leaf_weight=420 43 5716 532 24186 5974 431 533 100 12037 203 703 30855 9949 345 247 286 107 2920 32 9885 2131 2272 3740 23052 492 314 1339 11836 14754 814 604 1200 872 4649 2787 10 258 5379 9872 1216 10770 2238 1274 121 2459 2685 167 647 103 2821 24 24 25 11870 605 16015 294 34 23 8947 48 91
leaf_count=420 43 5716 532 24186 5974 431 533 100 12037 203 703 30855 9949 345 247 286 107 2920 32 9885 2131 2272 3740 23052 492 314 1339 11836 14754 814 604 1200 872 4649 2787 10 258 5379 9872 1216 10770 2238 1274 121 2459 2685 167 647 103 2821 24 24 25 11870 605 16015 294 34 23 8947 48 91
internal_value=2.51872e-06 -0.00125303 0.03726 -0.00268513 0.00561402 0.0687314 0.0282783 0.000274879 -0.00385062 0.0100551 0.00314315 -0.00458381 0.00444444 -0.000970893 0.0232723 0.00947575 0.0866403 0.00101617 -0.00213324 0.00217247 0.00803489 0.0110048 -0.0014896 -0.00525534 0.00363039 0.0387965 0.021945 -0.00231241 -0.00123002 0.01541 0.0576061 0.0134523 0.00745035 0.000849315 0.00691993 0.0409418 0.0356107 -0.00273341 -0.00191579 0.00414369 0.000673217 -0.00115258 0.00322435 -0.00226141 0.0114327 0.0196052 0.0821104 0.0334267 -0.0017594 0.00351608 0.0627382 0.0713241 0.00200187 -0.00435844 0.00271944 -0.0059235 0.0459176 0.0409075 0.00867805 -0.00270179 0.0351657 0.0439381
internal_weight=254380 246087 8293 203623 42464 1841 6452 57524 146099 15179 27285 111478 13234 44290 4372 14837 705 16348 27942 24287 10892 2998 34621 81792 12320 2080 4067 27597 15761 914 1136 3945 904 14534 8761 305 1438 29686 30856 9753 15928 5158 11828 24307 2745 2728 598 1180 14857 8537 58 48 3765 34922 10554 46870 642 348 2295 18819 342 139
internal_count=254380 246087 8293 203623 42464 1841 6452 57524 146099 15179 27285 111478 13234 44290 4372 14837 705 16348 27942 24287 10892 2998 34621 81792 12320 2080 4067 27597 15761 914 1136 3945 904 14534 8761 305 1438 29686 30856 9753 15928 5158 11828 24307 2745 2728 598 1180 14857 8537 58 48 3765 34922 10554 46870 642 348 2295 18819 342 139
cat_boundaries=0 1 2 3 4 5 6 7 8
cat_threshold=1 11 36 1 2076 232 2 2
is_linear=0
shrinkage=0.05


Tree=4
num_leaves=63
num_cat=7
split_feature=3 4 3 5 4 3 3 4 5 20 15 15 15 5 10 5 3 15 4 10 15 15 5 4 4 10 10 4 3 4 3 15 15 5 4 3 5 15 6 20 19 15 15 5 4 5 2 5 15 13 3 4 3 3 3 15 19 19 5 19 10 15
split_gain=4297.09 967.936 885.74 258.809 228.394 134.161 131.99 131.135 82.2832 66.0213 61.4502 44.4011 41.7227 38.9862 32.4875 30.552 29.4245 28.242 22.904 22.5336 22.0695 20.689 20.6164 17.9643 17.3385 16.826 14.8331 14.6852 14.6298 13.6524 13.5104 12.6371 12.1186 11.7676 11.2074 11.1524 11.0811 10.7918 9.90371 9.56387 9.1724 9.93055 9.27723 9.03104 9.00054 8.9357 8.84632 8.84354 8.44539 8.3612 8.13965 8.08243 8.04941 8.04468 7.92859 7.91128 10.7181 7.22464 7.03686 6.96451 6.93399 6.90743
threshold=1.2221247553825381 0.5325264334678651 2.0553385019302373 0.55199968814849865 0.87449872493743908 1.6313176155090334 2.6270431280136113 0.31597642600536352 0.76241862773895275 0 1.8750000000000002 1.1299999952316286 2.9000000953674321 1.1406345963478091 1.0000000180025095e-35 1.0800974965095522 3.0978677272796635 2.8249999284744267 1.3762974739074709 1.0000000180025095e-35 1.9650000333786013 3.7300000190734868 0.81675806641578685 0.68526452779769909 0.72175207734107982 1.0000000180025095e-35 1.0000000180025095e-35 0.19859154522418979 0.85645723342895519 0.21289115399122241 2.2508821487426762 0.90500000119209301 1.4900000095367434 0.80974087119102489 0.3197352141141892 1.4612298607826235 0.83905214071273815 0.79499998688697826 5.5000000000000009 1 2 0.48999999463558203 0.90500000119209301 0.78598043322563182 0.48677881062030798 1.4722971320152285 1.4978661537170412 0.66149342060089122 1.1999999880790713 3 0.90139329433441173 1.3293331861495974 1.7841176986694338 1.9176557064056399 0.85119923949241649 0.79499998688697826 4 5 0.98069143295288097 6 1.0000000180025095e-35 1.9049999713897707
decision_type=2 2 2 2 2 2 2 2 2 1 2 2 2 2 2 2 2 2 2 2 2 2 2 2 2 2 2 2 2 2 2 2 2 2 2 2 2 2 2 1 1 2 2 2 2 2 2 2 2 9 2 2 2 2 2 2 1 1 2 1 2 2
left_child=1 3 5 7 10 13 30 9 17 21 22 33 38 18 23 29 -8 37 35 43 40 32 55 54 -16 36 49 -22 -19 -10 -4 -31 -1 -6 -17 47 52 -5 59 -15 42 -42 -11 -13 -27 -41 -39 -2 -24 -14 -33 -35 -7 -46 -12 56 -3 -34 -21 -9 -32 -40
right_child=2 4 6 8 11 25 16 12 15 20 14 19 26 39 24 34 -18 28 -20 58 27 -23 48 -25 -26 44 -28 -29 -30 31 60 50 57 51 -36 -37 -38 46 61 45 41 -43 -44 -45 53 -47 -48 -49 -50 -51 -52 -53 -54 -55 -56 -57 -58 -59 -60 -61 -62 -63
leaf_value=0.0051673773910490689 0.014908137662031723 0.018020129761070806 0.048835455883295048 0.0095543192434531399 0.017650321757544565 0.027152506491162604 0.074972981994999827 0.00077384588424085252 0.016558709444145329 0.014636539358866879 0.00043929846979112166 0.0090487742722735673 -0.0020458347332334916 0.022786839957169201 0.0040898448610085123 0.044805665750096202 0.096834691005811407 -0.00095945377218795949 0.026736526897576454 0.015779757474765236 -0.006212212932646512 -0.0040587506916948271 0.019051736368095634 0.00388456862992701 0.0088585355300703095 0.088859185012611183 -0.0012088525300978706 -0.0047627657431683137 0.0080009577434903851 0.016578875571306311 0.056435535028937278 0.0045907592813840999 -0.00044740418000727052 0.026059054519197284 0.017382733417129079 0.024093918496205194 0.043286107068918195 0.0019726866965513574 0.006911873457645855 0.043551157592759571 0.0079977962599380344 -0.0042782983904806867 -0.0005398239961728928 0.015069643890023585 0.039178095858238199 0.076106337221317932 0.0086710971444301892 0.020872557550646674 0.0081042154713170667 -0.0038291599012587954 0.013974231899946366 0.042167252676599952 0.03553566905358941 0.051866776855747282 0.004098668175532688 0.006435407805149878 0.0054512491944128738 -0.0025509248401714233 0.0363001201779359 -0.0012203286568624502 0.068669869596119981 0.0013308545901676296
leaf_weight=666 1690 370 532 546 361 533 469 9098 409 106 13192 3995 10444 46 8087 75 236 14618 1174 2080 38725 13280 602 7267 2498 10.999999999999998 14273 31938 470 293 434 2198 6854 334 76 737 258 9293 828 131 171 4261 1974 742 451 26 521 997 252 18240 259 104 647 180 1668 3811 364 10165 43 8420 170 1687
leaf_count=666 1690 370 532 546 361 533 469 9098 409 106 13192 3995 10444 46 8087 75 236 14618 1174 2080 38725 13280 602 7267 2498 11 14273 31938 470 293 434 2198 6854 334 76 737 258 9293 828 131 171 4261 1974 742 451 26 521 997 252 18240 259 104 647 180 1668 3811 364 10165 43 8420 170 1687
internal_value=2.44974e-06 -0.00122204 0.0344907 -0.0027239 0.00533682 0.0262471 0.0652964 -0.00346144 0.00166482 -0.00451782 0.00375324 0.0132158 -0.00164779 0.0216483 0.00293733 0.00908064 0.082311 0.000700027 0.0206986 0.0119148 -0.00530044 -0.0025671 0.00869568 0.00184714 0.00521577 0.0368579 -0.00252657 -0.00555718 -0.000679949 0.00802764 0.0547265 0.00675646 -0.0014467 0.0243768 0.0310571 0.0186262 0.0338309 0.00271025 0.000236348 0.0431138 -0.00251372 -0.00379479 0.00023074 0.00999323 0.0436237 0.0490193 0.00232888 0.0171238 0.0158285 -0.00318207 0.00558246 0.029904 0.0317559 0.0428133 0.000850415 0.00735402 0.0121152 -0.00170584 0.0161994 -0.000184622 0.059898 0.00317045
internal_weight=254380 245658 8722 199888 45770 6881 1841 171130 28758 108140 38111 7659 62990 4801 32712 3310 705 25448 4598 6860 77175 30965 5399 22127 10585 2080 42957 70663 15088 3159 1136 2750 17685 799 151 3424 1438 10360 20033 203 6512 4432 2080 4737 642 157 9814 2687 854 28684 2457 438 1180 631 14860 4545 734 17019 2123 17518 604 2515
internal_count=254380 245658 8722 199888 45770 6881 1841 171130 28758 108140 38111 7659 62990 4801 32712 3310 705 25448 4598 6860 77175 30965 5399 22127 10585 2080 42957 70663 15088 3159 1136 2750 17685 799 151 3424 1438 10360 20033 203 6512 4432 2080 4737 642 157 9814 2687 854 28684 2457 438 1180 631 14860 4545 734 17019 2123 17518 604 2515
cat_boundaries=0 1 2 3 4 5 6 7
cat_threshold=1 2 40 2079 12 3 75
is_linear=0
shrinkage=0.05


Tree=5
num_leaves=63
num_cat=3
split_feature=3 4 3 5 4 3 4 3 5 20 5 5 5 3 5 3 7 3 7 4 5 5 5 5 7 2 0 4 19 5 19 4 7 4 4 4 4 0 7 7 2 7 4 2 3 7 17 4 2 3 5 7 4 4 9 4 4 5 7 7 4 3
split_gain=3899.22 869.449 801.268 230.07 204.671 125.995 121.717 116.075 74.4975 58.0136 47.3131 43.534 43.4869 27.7339 24.1845 21.8104 21.6977 20.9871 20.5434 20.5389 20.298 18.1633 16.9231 16.8147 16.476 14.2673 14.2155 13.4038 13.1435 12.9982 12.8664 12.537 12.3498 11.8583 10.5594 9.48385 9.36184 9.26879 9.2075 8.89318 8.51044 8.39135 8.28382 8.22754 8.02042 7.98633 7.55835 7.21855 7.20138 6.63935 6.03947 5.88354 5.84425 5.8115 5.73334 5.65332 5.54521 5.50091 5.49762 5.45074 6.10561 5.45069
threshold=1.2187675237655642 0.5325264334678651 2.0553385019302373 0.54545605182647716 0.84396868944168102 1.6491945385932925 0.31597642600536352 2.7926778793334965 0.84954759478569042 0 0.82156005501747142 0.67468816041946422 0.92249307036399852 0.85645723342895519 1.0990097522735598 1.4612298607826235 4.5000000000000009 3.3760280609130864 4.5000000000000009 2.2373793125152592 1.0800974965095522 0.93591937422752391 0.8543800711631776 0.73043927550315868 4.5000000000000009 1.2424533367156985 0.89587974548339855 0.14908103644847873 1 1.3621731400489809 2 0.61059561371803295 4.5000000000000009 0.24181240797042849 0.63686412572860729 1.0111876726150515 0.066744100302457823 1.0000000180025095e-35 4.5000000000000009 4.5000000000000009 2.8617925643920903 4.5000000000000009 0.16338063031435016 2.8029010295867924 1.8524665236473086 4.5000000000000009 0.99999997019767772 0.41903309524059301 3.3140207529067998 0.64361920952796947 0.40570499002933508 4.5000000000000009 0.9804673194885255 1.6473560333251955 35.500000000000007 0.044373333454132087 0.37562237679958349 0.39474600553512579 5.5000000000000009 4.5000000000000009 0.21289115399122241 1.0137555003166201
decision_type=2 2 2 2 2 2 2 2 2 1 2 2 2 2 2 2 2 2 2 2 2 2 2 2 2 2 2 2 1 2 1 2 2 2 2 2 2 2 2 2 2 2 2 2 2 2 2 2 2 2 2 2 2 2 2 2 2 2 2 2 2 2
left_child=1 3 5 6 11 12 9 19 13 25 24 16 15 23 33 38 34 58 30 26 -12 41 32 28 35 49 -4 50 42 48 46 -18 44 -10 -3 -6 43 54 57 -21 -24 -13 -5 -27 -7 -29 -8 -20 -14 55 -11 -28 -26 -17 -16 -1 -32 -2 -9 -25 -61 -35
right_child=2 4 7 8 10 22 18 17 14 27 20 21 29 -15 37 53 31 -19 47 39 -22 -23 40 59 52 36 51 45 -30 -31 56 -33 -34 61 -36 -37 -38 -39 -40 -41 -42 -43 -44 -45 -46 -47 -48 -49 -50 -51 -52 -53 -54 -55 -56 -57 -58 -59 -60 60 -62 -63
leaf_value=-5.1257013627508356e-05 0.0097418943802642759 0.00057623946544723532 0.080227679221054934 0.0061627110804343931 0.0070129359407992697 0.027025066942569884 0.0063731997100789882 0.074481667828741147 0.020673440059062562 -0.006184059788660063 0.017851629677154285 0.0049567575839258218 0.030113876808142509 0.008633959425653065 0.032179729728366406 0.022951573135430167 0.0025023249355503553 0.10241538159740643 -0.00099956871974666846 0.058491584973286617 0.034569298993532144 0.015820514881228216 0.042499116602347224 0.0024237582010072445 0.01141649725070361 0.0087356645388777191 0.045452349403819182 -0.0050030233848189316 -0.0012490039475690589 0.055428431554256953 -0.0040025404276927629 0.0061464802020269769 0.040243022238167052 0.007362170192160517 0.0028932507934618943 0.011395267246728784 0.0003416800477131529 0.0093379818197480598 0.020885616667056857 0.074647916720145951 0.064393676186619356 0.0087206662731858682 0.00083044763488090338 0.054850378219443975 0.035594316028343773 -0.0036466160901353836 -0.0013820409343374875 0.00091033427484853559 0.073209935603755535 0.0040536629534212087 -0.0039598596252424035 0.055046893554009504 0.016390186834324121 0.032191393123976141 0.058538226910001018 -0.0030037202103943205 -0.0023662925270685653 0.016164361157906617 0.091053629132093583 0.015792208972590354 0.0051838053519323536 0.022169059079734474
leaf_weight=1727 422 10976 37 772 3105 640 319 355 245 24938 1091 4612 531 1119 58 1167 4282 105 12611 316 219 526 271 2330 1253 263 577 32036 10040 61 8677 5276 503 926 8918 2063 1406 29 927 124 55 2191 12984 9.9999999999999982 493 16470 19538 8139 9.9999999999999982 354 3494 236 1140 204 34 27396 12912 1685 65 157 1027 67
leaf_count=1727 422 10976 37 772 3105 640 319 355 245 24938 1091 4612 531 1119 58 1167 4282 105 12611 316 219 526 271 2330 1253 263 577 32036 10040 61 8677 5276 503 926 8918 2063 1406 29 927 124 55 2191 12984 10 493 16470 19538 8139 10 354 3494 236 1140 204 34 27396 12912 1685 65 157 1027 67
internal_value=2.78205e-06 -0.0011673 0.0327356 -0.00258798 0.005059 0.0250271 -0.00329712 0.0623279 0.00146581 -0.00431113 0.0118762 0.00341463 0.0208155 0.000918894 0.0129021 0.0190894 0.00255625 0.0821746 -0.00153473 0.0542412 0.0206527 0.00686334 0.0357709 0.000602564 0.0103547 -0.00249054 0.0496572 -0.00504831 0.000125576 0.0334323 -0.00217772 0.00451446 0.0336817 0.0108091 0.00161516 0.00876346 0.00199082 0.0342488 0.0167179 0.063072 0.0462269 0.00616982 0.00112928 0.0104626 0.030761 -0.00454257 -0.00125654 -0.000250185 0.0309331 -0.00274597 -0.00591092 0.0482501 0.0137886 0.0243323 0.0420282 -0.00282881 -0.00302278 0.0148809 0.0770793 0.00383109 0.00659593 0.00836839
internal_weight=254514 245730 8784 200078 45652 6969 170290 1815 29788 108094 8871 36781 5007 28429 1359 4405 29452 525 62196 1290 1310 7329 1962 27310 7561 31156 850 76938 23796 602 41446 9558 1636 1238 19894 5168 1679 121 3034 440 326 6803 13756 273 1133 48506 19857 20750 541 29477 28432 813 2393 1371 92 29123 21589 2107 420 3514 1184 993
internal_count=254514 245730 8784 200078 45652 6969 170290 1815 29788 108094 8871 36781 5007 28429 1359 4405 29452 525 62196 1290 1310 7329 1962 27310 7561 31156 850 76938 23796 602 41446 9558 1636 1238 19894 5168 1679 121 3034 440 326 6803 13756 273 1133 48506 19857 20750 541 29477 28432 813 2393 1371 92 29123 21589 2107 420 3514 1184 993
cat_boundaries=0 1 2 3
cat_threshold=1 23 23
is_linear=0
shrinkage=0.05


Tree=6
num_leaves=63
num_cat=8
split_feature=3 4 3 5 4 3 4 3 5 15 15 5 5 15 15 3 3 7 5 13 5 15 15 3 19 15 7 4 7 3 15 4 5 4 4 4 15 19 3 7 15 5 15 5 4 7 0 13 17 19 4 19 15 19 15 7 1 17 7 0 6 19
split_gain=3520.29 762.7 752.955 205.618 174.494 122.663 109.763 105.114 65.0088 54.4805 51.0524 39.7282 38.2607 37.2762 30.8218 29.5105 24.221 22.0527 19.6854 19.3434 17.3388 16.2919 16.2656 14.5484 14.2066 14.1176 13.7474 13.6728 13.5698 13.2315 12.6129 11.9556 11.1473 10.9479 10.8406 10.3694 10.2582 10.019 9.98833 9.4613 11.4 9.32008 9.21653 8.5673 8.44024 8.27127 8.12209 8.05174 7.46407 7.20951 7.59849 6.88778 6.82559 9.68151 8.19271 6.77045 6.69383 6.65261 6.58208 6.58069 6.31871 5.80856
threshold=1.1966479420661928 0.5325264334678651 2.0553385019302373 0.54545605182647716 0.84396868944168102 1.5360139608383181 0.31597642600536352 2.8981196880340581 0.84954759478569042 3.7649999856948857 1.8750000000000002 0.82156005501747142 0.9969659447669984 2.9000000953674321 2.8249999284744267 1.7841176986694338 2.3906382322311406 4.5000000000000009 1.0990097522735598 0 1.0800974965095522 0.68999999761581432 1.1299999952316286 0.8260406255722047 1 1.5649999976158144 4.5000000000000009 1.3762974739074709 4.5000000000000009 3.3760280609130864 1.5649999976158144 0.68526452779769909 1.3621731400489809 0.60724854469299328 0.24181240797042849 0.23755506426095965 0.79499998688697826 2 0.86440795660018932 4.5000000000000009 0.48999999463558203 0.78214201331138622 0.97500002384185802 0.81214669346809398 1.0111876726150515 4.5000000000000009 2.2499048709869389 3 1.0119290947914126 4 0.21094696223735812 5 1.8500000238418581 6 0.90500000119209301 4.5000000000000009 2.3502402305603032 0.99999997019767772 4.5000000000000009 1.4978661537170412 5.5000000000000009 7
decision_type=2 2 2 2 2 2 2 2 2 2 2 2 2 2 2 2 2 2 2 9 2 2 2 2 1 2 2 2 2 2 2 2 2 2 2 2 2 1 2 2 2 2 2 2 2 2 2 9 2 1 2 1 2 1 2 2 2 2 2 2 2 1
left_child=1 3 5 6 10 12 9 16 14 19 21 26 27 36 30 22 43 31 34 25 -13 37 -7 49 -11 -1 44 39 61 -9 51 47 -14 -19 -10 -26 -8 -3 -32 40 -2 55 -18 45 -6 -4 -20 -12 -27 -16 -51 -5 53 57 -55 -17 59 -21 -24 -44 -38 -15
right_child=2 4 7 8 11 15 13 29 18 24 17 20 32 28 23 41 42 33 46 52 -22 -23 58 -25 35 48 -28 -29 -30 -31 38 -33 -34 -35 -36 -37 60 -39 -40 -41 -42 -43 56 -45 -46 -47 -48 -49 -50 50 -52 -53 -54 54 -56 -57 -58 -59 -60 -61 -62 -63
leaf_value=0.0054935361656488005 0.036418661593619645 0.019139772422538948 0.040504056517198739 0.0083567266839229375 0.006619123742738155 0.038006837500848691 0.0067437450402562356 0.076218162673805434 0.01964018973679579 -0.0026264006139722742 0.0016834517275545928 0.016742884174963852 0.029897192667967445 -0.001486233863729855 -0.0023349972968604378 0.032319918606821527 0.037864492880483512 0.0024442370450064618 0.036424526859586574 0.0062385614328458686 0.032616087905553329 0.0066177590461679106 0.022506459166004744 0.006732974373116817 -0.005585704051366866 -0.0019190745524659842 0.012926298570466697 0.022952181450265268 -0.0010274752092941858 0.097299486665244794 0.0015907908794302898 0.0033408668056246326 0.054996915652833149 0.0057595189394318205 0.0078684303349672146 -0.0041738612196496961 -0.00020873557256758914 0.0074078434043352084 0.009455945756778569 0.019413082936312873 0.013137593110508557 0.04624273679805832 0.089611435486069813 0.058285913709203857 0.010841261231587962 0.053525977648071425 -0.0037964946834753593 -0.00071763507197168653 0.0027365894672855165 0.0042891482105383372 -0.00049418380721101269 0.0030720783365343397 -0.0041533208666596757 0.01437883086702429 0.00014342247772274614 0.041646416748202332 0.066407022016590975 -0.003844939544438309 0.030065770277397028 0.053624025445629199 0.0025544992663500943 -0.0032854850944049421
leaf_weight=717 54 466 452 1352 3064 284 605 299 245 6113 9203 1049 327 5681 5344 665 46 4271 104 170 207 4232 962 660 44212 15972 2313 736 14108 105 8941 6543 52 5996 988 18480 16805 372 423 1038 2323 242 13.999999999999998 134 1942 174 13.999999999999998 5614 909 909 9567 1210 15794 108 1567 286 333 4051 422 258 2359 22628
leaf_count=717 54 466 452 1352 3064 284 605 299 245 6113 9203 1049 327 5681 5344 665 46 4271 104 170 207 4232 962 660 44212 15972 2313 736 14108 105 8941 6543 52 5996 988 18480 16805 372 423 1038 2323 242 14 134 1942 174 14 5614 909 909 9567 1210 15794 108 1567 286 333 4051 422 258 2359 22628
internal_value=2.70778e-06 -0.00113643 0.0303571 -0.00246278 0.00472396 0.0232693 -0.00313292 0.0592141 0.00137181 -0.00409581 0.00322321 0.0111458 0.018147 -0.00145912 0.000861933 0.0313772 0.0527578 0.00247628 0.0120878 -0.00261003 0.0193653 0.0078815 0.0270679 -0.000538893 -0.00494412 -0.00137519 0.0097343 0.0167553 -0.00229486 0.0817323 0.00279808 0.00156054 0.0333677 0.00438091 0.010213 -0.00516879 0.000333811 0.014256 0.00194671 0.0154177 0.0136701 0.0373953 0.059875 0.0466477 0.00825822 0.0441395 0.031611 0.000774022 -0.00166807 -0.000842627 -7.8546e-05 0.00590763 -0.00360938 -0.00215752 0.00105876 0.0351341 0.0615337 -0.00342938 0.024817 0.0555269 0.000131157 -0.00292628
internal_weight=254514 245308 9206 200036 45272 7391 170279 1815 29757 108093 36697 8575 4530 62186 28406 2861 1411 31627 1351 39288 1256 5070 1668 16480 68805 17598 7319 4151 42417 404 11926 21360 379 10267 1233 62692 19769 838 9364 3415 2377 1193 651 760 5006 626 118 14817 16881 15820 10476 2562 21690 5896 1675 951 605 4221 1384 272 19164 28309
internal_count=254514 245308 9206 200036 45272 7391 170279 1815 29757 108093 36697 8575 4530 62186 28406 2861 1411 31627 1351 39288 1256 5070 1668 16480 68805 17598 7319 4151 42417 404 11926 21360 379 10267 1233 62692 19769 838 9364 3415 2377 1193 651 760 5006 626 118 14817 16881 15820 10476 2562 21690 5896 1675 951 605 4221 1384 272 19164 28309
cat_boundaries=0 1 2 3 4 5 6 7 8
cat_threshold=30 5 12 18774 72 45 84 5
is_linear=0
shrinkage=0.05


Tree=7
num_leaves=63
num_cat=7
split_feature=4 4 4 5 4 15 0 15 5 4 0 4 4 5 5 15 15 5 4 0 13 5 7 19 0 15 15 7 0 5 7 19 7 1 19 5 0 6 6 6 5 18 6 15 4 15 5 4 19 15 7 1 20 5 4 15 15 9 15 15 7 5
split_gain=2823.57 783.547 550.703 183.737 163.947 106.302 98.2449 95.2663 76.1346 62.8208 47.2315 46.0542 32.3702 31.7352 30.8066 26.5293 25.9208 23.6624 22.5924 21.2225 20.2619 20.1357 17.5888 16.6888 15.5028 14.6119 14.4705 13.7598 13.4734 12.7921 12.324 11.7216 11.3232 11.2258 10.6561 10.1239 9.74626 13.1961 9.74009 9.16154 9.14052 8.92025 8.73785 8.49406 8.38458 7.99786 7.99229 7.78441 7.53403 7.50628 7.38185 7.33616 7.32038 10.5819 7.30476 7.28825 7.2524 10.1895 7.15987 7.08873 6.99127 9.60305
threshold=0.92270588874816906 1.8438280224800112 0.48311585187911993 0.62784048914909374 1.3762974739074709 3.7649999856948857 2.9174053668975835 1.1999999880790713 0.98733240365982067 0.68123745918273937 2.0126758217811589 0.24782942235469821 0.31157881021499639 0.81447213888168346 1.2863663434982302 1.1999999880790713 2.8249999284744267 1.0548930764198305 2.2373793125152592 2.1383330821990971 0 0.76241862773895275 4.5000000000000009 1 2.1383330821990971 1.9049999713897707 1.8750000000000002 4.5000000000000009 2.6735538244247441 0.52398389577865612 4.5000000000000009 2 4.5000000000000009 3.4175922870635991 3 1.1202816963195803 1.2424533367156985 1.0000000180025095e-35 1.5000000000000002 2.5000000000000004 0.63389679789543163 4 1.5000000000000002 1.4750000238418581 0.21289115399122241 2.1600000858306889 1.2318207621574404 0.38593573868274694 5 0.90500000119209301 4.5000000000000009 1.0000000180025095e-35 6 1.1406345963478091 1.1289001703262331 0.48999999463558203 1.9750000238418581 32.500000000000007 0.21500000357627871 0.48999999463558203 4.5000000000000009 1.2318207621574404
decision_type=2 2 2 2 2 2 2 2 2 2 2 2 2 2 2 2 2 2 2 2 9 2 2 1 2 2 2 2 2 2 2 1 2 2 1 2 2 2 2 2 2 1 2 2 2 2 2 2 1 2 2 2 1 2 2 2 2 2 2 2 2 2
left_child=2 4 3 5 10 12 18 13 21 16 15 31 20 23 48 58 32 24 60 30 26 42 54 55 43 -14 41 47 -12 -21 46 -7 -9 38 -27 36 -18 -38 -8 -23 -30 -1 -5 -6 -41 -28 -11 -13 -10 -46 -44 -26 53 -15 -17 -4 57 -20 -2 -22 61 -3
right_child=1 6 7 8 17 11 33 9 14 19 28 27 25 52 -16 22 35 -19 56 29 59 39 -24 -25 51 34 45 -29 40 -31 -32 -33 -34 -35 -36 -37 37 -39 -40 44 -42 -43 50 -45 49 -47 -48 -49 -50 -51 -52 -53 -54 -55 -56 -57 -58 -59 -60 -61 -62 -63
leaf_value=0.0068545333694839776 0.031852798458391618 0.037106989899631272 0.012787246191012267 0.012511045889760887 0.031411838812601067 -0.0035202037068193383 0.070602007402398803 0.0022003871958605017 0.029911112872249027 0.0041713373805305426 0.023302834030910002 -0.0039812714278357397 0.0022249564282372882 0.021122970227690246 0.068527139163078246 0.0088864103341604102 5.5242283009142804e-05 0.043001567883120158 0.021126433179746423 0.049208089068965399 0.0061393488492166061 0.015607433240124919 0.015847694888161051 0.011723848845160659 0.045327017940184219 0.00074598886312264806 -0.003807918971312533 -0.0017848019580972393 0.059939969349610295 0.01578117456641966 0.0074023825249144208 -0.0054047057461268089 0.005172677635278157 0.0888854675316159 -0.0014307992586436221 0.048208282243561107 0.015380669041705248 0.0022556351526860029 0.021891384283164603 0.012715125842175767 0.030893444244597314 -0.00058903753694816751 0.00049141340473219568 0.023141313666219333 0.014418362182511147 -0.0010240753545477997 0.046669841054323563 -0.0024048346211578949 0.011561974963896993 0.0034078339486286317 0.0036680811120099657 0.031161874960308575 0.016054325521910672 0.045246364839616415 0.012993565409437108 0.0020588451832511704 0.057588347385090659 0.055057558960084144 0.019101508701457357 -0.0034493583785175233 0.048510637377191614 0.071823459528210037
leaf_weight=867 128 580 189 185 392 10630 346 9688 142 9561 636 24536 5230 237 39 3098 19529 249 37 36 194 269 2081 1594 122 8562 3184 18024 44 144 4476 40063 4796 95 16332 10.999999999999998 208 2433 10.999999999999998 368 75 749 5638 1601 171 13656 10.999999999999998 11533 168 1667 2710 403 569 57 1680 985 416 58 868 21886 246 21
leaf_count=867 128 580 189 185 392 10630 346 9688 142 9561 636 24536 5230 237 39 3098 19529 249 37 36 194 269 2081 1594 122 8562 3184 18024 44 144 4476 40063 4796 95 16332 11 208 2433 11 368 75 749 5638 1601 171 13656 11 11533 168 1667 2710 403 569 57 1680 985 416 58 868 21886 246 21
internal_value=2.68647e-06 0.0225317 -0.00122837 -0.0025188 0.0176694 -0.00291778 0.0530889 0.00319262 0.00364432 0.00263423 0.0142653 -0.00392846 -0.0014189 0.0110175 0.0266344 0.0131156 0.00153972 0.028259 0.0463514 0.00545434 -0.00234146 0.00291475 0.0120063 0.00840377 0.0267976 -0.000177294 -0.00111623 -0.00291349 0.0262169 0.0225179 0.00523519 -0.0050114 0.00318496 0.0733054 -0.000682193 0.000465164 0.000441033 0.00329177 0.0691217 0.00688602 0.0417166 0.0034016 0.00176223 0.024772 0.0058196 -0.00155074 0.00422119 -0.00347736 0.0213275 0.00443566 0.00152328 0.0344711 0.0193933 0.0258308 0.0103318 0.00375917 0.054696 0.041931 0.0207483 -0.00336333 0.0413053 0.0383401
internal_weight=254514 13187 241327 186803 11377 175446 1810 54524 11357 50893 8610 104786 70660 3631 349 7855 36665 2767 1358 14228 40536 11008 6859 2768 2518 30124 18456 54093 755 180 14048 50693 14484 452 24894 22181 22170 2641 357 2475 119 1616 8533 1993 2206 16840 9572 36069 310 1838 8348 525 863 294 4778 1174 511 95 996 22080 847 601
internal_count=254514 13187 241327 186803 11377 175446 1810 54524 11357 50893 8610 104786 70660 3631 349 7855 36665 2767 1358 14228 40536 11008 6859 2768 2518 30124 18456 54093 755 180 14048 50693 14484 452 24894 22181 22170 2641 357 2475 119 1616 8533 1993 2206 16840 9572 36069 310 1838 8348 525 863 294 4778 1174 511 95 996 22080 847 601
cat_boundaries=0 1 2 3 4 5 6 7
cat_threshold=30 80 37 3 1 4 1
is_linear=0
shrinkage=0.05


Tree=8
num_leaves=63
num_cat=4
split_feature=3 4 3 5 4 3 4 3 5 13 5 5 5 5 19 3 7 3 1 5 5 5 13 4 7 3 3 2 4 7 5 4 4 4 4 2 19 4 2 7 5 2 16 4 2 5 7 7 17 2 7 7 7 3 4 7 3 1 5 3 5 5
split_gain=2903.43 637.038 595.382 169.213 151.968 106.417 87.706 78.6717 53.5713 37.249 36.9327 35.8015 32.6733 24.9544 20.729 18.7301 17.9968 16.6487 16.2724 15.6614 15.475 15.3728 12.6944 12.5183 12.1401 11.3578 11.2128 10.9929 10.6081 9.84358 9.78004 9.64428 9.0756 8.60069 8.20077 8.00347 7.85491 7.36479 7.31789 7.11537 6.89938 6.69376 6.68471 6.6111 6.39771 6.24788 6.22001 6.1988 6.17297 5.84121 5.82563 5.81429 5.80949 5.67765 5.62635 5.49723 5.21598 5.1957 4.99327 4.97847 4.81443 4.80298
threshold=1.2187675237655642 0.52831989526748668 2.0901793241500859 0.54545605182647716 0.84396868944168102 1.6491945385932925 0.27688255906105047 2.8981196880340581 0.76548033952713024 0 0.67646867036819469 0.82156005501747142 0.92249307036399852 1.0990097522735598 1 0.84146478772163402 4.5000000000000009 1.4612298607826235 2.2499048709869389 0.90637513995170604 0.93591937422752391 1.0800974965095522 2 0.36947788298130041 4.5000000000000009 3.3760280609130864 1.8524665236473086 1.2424533367156985 0.26185820996761328 4.5000000000000009 1.3621731400489809 0.71107459068298351 0.62082946300506603 0.066744100302457823 0.16338063031435016 1.2424533367156985 3 0.14908103644847873 2.8029010295867924 4.5000000000000009 0.90637513995170604 2.4414010047912602 1.0000000180025095e-35 1.0111876726150515 3.3140207529067998 0.98733240365982067 4.5000000000000009 4.5000000000000009 0.99999997019767772 3.3842465877532963 4.5000000000000009 5.5000000000000009 4.5000000000000009 0.64361920952796947 0.044373333454132087 4.5000000000000009 1.0483196377754214 2.1383330821990971 1.2318207621574404 0.98335060477256786 0.40570499002933508 0.66787227988243114
decision_type=2 2 2 2 2 2 2 2 2 9 2 2 2 2 1 2 2 2 2 2 2 2 9 2 2 2 2 2 2 2 2 2 2 2 2 2 1 2 2 2 2 2 8 2 2 2 2 2 2 2 2 2 2 2 2 2 2 2 2 2 2 2
left_child=1 3 5 6 10 12 9 18 15 27 16 24 17 28 29 22 32 39 40 26 46 -13 34 -16 43 -9 -7 53 36 48 44 59 -3 38 -5 37 45 60 -29 61 -4 -30 58 -6 -14 -10 -12 -25 -8 -21 -36 -20 -28 54 -1 -39 -22 -50 -15 -18 -11 -2
right_child=2 4 7 8 11 19 14 25 13 35 20 21 30 42 23 -17 31 -19 51 49 56 -23 -24 47 -26 -27 52 33 41 -31 -32 -33 -34 -35 50 -37 -38 55 -40 -41 -42 -43 -44 -45 -46 -47 -48 -49 57 -51 -52 -53 -54 -55 -56 -57 -58 -59 -60 -61 -62 -63
leaf_value=0.00016392382092277383 0.011089701372583406 0.0002048515637331399 0.042001405826767854 0.0054747733638245994 0.0059872914084388501 0.025912351423269461 0.0048782663311609849 0.069152532911456829 0.014506908777939385 -0.0054508569057642002 0.0043582733434906849 0.015335661210783356 0.025944866194528116 0.019322965108992559 -0.0032185157681752217 0.0072223469675205838 0.0028013386404711488 0.021034574802847476 0.052789096545655695 0.040147803596184105 0.012211925479309787 0.029888286650527673 -0.0014587361907128695 -0.0021056142641106487 0.011763955695266103 0.088690595423800977 0.030991125870241221 0.008433724402339228 0.0047321405434017395 0.00041930295247525457 0.047979985017088618 0.0068524039371228446 0.0023054158306701107 0.00011678627000400523 6.7863976618984831e-05 -0.00044697987631361251 0.004134469218818093 -0.0045687256221555563 0.051933936413266879 0.018045445473711053 0.05684537303771036 0.030230129946922438 0.062405854019712895 0.009647683735057257 0.066538613444507719 0.034009049120191051 0.0075953020041412472 -0.00025633766860287601 -0.0014568358848082725 0.065964453415091759 0.0020530920573576558 0.066094005165775002 0.039942769005250817 0.005356379588536889 -0.0027979954493102563 -0.0032812114592825174 0.026433326401619262 0.017783965344442602 0.045534480070594803 0.0097944533757777976 -0.0034415048830138389 0.016210447110812539
leaf_weight=1727 1419 10266 632 963 3105 954 394 299 355 24632 4598 1091 531 82 21491 1002 7524 1371 445 251 459 219 7575 13587 2393 105 592 263 2409 12128 61 2111 10314 1069 11119 1187 228 24481 9.9999999999999982 927 93 26 13.999999999999998 2063 9.9999999999999982 47 2203 6809 23791 25 5539 108 273 227 21826 12595 76 35 24 264 3409 688
leaf_count=1727 1419 10266 632 963 3105 954 394 299 355 24632 4598 1091 531 82 21491 1002 7524 1371 445 251 459 219 7575 13587 2393 105 592 263 2409 12128 61 2111 10314 1069 11119 1187 228 24481 10 927 93 26 14 2063 10 47 2203 6809 23791 25 5539 108 273 227 21826 12595 76 35 24 264 3409 688
internal_value=2.70492e-06 -0.00100697 0.0282483 -0.00223992 0.00424959 0.0219116 -0.00284663 0.0549982 0.00126307 -0.00389829 0.00286771 0.0101395 0.0179495 0.00738613 -0.00161758 0.000518453 0.00210084 0.016453 0.0488988 0.031377 0.00605309 0.0177744 0.000251625 -0.00237568 0.00881586 0.0742636 0.0296802 -0.00225514 0.00650773 -0.000742961 0.0288871 0.00385291 0.00125783 0.00214463 0.000987438 -0.00451976 0.0122959 -0.00459462 0.0100639 0.0143805 0.04392 0.00500768 0.0297562 0.0074496 0.0267166 0.0163995 0.00540765 -0.0014885 -0.00132547 0.0425274 0.000728286 0.055408 0.0338264 -0.00250461 -0.0025806 -0.00413149 0.0142461 -0.00142829 0.0253421 0.00303916 -0.00520677 0.0127648
internal_weight=254514 245730 8784 199044 46686 7102 169661 1682 29383 91426 37815 8871 5007 3185 78235 26198 30479 4405 1278 2095 7336 1310 25196 41887 7561 404 1819 25122 3065 36348 602 9899 20580 1342 17621 66304 630 65117 273 3034 725 2435 120 5168 541 402 6801 20396 24220 276 16658 553 865 23780 23553 37076 535 23826 106 7788 28041 2107
internal_count=254514 245730 8784 199044 46686 7102 169661 1682 29383 91426 37815 8871 5007 3185 78235 26198 30479 4405 1278 2095 7336 1310 25196 41887 7561 404 1819 25122 3065 36348 602 9899 20580 1342 17621 66304 630 65117 273 3034 725 2435 120 5168 541 402 6801 20396 24220 276 16658 553 865 23780 23553 37076 535 23826 106 7788 28041 2107
cat_boundaries=0 1 2 3 4
cat_threshold=31 23 399 44
is_linear=0
shrinkage=0.05


Tree=9
num_leaves=63
num_cat=6
split_feature=3 3 4 4 5 3 15 3 15 5 5 4 15 3 5 19 15 15 19 5 15 19 3 4 3 3 5 4 5 6 5 15 17 7 5 15 13 7 3 2 7 19 7 7 15 5 2 4 15 19 2 7 15 0 4 15 3 7 7 7 15 17
split_gain=2621.71 562.051 561.442 152.954 132.962 113.44 77.9807 59.9917 50.3185 42.1606 38.302 36.0261 25.4957 24.7594 23.6243 23.1317 21.3405 19.492 23.0097 19.1161 18.5587 18.2923 16.1588 16.068 15.338 12.6773 12.4055 11.9672 11.6566 11.1608 11.0067 10.9859 10.7385 10.1693 10.0926 9.81467 9.38191 9.2486 8.99798 8.84599 8.75421 8.26376 8.1086 8.07447 7.91727 7.88835 7.8077 7.74616 7.37291 7.26446 7.16326 7.08831 7.67384 6.84892 6.83636 6.63613 6.43056 6.41799 6.39801 6.17576 6.15453 6.01531
threshold=1.1966479420661928 1.9176557064056399 0.48908375203609472 0.79643696546554577 0.56998825073242199 2.5702365636825566 3.7999999523162846 1.4612298607826235 2.7749999761581425 0.84954759478569042 0.82156005501747142 0.24782942235469821 0.68999999761581432 3.0978677272796635 0.92249307036399852 0 1.5649999976158144 1.7749999761581423 1 0.82596707344055187 0.90500000119209301 2 0.86440795660018932 0.9804673194885255 2.2508821487426762 0.91526156663894664 1.1981405019760134 0.31597642600536352 0.67468816041946422 2.5000000000000004 1.0663289427757265 0.98500001430511486 0.99999997019767772 4.5000000000000009 0.97160121798515331 0.21500000357627871 3 4.5000000000000009 1.7841176986694338 1.2424533367156985 4.5000000000000009 4 4.5000000000000009 4.5000000000000009 1.1999999880790713 1.3621731400489809 1.2424533367156985 1.0000000180025095e-35 2.8750000000000004 5 3.2769666910171513 4.5000000000000009 0.21500000357627871 0.89587974548339855 0.16338063031435016 0.71999999880790722 0.82471236586570751 5.5000000000000009 3.5000000000000004 4.5000000000000009 0.9650000035762788 1.0491927266120913
decision_type=2 2 2 2 2 2 2 2 2 2 2 2 2 2 2 1 2 2 1 2 2 1 2 2 2 2 2 2 2 2 2 2 2 2 2 2 9 2 2 2 2 1 2 2 2 2 2 2 2 1 2 2 2 2 2 2 2 2 2 2 2 2
left_child=2 7 4 8 6 24 15 14 12 16 23 41 49 31 35 48 46 18 20 38 55 30 36 59 34 37 44 39 40 -21 60 -7 -20 56 43 -2 54 -10 51 -19 -14 61 -37 -3 -12 50 -6 -41 -1 -4 -16 52 -9 -32 -18 -17 -13 -33 -25 -5 -11 -8
right_child=1 5 3 10 9 13 11 19 25 21 26 33 28 -15 45 17 22 27 32 29 -22 -23 -24 58 -26 -27 -28 -29 -30 -31 53 57 -34 -35 -36 42 -38 -39 -40 47 -42 -43 -44 -45 -46 -47 -48 -49 -50 -51 -52 -53 -54 -55 -56 -57 -58 -59 -60 -61 -62 -63
leaf_value=0.0011221526119788645 0.040973972612730808 0.031613015538724865 0.016111469731119123 0.0048943572852457248 0.0045970387998091698 0.024994688075735197 -0.0034850639873914499 0.053209229961315288 -0.00034692569214462107 0.044161016234790372 0.020137450292842821 -0.003280541651632283 0.0020401639739207225 0.077057401245219592 0.022376472844048732 0.011403609669617676 0.0055798716552826902 -0.0033034772447634998 0.0071928304305007894 0.031129051342906156 0.0014967714546144921 0.0046904744991894641 0.0081036615335325895 0.0082785726489123836 0.046718691089149021 0.0046213999153605521 0.034532743223635941 -0.0013231376480325164 0.0058155356891361363 0.066901325521531038 0.03981503590168841 0.056292662609055716 -0.0028376665778890504 -0.0017160043896787163 0.050327409119513715 0.01146886991721152 -0.0012481314575586201 0.0017317475546326602 0.02831457736508854 0.019300801510860097 0.0046712865958367204 -0.0049442550168275982 0.016792373252925579 0.041703286628970028 0.012163051376574151 0.04663131333312015 0.014377403497689477 0.00045155613576694487 -0.0011646818397105432 0.0065516373203556915 0.065359905037549473 0.025370557804372279 0.018278292197149118 -0.00045231357062897406 0.00066987705191383449 0.041056525892582692 0.0046649784658486741 0.07233434678574073 0.012630664940358831 0.0082742692097317865 0.013377830592027122 0.0067221918706205268
leaf_weight=9509 32 691 511 4266 1791 26 10155 15.999999999999998 16219 17 488 33496 9718 227 397 359 766 24392 281 534 4790 629 643 1899 527 1861 87 14653 4496 23 75 425 5171 16874 116 2340 7972 7984 501 58 4695 39492 1041 287 880 41 231 893 5599 407 9.9999999999999982 582 1312 11.999999999999998 9578 20 256 78 1540 1990 409 146
leaf_count=9509 32 691 511 4266 1791 26 10155 16 16219 17 488 33496 9718 227 397 359 766 24392 281 534 4790 629 643 1899 527 1861 87 14653 4496 23 75 425 5171 16874 116 2340 7972 7984 501 58 4695 39492 1041 287 880 41 231 893 5599 407 10 582 1312 12 9578 20 256 78 1540 1990 409 146
internal_value=2.63821e-06 0.026198 -0.000980422 0.00336524 -0.0022971 0.0471396 -0.00278198 0.0189075 0.00208885 0.00134413 0.00861807 -0.00365836 0.00398718 0.0631483 0.0147946 -0.0014429 0.000834609 -0.00195516 -5.10301e-05 0.0242555 0.00233631 0.0106999 0.000313551 0.00748169 0.039667 0.000644584 0.0161855 -0.00246117 0.0035917 0.0326269 0.0176212 0.0571568 -0.0023154 -0.00271889 0.0362616 0.0133738 3.97562e-05 0.000338577 0.0223181 -0.00311896 0.00289762 -0.00461344 0.0131099 0.0345831 0.0150126 0.0256023 0.00571751 0.00160831 0.000274141 0.0121265 0.0234607 0.0207412 0.0187069 0.0342094 0.00103301 0.012992 -0.00322012 0.0588041 0.0102292 0.0059704 0.0146281 -0.0033366
internal_weight=254514 9206 245308 57041 188267 2377 166144 6829 45891 22123 11150 100419 19827 756 3861 65725 20981 50617 10621 2968 5169 1142 18959 9695 1621 26064 1455 39996 18909 557 513 529 5452 50626 1094 3413 18316 24203 2411 25343 14413 49793 3381 978 1368 448 2022 951 15108 918 407 1910 1328 87 10344 379 33752 503 3439 6256 426 10301
internal_count=254514 9206 245308 57041 188267 2377 166144 6829 45891 22123 11150 100419 19827 756 3861 65725 20981 50617 10621 2968 5169 1142 18959 9695 1621 26064 1455 39996 18909 557 513 529 5452 50626 1094 3413 18316 24203 2411 25343 14413 49793 3381 978 1368 448 2022 951 15108 918 407 1910 1328 87 10344 379 33752 503 3439 6256 426 10301
cat_boundaries=0 1 2 3 4 5 6
cat_threshold=3 44 36 271 37 12
is_linear=0
shrinkage=0.05


Tree=10
num_leaves=63
num_cat=4
split_feature=3 3 3 5 5 3 13 3 5 3 5 5 13 2 1 1 3 1 2 1 2 2 3 3 3 2 2 20 3 5 2 1 5 5 3 17 5 0 2 1 1 3 1 2 2 5 17 2 1 0 16 5 20 1 3 0 5 2 1 11 5 3
split_gain=2321.87 545.664 445.334 188.552 69.9515 63.3072 61.7961 60.7731 59.6433 44.5945 27.7747 23.5737 23.2661 22.3978 14.6436 14.4543 13.6636 13.1647 11.6825 10.9454 10.6336 10.424 10.1421 9.35246 9.04175 9.00468 8.91537 8.83821 8.81312 8.56488 8.1128 8.103 7.98902 7.03418 6.68739 6.6497 6.59378 6.28655 6.18889 5.87874 5.83857 5.69209 5.50892 5.32451 5.26531 4.96957 4.92507 4.66254 4.65619 4.63013 4.57685 4.5727 4.52563 4.39422 4.33654 4.07743 3.88511 3.83139 3.95576 3.82336 3.79803 3.81049
threshold=1.2631878256797793 0.71144613623619091 2.0901793241500859 0.47823351621627813 0.78598043322563182 2.7926778793334965 0 1.6313176155090334 0.67646867036819469 0.98335060477256786 1.1981405019760134 0.9969659447669984 1 1.8688347935676577 1.4978661537170412 1.2424533367156985 3.3760280609130864 1.4978661537170412 1.7005987167358401 0.89587974548339855 1.4978661537170412 3.4175922870635991 2.3626232147216801 1.8811269998550417 1.4522693753242495 1.4978661537170412 0.89587974548339855 2 0.8260406255722047 0.86721205711364757 1.4978661537170412 2.4414010047912602 0.96726602315902721 0.36678527295589453 1.0000000180025095e-35 1.1153602600097658 1.0800974965095522 1.0000000180025095e-35 0.89587974548339855 1.2424533367156985 1.2424533367156985 1.0198381543159487 3.1567740440368657 1.2424533367156985 2.7403194904327397 0.60094970464706432 0.99999997019767772 0.89587974548339855 1.4978661537170412 3.2769666910171513 -0.53533735871314991 0.95572495460510265 3 2.2499048709869389 1.5939539074897768 1.0000000180025095e-35 0.48542375862598425 2.8029010295867924 2.3502402305603032 11.500000000000002 0.68773636221885692 1.2221247553825381
decision_type=2 2 2 2 2 2 9 2 2 2 2 2 9 2 2 2 2 2 2 2 2 2 2 2 2 2 2 1 2 2 2 2 2 2 2 2 2 2 2 2 2 2 2 2 2 2 2 2 2 2 10 2 1 2 2 2 2 2 2 2 2 2
left_child=1 3 7 6 9 22 14 11 12 17 25 24 20 15 18 29 49 28 47 26 39 23 -4 -9 -2 36 33 -13 43 -10 53 -16 -15 50 44 -31 41 -24 40 -5 46 -6 -26 56 -20 -30 -14 -1 -21 -7 -8 -17 -12 -11 -29 -54 -3 58 -39 -57 -32 -62
right_child=2 4 5 8 10 16 19 21 13 30 52 27 38 32 31 51 -18 -19 34 48 -22 -23 37 -25 42 -27 -28 54 45 35 60 -33 -34 -35 -36 -37 -38 57 -40 -41 -42 -43 -44 -45 -46 -47 -48 -49 -50 -51 -52 -53 55 -55 -56 59 -58 -59 -60 -61 61 -63
leaf_value=-0.0016578687402688448 0.013677544873768176 -0.00015058161315039152 0.038228348274522754 0.00039445342988168408 0.0078144118839932556 0.056295286778816039 0.02657189100734459 0.023910954298001871 0.0021997097818671793 0.0074543487372093339 0.019843757481846427 0.01355195234722226 0.0039166360944344145 0.013629680510691664 0.0035015306175809075 0.0074860471068853452 0.079633215179752401 0.007907187347120842 0.012016090521001705 -0.0021171027311465444 0.0053304102545405118 0.049997983204083267 0.084068135880241701 0.030674806565382819 0.018515660412992824 0.016196987093352988 -0.0019355464210094341 0.035542378335756485 0.0032195121003071401 0.0066697116988936357 0.011156058460561398 0.024928787769244704 0.039190908366284416 -0.0031937869818174842 0.0025761907788820859 0.041342657566704653 0.018587333819575939 0.03980155056759372 0.00055943867286967989 0.0029833137904021496 0.001571361348401057 0.012905222680812992 0.05416715397491112 0.0053980084541310619 0.049743562861170515 0.0058439659349580689 -0.0017818145039878138 -0.00016603124033010095 0.0017395414309944108 0.068953512262439551 -0.0041299871917876412 0.020556341723503568 0.044955100123232478 0.021698502246155226 0.012860151296829287 0.00063049081127998258 0.0022565040823677735 0.054468597677007805 0.049681925859461865 0.033882164573324214 0.01674426727069013 0.040199261644289858
leaf_weight=41672 2303 2386 595 24754 2029 305 11.999999999999998 1331 8756 5432 58 71 385 324 1085 1308 111 1509 129 8262 1256 49 11.999999999999998 849 1378 689 7659 245 4428 942 692 46 34 36112 581 13.999999999999998 202 230 4322 2407 1461 760 10.999999999999998 1007 9.9999999999999982 3062 22657 5999 863 105 47165 71 70 55 24 11.999999999999998 5606 134 203 34 151 20
leaf_count=41672 2303 2386 595 24754 2029 305 12 1331 8756 5432 58 71 385 324 1085 1308 111 1509 129 8262 1256 49 12 849 1378 689 7659 245 4428 942 692 46 34 36112 581 14 202 230 4322 2407 1461 760 11 1007 10 3062 22657 5999 863 105 47165 71 70 55 24 12 5606 134 203 34 151 20
internal_value=1.09507e-05 -0.000847143 0.0265962 -0.00169275 0.00569778 0.0493333 -0.00268854 0.0204392 0.000475791 0.00470668 0.0119576 0.0167725 -0.00018304 0.00377018 -0.0012429 0.0033722 0.0638648 0.00343515 -0.00137468 -0.00340341 0.000831988 0.0270687 0.0428753 0.0265487 0.0156086 0.0110319 -0.00356944 0.0293882 0.00302553 0.00269121 0.00830972 0.00437957 0.0160815 -0.00371962 0.00494475 0.00718698 0.00983985 0.0476346 -0.00118375 0.000624072 -0.00149191 0.00920386 0.0188055 0.00196989 0.0148001 0.00429315 -0.00168637 -0.00147024 -0.0017518 0.0595652 -0.00412202 0.00816406 0.0314893 0.00759843 0.0335428 0.0372469 0.00153725 0.04684 0.0444556 0.0253365 0.0128249 0.0195387
internal_weight=254444 246488 7956 218286 28202 1695 149595 6261 68691 24348 3854 4032 57242 11449 49522 11091 521 17998 48391 100073 28417 2229 1174 2180 3692 3680 90948 340 16489 9712 6350 1131 358 83289 720 956 2991 579 28825 27161 24503 2789 1389 8999 139 7490 23042 47671 9125 410 47177 1379 174 5487 269 116 7992 567 433 46 863 171
internal_count=254444 246488 7956 218286 28202 1695 149595 6261 68691 24348 3854 4032 57242 11449 49522 11091 521 17998 48391 100073 28417 2229 1174 2180 3692 3680 90948 340 16489 9712 6350 1131 358 83289 720 956 2991 579 28825 27161 24503 2789 1389 8999 139 7490 23042 47671 9125 410 47177 1379 174 5487 269 116 7992 567 433 46 863 171
cat_boundaries=0 1 2 3 4
cat_threshold=23 263 2 2
is_linear=0
shrinkage=0.05


Tree=11
num_leaves=63
num_cat=6
split_feature=4 4 4 5 4 15 15 4 4 5 15 19 4 19 6 19 15 19 7 2 15 15 5 17 17 7 15 2 7 2 17 4 15 7 19 4 19 2 4 4 5 15 17 2 17 7 2 4 2 5 7 17 9 2 15 4 9 15 5 2 7 9
split_gain=1876.96 490.229 396.784 120.373 96.6812 79.3763 76.3039 60.151 57.4383 40.5898 36.5436 32.046 26.6905 23.7515 23.4625 23.2829 20.4604 21.9408 19.8737 19.4637 17.7703 15.9644 15.5691 15.5164 15.1251 14.3492 13.1601 12.5972 11.7187 11.5483 11.4662 11.2405 11.0425 10.4405 10.417 10.0226 8.87937 8.79018 8.44173 8.38933 8.26123 8.24558 8.16144 7.82424 7.74445 7.63944 7.61216 9.52486 7.4368 7.37006 7.20417 6.88307 6.82569 6.77134 6.58411 6.45772 6.48846 6.14021 6.07948 5.88908 5.75109 5.5983
threshold=0.93793204426765453 1.8438280224800112 0.46432849764823919 0.62751570343971264 1.3762974739074709 1.2849999666213991 3.7000000476837163 2.2373793125152592 0.63991817831993114 0.84954759478569042 1.1299999952316286 0 0.26231032609939581 1 2.5000000000000004 2 1.7749999761581423 3 4.5000000000000009 2.7403194904327397 2.8750000000000004 1.1999999880790713 1.2863663434982302 1.024560332298279 0.99999997019767772 4.5000000000000009 0.9650000035762788 1.8688347935676577 4.5000000000000009 1.7005987167358401 1.0638579726219179 2.6359319686889653 0.53499999642372142 4.5000000000000009 4 0.28706558048725134 5 2.4414010047912602 1.1857689023017886 1.1857689023017886 0.77309146523475658 0.48999999463558203 1.0075134634971621 2.8617925643920903 1.0491927266120913 4.5000000000000009 1.2424533367156985 1.0000000180025095e-35 1.4978661537170412 1.1406345963478091 4.5000000000000009 1.0781019330024721 36.500000000000007 2.7403194904327397 1.7549999952316286 0.67758783698081981 2.5000000000000004 0.48999999463558203 0.61196911334991466 2.3502402305603032 4.5000000000000009 3.5000000000000004
decision_type=2 2 2 2 2 2 2 2 2 2 2 1 2 1 2 1 2 1 2 2 2 2 2 2 2 2 2 2 2 2 2 2 2 2 1 2 1 2 2 2 2 2 2 2 2 2 2 2 2 2 2 2 2 2 2 2 2 2 2 2 2 2
left_child=2 4 3 6 10 11 15 43 20 29 36 27 34 22 31 -1 17 21 38 26 45 59 51 25 -19 48 49 32 61 33 37 52 -4 57 44 46 -2 60 53 -20 -32 -13 -35 -3 -8 -7 -18 -48 58 -6 -14 -11 -9 -12 -23 -34 -57 -5 -10 -17 -22 -28
right_child=1 7 5 9 19 8 12 14 23 13 18 41 50 -15 -16 16 35 24 39 -21 30 54 -24 -25 -26 -27 28 -29 -30 -31 40 -33 55 42 -36 -37 -38 -39 -40 -41 -42 -43 -44 -45 -46 -47 47 -49 -50 -51 -52 -53 -54 -55 -56 56 -58 -59 -60 -61 -62 -63
leaf_value=0.0005511539026808762 0.010097264901420466 0.031986257359719827 0.021492125996735261 0.014531850517187734 0.026650811707708971 0.001427463234780352 -0.002930765032245047 0.043703983170852723 0.0019203083191790444 0.015428145632826915 0.0075466253009197452 0.011443469718570139 -0.0029036746720783038 0.0042214133514701215 -0.02038190816571047 0.0061966630398950914 -0.0030748094500603813 0.0089027313841707218 0.012766174675005904 0.041972741505173966 -0.00063246438519497206 -0.00044678557060592649 0.052746172715259824 0.018354619821588831 -0.0025977056165810176 0.0060505520146398786 0.033535344995519793 0.023633846854340231 0.02586688863582521 0.011380009266734364 0.012673172285542178 0.058229780110294276 0.0082589553229395121 0.0033367363925967523 -0.0044448893475667233 -0.001310031553397595 0.024125617362214614 0.030775621972042762 0.012318651485591366 0.01960576873686801 0.060095029210185148 0.0029268295360523008 0.014865080850000077 0.047228139227752375 0.0077140809792717513 0.0038866486864838528 0.021472757425805108 0.00031952886291120443 0.0073891728133740611 0.044191973201463251 -0.0015903875392213052 0.03484022334261766 0.059412196045793134 0.033168688923355998 0.0044724861369260923 0.05457120791520223 0.013946228984672968 0.00024123130977252291 0.0042334277292986177 0.029753894228282007 0.0010450712729011334 0.017609283403887562
leaf_weight=15163 196 830 258 76 212 9417 11939 357 7560 482 3617 343 31302 548 10.999999999999998 1629 21851 302 1652 126 15598 2911 33 192 5280 6186 58 254 722 311 57 452 1190 3015 43586 17847 702 23 1393 622 10.999999999999998 1677 162 96 173 4760 57 791 950 86 15703 51 90 26 887 9.9999999999999982 591 6262 4564 27 7597 1570
leaf_count=15163 196 830 258 76 212 9417 11939 357 7560 482 3617 343 31302 548 11 1629 21851 302 1652 126 15598 2911 33 192 5280 6186 58 254 722 311 57 452 1190 3015 43586 17847 702 23 1393 622 11 1677 162 96 173 4760 57 791 950 86 15703 51 90 26 887 10 591 6262 4564 27 7597 1570
internal_value=1.0473e-05 0.0186555 -0.00097861 -0.00215917 0.0146564 0.00249886 -0.00248737 0.042571 0.00200262 0.00292384 0.0119275 0.00903081 -0.00334275 0.0119694 0.0517132 -0.0011711 -0.00167725 0.000230751 0.0107566 0.0227283 0.000857892 0.00248407 0.019049 0.00420701 -0.00197093 0.00406562 0.0218091 0.0130544 0.020546 0.0018977 7.98236e-06 0.0526031 0.0118032 0.00158713 -0.00408336 -0.00219711 0.0214518 -5.18912e-05 0.00900175 0.01464 0.0204948 0.00435439 0.00392661 0.0335767 -0.00277595 0.00225352 -0.00289435 0.00174964 0.00312603 0.0317429 -0.00246505 0.0173012 0.0468905 0.00773177 0.000700852 0.0104035 0.0146395 0.000413608 0.00279151 0.00658554 -8.28077e-05 0.0181818
internal_weight=254444 12818 241626 180388 10982 61238 169448 1836 56915 10940 8208 4323 102703 1114 910 66745 51582 11036 7310 2774 37463 5454 566 19452 5582 19260 2648 2303 2350 9826 23286 899 2049 9515 55698 40546 898 23218 5036 2274 68 2020 3177 926 12112 14177 22699 848 13074 298 47005 533 447 3643 3798 1791 601 6338 12124 1656 23195 1628
internal_count=254444 12818 241626 180388 10982 61238 169448 1836 56915 10940 8208 4323 102703 1114 910 66745 51582 11036 7310 2774 37463 5454 566 19452 5582 19260 2648 2303 2350 9826 23286 899 2049 9515 55698 40546 898 23218 5036 2274 68 2020 3177 926 12112 14177 22699 848 13074 298 47005 533 447 3643 3798 1791 601 6338 12124 1656 23195 1628
cat_boundaries=0 1 2 3 4 5 6
cat_threshold=13 36 3 44 37 80
is_linear=0
shrinkage=0.05


Tree=12
num_leaves=63
num_cat=4
split_feature=3 3 3 15 3 5 3 19 3 5 15 6 5 15 19 5 2 5 15 5 19 15 1 3 7 1 7 15 7 5 7 7 2 3 15 15 7 2 13 0 15 3 15 17 5 11 2 0 1 15 2 9 15 3 15 15 3 7 1 5 7 7
split_gain=1919.07 516.651 304.969 161.929 75.2154 70.5911 54.3543 52.9564 35.7416 34.6617 28.835 23.0926 22.5664 19.7438 20.6791 18.3653 16.3058 15.9665 15.4521 14.5573 13.6089 17.3647 13.3462 12.9035 12.3209 11.0265 9.67043 9.61745 9.23266 9.13717 8.37233 8.31441 8.19874 7.92728 7.72476 7.56859 7.53712 7.49641 7.44842 6.81047 6.7092 6.41584 6.19834 5.8661 5.70111 5.69303 5.6084 5.45244 5.39865 5.31851 5.28533 5.21418 5.07332 5.0367 4.9699 4.88576 4.87133 4.82946 4.80175 4.69144 5.45186 4.6569
threshold=1.3532976508140566 0.71144613623619091 2.2508821487426762 2.8750000000000004 1.0240827202796938 0.51529690623283397 1.7841176986694338 0 3.0978677272796635 0.76241862773895275 0.48999999463558203 2.5000000000000004 0.56209728121757518 0.48999999463558203 1 0.92249307036399852 1.8688347935676577 0.47823351621627813 1.1999999880790713 1.0800974965095522 2 1.1999999880790713 1.7005987167358401 0.8260406255722047 4.5000000000000009 1.4978661537170412 4.5000000000000009 1.1999999880790713 3.5000000000000004 0.80134573578834545 4.5000000000000009 4.5000000000000009 0.89587974548339855 2.6839674711227421 0.21500000357627871 7.0799999237060556 4.5000000000000009 0.89587974548339855 3 1.0000000180025095e-35 0.97500002384185802 1.5678916573524477 1.1999999880790713 1.0781019330024721 1.1665362119674685 23.500000000000004 1.4978661537170412 1.7005987167358401 1.7005987167358401 1.1999999880790713 3.4175922870635991 49.500000000000007 1.8750000000000002 1.1295045614242556 1.1299999952316286 0.71999999880790722 0.24294267594814303 4.5000000000000009 1.2424533367156985 1.1665362119674685 3.5000000000000004 5.5000000000000009
decision_type=2 2 2 2 2 2 2 1 2 2 2 2 2 2 1 2 2 2 2 2 1 2 2 2 2 2 2 2 2 2 2 2 2 2 2 2 2 2 9 2 2 2 2 2 2 2 2 2 2 2 2 2 2 2 2 2 2 2 2 2 2 2
left_child=1 3 6 5 9 13 15 12 33 23 34 22 24 -1 18 36 20 56 -15 32 -12 -22 26 52 35 37 42 -18 -23 58 39 -25 -11 44 -7 46 41 -16 -20 -8 -35 -2 -6 -31 57 59 -5 -21 -30 -34 -41 -10 -3 -13 -24 -46 -9 -4 -14 60 -17 -42
right_child=2 4 8 7 11 10 30 17 51 19 16 53 29 14 25 45 27 -19 38 47 21 28 54 31 -26 -27 -28 -29 48 43 -32 -33 49 40 -36 -37 -38 -39 -40 50 61 -43 -44 -45 55 -47 -48 -49 -50 -51 -52 -53 -54 -55 -56 -57 -58 -59 -60 -61 -62 -63
leaf_value=0.011545021398683606 0.012655628462285077 0.0052221102625371069 0.036985817091482034 -0.0020806110754775296 0.012850979533796528 0.029572034624523694 0.045366010474699694 -0.0040540427058831435 0.0631991549362627 0.0059875661865657851 -0.00065637178265846646 0.017369593245757129 -0.00012098977048999752 0.0065695264580378767 -0.0021784332335733499 0.020002262611979297 0.019837241841340988 -0.0019063813037817614 0.001015298713122984 0.024781316264953741 0.0073138517123220326 0.001192886652718017 0.024978355320313311 0.0034585251984228273 -0.00086942286613854989 0.0057411099668930182 0.011566844389006924 0.0058834684630087383 0.0031681900250937465 0.0060879155345508768 0.034008421752971467 0.006638845458661201 0.017698536247019538 0.014136012933636442 0.01190682225566278 -0.0035697445720112245 0.02027055994518874 0.0004989227034975515 -0.0015678355186477266 0.024979618889633168 0.048935772756687243 0.018181294988069596 0.0066650207173193686 0.037808790388486252 0.037809959021290286 0.017234239096356973 0.002556633869324111 0.0069131533091728002 0.0097918622687930904 0.0093519718104359099 0.045808599498180953 0.086413145302934105 0.001436921740878493 0.03131542342822833 0.0137281815915501 0.079522626859377762 -0.00315373789798327 0.04678951833759571 0.0034366252486042375 0.039839218904963912 0.036019980151478358 0.064783137472484292
leaf_weight=323 1307 994 431 30962 452 73 46 37435 204 2178 3597 133 10965 1031 21982 131 196 15669 8938 182 1840 10108 116 6418 20813 486 1868 338 8462 491 523 3033 254 12.999999999999998 427 9873 944 2964 4045 1108 332 894 4079 14.999999999999998 13.000000000000002 104 665 57 320 797 32 30 8194 132 699 18 25230 189 1038 102 93 58
leaf_count=323 1307 994 431 30962 452 73 46 37435 204 2178 3597 133 10965 1031 21982 131 196 15669 8938 182 1840 10108 116 6418 20813 486 1868 338 8462 491 523 3033 254 13 427 9873 944 2964 4045 1108 332 894 4079 15 13 104 665 57 320 797 32 30 8194 132 699 18 25230 189 1038 102 93 58
internal_value=1.00787e-05 -0.000696964 0.0266775 -0.00153738 0.00550346 0.000550869 0.0213574 -0.00242545 0.0484961 0.00403669 0.00261222 0.00983825 -0.00147334 -0.000763548 -0.000864492 0.0178465 0.00237285 -0.00333419 0.000677484 0.00862737 0.00218285 0.00267477 0.00930436 0.00318224 -0.0018626 -0.00171397 0.00853483 0.0110172 0.00222401 0.000464189 0.0286973 0.00447974 0.00774308 0.0445478 0.0145013 -0.00236058 0.0165163 -0.00186012 0.000209678 0.0263483 0.0501381 0.014903 0.00728349 0.00704542 0.0410723 0.0275574 -0.00198294 0.0205455 0.00341022 0.0113754 0.0255726 0.0662323 0.00184702 0.0243442 0.0153384 0.0623688 -0.00369165 0.0399895 0.000186277 0.030829 0.0266879 0.0513214
internal_weight=254444 247872 6572 218286 29586 65130 5284 153156 1288 22107 25361 7479 74822 39769 39446 3575 24861 78334 14014 3468 24327 20730 7214 18639 62313 25432 6399 534 18890 12509 1709 9451 3229 1054 500 41500 3145 24946 12983 1186 403 2201 4531 506 651 430 31627 239 8782 1051 1140 234 9188 265 815 31 62665 620 12003 326 224 390
internal_count=254444 247872 6572 218286 29586 65130 5284 153156 1288 22107 25361 7479 74822 39769 39446 3575 24861 78334 14014 3468 24327 20730 7214 18639 62313 25432 6399 534 18890 12509 1709 9451 3229 1054 500 41500 3145 24946 12983 1186 403 2201 4531 506 651 430 31627 239 8782 1051 1140 234 9188 265 815 31 62665 620 12003 326 224 390
cat_boundaries=0 1 2 3 4
cat_threshold=39 11 80 279
is_linear=0
shrinkage=0.05


Tree=13
num_leaves=63
num_cat=5
split_feature=3 4 3 5 4 4 3 3 5 20 5 5 5 2 7 3 3 7 7 5 13 5 4 2 4 7 2 7 20 6 3 17 13 4 2 7 2 2 1 4 7 4 8 4 4 3 5 17 4 4 4 3 3 3 19 1 7 8 6 17 2 4
split_gain=1732.47 438.943 333.725 129.519 81.7343 71.5378 47.12 45.4512 37.8691 28.8515 19.6846 19.3171 17.7031 16.3635 13.8087 12.0904 11.3379 11.266 10.8459 10.101 9.70974 9.51784 9.34861 8.95397 8.37333 8.2451 8.09804 8.3483 7.69494 7.62365 8.09796 7.45382 7.24474 7.21122 7.1555 7.14832 6.98631 6.66104 6.41301 6.39319 5.82773 5.71912 5.98462 5.57288 5.52576 5.93025 5.46262 5.45789 5.42165 5.37028 5.23502 5.05093 5.04498 4.99288 4.89424 4.83631 4.58065 4.53083 4.4867 4.16777 4.15377 4.15108
threshold=1.2631878256797793 0.58203697204589855 2.0901793241500859 0.55199968814849865 0.89751031994819652 0.31597642600536352 2.7926778793334965 1.6313176155090334 0.7259657382965089 0 0.81214669346809398 0.78533533215522777 0.9969659447669984 1.4978661537170412 4.5000000000000009 0.83143979310989391 3.3760280609130864 4.5000000000000009 4.5000000000000009 1.1981405019760134 1 1.2318207621574404 0.044373333454132087 1.4978661537170412 0.21289115399122241 4.5000000000000009 3.4175922870635991 4.5000000000000009 2 5.5000000000000009 0.93035507202148449 1.0576362609863283 3 2.2373793125152592 1.7005987167358401 4.5000000000000009 1.8688347935676577 2.6020033359527592 3.113268375396729 0.42508074641227728 4.5000000000000009 1.1289001703262331 11.500000000000002 0.71107459068298351 0.5325264334678651 1.8811269998550417 0.81214669346809398 1.0119290947914126 1.4357827305793764 0.58903339505195629 1.2886524796485903 1.5169554948806765 0.85645723342895519 0.98880583047866832 4 1.8688347935676577 4.5000000000000009 11.500000000000002 2.5000000000000004 0.99999997019767772 1.7005987167358401 0.31597642600536352
decision_type=2 2 2 2 2 2 2 2 2 1 2 2 2 2 2 2 2 2 2 2 9 2 2 2 2 2 2 2 1 2 2 2 9 2 2 2 2 2 2 2 2 2 2 2 2 2 2 2 2 2 2 2 2 2 1 2 2 2 2 2 2 2
left_child=1 3 7 5 10 9 33 12 15 22 17 18 25 21 29 20 -8 23 -6 55 36 31 34 52 -11 38 27 49 -14 30 39 53 -16 46 -1 -33 40 54 51 -7 -5 -20 -43 -19 -29 -46 56 -24 -48 -9 -27 -2 -3 59 61 -13 -4 -57 -55 -10 -50 -15
right_child=2 4 6 8 11 14 16 26 13 24 -12 19 28 37 32 -17 -18 43 41 -21 -22 -23 47 -25 -26 50 -28 44 -30 -31 -32 35 -34 -35 -36 -37 -38 -39 -40 -41 -42 42 -44 -45 45 -47 48 -49 60 -51 -52 -53 -54 58 -56 57 -58 -59 -60 -61 -62 -63
leaf_value=0.0010704848904866668 0.010508262441745478 0.0013642102097219371 0.028932179513245705 0.00010860901146319453 0.0063011227661289781 -0.0022148028509744355 0.05128054896565333 0.034206603126021973 0.0092074251047635728 -0.0038754371936142898 0.0083435549119276441 0.011588302848465412 0.010634928395900925 0.022216850744471918 0.0010893597411005182 0.0052607207028048083 0.069557380374490843 0.0033100278283042053 0.0093467216778279349 0.030441868249912293 -0.0012316624520157856 0.036727847314620914 -0.0020336108321449501 0.0063194859239585777 -0.0028013396560623402 0.014191175531119135 0.043597681005532775 0.061537690620777047 0.029282121568136418 0.00061132219756996199 0.005459132929559205 0.0074522962273328571 -0.00069434712480594867 0.04216148330690056 0.016166058965435711 0.029744683735349636 0.0098875702051854208 0.030818020872625414 0.051821670732875871 -0.00096062005219895168 0.0020233638360721939 0.014683839182030098 0.04421329267158363 0.0059220500876257754 0.022931490003712519 0.032764899005289831 0.058917714261503287 0.0012257816483267415 0.023343730173525923 0.020186727885618642 0.021196604514988827 0.015799206099735962 0.0034103635709157145 0.0081787836454226461 0.0042898927810988341 0.016883945789048324 0.03865073296876996 0.039328720987555514 0.030057129676271627 0.0028395018749903566 0.045322178686865881 0.010718915289033355
leaf_weight=1832 1968 13162 416 11751 4015 22968 410 73 272 47509 1724 1162 71 131 10461 1247 111 5311 1354 89 7966 22 28048 1191 29438 664 49 11.999999999999998 269 4338 403 125 12463 445 82 51 212 47 9.9999999999999982 18257 6009 430 18 3335 380 267 40 1344 38 1448 457 593 3914 188 208 265 180 25 27 4890 55 204
leaf_count=1832 1968 13162 416 11751 4015 22968 410 73 272 47509 1724 1162 71 131 10461 1247 111 5311 1354 89 7966 22 28048 1191 29438 664 49 12 269 4338 403 125 12463 445 82 51 212 47 10 18257 6009 430 18 3335 380 267 40 1344 38 1448 457 593 3914 188 208 265 180 25 27 4890 55 204
internal_value=9.63597e-06 -0.000731583 0.022974 -0.00160413 0.00437077 -0.00214229 0.0426571 0.0176439 0.00125424 -0.00294387 0.00316276 0.0090715 0.0144725 0.00479233 -0.000882627 0.000451674 0.0551967 0.00283067 0.00775074 0.0140531 0.000220261 0.00395288 -0.00166383 0.00212631 -0.00346458 0.0134635 0.0233776 0.0229188 0.0254071 -0.00138255 -0.00159045 0.00382147 0.000119574 0.0370837 0.00172064 0.0139536 0.000864305 0.012714 0.0118958 -0.0016595 0.000756745 0.0109773 0.0158911 0.00431819 0.0276474 0.0270016 0.0339719 -0.0018844 0.0432701 0.0208651 0.0170532 0.0117359 0.00183352 0.00348864 0.0111324 0.0130431 0.0318817 0.018849 0.0109622 0.00317619 0.0364302 0.0147939
internal_weight=254444 246488 7956 210493 35995 177143 1695 6261 33350 108253 28637 7358 4032 6165 68890 27185 521 26913 5817 1541 25938 5575 31306 18267 76947 3692 2229 2180 340 45966 41628 5553 22924 1174 1914 176 17972 590 2571 41225 17760 1802 448 8646 659 647 729 29392 133 1521 1121 2561 17076 5377 543 1452 596 290 215 5162 93 335
internal_count=254444 246488 7956 210493 35995 177143 1695 6261 33350 108253 28637 7358 4032 6165 68890 27185 521 26913 5817 1541 25938 5575 31306 18267 76947 3692 2229 2180 340 45966 41628 5553 22924 1174 1914 176 17972 590 2571 41225 17760 1802 448 8646 659 647 729 29392 133 1521 1121 2561 17076 5377 543 1452 596 290 215 5162 93 335
cat_boundaries=0 1 2 3 4 5
cat_threshold=1 391 2 279 44
is_linear=0
shrinkage=0.05


Tree=14
num_leaves=63
num_cat=7
split_feature=3 3 4 15 4 3 3 5 15 15 4 3 5 19 15 19 4 15 19 3 15 17 3 19 15 5 5 15 5 5 3 17 4 5 3 4 4 17 3 4 6 15 17 15 15 5 19 20 15 1 15 20 5 9 6 6 4 5 15 9 15 15
split_gain=1568.69 387.583 332.585 91.0846 82.756 60.6909 52.6214 46.5884 32.5189 29.6849 26.9895 21.3153 19.6082 18.2579 20.5525 21.181 14.9675 14.8769 12.902 12.5656 12.0216 12.0077 10.9531 10.7852 10.4969 9.45121 9.25593 9.04051 8.45181 8.2577 7.89418 7.70897 7.66117 10.5376 7.30755 7.2828 7.08378 6.71388 6.61815 6.40374 7.03228 6.2098 6.01299 5.80907 6.03622 5.79834 5.76863 5.60834 5.58268 5.23538 5.13236 5.09214 5.06547 4.80388 4.72154 4.52077 4.5107 5.31156 4.5105 4.46511 4.30839 4.29809
threshold=1.1295045614242556 1.9709457755088808 0.48908375203609472 3.5999999046325688 0.73274067044258129 2.6839674711227421 1.4522693753242495 0.6237381398677827 1.1999999880790713 1.8750000000000002 0.3508265763521195 0.62419539690017711 0.9969659447669984 0 1.7749999761581423 1 1.0809029340744021 1.1999999880790713 2 3.3760280609130864 1.1299999952316286 0.99999997019767772 2.2508821487426762 3 0.68999999761581432 1.2318207621574404 1.0548930764198305 0.48999999463558203 0.61196911334991466 0.7259657382965089 1.7841176986694338 0.99999997019767772 0.26231032609939581 0.86721205711364757 0.76920759677886974 0.28706558048725134 1.3762974739074709 0.99999997019767772 0.85119923949241649 0.95198944211006176 5.5000000000000009 1.7549999952316286 1.0140771269798281 0.90500000119209301 0.98500001430511486 0.66149342060089122 4 5 0.21500000357627871 2.8617925643920903 10.650000095367433 6 1.1665362119674685 32.500000000000007 4.5000000000000009 1.5000000000000002 0.17383629083633426 0.54864469170570385 2.8750000000000004 2.5000000000000004 1.1999999880790713 0.71999999880790722
decision_type=2 2 2 2 2 2 2 2 2 2 2 2 2 1 2 1 2 2 1 2 2 2 2 1 2 2 2 2 2 2 2 2 2 2 2 2 2 2 2 2 2 2 2 2 2 2 1 1 2 2 2 1 2 2 2 2 2 2 2 2 2 2
left_child=2 6 3 7 9 22 12 13 39 27 11 18 36 58 15 17 28 43 -5 37 -8 -17 -3 -11 47 32 30 -4 -10 -13 -22 -18 33 -26 -12 42 45 -7 -25 40 59 -19 -16 51 -45 -2 -29 -9 -14 -33 56 -15 -24 -50 -48 -41 57 -20 -1 -6 -56 -54
right_child=1 5 4 10 8 19 20 24 16 23 34 29 48 14 35 21 31 41 50 -21 26 -23 52 38 25 -27 -28 46 -30 -31 -32 49 -34 -35 -36 -37 -38 -39 -40 55 -42 -43 -44 44 -46 -47 54 -49 53 -51 -52 -53 61 -55 60 -57 -58 -59 -60 -61 -62 -63
leaf_value=0.0011509540249498935 0.0080770219155018221 0.028449983685160593 0.013342467434900935 -0.0013845267607990258 0.033929420976246093 0.011261476166830719 0.025283945381970999 0.038576251836442157 0.0032575126392515538 0.0020500680029645721 -0.0015408954383035753 0.0017334468315006763 0.035976711640503325 0.027779333430219207 -0.0026409282602930309 0.0076672891366302096 -0.014765982046480802 -0.00017665890975382964 -0.0039532500951643661 0.066082641063886768 0.015450326018903456 -0.0022235909971290353 0.036098556952658241 -2.7714393466927113e-05 0.0040849637215796359 0.04100059156092057 0.036162050158792564 0.00078820124376157525 0.0059734943668679676 0.013689159812474233 0.021871820821465167 0.010078660187082993 0.0018250732048593447 0.015902604055629013 0.0035043152525852475 -0.0011744854778695669 0.015538745407058198 0.048256032315215892 0.0029259557221756214 0.0069177573010692538 0.037925261232108549 0.004366879296310567 0.0027012148449458962 7.1071743131655222e-05 0.0071710207126761717 0.011887517404584914 0.0044715033889647822 0.00991168576075095 0.014599873164291639 0.046362668615166511 -0.0044860604222893181 0.0096057047687139255 0.034140709423609354 0.027950319803836488 0.013511425827406977 0.018566498952983453 -0.0029835421822711934 0.0019505921597849426 -0.00065220070843350123 0.0087090323348026893 0.0053924033179888423 0.073277747540513458
leaf_weight=10759 2921 857 301 8065 18 12.999999999999998 604 18 6726 13045 27888 1038 61 43 21455 325 31 3052 23687 111 2014 5414 620 20538 1341 15.999999999999998 65 921 5008 168 636 1412 6079 220 736 19099 527 513 2089 101 22 997 539 454 887 1533 3401 353 198 9.9999999999999982 11187 402 13.000000000000002 105 302 523 38283 386 5114 819 363 18
leaf_count=10759 2921 857 301 8065 18 13 604 18 6726 13045 27888 1038 61 43 21455 325 31 3052 23687 111 2014 5414 620 20538 1341 16 65 921 5008 168 636 1412 6079 220 736 19099 527 513 2089 101 22 997 539 454 887 1533 3401 353 198 10 11187 402 13 105 302 523 38283 386 5114 819 363 18
internal_value=9.23071e-06 0.018648 -0.000817677 -0.00182259 0.00257839 0.0376776 0.0139358 -0.000494797 0.00580089 0.0014241 -0.00273484 -0.00319236 0.0108627 -0.000916932 -0.00136481 0.000495706 0.00501076 0.00261475 -0.00328991 0.0506349 0.0188829 -0.00165958 0.032198 0.000905673 0.00310903 0.00271005 0.0174562 0.00492032 0.00441714 0.00340406 0.0169941 0.00980051 0.00262867 0.0057546 -0.00141098 -0.00188929 0.0100418 0.0473535 0.000244661 0.0128227 0.0100056 0.000940958 -0.00250977 0.00642093 0.00477122 0.0093899 0.00441072 0.0113259 0.0220763 0.0103406 -0.00349813 0.0113789 0.0371192 0.0192505 0.00521523 0.0166905 -0.00332136 -0.00385837 0.000569335 0.00926137 0.00908853 0.0571888
internal_weight=254444 10809 243635 188005 55630 2145 8664 76567 14670 40960 111438 82814 5345 68540 52667 11574 13187 5835 81608 637 3319 5739 1508 35672 8027 7656 2715 5288 11734 1206 2650 1453 7640 1561 28624 41093 4981 526 22627 1483 859 4049 21994 1786 1341 4454 4987 371 364 1422 73543 445 651 303 4066 624 62356 24073 15873 837 665 31
internal_count=254444 10809 243635 188005 55630 2145 8664 76567 14670 40960 111438 82814 5345 68540 52667 11574 13187 5835 81608 637 3319 5739 1508 35672 8027 7656 2715 5288 11734 1206 2650 1453 7640 1561 28624 41093 4981 526 22627 1483 859 4049 21994 1786 1341 4454 4987 371 364 1422 73543 445 651 303 4066 624 62356 24073 15873 837 665 31
cat_boundaries=0 1 2 3 4 5 6 7
cat_threshold=3 44 5 19 80 1 1
is_linear=0
shrinkage=0.05


Tree=15
num_leaves=63
num_cat=4
split_feature=0 6 0 15 15 6 1 19 19 15 6 2 0 19 2 1 1 15 0 1 19 2 9 2 15 15 7 2 17 2 1 2 2 2 1 15 15 6 6 15 9 15 1 6 15 15 15 2 6 1 1 2 6 15 15 17 8 15 7 0 1 6
split_gain=903.923 306.966 175.489 175.394 71.1124 70.016 66.549 50.1107 49.1329 80.7576 33.0091 32.6986 26.4603 24.3693 23.6578 21.0391 20.8278 18.5666 16.4286 16.3168 13.6698 16.5299 12.0034 22.1323 11.9344 11.9087 11.4238 11.2646 10.8211 10.4281 10.3832 10.094 9.70374 9.41864 10.3871 9.07722 8.87887 8.44167 8.18143 8.05868 7.50907 7.26371 7.11941 6.42654 6.37787 6.27547 6.33997 6.24714 6.09968 5.99742 5.96066 5.81156 5.76951 5.52062 5.27737 5.23012 6.09254 5.16158 4.96821 4.88061 4.85157 4.78762
threshold=1.8688347935676577 1.5000000000000002 2.6735538244247441 2.8249999284744267 0.48999999463558203 1.0000000180025095e-35 1.4978661537170412 0 1 1.1999999880790713 1.5000000000000002 1.8688347935676577 1.2424533367156985 2 2.0126758217811589 1.2424533367156985 2.2499048709869389 0.98500001430511486 3.2384861707687382 1.2424533367156985 3 1.2424533367156985 41.500000000000007 2.7403194904327397 1.1299999952316286 1.9650000333786013 4.5000000000000009 0.89587974548339855 1.0206466317176821 3.0201274156570439 2.0126758217811589 2.7403194904327397 2.8029010295867924 1.2424533367156985 2.2499048709869389 1.4900000095367434 2.2000000476837163 1.0000000180025095e-35 4.5000000000000009 0.21500000357627871 52.500000000000007 2.7749999761581425 2.6735538244247441 2.5000000000000004 0.21500000357627871 0.90500000119209301 1.0400000214576723 1.2424533367156985 2.5000000000000004 1.0000000180025095e-35 2.0126758217811589 3.3140207529067998 1.0000000180025095e-35 0.71999999880790722 0.21500000357627871 0.93314459919929515 4.5000000000000009 2.1600000858306889 3.5000000000000004 2.2499048709869389 2.1383330821990971 5.5000000000000009
decision_type=2 2 2 2 2 2 2 1 1 2 2 2 2 1 2 2 2 2 2 2 1 2 2 2 2 2 2 2 2 2 2 2 2 2 2 2 2 2 2 2 2 2 2 2 2 2 2 2 2 2 2 2 2 2 2 2 2 2 2 2 2 2
left_child=1 6 5 4 13 16 11 14 61 33 17 12 36 -3 19 20 31 -4 42 26 58 25 -16 -24 54 -22 47 38 35 37 39 59 -13 34 45 -14 44 -26 -9 -7 -23 -42 51 -27 -1 53 -47 -5 -28 -34 -17 -19 -37 -10 -8 56 -45 -18 -11 -2 -21 -6
right_child=2 3 10 7 8 30 24 27 9 15 -12 32 28 -15 22 50 57 18 -20 60 21 40 23 -25 29 43 48 -29 -30 -31 -32 -33 49 -35 -36 52 -38 -39 -40 -41 41 -43 -44 55 -46 46 -48 -49 -50 -51 -52 -53 -54 -55 -56 -57 -58 -59 -60 -61 -62 -63
leaf_value=0.024997519883905014 0.017030111376407919 0.0224449443784158 0.021907956606620847 -0.0018121975979243151 -0.0010064569458027833 0.025649487874949119 0.036964449552884963 -0.0023211545096004905 0.0088038620574904594 0.0009910382439144807 0.01578971054234243 0.012621315422813313 0.013975753943981192 0.0073815988948613079 0.0056372577749703411 0.0036559328578269407 0.022392833754275754 0.032940717477473735 0.056062812062730019 0.0015083351629006222 0.0013518266397913698 0.0035812226052205349 0.015561754683034633 0.076161590300870857 0.013757620873282878 0.0013668441745647909 0.0018365351759125279 -0.00092578928952423206 0.019733433197658939 0.059666487520879455 0.019790307001710212 0.038050718420510679 0.042234190284291942 0.012705981354039247 0.023878335802172069 0.0081345437182184805 0.0019839335118253007 0.0080898118017152815 -0.0034128602347122451 0.008248155259480491 0.0088927257548817584 0.046144085277372328 0.047176598294808005 0.019505213810691785 0.0050822938494739503 0.003175496881097294 0.0084441224255086718 0.00075865515807972976 -0.00064432418423851631 0.011248530100459134 0.01002673577787357 0.051455893761199516 0.004269927999189487 0.024015520761416453 0.018752052609851699 -0.0015494844736805937 -0.0018425223343451703 0.035410292650433016 0.002662268558420779 0.023142974684169482 0.010653197863182647 -0.0028992068442458586
leaf_weight=41 1005 441 103 47085 9468 69 48 28394 965 9862 139 661 378 758 245 4257 103 306 227 4498 6899 2202 93 18 1350 2303 2804 7348 162 10.999999999999998 241 74 48 871 88 1646 10581 1294 43547 2053 39 20 223 64 2201 1570 902 2485 21241 24 403 51 2361 64 259 15315 69 332 8120 497 150 5174
leaf_count=41 1005 441 103 47085 9468 69 48 28394 965 9862 139 661 378 758 245 4257 103 306 227 4498 6899 2202 93 18 1350 2303 2804 7348 162 11 241 74 48 871 88 1646 10581 1294 43547 2053 39 20 223 64 2201 1570 902 2485 21241 24 403 51 2361 64 259 15315 69 332 8120 497 150 5174
internal_value=-7.1692e-06 -0.000447318 0.0201872 -0.000981417 0.00110468 0.0157798 0.00532729 -0.00190428 0.000893763 0.00159009 0.0385565 0.00419004 0.00375307 0.0131763 -0.00100924 0.00101024 0.022639 0.0420264 0.044585 -0.00106793 0.000678163 -3.51682e-05 0.0118478 0.0254935 0.0122758 -0.000410675 -0.00124938 -0.00279121 0.00703086 0.0111919 0.00993953 0.0199549 0.0145362 0.00803483 0.00689949 0.00655999 0.00259034 0.010986 -0.00298205 0.00881752 0.00405617 0.0216616 0.0400752 -0.00109596 0.00544982 0.00647062 0.00510023 -0.00168322 -0.000354805 0.0320049 0.00420816 0.0356134 0.00585885 0.00975707 0.021627 -0.00146345 0.00839944 0.0323453 0.00174502 0.0190575 0.00180476 -0.00167451
internal_weight=254250 248827 5423 227762 69854 4374 21065 157908 68655 54013 1049 18103 17370 1199 78619 49553 2011 910 807 78263 44893 26911 356 111 2962 24650 73615 79289 4547 2655 2363 1576 733 4460 3589 4385 12823 2644 71941 2122 2261 59 580 17751 2242 3501 2472 49570 24045 72 4660 357 4007 1029 307 15448 133 435 17982 1502 4648 14642
internal_count=254250 248827 5423 227762 69854 4374 21065 157908 68655 54013 1049 18103 17370 1199 78619 49553 2011 910 807 78263 44893 26911 356 111 2962 24650 73615 79289 4547 2655 2363 1576 733 4460 3589 4385 12823 2644 71941 2122 2261 59 580 17751 2242 3501 2472 49570 24045 72 4660 357 4007 1029 307 15448 133 435 17982 1502 4648 14642
cat_boundaries=0 1 2 3 4
cat_threshold=39 80 12 3
is_linear=0
shrinkage=0.05


Tree=16
num_leaves=63
num_cat=8
split_feature=3 3 4 4 15 3 3 15 15 3 3 4 6 2 19 15 4 15 19 15 7 15 7 19 3 3 4 15 17 7 6 19 7 6 7 4 6 2 7 0 19 0 15 19 7 7 7 7 15 3 13 3 12 17 15 7 16 18 4 3 15 17
split_gain=1298.19 319.776 276.812 81.1904 66.7138 54.8009 36.5005 33.3883 26.0994 25.67 23.9024 22.247 18.8513 17.6288 17.9411 15.3073 14.2731 13.7031 12.9281 13.2657 12.5698 10.549 10.273 10.0935 9.63144 9.4202 7.69982 7.4235 7.37009 7.24163 7.20856 7.19817 6.89823 6.78587 6.33101 6.11901 6.0725 5.79146 5.71582 5.46166 5.44742 5.44426 5.44145 5.35977 5.17468 5.16071 5.13831 5.07945 5.03285 7.54468 5.01027 4.89482 5.71902 4.77206 4.68364 4.57083 4.51462 5.08878 4.63418 4.48375 4.29875 4.05443
threshold=1.1387243270874026 2.0901793241500859 0.46863496303558355 0.73274067044258129 3.7000000476837163 1.5169554948806765 2.8981196880340581 1.1999999880790713 2.8249999284744267 0.77341049909591686 0.75254356861114513 0.3508265763521195 1.5000000000000002 1.2424533367156985 0 0.68999999761581432 1.1042507290840151 1.7749999761581423 1 0.90500000119209301 4.5000000000000009 1.1999999880790713 4.5000000000000009 2 1.7841176986694338 2.4224145412445073 1.0000000180025095e-35 1.1299999952316286 0.99999997019767772 4.5000000000000009 2.5000000000000004 3 4.5000000000000009 3.5000000000000004 4.5000000000000009 1.502914607524872 2.5000000000000004 1.2424533367156985 3.5000000000000004 3.8606742620468144 4 1.7005987167358401 1.1299999952316286 5 4.5000000000000009 4.5000000000000009 4.5000000000000009 4.5000000000000009 0.98500001430511486 2.5013396739959721 6 1.2853417396545412 1.0000000180025095e-35 0.99999997019767772 3.7300000190734868 3.5000000000000004 -0.1603688448667526 7 0.22307416796684268 0.28752511739730841 10.450000286102297 1.0195271968841555
decision_type=2 2 2 2 2 2 2 2 2 2 2 2 2 2 1 2 2 2 1 2 2 2 2 1 2 2 2 2 2 2 2 1 2 2 2 2 2 2 2 2 1 2 2 1 2 2 2 2 2 2 9 2 2 2 2 2 10 1 2 2 2 2
left_child=2 5 4 8 10 12 25 31 15 11 13 23 20 14 55 40 22 18 19 -16 35 43 54 37 27 45 -23 -7 -20 -19 51 -5 -25 -12 -10 42 -11 -6 -17 -8 -4 -27 -2 -15 -13 -3 -29 -26 49 -43 -24 -14 -53 -18 -9 -1 57 -31 -58 -55 -34 -28
right_child=1 6 3 7 9 24 39 16 34 36 33 44 30 21 17 38 53 29 28 -21 -22 26 50 32 47 41 61 46 -30 56 -32 -33 60 -35 -36 -37 -38 -39 -40 -41 -42 48 -44 -45 -46 -47 -48 -49 -50 -51 -52 52 -54 59 -56 -57 58 -59 -60 -61 -62 -63
leaf_value=-0.00024828618396846195 0.014622563966710776 0.026306570259878089 0.012726766633320688 0.0056844797131905198 -0.0016273684575670981 0.023594402510365139 0.048957496885063997 0.0039963787387555724 -0.0004266940526301281 0.0042982509605337654 0.0044078865834279082 -0.0018098199948580421 0.011722656590662756 0.01354843857383336 0.0094018739466816964 0.0013819597331483715 -0.012853779983444714 -0.002278737729902293 0.0051745921046004728 0.00104095514520543 0.013234412992281442 0.016183333252005955 0.00084147511915712455 -0.003543210267966303 0.019967467769772207 0.060029725845889406 0.00077204960670985349 0.013044884067018966 -0.0020259274556517094 0.040342588088613879 0.028041142621816496 0.014306581226818039 -0.0022346961429685476 0.020290175142011126 0.0012032733901391646 0.015254983371451368 0.018682913048734678 0.0045923374299480235 0.0030898861733318714 0.072478480334807957 0.0043644071151499042 0.049498483288379122 0.0065350762125761536 0.0024824568698327363 -0.00027851312567004049 0.035903088508802618 0.019400461293975435 0.026871227755649929 0.03790561621392452 0.0024135153997824916 0.0067904238758030007 0.024151481857345041 -0.0050936887565568006 0.043334063481871452 0.00154826135545059 0.0014551089556535239 -0.0020730874394726275 -0.0026716983272829127 -0.00017744828924318255 0.0097214686266273668 -0.0040338341711425385 0.0084435978449761764
leaf_weight=8365 225 491 455 366 7670 302 359 4901 18295 914 1793 16397 333 285 520 10493 23 26994 380 5435 1476 87 414 48164 894 27 3599 1065 5394 14 148 1159 21078 70 8833 250 80 393 9215 28 403 12.999999999999998 2951 203 8327 204 462 391 547 25 3396 189 18 9.9999999999999982 3263 7435 5240 13 8397 1246 3952 181
leaf_count=8365 225 491 455 366 7670 302 359 4901 18295 914 1793 16397 333 285 520 10493 23 26994 380 5435 1476 87 414 48164 894 27 3599 1065 5394 14 148 1159 21078 70 8833 250 80 393 9215 28 403 13 2951 203 8327 204 462 391 547 25 3396 189 18 10 3263 7435 5240 13 8397 1246 3952 181
