tree
version=v4
num_class=1
num_tree_per_iteration=1
label_index=0
max_feature_idx=26
objective=regression
feature_names=lag_7_log lag_28_log lag_364_log rolling_mean_7 rolling_mean_28 rolling_std_7 rolling_zero_count_7 day_of_week month week_of_year is_weekend day_of_month event_indicator cat_event snap_CA sell_price price_change_7 price_ratio_28 store_id dept_id cat_id days_since_last_sale last_nonzero_qty demand_freq_28 rolling_zero_count_28 avg_nonzero_qty_28 streak_zeros
feature_infos=[0:5.4806389808654785] [0:4.2626800537109375] [0:3.828641414642334] [0:3.2004806995391846] [0.024755256250500679:2.5092673301696777] [0:2.0108833312988281] [0:7] [0:6] [1:12] [1:53] [0:1] [1:31] [0:1] -1:2:12:7:3:1:13:11:0:10:6:8:5:4:14 [0:1] [0.23000000417232513:30.979999542236328] [-0.90112996101379395:56.599990844726562] [0.098870053887367249:2.0886383056640625] -1:0:2 -1:6:2:3:1:5:0:4 -1:0:2:1 [1:28] [1:54] [0.035714287310838699:1] [0:27] [1:22.583333969116211] [0:27]
tree_sizes=5675 6018 5983 5903 6054 5975 5955 6057 5971 5968 5913 5951 5938 5866 5881 5947 5913 5998 5917 5932 5958 5926 6002 5940 5949 5956 5946 5919 5930 5945 6056 5904 5898 6013 5966 6027 5918 5931 6013 5944 6038 5954 5983 5923 5975 5952 5953 5954 5999 6030 5958 5921 5954 5933 5993 6072 5881 5949 6021 6087 5951 5914 5980 6053 5986 5886 5977 5896 5929 6012 6053 6055 5923 6012 5893 6008 5930 5912 5978 6010 6041 5948 6026 5920 6065 6036 5915 5892 5933 5987 5948 5980 5975 5937 5960 6040 5943 6048 6005 5925 5996 5967 6052 6017 5821 6024 5969 5998 5993 6013 5975 6007 6012 6043 5851 5991 5969 5979 5944 5938 6003 5999 6034 5934 5939 5970 6021 5948 6068 6142 5975 6077 5807 5966 6074 6069 5993 5842 5982 5980 6066 5895 6038 5964 5946 6062 6057 5995 6044 6037 5935 6025 5955 5923 6076 5847 5924 5919 5994 5932 5945 6012 6029 5931 6003 6077 5944 5992 6078 6014 5853 5991 5885 5856 5921 5986 5965 5895 5990 5932 5983 5979 6112 6001 6059 6055 6012 6084 6167 6127 6093 6083 5960 5956 6022 6135 5942 6043 5958 6047 5942 5954 5892 5895 6001 5892 5823 5902 5863 5972 5914 6045 5928 5901 6005 6043 6048 6036 5937 5990 6000 5890 5960 6072 6062 5958 6015 5964 6003 5992 6058 5968 5919 6020 5967 5995 6018 6037 6014 6021 6087 5879 6034 6036 5902 5897 5838 5857 6242 5886 5904 6009 5955 6096 6116 5943 5939 5952 5949 5873 6042 6000 5954 5976 5894 5954 6091 5987 5919 5889 5871 6054 6053 5983 5895 5943 6061 5927 6045 5948 6067 5965 6052 6052 6173 5902 6038 6026 6009 5867 5919 5887 6022 5996 6009 5903 6075 6041 6094 5922 6125 5834 6074 5997 6024 5924 5948 5918 5887 6071 5966 6049 6047 5957 5984 6018 5922 5996 5947 6050 5985 6208 5948 6147 5898 5965 5852 5883 5926 5880 5972 6126 6087 6000 6082 6115 5960 5994 6130 6096 5921 5969 6132 5912 6088 6134 5907 5995 5961 6077 5918 5977 6023 6109 5981 6000 5923 6153 5960 6149 5889 5923 5939 6008 5953 5928 6041 6040 5902 6112 6064 5969 5801 6122 5924 5986 6023 5944 6069 6071 6143 6272 6007 6150 5989 5929 6013 6012 5968 5902 6042 5855 5889 6061 6004 5939 5938 5917 5882 5952 5870 5978 6027 6006 6033 5939 5972 6015 6198 6068 6012 6011 6060 6130 5851 5920 5838 5976 6110 5938 6030 5977 5931 6056 5991 5944 5918 5977 6009 6172 5891 6084 5918 5833 5854 6039

Tree=0
num_leaves=63
num_cat=8
split_feature=4 3 4 15 15 15 3 4 5 24 19 19 4 24 7 15 4 4 4 13 15 5 17 7 7 22 7 19 4 19 4 4 3 7 5 4 24 24 24 3 4 7 5 17 15 15 1 15 4 15 3 15 3 15 3 7 13 4 4 5 20 20
split_gain=3877.65 1359.7 1017.96 415.999 400.15 338.992 333.12 238.711 145.868 133.97 97.9163 93.4611 81.2066 83.673 79.4953 73.2095 63.7806 60.1083 49.9779 47.6224 46.8596 45.0754 38.145 37.0836 36.0084 35.6193 35.1102 33.2007 32.6123 32.5477 29.9984 28.3818 24.8847 24.6652 24.2014 23.0914 22.3823 22.3573 20.8887 19.9091 19.2999 18.6377 18.3459 17.8946 18.1224 17.7491 16.7462 16.27 16.2141 15.6937 15.6246 15.4169 15.0839 15.0769 15.0623 14.9284 14.7438 14.7299 14.5902 14.4475 13.8896 13.679
threshold=0.5778082311153413 1.2228083014488222 0.31579695641994482 1.2749999761581423 2.9000000953674321 3.5499999523162846 1.7328398227691653 0.84918102622032177 0.54545605182647716 18.500000000000004 0 1 0.45826925337314611 15.500000000000002 4.5000000000000009 2.8750000000000004 0.19831891357898715 0.40033708512783056 1.3608842492103579 2 0.2650000080466271 0.8119315803050996 0.99999997019767772 4.5000000000000009 4.5000000000000009 8.5000000000000018 4.5000000000000009 3 0.46432849764823919 4 0.88145795464515697 0.18804455548524859 0.97271677851676952 4.5000000000000009 0.70990297198295604 0.4294783622026444 21.500000000000004 19.500000000000004 15.500000000000002 0.67018654942512523 1.1078993678092959 4.5000000000000009 0.56231835484504711 1.0481026768684389 0.71999999880790722 1.4750000238418581 2.3502402305603032 0.2650000080466271 0.93747544288635265 0.64000001549720775 1.0072221755981448 1.8999999761581423 1.2782393097877505 2.8750000000000004 1.0573101639747622 4.5000000000000009 5 0.68682238459587108 0.69842615723609935 0.87309044599533092 6 7
decision_type=2 2 2 2 2 2 2 2 2 2 1 1 2 2 2 2 2 2 2 9 2 2 2 2 2 2 2 1 2 1 2 2 2 2 2 2 2 2 2 2 2 2 2 2 2 2 2 2 2 2 2 2 2 2 2 2 9 2 2 2 1 1
left_child=2 3 5 11 9 8 18 15 10 12 53 30 29 33 19 24 27 37 34 32 -12 43 -13 58 -5 46 40 42 50 51 38 56 -6 -14 -3 -21 -33 -11 -2 41 -9 60 -7 44 -10 -19 -8 -31 -24 -15 -16 -4 -30 -1 -47 -32 -22 -25 -17 -20 -18 -53
right_child=1 6 4 7 14 16 25 26 21 17 20 22 13 49 28 23 39 45 59 35 31 -23 48 57 -26 -27 -28 -29 52 47 55 36 -34 -35 -36 -37 -38 -39 -40 -41 -42 -43 -44 -45 -46 54 -48 -49 -50 -51 -52 61 -54 -55 -56 -57 -58 -59 -60 -61 -62 -63
leaf_value=0.90753475883589907 0.92525043226118953 0.92486310433210372 0.91026584201164773 0.91111018857648385 0.90451713040014337 0.90029877536803693 0.94803955743171786 0.91515114483112758 0.91824258536360437 0.91008508735201166 0.9196523105527683 0.9284575738020826 0.90753495337293943 0.9251565499557548 0.90480963715528662 0.90707526328530563 0.9016601588567692 0.93079010722096134 0.93642326416662758 0.90173939253679014 0.90271522292466388 0.91884188414181267 0.91462818800878731 0.90989811160348111 0.91518140424501604 0.96680324568139642 0.92220784350397789 0.89852215176977157 0.90747043392593718 0.91932690785133553 0.93371960281227029 0.90256918584031631 0.9178262914792219 0.91067563045352118 0.93297074107004974 0.90362158415463811 0.90682243537944285 0.91662299272210901 0.9376678615145666 0.90799819483807698 0.92172441972229835 0.90181465207749822 0.90707643565769569 0.91483458010447405 0.90677849375705977 0.91648779826110849 0.96981716081578806 0.90504704804337588 0.92916872813942675 0.91486524401219427 0.92489228207393592 0.9077097745072582 0.95590905952943761 0.90461417002955447 0.93674534213061089 0.94682333479430214 0.90046413544995696 0.91346138879839789 0.90961289539965218 0.95342301657617501 0.89990851638871694 0.90340433991052016
leaf_weight=9545 1797 3154 5057 16816 43006 27507 794 6656 358 3289 377 773 18723 406 38449 17924 14892 607 1225 40201 9797 1014 2394 8100 8033 544 3601 71798 16463 201 659 35737 354 9394 1308 27421 3385 2176 420 978 1346 31853 1035 834 9373 661 101 24955 209 4374 97 12036 15.999999999999998 8222 107 330 29090 4531 8292 141 47405 2177
leaf_count=9545 1797 3154 5057 16816 43006 27507 794 6656 358 3289 377 773 18723 406 38449 17924 14892 607 1225 40201 9797 1014 2394 8100 8033 544 3601 71798 16463 201 659 35737 354 9394 1308 27421 3385 2176 420 978 1346 31853 1035 834 9373 661 101 24955 209 4374 97 12036 16 8222 107 330 29090 4531 8292 141 47405 2177
internal_value=0.904725 0.914402 0.903165 0.912562 0.905526 0.901218 0.93513 0.911509 0.90347 0.908335 0.902831 0.924617 0.907741 0.909624 0.904103 0.910307 0.899976 0.915042 0.929808 0.903332 0.902072 0.908771 0.918658 0.908951 0.912427 0.956677 0.918105 0.899097 0.905656 0.906347 0.930765 0.901986 0.904626 0.908584 0.927241 0.902503 0.902937 0.912689 0.927606 0.900904 0.916258 0.90083 0.900546 0.907804 0.907201 0.924389 0.95051 0.905161 0.915798 0.915741 0.90486 0.907893 0.907518 0.906182 0.91932 0.938101 0.90103 0.911177 0.907878 0.938185 0.900327 0.90705
internal_weight=642518 89148 553370 81881 250170 303200 7267 75299 107732 84163 96153 6582 77323 32897 166007 63696 195468 6840 5828 110982 78386 11579 3376 38847 24849 1439 11603 100340 55025 44426 3206 78009 43360 28117 4462 67622 39122 5465 2217 95128 8002 94150 28542 10565 9731 1375 895 25156 2603 4780 38546 19270 16479 17767 768 989 38887 12631 26216 1366 62297 14213
internal_count=642518 89148 553370 81881 250170 303200 7267 75299 107732 84163 96153 6582 77323 32897 166007 63696 195468 6840 5828 110982 78386 11579 3376 38847 24849 1439 11603 100340 55025 44426 3206 78009 43360 28117 4462 67622 39122 5465 2217 95128 8002 94150 28542 10565 9731 1375 895 25156 2603 4780 38546 19270 16479 17767 768 989 38887 12631 26216 1366 62297 14213
cat_boundaries=0 1 2 3 4 5 6 7 8
cat_threshold=3 8 2079 39 11 286 1 1
is_linear=0
shrinkage=1


Tree=1
num_leaves=63
num_cat=7
split_feature=25 25 25 3 4 25 4 3 15 15 3 20 10 10 10 25 15 4 25 4 3 25 19 10 4 15 25 19 4 3 15 22 15 20 17 4 4 25 10 19 10 4 15 15 25 15 3 15 10 10 15 19 10 13 4 25 15 15 15 10 10 3
split_gain=4810.34 1519.13 924.102 388.334 252.426 210.757 139.191 109.456 94.9101 92.4588 91.806 80.3241 57.8445 56.7494 45.9555 41.7751 35.5714 37.647 35.5078 31.308 29.9565 29.4675 29.3141 28.7012 28.4103 27.9623 27.7966 27.6912 24.3863 20.5467 18.9551 18.1958 18.0997 17.9409 17.9267 17.1275 17.1224 16.953 16.8891 16.6574 15.629 15.2966 14.1754 13.7771 13.5615 13.3375 12.9693 12.8235 12.7386 12.5934 12.4233 12.194 11.0353 10.8012 10.7526 10.6786 10.5315 9.88397 9.40731 9.21152 8.72291 8.61972
threshold=2.0192307233810429 3.5092592239379887 1.5099999904632571 1.6747304797172549 0.26231032609939581 2.5741758346557622 0.48926322162151342 0.9558318853378297 1.2749999761581423 3.3349999189376835 0.89958485960960399 0 1.0000000180025095e-35 1.0000000180025095e-35 1.0000000180025095e-35 7.5751881599426278 0.64000001549720775 0.52616581320762645 4.6035714149475107 0.53225818276405346 0.8069821596145631 5.1464285850524911 1 1.0000000180025095e-35 0.34073168039321905 3.6299999952316289 1.0930736064910891 2 0.4148585051298142 0.30547615885734564 2.7000000476837163 8.5000000000000018 1.8999999761581423 3 1.0269101262092593 0.50129574537277233 0.48311585187911993 1.7445651888847353 1.0000000180025095e-35 4 1.0000000180025095e-35 0.4148585051298142 3.8750000000000004 2.4850000143051152 1.7350877523422243 0.2650000080466271 1.2117975354194643 4.8849999904632577 1.0000000180025095e-35 1.0000000180025095e-35 2.8750000000000004 5 1.0000000180025095e-35 6 0.64994212985038768 5.2330317497253427 0.71999999880790722 2.6750000715255742 0.90500000119209301 1.0000000180025095e-35 1.0000000180025095e-35 1.2117975354194643
decision_type=2 2 2 2 2 2 2 2 2 2 2 1 2 2 2 2 2 2 2 2 2 2 1 2 2 2 2 1 2 2 2 2 2 1 2 2 2 2 2 1 2 2 2 2 2 2 2 2 2 2 2 1 2 9 2 2 2 2 2 2 2 2
left_child=2 5 4 7 11 12 9 8 21 22 16 25 19 27 37 31 -7 39 52 30 35 36 32 46 53 34 -13 -6 47 -10 56 55 58 -34 51 57 -3 -8 -26 -18 -19 -29 -28 -41 -16 -24 -12 -15 -20 -47 -21 -1 -9 -11 -39 -5 -2 -14 -4 -44 -17 -52
right_child=1 3 6 15 13 10 14 18 29 24 23 26 20 28 44 60 17 40 48 50 -22 -23 45 -25 38 -27 42 41 -30 -31 -32 -33 33 -35 -36 -37 -38 54 -40 43 -42 -43 59 -45 -46 49 -48 -49 -50 -51 61 -53 -54 -55 -56 -57 -58 -59 -60 -61 -62 -63
leaf_value=-0.00027959963089843224 0.012209784183981479 0.014654436504695384 0.01226627406244774 0.03209000452424212 -0.0015923154316456918 0.018444843837783644 0.00075418553095891452 0.02228653127834173 0.0074256404348424718 -0.0010714281494031814 0.011836125698937567 -0.0060896700427699076 0.0072918578154296948 -0.00033690152047239713 0.003226762860494252 0.054634233404998005 0.0018374058840550157 0.0096008487304262494 0.030224070617605417 0.0071708532088081232 0.011624620797482233 0.029959932238476275 0.011899317041939137 0.019789119249924346 -0.001123988302136543 -0.004020083911133461 -0.0036426217553257889 -0.0037279306091022348 0.00115670572264428 0.015247832548071789 0.0017402139205738244 0.052660667894766082 0.0026209524681197467 -0.0015608880357007001 0.0043935680108602602 0.0086410347821351263 0.023731171816685059 0.0020142310014052063 0.0011635605665607941 0.0094362524777725377 0.014016208450019588 -0.0019495092173444637 -0.005490282917373363 0.0053822667187306689 0.0057572772842678826 -0.00038346543137059499 0.017025939588078378 -0.0021806332323246256 0.038896045130446227 0.0017226795217783451 0.004599228770707728 -0.0028039582685623048 0.028987713263016232 -0.0030358281094276279 0.0042996087170383106 0.043504037506789855 0.0045022796299661509 0.0036977493712113002 0.0046587146444288727 -0.0042382457251292412 0.068689451979451269 0.01361958268415135
leaf_weight=7658 468 803 446 393 40166 989 20021 2082 1253 10360 3905 56765 3482 18741 9443 403 1584 6240 1385 11369 4475 1318 250 2612 24398 22779 24282 47211 14342 2565 9933 297 17090 3016 1213 7749 1496 16599 12054 4357 2966 16273 42726 4056 12091 21631 1752 18999 622 10562 10882 12807 885 21855 7471 446 8649 4266 4687 22467 161 272
leaf_count=7658 468 803 446 393 40166 989 20021 2082 1253 10360 3905 56765 3482 18741 9443 403 1584 6240 1385 11369 4475 1318 250 2612 24398 22779 24282 47211 14342 2565 9933 297 17090 3016 1213 7749 1496 16599 12054 4357 2966 16273 42726 4056 12091 21631 1752 18999 622 10562 10882 12807 885 21855 7471 446 8649 4266 4687 22467 161 272
internal_value=6.10977e-06 0.00984424 -0.00189635 0.0250989 -0.00343838 0.0074529 0.000886297 0.0220275 0.0181841 -8.39599e-05 0.011011 -0.00465808 0.00580738 -0.00194479 0.00275442 0.0475126 0.00919306 0.00871622 0.0277709 0.00474461 0.00801931 0.0239898 0.00139174 0.0154495 -0.00132366 -0.00279667 -0.00522391 -0.00262139 -0.000598178 0.0126823 0.00325205 0.0419657 0.0026693 0.0019934 -0.00151087 0.00697783 0.0205638 0.00182955 -0.0003674 0.00659038 0.0110241 -0.00327163 -0.0046746 0.00747358 0.00464786 0.000396768 0.0134446 -0.00126521 0.0329159 0.000307374 0.00600678 -0.0018611 0.024288 -0.00240553 0.0027238 0.038168 0.0048986 0.00531368 0.00532093 -0.00505889 0.0586668 0.00481977
internal_weight=642518 104115 538403 14109 346429 90006 191974 12409 7435 126349 28461 190697 61545 155732 65625 1700 20192 19203 4974 41573 19972 3617 57682 8269 68667 44457 146240 103650 52082 3818 19050 1136 25239 20106 21678 15497 2299 44091 36452 9997 9206 63484 89475 8413 21534 32443 5657 37740 2007 32193 22523 20465 2967 32215 24070 839 9117 7748 5133 65193 564 11154
internal_count=642518 104115 538403 14109 346429 90006 191974 12409 7435 126349 28461 190697 61545 155732 65625 1700 20192 19203 4974 41573 19972 3617 57682 8269 68667 44457 146240 103650 52082 3818 19050 1136 25239 20106 21678 15497 2299 44091 36452 9997 9206 63484 89475 8413 21534 32443 5657 37740 2007 32193 22523 20465 2967 32215 24070 839 9117 7748 5133 65193 564 11154
cat_boundaries=0 1 2 3 4 5 6 7
cat_threshold=1 11 23 1 80 3 2071
is_linear=0
shrinkage=0.05


Tree=2
num_leaves=63
num_cat=6
split_feature=4 4 4 4 20 5 5 10 24 5 4 4 5 24 19 24 5 4 4 24 4 10 6 24 24 20 23 24 4 5 22 23 4 10 17 22 24 22 4 24 10 23 10 0 4 13 4 4 24 13 23 0 17 6 22 17 20 4 10 4 24 10
split_gain=3173.98 1065.85 798.41 333.32 238.854 193.04 171.178 98.1503 92.7485 87.4104 86.5487 79.1416 75.504 69.8609 66.6401 62.3142 60.2889 57.1117 50.9554 44.4357 40.2963 35.1263 32.5871 30.1827 30.1541 28.3706 27.4993 26.8985 30.3959 26.4275 23.2548 22.5966 23.0545 22.0454 21.1191 20.7214 19.2265 18.3827 17.8563 17.8295 17.6428 17.5567 16.6559 15.0241 14.3758 14.135 14.2181 13.9542 13.5442 13.3508 13.2717 13.1802 12.2304 11.813 11.4825 11.457 11.4483 11.376 11.3405 11.3387 11.1063 10.8181
threshold=0.56756463646888744 0.90778467059135448 0.31579695641994482 1.3608842492103579 0 0.67647504806518566 0.77948111295700084 1.0000000180025095e-35 8.5000000000000018 0.62096875905990612 0.73853790760040294 1.7012323737144472 0.5488148331642152 12.500000000000002 1 15.500000000000002 0.87309044599533092 0.18804455548524859 1.1078993678092959 10.500000000000002 0.4294783622026444 1.0000000180025095e-35 1.5000000000000002 15.500000000000002 18.500000000000004 2 0.26785714924335485 18.500000000000004 0.4294783622026444 0.80753210186958324 1.5000000000000002 0.32738095521926885 0.46853503584861761 1.0000000180025095e-35 1.0470951199531557 10.500000000000002 21.500000000000004 7.5000000000000009 0.68269130587577831 15.500000000000002 1.0000000180025095e-35 0.47214284539222723 1.0000000180025095e-35 2.5249279737472539 0.63531035184860241 3 0.37558183073997503 0.65630272030830394 19.500000000000004 4 0.76785713434219371 1.7005987167358401 0.99999997019767772 2.5000000000000004 1.5000000000000002 1.0481026768684389 5 0.62086999416351329 1.0000000180025095e-35 0.50777977705001842 12.500000000000002 1.0000000180025095e-35
decision_type=2 2 2 2 1 2 2 2 2 2 2 2 2 2 1 2 2 2 2 2 2 2 2 2 2 1 2 2 2 2 2 2 2 2 2 2 2 2 2 2 2 2 2 2 2 9 2 2 2 9 2 2 2 2 2 2 1 2 2 2 2 2
left_child=2 6 4 8 9 7 10 14 18 30 13 35 17 21 31 25 22 54 42 33 24 47 -7 59 49 38 -18 28 -16 52 -1 -4 -33 -12 -11 61 40 -13 -8 -34 -19 56 -3 -10 -15 46 -29 -2 -24 -9 -20 -21 -14 -17 -6 -32 -30 -23 -52 -22 -61 -5
right_child=1 3 5 11 12 16 15 20 43 34 19 37 29 44 27 53 26 36 50 51 23 57 48 -25 -26 -27 -28 45 41 -31 55 32 39 -35 -36 -37 -38 -39 -40 -41 -42 -43 -44 -45 -46 -47 -48 -49 -50 -51 58 -53 -54 -55 -56 -57 -58 -59 -60 60 -62 -63
leaf_value=-0.001894250355866608 0.0020533228636671606 0.011195937135346144 0.0046492212055869965 0.02649963936228052 -0.0053072113299303487 0.020622298517000787 0.010487155580234254 0.00154134766044606 0.026173716786025637 0.0040421812205511309 0.006448876545844591 0.042350557545654359 0.0093117163937759938 0.0076748679570223972 -0.0024905594035895518 0.040296525727908372 0.02810356686118223 -0.0040648671670206271 0.029409359727302093 0.014661246984818589 0.001833736802409937 0.0040589988905312185 0.0038734239615623119 0.0079165717746114174 0.0060806739201936227 0.0099216745270773871 0.011284860176467073 0.004986639717681169 0.00023355848144921291 0.011433514876976844 -0.00029191175624725867 -0.00022594936967637583 0.0013769005132980132 0.010512076073105161 0.013202858944196084 0.050719748596838379 -0.00050593545892755807 0.056838737396963969 0.02125489832138517 0.0076475048550710802 -0.0026109254029536614 -0.0010064290018236516 0.016562693487351808 0.043165990361061682 0.012667361844587749 0.00061108976355567386 0.019210409632792781 0.004194214567520782 0.0099548703136232153 -0.00033291536484803897 0.017228785176268944 0.028455726228151637 -0.00071119172567116488 0.02427840009687603 -0.0039268464451356223 0.0047292093335511692 0.0048663258943897596 0.0068248933477709599 0.023881286274897964 0.0026102025692887392 0.0058798502370828974 0.035269775847036965
leaf_weight=59480 20155 4712 3302 1184 88642 309 591 15502 1727 4398 10565 507 315 5938 44463 144 282 61531 363 1496 18680 6105 15567 2916 2475 4322 1784 633 3312 500 22284 46637 22195 4891 735 120 5416 396 1119 1195 31610 25146 2096 142 1911 1281 244 12246 974 24509 2118 197 8901 607 18191 1197 2235 9558 929 6826 4202 510
leaf_count=59480 20155 4712 3302 1184 88642 309 591 15502 1727 4398 10565 507 315 5938 44463 144 282 61531 363 1496 18680 6105 15567 2916 2475 4322 1784 633 3312 500 22284 46637 22195 4891 735 120 5416 396 1119 1195 31610 25146 2096 142 1911 1281 244 12246 974 24509 2118 197 8901 607 18191 1197 2235 9558 929 6826 4202 510
internal_value=5.81484e-06 0.00846074 -0.00145484 0.0207832 -0.00316947 0.000669955 0.00617596 0.000263392 0.017225 -0.000976462 0.00547043 0.0366091 -0.00406756 0.00451717 -0.000472744 0.0137745 0.00552179 -0.0042713 0.0153504 0.00857812 0.00173987 0.00380276 0.00453287 0.00306154 0.000724873 0.0120817 0.0135842 -0.00149682 -0.00165509 0.000238947 -0.00136828 0.000607037 0.000416444 0.00773505 0.00535511 0.0305776 -0.00340308 0.0487153 0.0175372 0.00169751 -0.00357149 -0.000444643 0.0128492 0.0274696 0.00889118 0.00400597 0.00885053 0.00286264 0.00423188 0.000393435 0.0203422 0.0162709 -0.000367972 0.0273614 -0.00507222 -3.57161e-05 0.00210115 0.00574718 0.0192594 0.0025848 0.00385653 0.0291449
internal_weight=642518 94649 547869 14804 303200 244669 79845 225753 12087 88094 73062 2717 215106 55913 150643 6783 18916 205390 10218 17149 75110 48064 16850 32624 42486 6032 2066 77314 75156 9716 82961 73329 70027 15456 5133 1814 98557 903 1710 23390 93141 30693 6808 1869 7849 2158 877 32401 16541 40011 3410 1693 9216 751 106833 23481 5547 15663 3047 29708 11028 1694
internal_count=642518 94649 547869 14804 303200 244669 79845 225753 12087 88094 73062 2717 215106 55913 150643 6783 18916 205390 10218 17149 75110 48064 16850 32624 42486 6032 2066 77314 75156 9716 82961 73329 70027 15456 5133 1814 98557 903 1710 23390 93141 30693 6808 1869 7849 2158 877 32401 16541 40011 3410 1693 9216 751 106833 23481 5547 15663 3047 29708 11028 1694
cat_boundaries=0 1 2 3 4 5 6
cat_threshold=1 23 2 384 76 4
is_linear=0
shrinkage=0.05


Tree=3
num_leaves=63
num_cat=9
split_feature=25 25 25 3 4 25 4 4 3 20 25 13 7 7 3 7 4 3 3 3 25 7 4 4 4 7 7 5 7 17 25 22 13 4 20 4 4 25 25 5 20 25 1 7 25 25 13 7 13 20 4 3 24 22 3 25 25 3 3 20 25 3
split_gain=3999.53 1261.65 769.356 322.168 203.952 176.08 109.13 81.3286 75.1313 63.4056 62.0979 52.5624 48.5092 46.7239 45.2136 37.2197 31.1459 27.2423 25.1699 24.4237 23.4731 20.9654 20.8025 20.7551 19.3429 18.7214 18.3599 16.0786 15.0883 14.9422 14.4115 13.8854 13.665 13.3027 12.8304 12.7726 12.7257 12.2479 11.7985 11.5449 12.205 11.4325 10.3758 10.3505 10.209 9.54738 9.04112 9.03185 8.734 8.39105 8.37139 8.22766 8.15919 7.95559 7.47508 7.43343 7.27099 7.02678 6.84118 6.52585 6.43291 6.26487
threshold=2.0192307233810429 3.5092592239379887 1.5099999904632571 1.615048944950104 0.26231032609939581 2.5741758346557622 0.48926322162151342 0.35889773070812231 0.99912729859352123 0 4.6035714149475107 1 4.5000000000000009 4.5000000000000009 1.9377973675727846 4.5000000000000009 0.52198380231857311 1.0808988213539126 0.76920759677886974 0.8069821596145631 1.0930736064910891 4.5000000000000009 0.41855649650096899 0.3304573148488999 0.3900627344846726 4.5000000000000009 4.5000000000000009 1.0150343179702761 4.5000000000000009 1.0744058489799502 1.7445651888847353 9.5000000000000018 2 0.50129574537277233 3 0.22307416796684268 0.45308113098144537 1.3141447305679324 6.0185184478759775 0.7259986698627473 4 1.7709789872169497 1.8688347935676577 4.5000000000000009 1.6939799189567568 5.8633539676666269 5 4.5000000000000009 6 7 0.74418237805366527 0.81046715378761303 9.5000000000000018 24.500000000000004 1.0398014187812807 2.9814814329147343 1.7290210127830508 1.3814632296562197 1.2117975354194643 8 1.3021739125251772 2.2787142992019658
decision_type=2 2 2 2 2 2 2 2 2 1 2 9 2 2 2 2 2 2 2 2 2 2 2 2 2 2 2 2 2 2 2 2 9 2 1 2 2 2 2 2 1 2 2 2 2 2 9 2 9 1 2 2 2 2 2 2 2 2 2 1 2 2
left_child=2 5 4 7 9 12 11 27 16 29 17 21 18 22 45 30 35 34 36 33 -11 44 32 -13 60 55 58 59 56 37 -8 42 -6 -14 50 -7 48 -1 51 40 -40 -17 -16 -19 -4 -5 -37 -22 -2 57 -9 -12 -32 -51 -20 -18 -25 -41 -10 -3 -15 -33
right_child=1 3 6 14 13 8 15 10 26 20 38 23 19 24 31 41 25 43 54 -21 47 -23 -24 28 -26 -27 -28 -29 -30 -31 52 61 -34 -35 -36 46 -38 -39 39 49 -42 -43 -44 -45 -46 -47 -48 -49 -50 53 -52 -53 -54 -55 -56 -57 -58 -59 -60 -61 -62 -63
leaf_value=-0.0033105759065174788 -0.00034306886624096392 0.0033187514073216885 -0.00049526006491342183 0.031988245457258146 -0.0019042050858320003 0.0039131163710907964 0.00064008626087412417 0.016681999352600629 0.011406298912930671 -0.0055308768149762294 0.021052945785540247 -0.0019330908209389296 0.0049112154158778652 -0.0020047155624733607 0.039527476880685877 0.0030328280217815119 0.0079978962049830956 0.020761578664366051 0.0057100633803646005 0.010574136649264199 -0.0045932456148431904 0.0023632804704572393 -0.0012583631921650748 -0.0015455703299611888 0.00072387324334162841 0.013400008461422631 0.019099626019791028 0.026036081046025578 0.0013128755524954008 0.0026350130481625476 0.0039456380557241046 0.052568403165631467 -0.0033303692992763725 0.0078440329048012122 0.013536843112561554 0.01059835205277816 0.0044367754489545502 -0.0014947644940659518 0.030896171330044034 0.034959243788233764 0.011518124041814142 0.0053389933748808202 0.054568105513876711 0.028263389894995078 0.0011116000833081513 0.041633729102469486 0.0067035074758370408 -0.0035335440746380137 0.003009591645161657 0.031398007440639239 0.024197510149360939 0.027055321481956097 0.001886333753373594 0.010310714748415037 0.0089112493901039227 0.01121919806170423 0.00030169197824142096 0.053485400449054567 0.015527050252490363 0.011138315554597095 -0.00061839588327361255 0.067188515539677113
leaf_weight=29568 2403 318 18351 771 25634 2883 20021 1032 2418 56765 1012 31928 7748 16203 303 10937 5189 1560 8312 4475 58839 19746 28548 15199 18545 3770 1882 168 11511 1332 6657 179 49468 7749 2205 2176 18347 13557 175 168 154 10597 192 662 21419 396 5634 30636 10164 883 588 1355 17413 48 2347 2757 8195 77 1752 1726 17334 137
leaf_count=29568 2403 318 18351 771 25634 2883 20021 1032 2418 56765 1012 31928 7748 16203 303 10937 5189 1560 8312 4475 58839 19746 28548 15199 18545 3770 1882 168 11511 1332 6657 179 49468 7749 2205 2176 18347 13557 175 168 154 10597 192 662 21419 396 5634 30636 10164 883 588 1355 17413 48 2347 2757 8195 77 1752 1726 17334 137
internal_value=5.54616e-06 0.00897631 -0.00172919 0.0228782 -0.00313619 0.00679702 0.000809808 0.0198262 0.0100493 -0.00423255 0.0217601 -4.93053e-05 0.00529294 -0.00179365 0.0415915 0.00246395 0.00871364 0.018591 0.00431967 0.00731856 -0.00473528 0.00103125 -0.00240758 -0.00101164 -0.000571744 0.0104953 0.0149938 0.0111515 -0.000168922 -0.00257871 0.00163159 0.0506779 -0.00284435 0.00637808 0.0160279 0.00676102 0.00359687 -0.00273987 0.0267075 0.0301865 0.021847 0.00416796 0.0453814 0.023 0.000370024 0.0352688 0.00781159 -0.00423047 0.00237024 0.0325133 0.0194143 0.0244921 0.00245609 0.0303174 0.00641548 0.00911634 -0.000898256 0.0408216 0.0131391 0.00992444 -0.00128833 0.0589419
internal_weight=642518 104115 538403 14109 346429 90006 191974 12131 28461 190697 9919 126349 61545 155732 1978 65625 22409 6047 41573 19972 146240 59516 103650 66833 52082 11716 6052 2212 34905 44457 44091 811 75102 15497 3825 10693 30914 43125 3872 1505 329 21534 495 2222 39770 1167 7810 89475 12567 1176 1620 2367 24070 931 10659 7946 23394 245 4170 2044 33537 316
internal_count=642518 104115 538403 14109 346429 90006 191974 12131 28461 190697 9919 126349 61545 155732 1978 65625 22409 6047 41573 19972 146240 59516 103650 66833 52082 11716 6052 2212 34905 44457 44091 811 75102 15497 3825 10693 30914 43125 3872 1505 329 21534 495 2222 39770 1167 7810 89475 12567 1176 1620 2367 24070 931 10659 7946 23394 245 4170 2044 33537 316
cat_boundaries=0 1 2 3 4 5 6 7 8 9
cat_threshold=1 287 2071 2 2 136 12288 1 4
is_linear=0
shrinkage=0.05


Tree=4
num_leaves=63
num_cat=6
split_feature=25 25 25 3 24 25 15 3 15 3 15 24 15 10 19 15 10 25 3 25 10 10 10 15 25 25 25 25 10 5 23 22 25 15 13 25 24 19 19 10 15 23 19 3 25 3 10 19 25 3 23 25 15 3 3 23 25 10 10 10 16 15
split_gain=3609.74 1138.71 694.351 290.951 161.315 159.782 99.1875 78.8435 76.667 74.018 68.3177 66.7359 40.5285 39.9224 35.3762 33.621 33.1207 31.6182 27.5668 26.7103 26.176 25.4005 23.3534 23.2579 22.4226 22.3635 21.8726 18.7873 17.8565 17.777 15.1211 14.722 13.3041 13.2117 12.6131 11.8351 11.3201 11.2845 11.2105 11.1901 11.1519 11.0462 10.9042 10.6863 10.3508 10.0696 9.97839 9.94569 9.73753 9.72867 9.43133 9.1818 8.97311 8.75795 8.74469 8.43007 8.25421 8.21166 7.95156 7.82226 7.74254 7.23333
threshold=2.0192307233810429 3.5092592239379887 1.5099999904632571 1.6747304797172549 18.500000000000004 2.5099999904632573 3.3349999189376835 0.9558318853378297 1.1299999952316286 0.99912729859352123 3.8750000000000004 15.500000000000002 2.8750000000000004 1.0000000180025095e-35 0 0.64000001549720775 1.0000000180025095e-35 7.5751881599426278 0.71046763658523571 4.6035714149475107 1.0000000180025095e-35 1.0000000180025095e-35 1.0000000180025095e-35 3.9000000953674321 4.8198053836822519 1.1026315689086916 1.7029411792755129 1.2752525210380556 1.0000000180025095e-35 0.86696544289588939 0.26785714924335485 8.5000000000000018 1.2158384919166567 0.2650000080466271 1 1.7709789872169497 12.500000000000002 2 3 1.0000000180025095e-35 2.8750000000000004 0.5892857313156129 4 0.58839139342308056 1.2052631974220278 0.83143979310989391 1.0000000180025095e-35 5 4.3100962638854989 0.76588472723960888 0.32738095521926885 3.131884098052979 3.7999999523162846 0.77309229969978344 1.4526135921478274 0.30357143282890325 5.2330317497253427 1.0000000180025095e-35 1.0000000180025095e-35 1.0000000180025095e-35 0.084120199084281935 0.2650000080466271
decision_type=2 2 2 2 2 2 2 2 2 2 2 2 2 2 1 2 2 2 2 2 2 2 2 2 2 2 2 2 2 2 2 2 2 2 9 2 2 1 1 2 2 2 1 2 2 2 2 1 2 2 2 2 2 2 2 2 2 2 2 2 10 2
left_child=2 5 4 7 13 12 16 8 24 15 14 21 22 23 60 -7 26 31 55 54 30 41 33 37 50 -12 -4 -15 -11 -10 -17 56 -16 -2 -13 -23 -22 -1 -18 -21 -38 -8 -27 47 -25 -24 -20 -28 -31 -40 -3 -32 -29 -35 -9 -14 -5 -44 -36 -19 -6 -49
right_child=1 3 6 17 10 9 11 19 29 28 25 34 18 27 32 20 38 59 46 39 36 35 45 44 -26 42 43 52 -30 48 51 -33 -34 53 58 -37 40 -39 49 -41 -42 -43 57 -45 -46 -47 -48 61 -50 -51 -52 -53 -54 -55 -56 -57 -58 -59 -60 -61 -62 -63
leaf_value=0.00036324929204118508 0.017081436469913402 0.012457553227336035 0.00016618751020928412 0.02754359240978918 -6.6126809618023173e-05 0.016570088819208819 -0.00051427679071115544 0.019429925967202707 0.0091649431243805823 0.012271366554044833 -0.0054632636032930781 -0.00044080277113204072 0.00058825370578472098 -0.001859374883139952 -0.0038492078929170132 0.0034859424174690182 0.0045039633275417044 0.047030748585713836 0.0046546631173797195 0.025892266764339623 0.012730859447053211 0.0015557877899866203 0.0074798758783319571 -0.0039383035790454962 0.025754117174077031 -0.0022260985755918421 0.0026289117063324676 0.0012212590957357697 0.017916246673903076 0.012172383368094961 0.0067000547346552867 0.045929951524939221 -0.002276593519174619 0.0044893645520039443 -0.0026679712845526981 0.004261601273449934 0.010304509280295837 -0.0017838299773300554 0.0021142134588837632 0.03401732171127108 0.0054726337404798356 0.0012662316108047939 -0.0046550998377063984 0.0034700723745079072 -0.0025196677235228542 0.011787503896351748 0.0081681963094818854 0.012798336898903369 0.021810839756311144 0.0062968261641110218 0.020111233769512384 0.01027776773283141 -0.00051906211162108795 0.0069903174859217978 0.025905067248644831 0.0030476301727216945 0.03758567304191144 -0.0035552267396392195 -0.0010544107162611756 0.060318449132452767 0.0081315813949115346 0.00046675494306144886
leaf_weight=7782 232 606 23872 393 9406 1113 21785 2281 2975 4548 47294 16690 4587 19247 28114 3271 12831 403 6366 1385 2606 11531 7943 17629 1564 7189 11306 11690 2035 561 10903 297 25829 15070 22515 6230 3636 28606 14536 622 1787 14513 49520 10459 47712 1643 2971 120 499 1539 1230 2155 20211 4574 686 14566 446 25903 11572 161 297 12475
leaf_count=7782 232 606 23872 393 9406 1113 21785 2281 2975 4548 47294 16690 4587 19247 28114 3271 12831 403 6366 1385 2606 11531 7943 17629 1564 7189 11306 11690 2035 561 10903 297 25829 15070 22515 6230 3636 28606 14536 622 1787 14513 49520 10459 47712 1643 2971 120 499 1539 1230 2155 20211 4574 686 14566 446 25903 11572 161 297 12475
internal_value=5.29967e-06 0.00852771 -0.00164273 0.0217349 -0.00297939 0.00645733 0.000769325 0.0190763 0.015814 0.00929014 -0.00393831 -0.000266791 0.00489036 -0.00176531 -0.00259608 0.00806814 0.00201593 0.0411361 0.0035453 0.0239512 0.00767938 0.000955778 0.00619086 -0.00233825 0.0213468 -0.00459588 0.00132899 -0.000625668 0.0140174 0.0111502 0.00652907 0.0363085 -0.00309573 0.0052125 -0.00156848 0.0025052 0.0100181 -0.00132491 0.00339962 0.0284144 0.00871335 0.000197486 -0.00409926 0.00213672 -0.0029025 0.00821882 0.00577327 0.00155302 0.0167161 0.00251344 0.0175886 0.00729095 0.000118517 0.00507199 0.0209296 0.0024589 0.0328916 -0.00427687 -0.00211972 0.0508428 0.000184174 0.000584279
internal_weight=642518 104115 538403 14109 346429 90006 191974 12409 7435 32054 193552 104836 57952 152877 63646 25471 87138 1700 28490 4974 24358 54059 29462 101729 3400 129906 58232 51148 6583 4035 16329 1136 53943 19876 50777 17761 8029 36388 28906 2007 5423 36298 82612 34360 65341 9586 9337 23901 1060 16075 1836 13058 31901 19644 2967 19153 839 75423 34087 564 9703 12595
internal_count=642518 104115 538403 14109 346429 90006 191974 12409 7435 32054 193552 104836 57952 152877 63646 25471 87138 1700 28490 4974 24358 54059 29462 101729 3400 129906 58232 51148 6583 4035 16329 1136 53943 19876 50777 17761 8029 36388 28906 2007 5423 36298 82612 34360 65341 9586 9337 23901 1060 16075 1836 13058 31901 19644 2967 19153 839 75423 34087 564 9703 12595
cat_boundaries=0 1 2 3 4 5 6
cat_threshold=3 30 3 11 5 11
is_linear=0
shrinkage=0.05


Tree=5
num_leaves=63
num_cat=7
split_feature=25 25 25 25 25 25 4 4 6 4 15 15 4 15 4 15 4 25 19 7 19 7 4 7 15 0 6 7 7 5 22 4 19 20 7 4 15 19 7 7 15 7 7 4 15 25 0 4 15 4 15 7 4 19 19 4 4 2 4 15 15 7
split_gain=3288.46 1044.31 631.164 195.737 150.933 147.804 101.113 83.2147 57.6389 56.8052 53.3492 51.8261 51.3928 42.7916 42.5646 42.1231 37.8766 32.7517 25.0258 23.3104 22.9674 21.4685 21.1622 20.4229 19.1538 18.4657 17.8102 17.2925 16.5678 15.9628 15.3444 14.9968 13.8642 13.1955 12.958 12.7951 12.6466 12.286 12.1148 11.7133 11.5506 11.3193 11.0768 10.8683 10.5654 10.5205 10.0536 9.53805 9.46595 9.45964 9.29706 9.22741 9.02863 8.78692 8.6564 8.29381 8.17457 7.83991 7.36939 7.35108 7.29748 7.18169
threshold=2.0192307233810429 3.5092592239379887 1.4045454263687136 6.0185184478759775 2.7549999952316289 1.6733332872390749 0.26231032609939581 0.48274765908718115 1.0000000180025095e-35 0.69477719068527233 3.7500000000000004 3.3349999189376835 0.64081573486328136 3.6750000715255742 0.39400099217891699 2.7000000476837163 0.45826925337314611 4.6035714149475107 0 4.5000000000000009 1 4.5000000000000009 0.50129574537277233 4.5000000000000009 0.64000001549720775 0.89587974548339855 2.5000000000000004 4.5000000000000009 4.5000000000000009 0.84089940786361705 5.5000000000000009 0.22307416796684268 2 3 4.5000000000000009 0.14908103644847873 3.7999999523162846 4 4.5000000000000009 4.5000000000000009 0.71999999880790722 4.5000000000000009 4.5000000000000009 1.1078993678092959 0.2650000080466271 2.3779761791229252 1.7005987167358401 0.27258467674255377 1.8999999761581423 0.28463196754455572 0.64000001549720775 4.5000000000000009 0.4294783622026444 5 6 0.88145795464515697 0.30553118884563452 2.8029010295867924 0.3403813391923905 3.8750000000000004 1.5900000333786013 5.5000000000000009
decision_type=2 2 2 2 2 2 2 2 2 2 2 2 2 2 2 2 2 2 1 2 1 2 2 2 2 2 2 2 2 2 2 2 1 1 2 2 2 1 2 2 2 2 2 2 2 2 2 2 2 2 2 2 2 1 1 2 2 10 2 2 2 2
left_child=2 4 6 7 9 11 13 49 30 15 22 20 24 18 53 19 58 25 -1 40 -4 36 32 45 -6 50 61 43 -18 37 -5 -26 48 47 56 54 -8 -10 -16 -22 -2 57 -24 -14 -34 -11 -33 -31 -7 -3 -9 -37 -38 -13 -15 -25 -17 -27 -12 -23 -28 -19
right_child=1 3 5 8 12 10 21 17 29 23 16 14 27 35 38 34 28 26 -20 -21 39 59 42 55 31 41 60 -29 -30 33 -32 46 44 -35 -36 51 52 -39 -40 -41 -42 -43 -44 -45 -46 -47 -48 -49 -50 -51 -52 -53 -54 -55 -56 -57 -58 -59 -60 -61 -62 -63
leaf_value=4.741263495225567e-05 0.010507539391139542 0.0075225100681120859 0.0020630393338609446 0.033618812428215822 0.015885544356567319 0.0050963678849064503 -0.001564693997071911 0.02073124650641231 0.029820825477567776 0.0050487944240101531 -0.0017816349171685176 -0.0017713434131397994 0.010308298123648009 -0.0036267988519065662 -0.00096103035328534898 -9.2824865701798798e-05 0.00085277368868526878 0.026816207633741769 -0.003236151946856931 0.0078123691803814585 -0.00083002049830004771 9.3531485381883496e-06 0.0029804157212441808 0.0087698077685589501 0.0029764834968566017 0.018245106387383074 0.022321971470803365 0.016055497542658097 0.0036402267280563915 0.016895516403451598 0.047588336068603569 0.0074536086755361266 0.012304092608926794 0.027727775819396366 0.0044328356631902401 -0.0044990842628104153 -0.0033156531685541711 0.013559793550190595 0.00082382299831933431 0.00094304340755072425 0.0043365209038976815 0.024681018847801765 0.0053363293877044847 0.015582953299877442 0.00081260426905729172 0.0078980437966050341 0.014012333271667869 0.04233495246901238 0.0022580309583685359 0.013254597441904818 0.013344558675313825 -0.0032342427668232577 -0.0014838665807809376 -0.003058871490033325 -0.0053919572614116269 0.013071078887513616 0.0025975035115854295 0.057262220674457444 -8.7408690687798581e-05 -0.0015348242970530108 0.012797335354002218 0.036215099612492592
leaf_weight=6693 796 1401 14682 299 653 3672 22313 549 239 7217 13790 24290 4976 8465 28562 3511 16456 1346 43870 8546 27771 11379 15240 4385 1840 2098 802 2863 7890 43 601 6638 202 996 8588 42118 39856 359 14248 14014 16544 1151 7433 1222 20120 5906 643 300 14774 1495 1964 21987 8106 29571 44940 1516 14346 12.999999999999998 12019 23843 273 245
leaf_count=6693 796 1401 14682 299 653 3672 22313 549 239 7217 13790 24290 4976 8465 28562 3511 16456 1346 43870 8546 27771 11379 15240 4385 1840 2098 802 2863 7890 43 601 6638 202 996 8588 42118 39856 359 14248 14014 16544 1151 7433 1222 20120 5906 643 300 14774 1495 1964 21987 8106 29571 44940 1516 14346 13 12019 23843 273 245
internal_value=2.09088e-06 0.008125 -0.00157274 0.0207417 0.00614212 0.000167677 -0.00325695 0.0178012 0.0324897 0.00509108 0.00155166 -0.000840836 0.0101236 -0.00401855 -0.00154384 0.00424025 0.000341552 0.020311 -0.00280204 0.00567425 0.000362613 -0.00204355 0.0025394 0.00743125 0.00760745 0.0181909 0.0249008 0.012837 0.00175634 0.0276216 0.0429572 0.00701408 0.0018295 0.0306643 0.00283636 -0.00454196 -0.00254856 0.0207963 -0.000366879 -0.000235187 0.00462015 0.020677 0.00375301 0.0113493 0.000926679 0.00633153 0.00803369 0.0391662 0.00282182 0.0104837 0.014961 -0.00406535 -0.00300617 -0.00247922 -0.00511396 0.00987588 0.00206826 0.0184905 -0.000992847 -0.00103581 0.0199092 0.0282689
internal_weight=642668 104364 538304 14174 90190 264734 273570 11337 2837 71355 111596 153138 18835 168073 96671 52331 50155 8441 50563 25886 56467 105497 61441 19024 9774 5775 2666 9061 24346 1937 900 9121 38768 1339 26445 117510 70275 598 42810 41785 17340 3262 22673 6198 20322 13123 7281 343 18446 2896 2513 64105 47962 53861 53405 5901 17857 2111 25809 35222 1075 1591
internal_count=642668 104364 538304 14174 90190 264734 273570 11337 2837 71355 111596 153138 18835 168073 96671 52331 50155 8441 50563 25886 56467 105497 61441 19024 9774 5775 2666 9061 24346 1937 900 9121 38768 1339 26445 117510 70275 598 42810 41785 17340 3262 22673 6198 20322 13123 7281 343 18446 2896 2513 64105 47962 53861 53405 5901 17857 2111 25809 35222 1075 1591
cat_boundaries=0 1 2 3 4 5 6 7
cat_threshold=3 3 11 1 8 39 37
is_linear=0
shrinkage=0.05


Tree=6
num_leaves=63
num_cat=7
split_feature=25 25 25 3 3 4 4 15 25 15 7 4 19 7 7 25 20 25 3 25 4 19 25 15 3 25 15 4 15 15 15 15 25 7 25 15 3 20 4 5 15 7 4 7 7 17 7 7 15 7 17 19 15 15 7 4 7 15 4 19 19 15
split_gain=2973.3 783.177 748.617 184.213 171.124 149.469 121.386 92.121 74.7018 59.7765 44.6212 35.4138 32.422 29.8872 29.8183 27.8491 26.8225 26.4039 24.7911 23.9774 23.8878 23.2085 22.3991 21.8108 20.362 17.82 16.4594 15.672 14.6401 14.446 13.3135 13.0768 12.2597 11.71 11.3375 11.12 16.4005 10.719 10.4138 10.3517 10.3445 10.14 9.77741 8.89842 8.7824 8.40722 8.30709 8.27828 8.01988 7.76364 7.41241 7.27135 7.03587 7.01162 10.3408 6.99942 6.98911 6.8661 6.83265 6.72288 6.70493 6.62729
threshold=2.2041666507720952 4.0178570747375497 1.5099999904632571 1.1127764582633974 1.6747304797172549 0.30154648423194891 0.5325264334678651 2.9000000953674321 3.0185185670852666 3.8750000000000004 4.5000000000000009 0.30553118884563452 0 4.5000000000000009 4.5000000000000009 3.1132478713989262 1 8.0178570747375506 0.70796114206314098 6.254629611968995 0.5325264334678651 2 1.0871212482452395 0.64000001549720775 0.63037616014480602 1.9393382072448733 0.64000001549720775 0.36507403850555425 2.8750000000000004 3.7500000000000004 0.2650000080466271 1.8999999761581423 1.8774999976158144 4.5000000000000009 1.1702898144721987 0.64000001549720775 1.3537069559097292 3 0.49283502995967871 0.91376057267189037 2.9750000238418584 4.5000000000000009 0.42278739809989935 4.5000000000000009 4.5000000000000009 0.99999997019767772 4.5000000000000009 4.5000000000000009 3.7500000000000004 4.5000000000000009 1.0526559948921206 4 0.90500000119209301 0.2650000080466271 2.5000000000000004 0.38593573868274694 5.5000000000000009 2.2000000476837163 0.18804455548524859 5 6 3.935000061988831
decision_type=2 2 2 2 2 2 2 2 2 2 2 2 1 2 2 2 1 2 2 2 2 1 2 2 2 2 2 2 2 2 2 2 2 2 2 2 2 1 2 2 2 2 2 2 2 2 2 2 2 2 2 1 2 2 2 2 2 2 2 1 1 2
left_child=2 3 5 8 11 9 7 21 10 12 20 39 50 25 29 46 41 -6 28 35 26 31 59 -10 55 48 -2 -18 -12 51 -23 52 -15 60 -14 53 -37 -33 61 -3 -28 -9 -31 -32 -29 -21 -5 -17 -8 -26 -1 -7 -4 -13 -55 -25 -19 -22 -42 -11 -24 -16
right_child=1 4 6 15 17 14 13 16 23 22 18 19 34 32 38 47 27 56 -20 45 57 30 33 24 49 -27 40 44 -30 42 43 37 -34 -35 -36 36 -38 -39 -40 -41 58 -43 -44 -45 -46 -47 -48 -49 -50 -51 -52 -53 -54 54 -56 -57 -58 -59 -60 -61 -62 -63
leaf_value=-0.00012959590086241844 0.012985420931717288 0.0078700993736018562 0.0099503306049036361 0.010838997950220199 0.033433463574069837 0.00061514455495712873 0.0022667269591329343 -0.00018677488760992979 0.017338228661512703 -0.0035506636161046269 0.0079488993457771991 0.017838597541465325 -0.0034776220931802197 0.0033481336997243649 0.00038605687158562037 0.017069211909364553 -0.0021259244535735103 0.044736553675310875 0.010560627483626975 0.017100428392557827 0.0073425801802835177 0.01095681178919659 -0.002411524831224279 0.0052041190198907914 0.010605407278944217 0.0034897567726971642 0.0039879903647881861 -0.0011105248085749376 0.0042353676756961538 -0.0028089922411869295 0.00021588316760958815 0.002676641704346245 0.005817806614892956 -0.0028631690734882546 -0.0021154365204315265 0.015760900731501836 0.023546320294473219 -0.0010592873255830238 0.0018472030794016818 0.020115284969638964 -0.001968465366045466 0.0015383166526351788 -0.0013688888643036783 0.0020388187909160731 0.00071823415716691186 0.028334549795197252 0.015823707443064473 0.022925127202458484 0.0005320787850133788 0.015095860183590866 0.0054441670036885475 -0.0013479943476422476 0.0042957802556093773 0.019269343617405552 0.029041216110320352 0.0090194589090713002 0.061542442292170846 0.0052575605774497925 0.0022291871864396954 -0.0051544248363212574 -0.0041541264681711713 -0.0010327306251084604
leaf_weight=10569 426 733 603 2746 1135 6008 12682 26175 1009 8017 6631 489 28271 11067 13138 2052 29771 416 5538 196 5772 327 6204 2123 3021 15418 10121 19656 4439 35508 20419 18079 9230 34815 33301 2535 929 2146 5446 227 1230 12625 17668 9965 9854 1235 1213 868 14060 1427 632 21849 6472 463 671 2800 76 12643 4558 42068 60885 22018
leaf_count=10569 426 733 603 2746 1135 6008 12682 26175 1009 8017 6631 489 28271 11067 13138 2052 29771 416 5538 196 5772 327 6204 2123 3021 15418 10121 19656 4439 35508 20419 18079 9230 34815 33301 2535 929 2146 5446 227 1230 12625 17668 9965 9854 1235 1213 868 14060 1427 632 21849 6472 463 671 2800 76 12643 4558 42068 60885 22018
internal_value=2.02487e-06 0.00917115 -0.0012594 0.0073427 0.0229499 -0.00270512 0.00103202 0.000286602 0.00647776 -0.0034692 0.00569562 0.0197507 -0.00229063 0.00289489 -0.0012932 0.0151044 -0.000647521 0.0376489 0.00782793 0.0210721 0.00467637 0.00186604 -0.00403347 0.0103471 0.0095936 0.00213575 0.00328375 -0.00131648 0.0064603 -0.00184735 0.000921814 0.00292664 0.00447148 -0.00360773 -0.00274053 0.0194591 0.0178509 0.00227999 -0.0001871 0.0107726 0.00302357 0.00037442 -0.00233061 0.000813918 -0.000499695 0.0268006 0.0123679 0.0188124 0.0013549 0.0120475 0.00018433 -0.000924681 0.00477856 0.0228871 0.0250579 0.00737528 0.0473547 0.0059114 0.00133627 -0.00489956 -0.00399404 -0.00050238
internal_weight=642668 77722 564946 68617 9105 346397 218549 156092 61738 224762 51358 7478 72773 62457 121635 6879 98081 1627 16608 6518 34750 58011 151989 10380 9371 42160 16335 59281 11070 81033 30711 27300 20297 101904 61572 5087 3464 20225 40602 960 15909 38800 53176 30384 29510 1431 3959 2920 26742 4448 11201 27857 7075 1623 1134 4923 492 18415 5788 50085 67089 35156
internal_count=642668 77722 564946 68617 9105 346397 218549 156092 61738 224762 51358 7478 72773 62457 121635 6879 98081 1627 16608 6518 34750 58011 151989 10380 9371 42160 16335 59281 11070 81033 30711 27300 20297 101904 61572 5087 3464 20225 40602 960 15909 38800 53176 30384 29510 1431 3959 2920 26742 4448 11201 27857 7075 1623 1134 4923 492 18415 5788 50085 67089 35156
cat_boundaries=0 1 2 3 4 5 6 7
cat_threshold=3 1 11 1 3 37 5
is_linear=0
shrinkage=0.05


Tree=7
num_leaves=63
num_cat=4
split_feature=25 25 25 3 25 25 24 3 3 15 15 15 3 25 15 15 24 24 25 24 15 7 7 7 7 20 7 13 7 3 15 24 23 22 25 24 0 17 7 7 5 7 3 25 25 7 22 7 25 25 24 13 17 23 7 7 23 20 15 15 15 23
split_gain=2685.59 852.128 517.171 215.184 125.822 123.064 74.5401 57.7954 57.5035 44.4276 44.1602 42.7518 41.2391 33.4936 32.5413 30.7777 30.344 29.7027 27.3253 25.4034 22.2028 21.3591 20.0975 18.1297 17.9643 17.0858 15.8498 15.2299 14.4812 14.2462 12.9144 12.8806 11.2883 11.1134 10.8577 9.80348 9.28996 9.26398 9.24499 9.19656 9.0269 8.82314 8.62219 8.59581 8.57501 8.49274 8.46579 8.23416 8.23305 8.02755 7.76302 7.33998 7.28528 7.22155 7.20142 7.17621 6.91672 6.89942 6.87404 6.62426 8.07936 6.50254
threshold=2.0192307233810429 3.5092592239379887 1.4045454263687136 1.6594340205192568 2.6043478250503544 1.6733332872390749 19.500000000000004 0.71046763658523571 1.119984030723572 3.7500000000000004 1.5099999904632571 3.8499999046325688 0.70796114206314098 4.6035714149475107 3.6299999952316289 1.9650000333786013 15.500000000000002 11.500000000000002 8.0178570747375506 23.500000000000004 0.64000001549720775 4.5000000000000009 4.5000000000000009 4.5000000000000009 4.5000000000000009 0 4.5000000000000009 1 4.5000000000000009 1.2433570027351382 3.9000000953674321 17.500000000000004 0.66071426868438732 9.5000000000000018 4.0178570747375497 13.500000000000002 3.4498615264892583 1.0269101262092593 4.5000000000000009 4.5000000000000009 0.87611478567123424 3.5000000000000004 1.1062431931495669 1.1143791079521181 11.535714149475099 4.5000000000000009 23.500000000000004 4.5000000000000009 3.1455025672912602 1.2247474789619448 15.500000000000002 2 0.9804123342037202 0.30357143282890325 5.5000000000000009 4.5000000000000009 0.66071426868438732 3 2.4750000238418584 1.8750000000000002 1.9900000095367434 0.41071428358554846
decision_type=2 2 2 2 2 2 2 2 2 2 2 2 2 2 2 2 2 2 2 2 2 2 2 2 2 1 2 9 2 2 2 2 2 2 2 2 2 2 2 2 2 2 2 2 2 2 2 2 2 2 2 9 2 2 2 2 2 1 2 2 2 2
left_child=2 4 6 7 12 11 22 10 19 24 34 26 15 29 25 -2 45 38 33 20 -6 42 30 48 35 37 51 61 -15 57 -1 41 58 54 -3 -7 46 59 -11 -10 -12 -19 -14 -16 -42 -13 -20 -18 -22 -24 -32 -4 -36 -28 -5 -29 -26 -9 -25 -8 -61 -17
right_child=1 3 5 18 8 9 14 13 39 17 40 16 21 28 43 27 47 31 36 -21 23 -23 49 32 56 -27 53 55 -30 -31 50 -33 -34 -35 52 -37 -38 -39 -40 -41 44 -43 -44 -45 -46 -47 -48 -49 -50 -51 -52 -53 -54 -55 -56 -57 -58 -59 -60 60 -62 -63
leaf_value=-0.0016483375882121348 0.0060422301769795638 0.012378516796335733 0.00019535295807316993 0.027249930960774611 0.015372872492595084 0.0027627057940781095 0.0029965645187026674 0.012029858604356507 0.012590985569982935 0.0015175013147893787 0.0067936664745924377 -0.00093696073049696438 0.0046317773131081428 0.021162864748139748 -0.0047270559017420603 -4.955451022548127e-05 -0.0027398335991788616 -0.00051897979109031731 0.044523840853806548 0.0024817744721166838 0.0059835402010701422 0.0084095813882254962 -0.0019756771485507515 0.010644067006593769 0.0032292293440776888 -0.0033069329123612367 -0.00027730434380047499 0.0028569135409696931 0.028947964889619884 0.020208632541888646 -0.0021954339926388389 -0.0014357622216796145 0.013829829295344091 0.040936909075818553 0.045815116493209795 0.0011464357816807936 -0.0022893552880476021 0.0038316631234189867 0.0044784105885087248 0.018056082416592647 0.013205906922914941 0.0014972456110377234 0.0086141928113635281 -0.0037978705193949 0.051667886587562939 0.00067151789962720048 0.079020007122405533 -0.0013867079726527082 0.0090537490099448191 -0.00060486915909672111 -0.0033962044770804128 -0.0011175739178836117 0.019028871863356046 0.0018177443451591925 0.039425025061345625 0.0047858455939372982 0.0063290942970451545 0.017239979917796532 0.0069328337913329308 -0.0040740806837704776 -0.0011252425758639774 0.0023899841574828401
leaf_weight=28540 8868 803 25517 927 989 14509 765 1499 2586 8172 2310 24604 13291 1916 46059 5357 33591 11613 466 2270 10439 6906 18887 2464 18329 28374 5478 14955 878 1650 21478 16291 1409 237 26 26603 9.9999999999999982 855 3898 1107 444 10181 1518 54396 14.999999999999998 12310 19 16928 2773 24612 36208 18248 1710 16462 143 7137 2000 1121 2556 2994 10402 5565
leaf_count=28540 8868 803 25517 927 989 14509 765 1499 2586 8172 2310 24604 13291 1916 46059 5357 33591 11613 466 2270 10439 6906 18887 2464 18329 28374 5478 14955 878 1650 21478 16291 1409 237 26 26603 10 855 3898 1107 444 10181 1518 54396 15 12310 19 16928 2773 24612 36208 18248 1710 16462 143 7137 2000 1121 2556 2994 10402 5565
internal_value=1.92608e-06 0.00734259 -0.00142124 0.0187394 0.00555143 0.000154183 -0.0029458 0.0163872 0.00843967 0.00141704 0.0124418 -0.000766061 0.00434362 0.019351 -0.00372963 0.00342654 -0.00149028 0.000312729 0.0348843 0.00750545 0.00805797 0.00611215 -0.00207662 0.0076893 0.00231841 -0.00258504 0.000197577 0.00272376 0.023612 0.0165612 -0.0025187 -0.000372153 0.00986867 0.0310774 0.0172062 0.00171697 0.0449176 -0.00122062 0.00247417 0.014231 0.00807085 0.000422667 0.00504039 -0.00422396 0.0144847 -0.000400433 0.0459016 -0.00228653 0.00662837 -0.00120018 -0.00294922 -0.000352175 0.0194355 0.00129442 0.0288853 0.00347874 0.00353447 0.0142616 0.00875561 -0.00152604 -0.00178471 0.00119191
internal_weight=642668 104364 538304 14174 90190 264734 273570 12372 26593 111596 5308 153138 63597 7064 143845 41882 87433 50155 1802 22900 20630 21715 129725 19641 61441 43390 65705 33014 2794 4270 86226 38085 6429 1307 2539 41112 495 15016 12070 3693 2769 21794 14809 100455 459 36914 485 50519 13212 43499 57686 43765 1736 21940 1070 22092 20329 2620 5020 14161 13396 10922
internal_count=642668 104364 538304 14174 90190 264734 273570 12372 26593 111596 5308 153138 63597 7064 143845 41882 87433 50155 1802 22900 20630 21715 129725 19641 61441 43390 65705 33014 2794 4270 86226 38085 6429 1307 2539 41112 495 15016 12070 3693 2769 21794 14809 100455 459 36914 485 50519 13212 43499 57686 43765 1736 21940 1070 22092 20329 2620 5020 14161 13396 10922
cat_boundaries=0 1 2 3 4
cat_threshold=1 29896 335 1
is_linear=0
shrinkage=0.05


Tree=8
num_leaves=63
num_cat=7
split_feature=25 25 25 4 25 4 4 15 4 13 4 4 7 25 7 7 4 15 13 15 19 15 4 15 4 17 15 15 15 25 15 25 25 15 17 7 15 4 19 4 15 4 4 4 19 2 7 15 4 17 7 15 15 4 15 15 19 17 7 15 7 19
split_gain=2430.27 637.115 614.124 150.963 136.151 89.6592 88.4661 62.8111 50.5753 43.4143 40.5391 39.7672 35.2165 34.2553 30.964 28.5065 20.6446 20.1968 20.1111 19.773 17.1209 16.3456 16.1241 15.5344 15.9199 13.9863 13.8745 13.0994 12.5951 12.1861 11.9697 11.7643 11.7151 11.6629 11.5725 11.2218 11.2205 10.9259 10.0506 10.0129 9.76262 9.69406 9.6768 9.51953 9.06048 8.84981 8.76798 8.64644 10.5605 8.33677 8.18736 8.15083 7.96414 7.8694 7.67855 7.66402 7.60073 7.52677 6.94118 6.82699 6.63709 6.62918
threshold=2.2041666507720952 4.0178570747375497 1.5751879811286928 0.26231032609939581 3.0185185670852666 1.7012323737144472 0.50129574537277233 2.9000000953674321 0.53628933429718029 0 0.35889773070812231 0.66372266411781322 4.5000000000000009 6.0185184478759775 4.5000000000000009 4.5000000000000009 0.4148585051298142 2.4850000143051152 1 4.7500000000000009 2 3.7999999523162846 0.39400099217891699 1.8750000000000002 0.14908103644847873 1.0706277489662173 3.7500000000000004 3.245000004768372 0.64000001549720775 11.535714149475099 0.2650000080466271 8.0178570747375506 2.7171428203582768 0.64000001549720775 1.0365217328071596 4.5000000000000009 0.90500000119209301 0.21289115399122241 3 0.67876163125038158 3.8499999046325688 0.17786153405904773 0.92153662443161022 0.7847418785095216 4 2.9174053668975835 4.5000000000000009 0.64000001549720775 1.1078993678092959 1.0211104154586794 4.5000000000000009 0.2650000080466271 2.7749999761581425 0.66372266411781322 2.9900000095367436 0.64000001549720775 5 1.0790137648582461 4.5000000000000009 2.4850000143051152 4.5000000000000009 6
decision_type=2 2 2 2 2 2 2 2 2 9 2 2 2 2 2 2 2 2 9 2 1 2 2 2 2 2 2 2 2 2 2 2 2 2 2 2 2 2 1 2 2 2 2 2 1 10 2 2 2 2 2 2 2 2 2 2 1 2 2 2 2 1
left_child=2 4 3 9 8 10 7 20 17 19 29 33 16 42 43 21 26 28 -9 25 36 53 40 51 -25 44 56 45 -2 55 -22 -7 -16 -6 -35 47 -4 -20 -30 52 -14 -19 -12 59 -1 54 -26 -13 -49 -40 -44 -11 -17 -8 -15 -3 -5 -36 -43 -10 -39 -21
right_child=1 5 6 12 11 31 15 18 14 23 13 35 22 27 32 39 -18 41 37 61 30 -23 -24 24 46 -27 -28 -29 38 -31 -32 -33 -34 34 57 -37 -38 60 49 -41 -42 58 50 -45 -46 -47 -48 48 -50 -51 -52 -53 -54 -55 -56 -57 -58 -59 -60 -61 -62 -63
leaf_value=-0.00033767085473425276 0.012216577862385572 0.018570071604452638 0.010054174995587391 0.00033144330077450589 0.014505965706238683 0.030191094009711018 0.0022012817233028194 0.00045729581053387139 0.0063333194454357651 0.013146862028772376 0.016246070871776885 0.020444260697760189 0.00018950827521835284 0.024952613518818313 0.0083461054338143346 0.0050021843776962612 -0.00080406731784358272 -0.00017555913092737825 -0.0027540249434628208 -0.002002755983993841 0.010521676304662917 0.00087486599839617808 0.00072689643417245731 -0.0044236660469695642 -0.0037347352924740236 0.004703053585543719 -0.0026769229956779303 0.040182551015854856 0.00092979987529191526 0.038306976648492447 0.00074184515551154568 0.041643573629466475 0.012577940754469186 0.0068927813672079426 0.020917708116837443 0.016614169266981792 0.0026188149229571973 -0.0013159498853036991 0.005322565335320331 0.0059472822170100505 -0.0015307205834303279 0.0024044123670916018 0.018740332799220976 0.0072372864574510786 -0.0021405318017886864 0.05478354441335951 -0.0025993391784427684 0.010013819974178044 0.014990924868300119 0.01223148182139294 0.024833032459180185 -0.0019514867422329484 0.0027267711308374778 0.0041652285720809442 -0.014834783638804415 0.007628494757343879 -0.0017209303685524408 0.0077524900048552298 0.0049902085066773454 0.0040003769958390995 0.00015044446249388475 -0.0041073324409827937
leaf_weight=12332 659 194 520 5657 672 486 18625 29147 5506 90 2566 310 12503 1596 7240 5692 38090 2505 9340 6036 317 21677 23764 62673 49643 984 54423 160 1298 38 23961 429 2122 5367 255 2232 21685 23141 8359 5278 24206 7993 1861 7591 16080 25 25924 2996 1667 462 797 10191 11920 7038 11.999999999999998 941 22226 192 3854 7337 11568 10215
leaf_count=12332 659 194 520 5657 672 486 18625 29147 5506 90 2566 310 12503 1596 7240 5692 38090 2505 9340 6036 317 21677 23764 62673 49643 984 54423 160 1298 38 23961 429 2122 5367 255 2232 21685 23141 8359 5278 24206 7993 1861 7591 16080 25 25924 2996 1667 462 797 10191 11920 7038 12 941 22226 192 3854 7337 11568 10215
internal_value=1.84312e-06 0.00829148 -0.00113859 -0.00231168 0.00664231 0.0207192 0.00117803 0.000351303 0.00553014 -0.00327989 0.019059 0.0111037 -0.00127225 0.020498 0.00692374 0.00258679 -0.00176673 0.00387758 -0.000561459 -0.00192954 0.00178872 0.00188612 -0.00028772 -0.0036945 -0.00383423 -0.00115596 -0.00221217 0.0264685 0.0055137 0.0104451 0.000869432 0.03557 0.00930596 0.00826137 0.0075385 0.0136616 0.00279195 -0.0012355 0.00507657 0.00403566 -0.00094468 0.00264851 0.0184474 0.00583202 -0.00135907 0.0251194 -0.0033453 0.0123351 0.0117945 0.00567868 0.02057 -0.0018187 0.00346247 0.0027401 0.0246517 0.00950456 -0.00130486 0.015277 0.00324607 0.00500098 -0.000827079 -0.00332973
internal_weight=642668 77722 564946 375037 68617 9105 189909 119679 54926 194168 8190 13691 180869 7017 29796 70230 120396 25130 73196 45647 46483 47340 60473 148521 138240 29396 82306 1793 10778 1173 24278 915 9362 6486 5814 7205 22205 44049 10119 22890 36709 14352 5224 20434 28412 1633 75567 4973 4663 8821 2658 10281 17612 25663 1608 1135 27883 447 11847 12843 34709 16251
internal_count=642668 77722 564946 375037 68617 9105 189909 119679 54926 194168 8190 13691 180869 7017 29796 70230 120396 25130 73196 45647 46483 47340 60473 148521 138240 29396 82306 1793 10778 1173 24278 915 9362 6486 5814 7205 22205 44049 10119 22890 36709 14352 5224 20434 28412 1633 75567 4973 4663 8821 2658 10281 17612 25663 1608 1135 27883 447 11847 12843 34709 16251
cat_boundaries=0 1 2 3 4 5 6 7
cat_threshold=31 31 11 80 3 3 5
is_linear=0
shrinkage=0.05


Tree=9
num_leaves=63
num_cat=7
split_feature=25 25 25 3 4 3 15 4 15 15 3 25 25 25 15 19 7 4 4 4 19 4 15 7 15 7 15 7 15 22 7 7 5 4 7 15 25 19 25 4 7 3 0 25 19 25 7 5 7 7 19 15 25 19 25 9 4 19 15 3 4 7
split_gain=2195.61 695.203 425.114 192.887 101.62 99.6209 69.6033 68.7555 61.0301 54.8866 40.7087 39.4619 30.9149 28.7801 26.9199 24.0873 21.7877 21.6184 20.3064 18.6949 18.5675 16.5784 16.4584 16.137 14.2861 13.7925 13.6086 12.3667 12.2812 12.1454 11.9473 11.7345 11.3769 11.0159 10.8424 14.1876 12.1484 10.6734 9.56883 8.90867 8.73272 8.47552 8.29341 8.19532 8.1648 8.10245 7.99548 7.90141 7.72694 7.56784 7.5514 7.11032 6.9959 6.97885 6.97834 6.85428 6.5412 6.45738 6.43865 6.41115 6.26628 6.206
threshold=2.0192307233810429 3.4316769838333134 1.4045454263687136 1.5125313997268679 0.46853503584861761 0.89132860302925121 3.3349999189376835 0.23755506426095965 1.1299999952316286 2.7000000476837163 0.94048583507537853 7.5751881599426278 2.8509259223937993 1.7350877523422243 3.6299999952316289 0 4.5000000000000009 0.6375890076160432 0.62543728947639476 0.28137031197547918 1 0.37558183073997503 0.2650000080466271 4.5000000000000009 0.71999999880790722 4.5000000000000009 0.90500000119209301 4.5000000000000009 3.8499999046325688 8.5000000000000018 4.5000000000000009 4.5000000000000009 0.6311912238597871 0.69842615723609935 4.5000000000000009 0.2650000080466271 4.7609524726867685 2 2.447222232818604 0.38001878559589392 4.5000000000000009 0.51579323410987865 3.4498615264892583 11.535714149475099 3 4.4316768646240243 5.5000000000000009 1.1259235739707949 4.5000000000000009 5.5000000000000009 4 3.4500000476837163 2.6733334064483647 5 2.288690567016602 7.5000000000000009 0.23755506426095965 6 1.7749999761581423 1.1062431931495669 0.71418395638465892 4.5000000000000009
decision_type=2 2 2 2 2 2 2 2 2 2 2 2 2 2 2 1 2 2 2 2 1 2 2 2 2 2 2 2 2 2 2 2 2 2 2 2 2 1 2 2 2 2 2 2 1 2 2 2 2 2 1 2 2 1 2 2 2 1 2 2 2 2
left_child=2 5 7 8 6 9 15 14 18 16 32 29 25 31 20 26 24 50 45 57 -1 28 -17 51 -2 59 -4 -21 -9 -5 55 53 -10 44 -20 -36 -37 -16 -19 -18 -28 56 46 60 -26 -3 -13 -32 -39 -14 -11 -15 -46 -6 -27 -12 -24 -8 -41 -7 -34 -23
right_child=1 3 4 11 13 12 19 21 10 17 30 42 49 23 37 22 39 38 34 27 -22 61 41 -25 33 54 40 -29 -30 -31 47 -33 43 -35 35 36 -38 48 -40 58 -42 -43 -44 -45 52 -47 -48 -49 -50 -51 -52 -53 -54 -55 -56 -57 -58 -59 -60 -61 -62 -63
leaf_value=0.0003215274935948005 0.0093521219221762916 0.010880305647893402 0.01012861007535339 0.023431988806410429 0.00086339490096099111 0.0050903000081941336 -0.0014898635772763011 -0.0012888144090276287 0.0050863975269603524 0.0033019101736421956 0.019905212183389323 0.03806942540945682 0.011058214735866687 0.0026218322087791647 -0.0019535228368868464 0.012040047467089528 0.0048608942237593801 0.0035824969997844281 0.018441362413489405 -0.0013508244578880266 -0.0027492248465416699 -0.0013719413595424793 -0.0015474306981387699 0.0039485917551935817 0.0006859356136008414 0.0068153259574148268 0.00096114473200123506 0.00011835186856196953 -0.0025752943303885521 0.033267063470283291 0.019799938594068978 0.0018271139575338131 0.0082922718995391623 0.0065270774174186683 0.010296458788904833 0.020667890522588744 0.032249208988402667 -0.0042888447242098414 0.0068381278648262118 0.0094589982773870349 0.0027653440260778711 0.0013209112714547306 -0.0028072848714686734 0.040537781796599337 0.0035906514152052823 0.017336958207240936 0.054295554693209895 0.04741584844784158 -0.0033511039161791822 0.016701170012337514 0.0013376615476957546 0.0010062799643894859 0.0060050344632319123 -0.00062553284199269967 0.011244845740465369 0.012279614745518967 -7.9432414996128683e-05 -0.0028029310032439635 0.0067833538997011753 0.0081831015884713167 0.013403822250792502 -3.337826086066293e-06
leaf_weight=5640 1503 1005 472 1660 16238 5990 16264 26858 1857 6816 360 513 3831 13730 7151 276 3062 7229 2159 43075 38800 25067 10909 13229 1927 1428 19867 21450 60122 392 816 15386 1937 4571 150 423 499 63990 3291 4094 10136 7511 10.999999999999998 22 13214 955 92 27 33560 709 17564 13542 3894 15251 2394 1706 24955 22443 5047 2339 877 12382
leaf_count=5640 1503 1005 472 1660 16238 5990 16264 26858 1857 6816 360 513 3831 13730 7151 276 3062 7229 2159 43075 38800 25067 10909 13229 1927 1428 19867 21450 60122 392 816 15386 1937 4571 150 423 499 63990 3291 4094 10136 7511 11 22 13214 955 92 27 33560 709 17564 13542 3894 15251 2394 1706 24955 22443 5047 2339 877 12382
internal_value=1.75998e-06 0.00663908 -0.00128505 0.0164248 0.000143299 0.00493718 -0.000544265 -0.00266727 0.0138735 0.00413235 0.0110178 0.0286557 0.00841884 0.00153899 -0.00339133 0.000624599 0.00546566 0.00270674 0.0180543 -0.00138362 -0.00235994 -0.00179937 -0.000128548 0.00251528 0.00462276 0.00710238 0.00170302 -0.00086235 -0.00217811 0.0253148 0.015667 0.000695345 0.00813456 0.00432139 0.0204938 0.0246205 0.0269441 -0.00382906 0.0046015 0.00719956 0.00157084 -0.000206151 0.0397709 0.0101285 0.00379143 0.0140296 0.0405537 0.0206959 -0.00396588 0.0119409 0.00188893 0.00181981 0.0041381 0.000142183 0.00959139 0.0136117 -0.000526106 -0.00225245 0.00798234 0.00595953 0.00988751 -0.000919566
internal_weight=642668 104364 538304 15461 264734 88903 177358 273570 12793 72212 7602 2668 16691 87376 149141 74126 37312 34900 5191 103232 44440 124429 43651 40501 25109 12151 30475 64525 86980 2052 2909 46875 4693 23606 3231 1072 922 104701 10520 12203 30003 43375 616 2836 19035 1960 605 843 97550 4540 24380 27272 17108 31489 3822 2066 35864 38707 9141 8329 2814 37449
internal_count=642668 104364 538304 15461 264734 88903 177358 273570 12793 72212 7602 2668 16691 87376 149141 74126 37312 34900 5191 103232 44440 124429 43651 40501 25109 12151 30475 64525 86980 2052 2909 46875 4693 23606 3231 1072 922 104701 10520 12203 30003 43375 616 2836 19035 1960 605 843 97550 4540 24380 27272 17108 31489 3822 2066 35864 38707 9141 8329 2814 37449
cat_boundaries=0 1 2 3 4 5 6 7
cat_threshold=11 3 5 80 2 23 39
is_linear=0
shrinkage=0.05


Tree=10
num_leaves=63
num_cat=8
split_feature=25 25 25 3 3 4 25 4 13 20 3 19 4 7 4 25 7 25 22 7 7 25 4 7 7 25 4 3 4 7 3 25 5 4 4 7 13 22 7 4 4 25 7 7 3 17 13 7 25 3 19 13 1 22 21 6 5 5 4 25 13 3
split_gain=1983.66 610.774 390.378 148.179 125.596 86.093 74.3309 71.9197 45.6351 28.5154 28.2426 29.0555 27.8747 24.4616 22.7773 22.291 21.3282 21.0029 19.0808 18.824 13.5111 13.3257 12.2441 11.0902 10.9561 10.3043 10.25 10.0574 9.51637 9.31674 9.30372 9.16594 8.56467 8.07578 8.02663 7.82233 7.78894 7.59985 7.30983 7.15102 6.86879 6.7547 6.45876 6.01641 5.95101 5.92772 5.87071 5.57772 5.57522 5.51524 5.36606 5.13173 5.10636 5.79835 5.59384 6.02411 5.10346 6.18835 5.02059 5.00005 4.95671 6.13037
threshold=2.0192307233810429 4.0178570747375497 1.431677043437958 1.1127764582633974 1.7328398227691653 0.50356465578079235 2.5099999904632573 0.28706558048725134 0 1 0.70796114206314098 2 0.48926322162151342 4.5000000000000009 0.34503997862339025 2.8509259223937993 4.5000000000000009 1.7669683098793032 9.5000000000000018 4.5000000000000009 4.5000000000000009 5.8633539676666269 0.14908103644847873 4.5000000000000009 4.5000000000000009 2.955533623695374 0.55077022314071666 0.72811013460159313 0.61516293883323681 4.5000000000000009 2.2787142992019658 3.1702898740768437 0.87611478567123424 0.64994212985038768 0.22737204283475879 4.5000000000000009 3 20.500000000000004 5.5000000000000009 0.42278739809989935 0.13862537592649463 1.8136574029922488 4.5000000000000009 4.5000000000000009 0.33574859797954565 1.075788199901581 4 4.5000000000000009 1.2752525210380556 1.5791056156158449 5 6 2.9700856208801274 2.5000000000000004 1.5000000000000002 3.5000000000000004 1.2297665476799013 0.93196454644203197 0.37345226109027868 5.2330317497253427 7 0.88432958722114574
decision_type=2 2 2 2 2 2 2 2 9 1 2 1 2 2 2 2 2 2 2 2 2 2 2 2 2 2 2 2 2 2 2 2 2 2 2 2 9 2 2 2 2 2 2 2 2 2 9 2 2 2 1 9 2 2 2 2 2 2 2 2 9 2
left_child=2 3 7 6 10 8 13 9 17 45 11 -3 34 27 40 42 28 29 38 25 39 -12 -11 49 -16 -14 50 36 51 -4 47 -21 -13 -18 44 -19 -2 -32 59 -9 -10 -42 -5 -24 -8 48 -22 -20 -1 -17 -15 -7 53 56 -55 -56 57 -23 -38 -6 61 -27
right_child=1 4 5 15 18 16 12 20 14 22 21 32 19 26 24 23 33 35 30 31 46 52 43 -25 -26 60 -28 -29 -30 -31 37 -33 -34 -35 -36 -37 58 -39 -40 -41 41 -43 -44 -45 -46 -47 -48 -49 -50 -51 -52 -53 -54 54 55 -57 -58 -59 -60 -61 -62 -63
leaf_value=-0.0023821334119944453 0.00057964444992496548 0.018086806661693121 -0.00043994094251913624 0.0073367722328952214 0.020242182805305261 -0.00013745398891497977 0.0011662479854160708 -0.002104118210215705 -0.0028417160741710502 -0.0039099381738406857 0.016947737412550925 0.0061671031994054819 0.0054842076809515699 0.0045397456239589795 -0.00076814157417574207 0.012044577083050801 0.0025119050762496872 0.001134190976006943 0.031483992244969575 0.0088535772031116833 0.00039579011739337717 0.012523080890895417 -0.0032915776119151899 0.018325489585069341 0.00087074436857535091 0.0093656398398686141 0.0062399670234696445 0.0040633402702456353 0.0021258156136522498 0.00091951787302010078 0.04705520801563351 0.013311131144659476 0.014609337135888679 0.0047731031233647463 0.0054483087841687289 0.0030203520739901886 0.0014372039939866573 0.081065409871476202 0.039620651493969997 -0.00091443304624947558 -0.0017141971723467295 -8.2334449659893821e-06 0.012214449932897912 -0.0023941187986451628 0.0055862755681380747 0.0017631693087618626 -0.0010239659159925684 0.046861372384254481 -0.0011186227076663688 0.02048759939807919 0.0017768556272498605 0.001204715977849036 0.040055103817837973 0.027274703944133279 0.011828317331009948 0.027420392822367412 0.0054158151144854507 0.027144113959144241 0.0031367300073516912 0.029083284666985294 0.0073825973928828975 0.017652898471381774
leaf_weight=30311 5617 1289 37938 2219 221 12955 2352 49490 11083 62777 3420 1354 7941 7177 30539 2632 16484 16847 204 4717 10740 143 54625 1260 15308 968 8555 10541 15870 18872 115 1536 388 5203 8645 8170 5992 20 131 16983 37337 6877 986 28463 1129 1061 22558 87 12288 211 2394 15795 43 603 150 108 76 151 15940 639 3734 293
leaf_count=30311 5617 1289 37938 2219 221 12955 2352 49490 11083 62777 3420 1354 7941 7177 30539 2632 16484 16847 204 4717 10740 143 54625 1260 15308 968 8555 10541 15870 18872 115 1536 388 5203 8645 8170 5992 20 131 16983 37337 6877 986 28463 1129 1061 22558 87 12288 211 2394 15795 43 603 150 108 76 151 15940 639 3734 293
internal_value=-4.79103e-06 0.00631778 -0.00122548 0.00512793 0.0186605 0.00022467 0.00455676 -0.00247505 -0.000334679 -0.00304707 0.0161488 0.0123808 0.00650916 0.00346908 -0.00104488 0.0119682 0.00176824 0.000543178 0.0323477 0.00769542 -0.0013884 0.0185805 -0.00338266 0.0144109 -0.000220819 0.00660537 0.00498137 0.00274928 0.00114288 1.15773e-05 0.0412297 0.00994954 0.00800511 0.00305465 0.00463148 0.00175038 0.00224629 0.052187 0.0285208 -0.00180025 -0.00172821 -0.00144897 0.00883926 -0.0029842 0.00260136 -0.00192578 -0.000566074 0.036113 -0.00201779 0.0126737 0.00385581 0.000600121 0.0229582 0.0223537 0.0246185 0.0183827 0.0170648 0.0200562 0.00267142 0.0268198 0.00838664 0.0112076
internal_weight=642555 103981 538574 94839 9142 249278 87531 289296 182971 189525 7725 3031 31315 56216 101144 7308 66307 81827 1417 19189 99771 4694 145865 4103 45847 12936 18126 38090 44620 56810 426 6253 1742 21687 12126 25017 27549 135 991 66473 55297 44214 3205 83088 3481 43660 33298 291 42599 2843 9571 28750 1274 1231 861 258 370 294 21932 860 4995 1261
internal_count=642555 103981 538574 94839 9142 249278 87531 289296 182971 189525 7725 3031 31315 56216 101144 7308 66307 81827 1417 19189 99771 4694 145865 4103 45847 12936 18126 38090 44620 56810 426 6253 1742 21687 12126 25017 27549 135 991 66473 55297 44214 3205 83088 3481 43660 33298 291 42599 2843 9571 28750 1274 1231 861 258 370 294 21932 860 4995 1261
cat_boundaries=0 1 2 3 4 5 6 7 8
cat_threshold=287 1 8 28680 16404 15 28856 130
is_linear=0
shrinkage=0.05


Tree=11
num_leaves=63
num_cat=8
split_feature=25 25 25 3 3 25 15 4 4 25 4 15 25 15 3 19 15 4 7 22 7 19 25 25 7 7 7 4 7 15 19 13 15 7 19 15 4 3 15 15 7 19 15 15 3 22 7 15 7 4 3 4 15 4 19 15 19 15 15 4 7 25
split_gain=1790.4 551.358 352.489 134.138 113.354 85.6707 64.9198 56.216 43.3631 33.6384 32.4905 29.1332 28.6942 25.9248 25.4628 26.2587 24.6988 20.8412 17.8951 17.2235 13.6985 12.5878 12.0359 12.0303 11.9778 11.7762 10.6949 10.6327 10.5035 10.2934 9.79652 9.55119 9.13856 9.05157 8.88123 8.55849 8.45475 8.3937 8.08217 7.60228 7.44762 7.43662 7.1684 7.03045 6.92111 6.85693 6.84984 6.64553 5.99835 5.85127 5.82175 5.70036 5.63012 5.25251 5.1999 5.18052 6.65397 5.08603 6.01983 5.05995 5.02839 5.01897
threshold=2.0192307233810429 4.0178570747375497 1.4045454263687136 1.0240827202796938 1.7328398227691653 1.7549999952316286 2.4850000143051152 0.26231032609939581 0.38001878559589392 2.8509259223937993 0.61055508255958568 3.5099999904632573 2.6273148059844975 2.8249999284744267 0.70796114206314098 0 3.7500000000000004 0.59607419371604931 4.5000000000000009 9.5000000000000018 4.5000000000000009 1 2.5741758346557622 5.8633539676666269 4.5000000000000009 5.5000000000000009 3.5000000000000004 0.31579695641994482 4.5000000000000009 0.64000001549720775 2 3 1.7749999761581423 4.5000000000000009 4 1.3849999904632571 0.12485885992646219 2.2787142992019658 3.7999999523162846 2.9000000953674321 4.5000000000000009 5 3.9650000333786015 0.71999999880790722 1.5791056156158449 20.500000000000004 4.5000000000000009 0.2650000080466271 4.5000000000000009 0.54656368494033825 1.0072221755981448 0.55077022314071666 6.9900000095367441 0.58203697204589855 6 0.2650000080466271 7 1.1299999952316286 1.8999999761581423 0.34073168039321905 4.5000000000000009 3.6079193353652959
decision_type=2 2 2 2 2 2 2 2 2 2 2 2 2 2 2 1 2 2 2 2 2 1 2 2 2 2 2 2 2 2 1 9 2 2 1 2 2 2 2 2 2 1 2 2 2 2 2 2 2 2 2 2 2 2 1 2 1 2 2 2 2 2
left_child=2 3 7 6 14 8 12 16 11 33 31 30 26 28 15 35 21 27 38 42 29 -1 40 -16 41 44 43 -15 -7 -14 -4 -8 55 -5 -18 -3 -36 60 -10 -20 -12 -9 -6 -2 57 -39 -13 -23 -29 -41 -19 -22 -26 -40 -28 -32 -57 -11 -59 -43 -21 -60
right_child=1 4 5 9 19 13 10 24 18 25 22 46 20 17 23 -17 34 50 39 37 51 47 -24 -25 52 -27 54 48 -30 -31 32 -33 -34 -35 36 -37 -38 45 53 49 -42 59 -44 -45 -46 -47 -48 -49 -50 -51 -52 -53 -54 -55 -56 56 -58 58 61 -61 -62 -63
leaf_value=-5.8042031101912012e-05 0.009134592829135051 0.018231013072161836 0.0011991382896138596 0.0061189450835037063 0.023731218341462721 0.0020354848207880544 0.0027217927996703094 -0.0012154791692111982 0.00047668060673193509 0.016696868917101773 0.0030843654694165789 -0.0023494436109164 0.011306743560477282 -0.00092494960493907149 0.016100375347848469 0.0076050591650032506 -0.0025034366155484091 0.0024268797006198528 0.0025849455163336459 0.029910563935387061 0.0081924149395019626 0.015626681040527769 0.0066953833681303691 0.021812027600484882 -0.00039576095691495731 0.018579999750773384 0.0029813337585119174 0.00032359835312580824 0.004073944147431288 0.005929777011277052 0.012788564183626217 0.00089552822957950345 -0.0010885282060712521 0.010428894601586816 -0.0042270518174660062 -0.000877761457011762 -0.0032441668295308812 0.044704492665345034 -0.00095382541541176211 0.00034005788481522017 0.0055450226570013424 -0.0028053313488000959 0.03257768303794311 0.0033878394717597547 0.019883077502975903 0.077032304877665492 -0.0011698312034183591 -0.0024021966733572334 0.0019001714034854776 0.0022339901055167615 0.0073234028450275997 0.011816102807595218 -0.0018500536993909114 0.00073479750101255168 0.0063630037823972476 0.0024779385986617272 -0.00082610189111301843 0.0032874796402221338 0.010349496222825881 -0.0017384676101769533 0.044520993606132875 0.014859241629690221
leaf_weight=6723 561 1228 9859 3987 615 19189 18077 25685 26896 422 9625 36413 1009 12424 3420 1742 22836 10911 8504 204 2214 51 5161 1274 26257 802 1385 18522 9437 7723 93 11922 22753 1763 34890 61 58952 115 28640 16131 4533 22894 376 10787 262 20 18622 44660 8955 5462 644 2161 8921 5484 8737 3176 2913 246 2647 21677 87 815
leaf_count=6723 561 1228 9859 3987 615 19189 18077 25685 26896 422 9625 36413 1009 12424 3420 1742 22836 10911 8504 204 2214 51 5161 1274 26257 802 1385 18522 9437 7723 93 11922 22753 1763 34890 61 58952 115 28640 16131 4533 22894 376 10787 262 20 18622 44660 8955 5462 644 2161 8921 5484 8737 3176 2913 246 2647 21677 87 815
internal_value=-4.50677e-06 0.00600217 -0.00116421 0.00487167 0.0177292 0.000135312 0.0041924 -0.00242328 -0.000456209 0.0100783 0.00302757 -0.00121068 0.00585367 0.00150147 0.015343 0.0117649 -0.00299096 0.000830324 0.000320668 0.0307324 0.00769777 -0.00207789 0.00462698 0.0176521 -0.00151809 0.0129963 0.00472762 0.000288671 0.00270768 0.00655179 -0.000161163 0.00199739 -0.000625031 0.00744144 -0.00339341 0.0171895 -0.00360927 0.0391724 -0.000171371 0.00131841 0.00387259 -0.00189524 0.0270957 0.00367245 0.0119752 0.0495843 -0.0019504 -0.00238095 0.000837605 0.000819372 0.00270027 0.00998368 -0.00076471 -0.000682302 0.00591005 0.00107905 0.000899178 0.0114718 0.0108754 -0.00228607 0.0343096 0.011413
internal_weight=642555 103981 538574 94839 9142 265028 83895 273546 184946 10944 49318 93829 34577 80082 7725 3031 168112 51456 91117 1417 13107 51434 19319 4694 105434 5194 21470 39901 28626 8732 38794 29999 28935 5750 116678 1289 93842 426 61020 30097 14158 70256 991 11348 4392 135 55035 44711 27477 21593 11555 4375 35178 34124 10122 6182 6089 4130 3708 44571 291 3462
internal_count=642555 103981 538574 94839 9142 265028 83895 273546 184946 10944 49318 93829 34577 80082 7725 3031 168112 51456 91117 1417 13107 51434 19319 4694 105434 5194 21470 39901 28626 8732 38794 29999 28935 5750 116678 1289 93842 426 61020 30097 14158 70256 991 11348 4392 135 55035 44711 27477 21593 11555 4375 35178 34124 10122 6182 6089 4130 3708 44571 291 3462
cat_boundaries=0 1 2 3 4 5 6 7 8
cat_threshold=8 3 3 22 37 23 80 44
is_linear=0
shrinkage=0.05


Tree=12
num_leaves=63
num_cat=6
split_feature=25 25 25 4 25 4 4 15 15 6 4 25 4 7 25 19 25 7 19 4 15 13 22 7 7 7 15 15 19 15 6 15 25 0 25 4 17 13 7 4 19 7 6 4 21 15 17 0 4 22 15 22 15 15 17 15 15 15 7 4 15 15
split_gain=1620.76 443.71 396.251 106.205 77.0237 65.323 59.8426 43.9846 39.5838 33.8892 30.2166 29.5733 25.203 23.4989 22.7269 21.9324 21.701 19.3085 15.9127 15.7008 14.7842 13.4165 13.3673 12.2207 12.032 11.84 11.4941 11.4165 10.5756 9.51967 8.82614 8.78623 8.19142 8.11964 7.94506 7.92286 7.88243 7.46408 7.33978 7.30211 7.29724 7.01634 6.85549 6.78228 6.72621 6.52873 6.46205 6.39696 6.34241 6.25148 7.90414 6.78517 6.14615 6.07672 5.91899 5.8817 5.87422 7.2915 5.83578 5.81108 5.73717 5.64798
threshold=2.2554347515106206 1.5751879811286928 4.0178570747375497 0.3115904182195664 3.0185185670852666 0.46207448840141302 1.4787611961364748 2.9000000953674321 3.7500000000000004 2.5000000000000004 0.49893474578857427 1.9393382072448733 0.35889773070812231 4.5000000000000009 5.3397436141967782 0 5.5741758346557626 4.5000000000000009 1 0.18748647719621661 2.4850000143051152 2 5.5000000000000009 4.5000000000000009 4.5000000000000009 5.5000000000000009 1.7099999785423281 1.8999999761581423 3 0.2650000080466271 1.0000000180025095e-35 0.64000001549720775 1.1702898144721987 1.4978661537170412 11.535714149475099 0.49283502995967871 1.0115047097206118 4 5.5000000000000009 0.92153662443161022 5 4.5000000000000009 2.5000000000000004 0.85900765657424938 1.5000000000000002 0.2650000080466271 0.94331976771354686 0.89587974548339855 0.21289115399122241 5.5000000000000009 2.9650000333786015 15.500000000000002 5.2750000953674325 3.7999999523162846 1.0228532552719118 0.97500002384185802 3.245000004768372 2.9650000333786015 1.0000000180025095e-35 0.76515576243400585 3.7500000000000004 0.71999999880790722
decision_type=2 2 2 2 2 2 2 2 2 2 2 2 2 2 2 1 2 2 1 2 2 9 2 2 2 2 2 2 1 2 2 2 2 2 2 2 2 9 2 2 1 2 2 2 2 2 2 2 2 2 2 2 2 2 2 2 2 2 2 2 2 2
left_child=1 3 4 8 10 7 12 18 15 25 20 23 34 39 -8 -1 43 28 27 40 36 -9 56 53 -13 -6 -11 31 -5 -17 -15 -3 -31 46 44 52 61 54 -24 -12 -10 -21 -22 -14 55 -20 -18 -28 -23 -35 -51 -52 -19 -7 -29 -4 57 -16 -41 60 -25 -2
right_child=2 5 6 17 9 11 14 21 19 26 13 24 16 30 22 29 33 35 45 41 42 48 38 59 -26 -27 47 37 -30 32 -32 -33 -34 49 -36 -37 -38 -39 -40 58 -42 -43 -44 -45 -46 -47 -48 -49 -50 50 51 -53 -54 -55 -56 -57 -58 -59 -60 -61 -62 -63
leaf_value=0.00037557983922969942 0.0085466303313642186 0.021141961198800963 0.023027929773229455 -0.00055187565322286161 0.010861877978489013 0.0014467472409377324 0.01775014696896229 0.00028941547782599281 -0.0015941101591849243 0.0095137732051826674 0.0043580578800598733 0.0025450467601736901 0.01194918990913915 0.012818593756198494 0.021046374926928478 0.014279516577952182 -0.0094940210087886921 0.0003092415776552783 0.0077003558885266853 -0.0028360529004546526 0.0057065453489457182 -0.0023167419843595702 0.031597493384597337 0.0030988226135862311 0.0045826196728361857 0.01699083832692418 0.0043792306012086632 0.0018616395908575109 -0.0016538441700829237 -0.0026201313770413716 0.0073425493256768712 0.0042291602810935244 -0.0014864426383690578 0.01994815554153026 0.030699351196986403 0.0015386643571433959 0.01160307737305058 -0.0015903620089651729 0.046089803265244422 0.011078088830884658 -0.0036271112324914099 -0.0018927147246270534 0.0015335896202965243 0.016057022906374892 0.0047256397797550038 0.00042629697590019052 0.018272290892006892 0.0085280600613173822 -0.00084213228574142845 0.024909066510857319 0.03613757094673406 0.07581571845607904 -0.00099243804479036868 0.00020303829796346272 0.0061836717251765724 0.0090469735025423513 0.030368071839845065 -0.0042111206782337656 0.0058557118923198643 0.0074263032896892444 0.0013396031151564846 0.0039876803442262998
leaf_weight=11951 756 78 104 37210 5065 19829 662 24421 4776 2572 16705 22375 2038 808 242 90 21 21927 313 57911 1098 9634 573 9301 10732 938 3795 11689 52644 28139 8593 5248 36817 415 38 7634 405 1483 106 681 70504 29949 9598 2019 768 21339 1305 1236 30088 295 75 12.999999999999998 15460 19481 851 281 155 32 2553 553 9266 6917
leaf_count=11951 756 78 104 37210 5065 19829 662 24421 4776 2572 16705 22375 2038 808 242 90 21 21927 313 57911 1098 9634 573 9301 10732 938 3795 11689 52644 28139 8593 5248 36817 415 38 7634 405 1483 106 681 70504 29949 9598 2019 768 21339 1305 1236 30088 295 75 13 15460 19481 851 281 155 32 2553 553 9266 6917
internal_value=-4.25041e-06 -0.000888355 0.00712836 -0.00189714 0.00568923 0.00103507 0.0168436 0.000184805 -0.00252775 0.00901119 0.00474971 0.00201167 0.0148593 0.00575224 0.0251038 -0.00159319 0.0161435 -0.000774336 0.00146394 -0.0029688 0.00318266 -0.000632759 0.0294909 0.00133503 0.00320571 0.0118207 0.00679217 0.00250557 -0.0011978 -0.00195474 0.00781387 0.00447818 -0.00197764 0.0202439 0.00818967 7.07201e-05 0.00479763 0.00175776 0.0338737 0.00477992 -0.00349889 -0.00251455 0.00196248 0.0139951 0.00744088 0.000531471 0.0178281 0.00539964 -0.00119961 0.0242492 0.0288901 0.0421353 -0.000228887 0.000830527 0.00215367 0.0128416 0.0225361 0.0180779 0.00695727 0.002372 0.00222115 0.00443762
internal_weight=642555 571693 70862 375012 61720 196681 9142 105144 240137 13606 48114 91537 7372 29340 1770 76997 6181 134875 41001 163140 18774 64143 1108 58430 33107 6003 7603 19349 89854 65046 9401 5326 64956 2124 1191 45021 8078 14023 679 19939 75280 87860 10696 4057 1153 21652 1326 5031 39722 798 383 88 37387 39310 12540 385 429 274 3234 19120 18567 7673
internal_count=642555 571693 70862 375012 61720 196681 9142 105144 240137 13606 48114 91537 7372 29340 1770 76997 6181 134875 41001 163140 18774 64143 1108 58430 33107 6003 7603 19349 89854 65046 9401 5326 64956 2124 1191 45021 8078 14023 679 19939 75280 87860 10696 4057 1153 21652 1326 5031 39722 798 383 88 37387 39310 12540 385 429 274 3234 19120 18567 7673
cat_boundaries=0 1 2 3 4 5 6
cat_threshold=3 11 23 23 31 5
is_linear=0
shrinkage=0.05


Tree=13
num_leaves=63
num_cat=13
split_feature=4 4 3 15 15 15 3 3 4 19 5 19 19 4 15 19 3 15 15 15 15 19 15 4 3 3 22 3 4 4 19 15 19 15 15 19 5 18 15 5 4 17 11 15 1 5 15 18 3 13 15 13 1 19 22 17 15 2 1 17 0 15
split_gain=1118.73 353.253 333.162 145.156 128.002 117.942 95.4908 64.8223 53.9949 47.8072 47.2479 39.4148 31.1511 28.6929 27.0266 31.9899 25.8976 22.8599 22.4879 20.032 19.2293 16.9868 15.4044 15.2826 15.1311 15.1086 14.9622 12.9851 12.6895 12.0968 10.4945 10.3705 10.1229 9.67977 9.09104 8.92165 8.42338 8.41655 8.40436 8.2732 8.24234 8.18306 7.99211 7.90606 7.31151 7.64695 7.2679 7.07311 6.97259 6.81148 8.73779 6.29288 6.21251 6.17089 6.05626 6.00225 5.95603 5.89424 5.85638 5.7774 5.60117 5.59195
threshold=0.62543728947639476 0.35105699300765997 1.2187255620956423 1.7749999761581423 3.6750000715255742 1.2749999761581423 1.7328398227691653 0.91526156663894664 0.87043011188507091 0 0.62777388095855724 1 2 0.21289115399122241 1.7749999761581423 3 1.2696230411529543 0.90500000119209301 0.2650000080466271 3.7500000000000004 0.64000001549720775 4 2.8750000000000004 0.46853503584861761 0.45692354440689092 0.81577214598655712 9.5000000000000018 0.74264022707939159 1.3608842492103579 0.22737204283475879 5 2.8750000000000004 6 0.51499998569488536 0.2650000080466271 7 0.71288269758224498 8 0.71999999880790722 0.67463785409927379 0.97207745909690868 1.0391831398010256 10.500000000000002 5.930000066757203 2.1383330821990971 0.88394856452941906 1.2749999761581423 9 2.2787142992019658 10 2.2000000476837163 11 1.4978661537170412 12 20.500000000000004 1.0250275731086733 3.3349999189376835 2.4414010047912602 2.3502402305603032 0.94011202454566967 2.5249279737472539 1.310000002384186
decision_type=2 2 2 2 2 2 2 2 2 1 2 1 1 2 2 1 2 2 2 2 2 1 2 2 2 2 2 2 2 2 1 2 1 2 2 1 2 1 2 2 2 2 2 2 2 2 2 1 2 9 2 9 2 1 2 2 2 10 2 2 2 2
left_child=1 4 5 20 10 12 28 9 22 19 11 31 57 24 15 17 41 -13 -17 -5 21 47 52 43 32 35 58 38 39 49 37 55 -6 -14 -23 -15 -18 46 -12 -4 -35 -9 -10 60 -30 -46 51 -3 -28 50 -16 -22 -7 -40 -50 -1 -25 -2 -8 -44 -11 -19
right_child=2 3 6 7 13 8 26 16 42 23 27 14 33 25 29 18 36 61 -20 -21 30 34 -24 56 -26 -27 48 -29 44 -31 -32 -33 -34 40 -36 -37 -38 -39 53 -41 -42 -43 59 -45 45 -47 -48 -49 54 -51 -52 -53 -54 -55 -56 -57 -58 -59 -60 -61 -62 -63
leaf_value=0.0017069114424153175 0.0076183201432517044 0.023616630731800797 0.010492977141830449 0.0022337636446363072 -0.0021165345191549163 0.0042234214462323477 0.023100592585315806 0.0047504730449999134 0.0095581848247117979 -0.0002927811015132237 0.0097625746910095859 0.012069688000792471 0.035244144749454254 -0.0007045543273873885 -0.0029193089599895954 0.0092253296150841442 0.014948288194215443 0.0035586625187592549 -0.0017556490700327259 0.00034384515647885457 0.0097512172471311068 0.0089300765541095364 0.0026647124033173965 0.0010985999062551864 0.0013841059851920647 0.0078865746703372253 0.031241440574167435 0.0090406626988298443 0.015991313601274787 -0.00092171212584132042 0.0019718134924944838 -3.4118972905891498e-05 -0.0033298114581884436 0.013723438402224775 0.00028622777380082724 -0.0020839469518732869 0.032314388652048179 0.0033500557597435201 0.002988376481006473 0.015026823549158567 0.020300607192300778 0.01331304880843749 -0.01338076033291518 -0.0012804870284652482 0.021573377994652303 0.046226317631771499 0.0047103916052110804 0.01252736701027889 0.040790758502518329 -0.0026360611477377104 -0.00020760420682680729 0.0052511310225256385 0.0071338287900910491 -0.00069443532577505968 0.071844982250510711 0.005522647821328352 3.8975764602555856e-05 0.032535162653109344 0.035153806570782611 0.0066330528346691814 0.024330580376443409 0.00094003756399708017
leaf_weight=12006 2513 210 2918 35149 21520 16118 903 3150 3224 57079 385 600 62 13498 4781 486 266 3368 11346 23337 1711 879 26444 20651 1917 395 282 879 1155 34018 4258 11221 89184 2132 467 91502 96 6175 5003 1551 620 307 36 30452 176 39 6229 471 115 27958 7857 1622 2076 1470 19 1129 37090 24 116 6703 23 5184
leaf_count=12006 2513 210 2918 35149 21520 16118 903 3150 3224 57079 385 600 62 13498 4781 486 266 3368 11346 23337 1711 879 26444 20651 1917 395 282 879 1155 34018 4258 11221 89184 2132 467 91502 96 6175 5003 1551 620 307 36 30452 176 39 6229 471 115 27958 7857 1622 2076 1470 19 1129 37090 24 116 6703 23 5184
internal_value=-4.02584e-06 -0.000717196 0.00609929 0.000802994 -0.00172693 0.00487309 0.0162047 0.000393521 0.00417868 0.000272542 -0.000469734 -0.000714033 0.0119576 -0.00246325 -0.00117147 0.000413497 0.00684744 0.00263173 -0.00130301 0.00147949 0.00466282 0.00930523 0.00343563 -0.000213346 -0.00301822 -0.00187018 0.0277639 0.00331719 0.0133626 -0.00161744 0.0041919 0.00108126 -0.0030945 0.0155968 0.00589125 -0.00190694 0.0195751 0.00478797 0.00258275 0.0120679 0.0152077 0.00551268 0.00750725 -0.000629818 0.0175813 0.026088 0.00572099 0.0157264 0.0357858 -0.00220032 -0.00123289 0.00760799 0.00455582 0.00215479 0.0452815 0.00203531 0.000418037 0.00782643 0.0244809 0.0065252 -0.000282733 0.00197193
internal_weight=642555 575329 67226 229622 345707 59952 7274 207600 54601 203781 127691 119954 5351 218016 95598 20984 3819 9152 11832 58486 22022 2027 44638 145295 112621 105395 1435 7737 5839 74614 19995 24356 110704 2814 1346 105000 362 15737 6858 4469 2752 3457 9963 87554 1370 215 9562 681 416 40596 12638 3333 18194 6473 134 13135 57741 2537 1019 6739 57102 8552
internal_count=642555 575329 67226 229622 345707 59952 7274 207600 54601 203781 127691 119954 5351 218016 95598 20984 3819 9152 11832 58486 22022 2027 44638 145295 112621 105395 1435 7737 5839 74614 19995 24356 110704 2814 1346 105000 362 15737 6858 4469 2752 3457 9963 87554 1370 215 9562 681 416 40596 12638 3333 18194 6473 134 13135 57741 2537 1019 6739 57102 8552
cat_boundaries=0 1 2 3 4 5 6 7 8 9 10 11 12 13
cat_threshold=3 3 116 44 8 46 37 5 1 1 15 128 15
is_linear=0
shrinkage=0.05


Tree=14
num_leaves=63
num_cat=8
split_feature=25 25 25 4 3 3 25 20 7 3 4 19 7 4 25 22 7 4 25 7 25 4 25 25 19 7 7 25 7 17 4 13 25 7 4 3 13 25 3 3 21 7 22 19 17 3 3 7 24 7 17 3 1 4 5 4 21 22 20 6 5 19
split_gain=1346.89 368.524 326.577 85.3138 84.2552 78.8754 54.4468 32.8257 30.4772 21.3026 19.9487 18.3455 17.4428 17.0751 16.9545 15.6022 15.3036 15.1723 14.1898 14.0142 12.6577 11.8267 10.088 9.39594 8.58599 8.08209 8.0802 7.87859 7.47267 7.46778 7.18587 7.10954 7.10677 6.66577 6.61036 6.60789 6.22228 6.14034 6.00669 5.98729 5.96322 5.64406 5.49654 5.41238 5.22158 4.96481 4.71814 4.52794 5.1026 4.44486 4.43673 4.37049 4.32172 4.30428 4.21502 4.19993 4.19849 5.41187 5.4872 7.88373 5.9099 4.88241
threshold=2.2554347515106206 1.5751879811286928 4.0178570747375497 0.3115904182195664 1.6870667934417727 1.119984030723572 1.8603895902633669 0 4.5000000000000009 0.60894012451171886 0.3304573148488999 1 4.5000000000000009 0.35889773070812231 3.0185185670852666 9.5000000000000018 4.5000000000000009 0.55077022314071666 1.0801282525062563 4.5000000000000009 5.5741758346557626 0.38593573868274694 3.1702898740768437 1.2696969509124758 2 4.5000000000000009 4.5000000000000009 3.3021738529205327 4.5000000000000009 1.0206174850463869 0.3115904182195664 3 11.535714149475099 5.5000000000000009 0.41855649650096899 2.2787142992019658 4 3.4316769838333134 0.78383576869964611 0.59632414579391491 1.5000000000000002 4.5000000000000009 20.500000000000004 5 1.0880798101425173 0.82449087500572216 1.5125313997268679 5.5000000000000009 16.500000000000004 3.5000000000000004 0.99999997019767772 0.86822861433029186 1.2424533367156985 0.50356465578079235 0.82814118266105663 0.76515576243400585 1.5000000000000002 5.5000000000000009 6 3.5000000000000004 0.91035515069961559 7
decision_type=2 2 2 2 2 2 2 1 2 2 2 1 2 2 2 2 2 2 2 2 2 2 2 2 1 2 2 2 2 2 2 9 2 2 2 2 9 2 2 2 2 2 2 1 2 2 2 2 2 2 2 2 2 2 2 2 2 2 1 2 2 1
left_child=1 3 5 7 13 8 10 23 14 11 36 25 24 32 21 33 31 29 -9 27 39 -2 -19 44 53 -8 -11 -7 -20 43 -13 51 40 -6 -14 41 -3 -21 -16 -15 -4 -17 -37 -10 -1 -18 -29 48 56 -32 -49 -12 -23 -5 -52 -28 57 61 59 -59 -60 -22
right_child=2 6 4 12 15 19 9 18 17 26 16 30 34 20 38 35 45 22 28 37 47 52 -24 -25 -26 -27 55 46 -30 -31 49 -33 -34 -35 -36 42 -38 -39 -40 -41 -42 -43 -44 -45 -46 -47 -48 50 -50 -51 54 -53 -54 -55 -56 -57 -58 58 60 -61 -62 -63
leaf_value=-0.0019431374291223433 0.0015448383428163727 2.7653846378861559e-05 0.011984073757634925 -0.00078525780560419135 0.02120794886688112 0.0073759954672027259 0.0014280382756772134 -0.0032739772755429625 0.0052681768508766975 0.0024470768459340323 0.00048647074831922573 -0.0014591678341794396 -0.0004337105598516528 0.0091821034424215461 0.0049698157318451971 0.025048166901148479 0.0014638691448988603 0.0070075254823278978 -0.0026082624689855384 0.012260714315907466 0.0054985373201252227 0.0034846267103546334 0.011700349342079894 -0.00059650408280714328 -0.0015361865861801818 0.0030447121863375792 0.0037284912891833765 0.010391610534454363 -0.0017819582017644369 0.010618002391876028 -0.00028269484269067256 -0.00059577298337464501 0.028897480992233656 0.032566699256576868 0.00079430231090735985 0.038752993331537575 -0.0013564421112826457 0.018707944808361916 0.0081185188043618791 0.013618580643023888 0.004341524281468577 0.040026453493521123 0.06771974100995419 0.002451715328208938 0.002464926677617761 0.0042618165196756565 0.017430281722676837 0.0060009274481120463 0.020608497079616563 0.0018938062268297991 0.016090986918961533 0.0032836138169151105 0.0052559182825042024 0.00065195358157437832 0.02861188229976638 0.0064749265405191006 0.010758376541659655 0.026048371183175923 0.032267428928246668 0.066774228236353983 0.011437013173096408 0.017158880377650017
leaf_weight=32309 7663 13949 385 30950 1003 3067 23581 58321 5864 19855 35749 6024 26168 1003 4770 211 25711 7712 79878 1514 169 18262 1350 27247 52644 11518 7778 1201 41697 520 4924 18853 38 151 18853 115 19415 495 2233 3271 768 93 20 2505 685 1692 301 37 494 4474 103 1454 4263 6260 210 1704 464 87 47 13.999999999999998 129 330
leaf_count=32309 7663 13949 385 30950 1003 3067 23581 58321 5864 19855 35749 6024 26168 1003 4770 211 25711 7712 79878 1514 169 18262 1350 27247 52644 11518 7778 1201 41697 520 4924 18853 38 151 18853 115 19415 495 2233 3271 768 93 20 2505 685 1692 301 37 494 4474 103 1454 4263 6260 210 1704 464 87 47 14 129 330
internal_value=-3.79897e-06 -0.000809755 0.00649833 -0.00172911 0.0153182 0.00519183 0.000943151 -0.00229431 0.0045743 0.00194935 0.000255288 0.00132687 -0.000722768 0.0131115 0.00375728 0.0257707 0.00066843 0.00626669 -0.00263262 0.0103676 0.0141417 0.00324271 0.00770731 -0.00128393 -0.00112526 0.00195815 0.00302114 0.0088338 -0.0023249 0.0047974 -0.00011075 0.000194938 0.00760707 0.0227013 8.04218e-05 0.0338209 -0.000778022 0.0138526 0.00597464 0.0125789 0.00689861 0.0296584 0.0431283 0.00443502 -0.00185146 0.00163683 0.0118066 0.0173436 0.0162838 0.000752925 0.0225735 0.000595774 0.0038201 -0.000543188 0.024514 0.00422264 0.0145554 0.0168176 0.0224527 0.0318035 0.0170432 0.0136757
internal_weight=642555 571693 70862 375012 9142 61720 196681 240137 55142 79858 116823 50521 134875 7549 37191 1593 83459 17951 179896 6578 6358 30188 9062 60241 89854 35099 29337 4569 121575 8889 15422 56056 1191 1154 45021 439 33364 2009 7003 4274 1153 304 135 8369 32994 27403 1502 2084 1734 9398 350 37203 22525 37210 313 9482 1240 776 277 101 176 499
internal_count=642555 571693 70862 375012 9142 61720 196681 240137 55142 79858 116823 50521 134875 7549 37191 1593 83459 17951 179896 6578 6358 30188 9062 60241 89854 35099 29337 4569 121575 8889 15422 56056 1191 1154 45021 439 33364 2009 7003 4274 1153 304 135 8369 32994 27403 1502 2084 1734 9398 350 37203 22525 37210 313 9482 1240 776 277 101 176 499
cat_boundaries=0 1 2 3 4 5 6 7 8
cat_threshold=1 15 23 2439 287 46 1 52
is_linear=0
shrinkage=0.05


Tree=15
num_leaves=63
num_cat=7
split_feature=4 3 4 13 3 4 3 24 4 3 24 4 5 23 4 24 7 19 3 7 3 17 1 7 7 17 24 7 7 4 3 22 5 2 22 19 4 19 3 17 5 5 4 2 4 0 8 22 23 23 19 23 3 23 18 13 7 3 5 9 3 5
split_gain=902.813 310.466 272.453 96.2915 75.0616 69.6545 68.3095 43.5784 38.8335 37.1226 37.0827 36.9403 25.3673 21.3638 21.1777 19.9844 18.7208 16.8948 16.7185 15.6593 15.5189 14.5315 14.5161 13.5141 12.3682 12.0558 11.6707 10.5139 9.9548 9.79966 8.87827 8.58813 8.27662 8.21577 8.12781 8.03636 7.19657 7.10221 6.96817 7.2034 6.26414 6.24429 6.19559 6.23518 6.05579 5.85622 5.77648 5.63662 5.53537 5.46501 5.44039 5.29367 5.28204 5.27035 5.24844 5.24576 5.20532 5.12223 5.06844 5.05171 5.24361 5.0281
threshold=0.61055508255958568 1.2187255620956423 0.36548693478107458 0 1.8605480194091799 0.85900765657424938 1.0072221755981448 16.500000000000004 0.48926322162151342 0.59632414579391491 12.500000000000002 0.21289115399122241 0.89684337377548229 0.51785713434219371 0.4294783622026444 21.500000000000004 4.5000000000000009 1 1.3629267215728762 4.5000000000000009 0.41677218675613409 1.0619040131568911 2.1383330821990971 4.5000000000000009 4.5000000000000009 1.0423060059547427 18.500000000000004 4.5000000000000009 4.5000000000000009 0.74418237805366527 1.4526135921478274 10.500000000000002 1.0100834965705874 2.9174053668975835 10.500000000000002 2 0.69842615723609935 3 0.91526156663894664 0.99999997019767772 0.73851534724235546 1.1952707171440127 0.51804554462432872 2.2499048709869389 0.66372266411781322 2.0126758217811589 7.5000000000000009 3.5000000000000004 0.23214285820722583 0.089285716414451613 4 0.62500000000000011 0.82449087500572216 0.16071429103612903 5 6 4.5000000000000009 0.75831696391105663 1.0100834965705874 4.5000000000000009 0.89132860302925121 0.6594148874282838
decision_type=2 2 2 9 2 2 2 2 2 2 2 2 2 2 2 2 2 1 2 2 2 2 2 2 2 2 2 2 2 2 2 2 2 10 2 1 2 1 2 2 2 2 2 10 2 2 2 2 2 2 1 2 2 2 1 9 2 2 2 2 2 2
left_child=2 5 3 9 22 10 7 8 19 21 16 20 24 -10 26 27 36 44 41 35 56 23 30 31 -7 -11 -9 52 55 -18 32 47 -3 59 -6 -4 -2 42 39 -17 -27 -8 -16 -44 -12 -28 48 -1 -33 -22 -41 -31 -13 -40 -25 -15 -5 -29 -20 -14 -61 -38
right_child=1 4 6 11 34 12 18 14 13 25 17 15 33 28 37 38 29 -19 58 -21 49 -23 -24 54 -26 40 45 57 -30 51 -32 46 -34 -35 -36 -37 61 -39 53 50 -42 -43 43 -45 -46 -47 -48 -49 -50 -51 -52 -53 -54 -55 -56 -57 -58 -59 -60 60 -62 -63
leaf_value=-0.0010984389909656942 0.0015470265218353128 0.01029891255012113 -3.2803985716530851e-05 -0.0029456099116402963 0.024966141131567945 0.005656252990816177 0.0080888370077542016 0.0013267740087249289 0.0029198437585381386 0.0026498383999620403 0.0082435187485634335 -0.0018646579653147724 0.024601117110883641 0.0009473115569934821 0.0058011098548820588 0.011442454178015279 0.0035766534077541451 0.0055134346589743744 0.019834273327312597 0.00069509004194405358 0.01622891894249269 0.0028831510838102136 0.021949353039783376 0.0007501178469305486 0.0092375234991422354 0.0062779076786080683 0.0046528370086968895 -0.00089265736745841964 0.0018202586892263669 0.011440731193457034 0.014990934828542878 0.034147457394544549 0.020133964094528074 0.057409233311275114 0.035170816426366262 -0.0010963248050272852 0.0024629631352300393 0.0032390496788127681 0.041272976084802689 0.0045928581616940262 0.01539740382951218 0.036213028660757624 0.010430976528251111 0.044159911089438078 0.014712140782777933 0.020879992476016962 -0.0014345518995157655 0.0012357045340868735 -0.0054749096433321636 0.00035789419430679601 -0.00021302454415741083 0.0057680116249820192 0.0056200639661701307 0.01025776441849012 -0.00049428972118488207 -0.00023058701011805652 -0.002268458804390402 0.0064147588672917553 0.042990733421926566 0.017500856000055253 0.010280119103476844 0.0044666425432680736
leaf_weight=66519 17352 3537 33747 83070 727 7761 1608 14367 16397 4708 639 78723 104 20584 2698 202 11371 3800 221 35267 55 3110 424 19923 3509 664 2451 39977 18531 463 2065 40 229 10.999999999999998 273 37530 11063 2370 18 941 265 20 673 13.999999999999998 851 57 32 2689 10.999999999999998 3577 1547 3849 236 60 14739 17459 43248 241 27 407 677 4382
leaf_count=66519 17352 3537 33747 83070 727 7761 1608 14367 16397 4708 639 78723 104 20584 2698 202 11371 3800 221 35267 55 3110 424 19923 3509 664 2451 39977 18531 463 2065 40 229 11 273 37530 11063 2370 18 941 265 20 673 14 851 57 32 2689 11 3577 1547 3849 236 60 14739 17459 43248 241 27 407 677 4382
internal_value=1.76031e-06 0.00521669 -0.000672264 -0.00149099 0.0150364 0.00414106 0.000790821 0.000702655 0.000441966 -0.000276008 0.00336009 -0.00203448 0.00750837 0.00133058 0.00277037 -0.00140942 0.00292617 0.00733572 0.0102878 -0.000166595 -0.00262115 -0.000484299 0.013001 -0.000585095 0.00677182 0.00367861 0.00187665 -0.00150699 0.000869873 0.00434738 0.0123491 -0.00098832 0.0108988 0.0144262 0.0277603 -0.000593017 0.0022464 0.00539 0.00278986 0.00236017 0.00888603 0.00843962 0.00686452 0.0111319 0.0118625 0.00502445 0.0150721 -0.00100767 0.0255096 0.000600049 0.00162034 0.00637853 -0.00184222 0.0175228 0.000220826 0.000406799 -0.00271381 -0.000848729 0.0223918 0.0140192 0.0129972 0.00303179
internal_weight=642110 73494 568616 364595 7255 66239 204021 202145 179515 112700 53770 251895 12469 72971 22630 121945 48480 5290 1876 106544 129950 107063 6255 103953 11270 5637 16875 119177 56574 15683 5831 69291 3766 1199 1000 71277 32797 5755 2768 2690 929 1628 3385 687 1490 2508 83 69208 51 3632 2488 4312 78959 78 34662 38043 126318 40218 248 1188 1084 15445
internal_count=642110 73494 568616 364595 7255 66239 204021 202145 179515 112700 53770 251895 12469 72971 22630 121945 48480 5290 1876 106544 129950 107063 6255 103953 11270 5637 16875 119177 56574 15683 5831 69291 3766 1199 1000 71277 32797 5755 2768 2690 929 1628 3385 687 1490 2508 83 69208 51 3632 2488 4312 78959 78 34662 38043 126318 40218 248 1188 1084 15445
cat_boundaries=0 1 2 3 4 5 6 7
cat_threshold=31 8 23 60 8 1 2391
is_linear=0
shrinkage=0.05


Tree=16
num_leaves=63
num_cat=8
split_feature=4 4 3 20 3 3 4 24 4 24 3 4 23 5 7 3 24 7 3 19 1 7 16 3 7 7 19 7 7 4 22 24 11 5 22 13 4 24 1 24 5 3 24 11 7 19 16 5 5 5 3 8 4 5 3 19 1 22 8 13 13 3
split_gain=816.093 270.175 258.484 86.9177 66.8776 59.4592 53.973 38.3652 39.1976 34.2943 33.505 33.3398 25.3724 21.2797 19.2139 18.2644 18.0459 16.4504 14.0071 13.7755 13.0276 12.7192 10.57 10.3955 10.3186 9.99573 9.52747 9.49466 8.06041 7.87058 7.80928 7.76699 7.51116 7.3377 7.18323 6.70976 6.84649 7.19202 6.57114 6.55312 6.48435 6.29318 5.90635 5.82058 5.79944 5.73443 5.69431 5.59281 5.58868 5.47458 5.35812 5.34702 5.27412 5.45997 5.21564 5.15354 5.13964 9.70345 5.09282 5.03024 5.02451 4.98836
threshold=0.63531035184860241 0.36548693478107458 1.2187255620956423 0 1.8605480194091799 1.0072221755981448 0.88145795464515697 17.500000000000004 0.49329029023647314 12.500000000000002 0.59632414579391491 0.21289115399122241 0.51785713434219371 0.82775938510894786 4.5000000000000009 1.3080884218215945 21.500000000000004 4.5000000000000009 0.41677218675613409 1 2.1383330821990971 4.5000000000000009 0.084120199084281935 0.89132860302925121 4.5000000000000009 4.5000000000000009 2 3.5000000000000004 4.5000000000000009 0.74418237805366527 5.5000000000000009 16.500000000000004 9.5000000000000018 1.0100834965705874 10.500000000000002 3 0.53859427571296703 18.500000000000004 2.4414010047912602 15.500000000000002 1.1952707171440127 0.91526156663894664 15.500000000000002 14.500000000000002 4.5000000000000009 4 0.13245049118995669 0.4693176150321961 0.67722421884536754 0.4693176150321961 0.83143979310989391 7.5000000000000009 0.69842615723609935 0.69685786962509166 0.86490574479103099 5 1.2424533367156985 8.5000000000000018 7.5000000000000009 6 7 2.2787142992019658
