tree
version=v4
num_class=1
num_tree_per_iteration=1
label_index=0
max_feature_idx=26
objective=regression
feature_names=lag_7_log lag_28_log lag_364_log rolling_mean_7 rolling_mean_28 rolling_std_7 rolling_zero_count_7 day_of_week month week_of_year is_weekend day_of_month event_indicator cat_event snap_CA sell_price price_change_7 price_ratio_28 store_id dept_id cat_id days_since_last_sale last_nonzero_qty demand_freq_28 rolling_zero_count_28 avg_nonzero_qty_28 streak_zeros
feature_infos=[0:3.9120230674743652] [0:4.2626800537109375] [0:5.4806389808654785] [0:3.2343072891235352] [0.024755256250500679:2.7843141555786133] [0:1.9232357740402222] [0:7] [0:6] [1:12] [1:53] [0:1] [1:31] [0:1] -1:2:12:7:1:11:3:0:13:10:6:8:5:4:14 [0:1] [0.20000000298023224:29.969999313354492] [-0.88870340585708618:7.9849996566772461] [0.12748134136199951:2.1073169708251953] -1:0:2 -1:6:2:3:1:5:0:4 -1:0:2:1 [1:28] [1:61] [0.035714287310838699:1] [0:27] [1:31] [0:27]
tree_sizes=5565 5894 5831 5843 5874 5865 5856 5863 5867 5763 5846 5796 5821 5808 5819 5866 5896 5817 5899 5807 5863 5844 5781 5948 5828 5838 5914 5835 5918 5873 5901 5940 5908 5857 6030 5838 5964 5942 5921 5914 5883 6000 5883 5953 6003 5989 5971 5952 5997 6030 5912 5937 5994 5811 5921 5908 5989 5923 5851 5989 5998 6068 5947 5829 6044 5984 6057 6052 5979 5952 5988 6123 5935 5883 5913 6045 5951 6024 6009 5965 6027 5918 6105 6008 6029 6024 5955 6121 6031 5838 5995 5945 5950 6041 6020 6058 5885 6027 5881 5876 6054 6010 6097 5933 5900 6106 6015 6088 5992 5987 5964 6151 6086 6041 5931 6008 6045 6027 6028 5992 6115 6086 6015 6056 5975 6107 6054 6117 5961 6109 5915 6165 6022 5911 6049 6057 5960 6008 6089 5957 5933 6201 6003 6007 6065 5922 5984 5891 5967 5858 6187 6082 6174 6112 5901 6077 5978 6049 6099 6076 5931 5985 5963 5998 5969 6104 5994 5910 6032 6107 6036 6025 6049 6063 5843 5977 5936 6000 6000 6072 5949 6017 6005 6051 6037 5973 6189 6143 6169 5972 6007 6106 6080 6022 6107 5946 6009 6035 6184 6141 6040 6156 6068 6047 5956 6031 5897 6028 5998 6103 5959 6057 6087 6119 6035 6049 6148 6081 6029 6112 5934 6049 5995 5941 6050 5953 6037 6038 6023 6069 6098 5954 6119 6057 6047 6121 6126 5967 6061 6105 5999 6042 5961 6145 6006 6017 6009 5989 6033 6256 6120 6061 6107 6027 6081 6107

Tree=0
num_leaves=63
num_cat=7
split_feature=3 4 3 15 4 5 4 15 15 3 4 3 4 5 15 15 13 5 5 15 3 7 15 15 5 19 4 15 19 18 19 15 24 19 7 24 7 24 4 6 5 15 1 4 15 22 4 22 5 19 15 15 15 7 5 24 4 7 4 24 7 4
split_gain=1876.33 793.557 310.897 221.722 186.926 114.608 88.7885 86.419 61.9175 59.5639 46.3842 36.5639 29.5028 29.1446 29.0754 26.9053 21.2206 20.6343 20.1438 19.3505 18.5056 16.7706 16.385 16.3142 14.3673 14.2457 14.1398 13.4982 13.2401 12.8531 12.4621 12.3336 11.8659 10.838 10.3072 10.2522 9.83909 9.55926 9.43927 9.19069 9.15761 8.77955 8.43279 8.3832 8.30297 7.80885 7.70977 7.22032 6.99972 6.7374 6.70031 8.84367 6.61521 6.57393 6.15721 6.0859 5.93852 5.81803 5.74177 5.64566 5.52435 5.43709
threshold=1.1388223767280581 0.46853503584861761 1.7825004458427431 3.7699999809265141 0.71418395638465892 0.54545605182647716 0.26231032609939581 1.8750000000000002 1.235000014305115 1.4338732957839968 0.27679121494293218 2.2064335346221928 0.93374565243721019 0.76245117187500011 2.8750000000000004 0.64000001549720775 0 0.80102550983428966 0.56600928306579601 1.235000014305115 0.81046715378761303 4.5000000000000009 0.97500002384185802 1.7749999761581423 0.89064911007881176 1 0.58203697204589855 0.85499998927116405 2 3 4 0.48999999463558203 13.500000000000002 5 4.5000000000000009 19.500000000000004 4.5000000000000009 14.500000000000002 0.12432577461004259 2.5000000000000004 0.53249728679656994 0.90500000119209301 2.4414010047912602 1.5140435099601748 2.4850000143051152 17.500000000000004 0.36118046939373022 8.5000000000000018 1.0920007824897768 6 1.8750000000000002 2.185000061988831 0.48999999463558203 4.5000000000000009 0.73440092802047741 20.500000000000004 0.36118046939373022 4.5000000000000009 0.80293062329292308 22.500000000000004 4.5000000000000009 0.63676419854164135
decision_type=2 2 2 2 2 2 2 2 2 2 2 2 2 2 2 2 9 2 2 2 2 2 2 2 2 1 2 2 1 1 1 2 2 1 2 2 2 2 2 2 2 2 2 2 2 2 2 2 2 1 2 2 2 2 2 2 2 2 2 2 2 2
left_child=1 3 9 5 7 10 18 15 17 19 16 47 34 27 40 25 22 49 30 39 21 33 -1 35 43 -3 32 -7 -25 -13 -5 -18 60 -8 -10 -12 -21 61 -32 -2 -9 -15 45 -11 -29 -31 -23 -4 55 -6 -24 -52 -27 -28 -22 -43 -35 -30 -19 -20 -16 -17
right_child=2 4 11 6 8 13 20 14 12 24 23 29 -14 41 26 37 31 58 59 36 54 46 50 28 -26 52 53 44 57 42 38 -33 -34 56 -36 -37 -38 -39 -40 -41 -42 48 -44 -45 -46 -47 -48 -49 -50 -51 51 -53 -54 -55 -56 -57 -58 -59 -60 -61 -62 -63
leaf_value=0.94915561566859297 0.93031835606281377 0.9289360925602852 0.94897332616625607 0.89846904242902514 0.92380579270281549 0.91349274422082172 0.90027212346151242 0.90427513180528707 0.90825105512049153 0.93154903703680703 0.90350295297671168 0.94526700765278759 0.91746340724309294 0.9202040722197441 0.90034468118173405 0.90684319738694719 0.91234353234896126 0.92452267433063939 0.89902972937455294 0.91801525327527611 0.90653308293982648 0.8991326388228329 0.90407088542947533 0.90273849664625561 0.95161529517856869 0.91906682111448623 0.90359535819312053 0.90561147974497203 0.89954706117260186 0.96761000099931227 0.8945105098645254 0.89745762183804978 0.90430351886119908 0.89708052131690508 0.91289281892758045 0.9115153219691704 0.92636319956892466 0.91292051402234164 0.89601719544096936 0.95413883116550058 0.90720800939100699 0.90705120757980318 0.98975787909523305 0.94273704937818303 0.90278308158834553 0.99774965339640354 0.9013546278548723 0.96102305450536696 0.9361804675477936 0.91107601600355714 0.89745257674026879 0.90063483312646664 0.90470990702829901 0.90698360073736317 0.92268804790646564 0.91404066193102407 0.89858030297671565 0.90154786501108142 0.93758455438524912 0.90519789368560255 0.90267707601808489 0.91152566863467155
leaf_weight=17 290 277 366 3990 309 390 5034 4802 3703 528 3850 36 1609 246 7788 2639 140 125 895 1161 358 8704 1019 7451 163 178 4530 4608 11125 181 15325 17701 3871 15126 1776 446 514 1351 32561 48 6001 909 99 253 5959 26 7073 201 25 248 2905 8805 148 2100 71 478 11757 5391 282 633 3766 816
leaf_count=17 290 277 366 3990 309 390 5034 4802 3703 528 3850 36 1609 246 7788 2639 140 125 895 1161 358 8704 1019 7451 163 178 4530 4608 11125 181 15325 17701 3871 15126 1776 446 514 1351 32561 48 6001 909 99 253 5959 26 7073 201 25 248 2905 8805 148 2100 71 478 11757 5391 282 633 3766 816
internal_value=0.900997 0.900388 0.935527 0.898832 0.906201 0.900966 0.89733 0.904744 0.913126 0.927661 0.900039 0.961104 0.911507 0.90529 0.903779 0.9106 0.898689 0.925018 0.895927 0.922793 0.898888 0.898795 0.90025 0.901499 0.938032 0.920562 0.902738 0.904355 0.90099 0.97407 0.89576 0.897577 0.901908 0.898136 0.909757 0.904336 0.920581 0.909349 0.895536 0.933731 0.905905 0.91147 0.977426 0.935185 0.904017 0.971465 0.900129 0.953264 0.909943 0.91874 0.900184 0.899845 0.912223 0.904669 0.909223 0.909464 0.897737 0.900201 0.933592 0.901582 0.901104 0.907951
internal_weight=223177 219311 3866 172992 46319 71465 101527 38267 8052 2957 58850 909 7088 12615 32858 5409 30587 964 53404 2013 48123 47694 12746 28263 944 603 22055 10957 23967 342 51876 17841 15425 31917 5479 4296 1675 4806 47886 338 10803 1658 306 781 10567 207 15777 567 1412 557 12729 11710 326 6630 429 1387 26883 16516 407 1528 11554 3455
internal_count=223177 219311 3866 172992 46319 71465 101527 38267 8052 2957 58850 909 7088 12615 32858 5409 30587 964 53404 2013 48123 47694 12746 28263 944 603 22055 10957 23967 342 51876 17841 15425 31917 5479 4296 1675 4806 47886 338 10803 1658 306 781 10567 207 15777 567 1412 557 12729 11710 326 6630 429 1387 26883 16516 407 1528 11554 3455
cat_boundaries=0 1 2 3 4 5 6 7
cat_threshold=30 12 3 1 5 5 12
is_linear=0
shrinkage=1


Tree=1
num_leaves=63
num_cat=8
split_feature=25 3 25 25 4 25 25 3 15 15 4 4 25 3 15 19 20 3 25 15 19 3 4 25 18 10 5 4 10 10 4 10 15 10 4 15 25 3 4 3 10 15 15 15 15 25 10 19 15 3 19 10 9 2 15 5 15 13 25 19 4 10
split_gain=2020.06 708.497 554.606 149.889 131.647 83.7285 79.3484 44.8081 32.9023 31.2492 30.3239 23.0014 20.6268 18.9044 17.4092 17.2176 15.8108 15.6201 15.3499 14.9344 14.727 12.961 12.9535 12.6985 12.4421 11.9753 11.6184 11.5036 11.3533 9.49344 9.12064 8.4171 8.30405 7.77889 7.47647 7.45897 7.4016 6.88339 6.88136 6.80567 6.68359 7.06354 6.35973 6.04337 5.60679 5.55078 5.36826 5.24767 5.58357 5.03368 4.89544 4.96802 4.89366 4.88151 4.86425 4.67494 4.62338 4.59066 4.50383 4.26466 3.99695 3.92789
threshold=2.5092592239379887 1.5234838128089907 1.6742423772811892 4.0178570747375497 0.26231032609939581 7.5895721912384042 2.0192307233810429 1.0974304080009463 3.7999999523162846 1.235000014305115 0.41903309524059301 0.38790865242481237 3.0185185670852666 0.7328401803970338 3.2999999523162846 0 1 0.58839139342308056 4.6726188659667978 2.4850000143051152 2 2.2064335346221928 0.67660304903984081 1.0954545736312868 3 1.0000000180025095e-35 1.4084495306015017 0.22737204283475879 1.0000000180025095e-35 1.0000000180025095e-35 0.54656368494033825 1.0000000180025095e-35 0.68999999761581432 1.0000000180025095e-35 0.46219892799854284 1.235000014305115 1.3660287261009219 1.9807872772216799 0.65396165847778331 0.82669693231582653 1.0000000180025095e-35 0.64000001549720775 2.5199999809265141 3.9750000238418584 0.64000001549720775 10.898990154266359 1.0000000180025095e-35 4 1.7749999761581423 1.3671369552612307 5 1.0000000180025095e-35 38.500000000000007 1.2424533367156985 2.9000000953674321 0.61493232846260082 1.7749999761581423 6 1.4891304373741152 7 0.55080026388168346 1.0000000180025095e-35
decision_type=2 2 2 2 2 2 2 2 2 2 2 2 2 2 2 1 1 2 2 2 1 2 2 2 1 2 2 2 2 2 2 2 2 2 2 2 2 2 2 2 2 2 2 2 2 2 2 1 2 2 1 2 2 2 2 2 2 9 2 1 2 2
left_child=2 3 4 7 8 18 11 12 20 16 15 14 27 19 47 46 26 -11 -3 32 -1 -7 35 -10 -23 38 -5 53 54 56 -18 -9 55 49 -21 -14 -22 -20 43 -27 41 -29 -19 -13 -24 -26 58 48 -4 -15 -34 -52 -32 -2 -12 -8 -17 -16 -6 -25 -30 -61
right_child=1 5 6 9 10 21 13 31 23 17 28 25 22 33 57 29 30 42 37 34 36 24 44 59 45 39 -28 40 60 -31 52 -33 50 -35 -36 -37 -38 -39 -40 -41 -42 -43 -44 -45 -46 -47 -48 -49 -50 -51 51 -53 -54 -55 -56 -57 -58 -59 -60 61 -62 -63
leaf_value=-2.3769092086260105e-05 0.0020617315908603743 0.031314882439093146 0.0060463318141398313 0.036403553619416294 -0.002195529837606043 0.055983880252616761 0.011177803112079995 0.016673049527958821 -0.0061903819028689654 0.01234647348824143 0.0005870770887216318 0.0023515579270206944 0.015450212272164827 0.0069980742762715074 0.00012950637841338579 0.00086993307470175437 0.018161795069438956 0.016649674614343076 0.041462138709603309 0.0019369226081860397 -0.0039833011097396313 0.040649908809799851 0.030176499419430871 -0.0025696492247404379 0.065935533615282524 0.0039595051634045671 0.08002555220393659 0.018692659163307031 0.00098674781957140537 -0.0016435492601135468 0.026570247143587286 0.024548041649836313 0.0025044615854114488 0.011548008600389065 0.0050124848003838575 0.0094340979804609683 -0.0018275033841229828 0.053385561041877964 0.0046391716898967969 0.009489586474832664 0.011705428340080135 0.0078291498044618293 0.026887691988787606 6.1738891681084409e-05 0.016721652367143833 0.080897488063496142 5.0928510943065144e-05 -0.00017972429260302422 0.0019450113459168771 0.036022398329728492 0.0059450540541818864 0.0096898460716864122 0.037487444680287411 0.015026641580347118 -0.0012936428960132421 0.026207829540264439 -0.0035892670120157254 -0.0024548957947208841 -0.00035438915726573899 -0.0051368265171746466 0.0038224330829097399 -0.0038908182239359504
leaf_weight=3781 799 332 1034 446 10183 267 165 1087 18223 490 4817 7471 741 3198 2690 596 246 219 472 4025 15356 31 85 2658 117 6404 15.999999999999998 156 6540 10722 334 501 707 1460 3896 1728 5389 171 1993 611 2063 4108 524 4698 1026 161 7366 2164 4245 14.999999999999998 2738 1321 155 80 11983 77 20936 4751 4940 18428 1537 9704
leaf_count=3781 799 332 1034 446 10183 267 165 1087 18223 490 4817 7471 741 3198 2690 596 246 219 472 4025 15356 31 85 2658 117 6404 16 156 6540 10722 334 501 707 1460 3896 1728 5389 171 1993 611 2063 4108 524 4698 1026 161 7366 2164 4245 15 2738 1321 155 80 11983 77 20936 4751 4940 18428 1537 9704
internal_value=4.21497e-07 0.0169165 -0.00133725 0.0135474 -0.00286987 0.049068 0.00303689 0.011317 -0.00439521 0.0249022 -0.00146096 0.00169342 0.0101613 0.00578895 0.000186791 -0.00211875 0.030665 0.0193016 0.0401171 0.00480288 -0.00289963 0.0642009 0.0132662 -0.00514348 0.0712645 0.00275209 0.0379421 0.00861791 -1.32633e-05 -0.00285918 0.0260795 0.0191621 0.00694104 0.00851592 0.00345034 0.0112422 -0.00342189 0.0446486 0.00191463 0.00444201 0.00936295 0.0082282 0.0238794 0.00146796 0.0177582 0.0746445 -0.00105484 0.00189686 0.00274419 0.00713625 0.00648022 0.00714763 0.0300479 0.00324896 -0.000754093 0.0159896 -0.0034656 -0.00152307 -0.00159445 -0.00452369 0.00152702 -0.00470554
internal_weight=223177 16355 206822 14804 153159 1551 53663 12374 73539 2430 79620 36061 10786 17602 14884 54743 1197 1233 975 12929 24526 576 3580 49013 309 21177 462 7206 24877 32254 735 1588 5008 4673 7921 2469 20745 643 14162 7015 6327 4264 743 12169 1111 278 22489 7443 5279 3213 4766 4059 489 879 16800 242 21532 7441 15123 30790 8077 28132
internal_count=223177 16355 206822 14804 153159 1551 53663 12374 73539 2430 79620 36061 10786 17602 14884 54743 1197 1233 975 12929 24526 576 3580 49013 309 21177 462 7206 24877 32254 735 1588 5008 4673 7921 2469 20745 643 14162 7015 6327 4264 743 12169 1111 278 22489 7443 5279 3213 4766 4059 489 879 16800 242 21532 7441 15123 30790 8077 28132
cat_boundaries=0 1 2 3 4 5 6 7 8
cat_threshold=23 1 3 1 15 80 294 5
is_linear=0
shrinkage=0.05


Tree=2
num_leaves=63
num_cat=5
split_feature=4 4 4 4 5 24 20 24 4 22 5 4 4 5 10 6 4 22 24 4 24 24 5 24 24 5 17 5 22 10 19 5 5 24 20 4 10 24 2 5 22 8 10 6 2 5 22 22 4 10 22 22 0 9 19 4 17 13 17 24 9 8
split_gain=1437.78 552.31 337.683 155.882 116.951 87.8213 78.8252 68.7487 58.5325 53.0801 35.2941 34.8145 31.8679 28.2596 22.6446 20.4994 19.4593 18.3281 15.0565 14.5574 21.1757 14.1557 14.0077 13.4574 11.2019 11.1119 10.837 10.7816 10.6471 10.6354 9.79006 9.5604 9.51646 8.95815 8.64108 8.52395 8.34608 8.07541 7.54777 7.41215 7.32906 7.94648 7.317 6.9389 6.82765 6.7683 6.72119 6.66488 6.35674 6.33566 6.2787 6.24867 6.17937 6.12697 5.73508 5.67656 5.65876 5.48697 5.42249 5.27513 6.24862 10.468
threshold=0.84186539053916942 0.36553788185119634 1.3762105107307436 0.54280081391334545 0.54545605182647716 17.500000000000004 0 13.500000000000002 2.071452379226685 7.5000000000000009 0.76145061850547802 0.65396165847778331 0.21279980987310412 0.93549436330795299 1.0000000180025095e-35 1.0000000180025095e-35 1.0836881399154665 10.500000000000002 10.500000000000002 0.46853503584861761 14.500000000000002 8.5000000000000018 1.1524950861930849 10.500000000000002 15.500000000000002 0.53493025898933422 1.0782415270805361 0.66143295168876659 5.5000000000000009 1.0000000180025095e-35 1 0.58724159002304088 0.89571535587310802 16.500000000000004 2 0.25212730467319494 1.0000000180025095e-35 19.500000000000004 2.1383330821990971 0.40045563876628881 3.5000000000000004 10.500000000000002 1.0000000180025095e-35 1.5000000000000002 1.8688347935676577 1.1524950861930849 10.500000000000002 14.500000000000002 1.5140435099601748 1.0000000180025095e-35 5.5000000000000009 5.5000000000000009 2.4414010047912602 21.500000000000004 3 0.74428772926330578 1.2001744508743288 4 1.0489975214004519 18.500000000000004 21.500000000000004 3.5000000000000004
decision_type=2 2 2 2 2 2 1 2 2 2 2 2 2 2 2 2 2 2 2 2 2 2 2 2 2 2 2 2 2 2 1 2 2 2 1 2 2 2 2 2 2 2 2 2 2 2 2 2 2 2 2 2 2 2 1 2 2 9 2 2 2 2
left_child=1 4 9 5 6 14 35 11 17 16 30 29 39 15 19 28 21 48 -11 24 -21 42 38 49 -3 -10 45 53 -9 -5 -6 -16 -18 -15 46 51 -14 -37 43 -8 -23 -42 -2 50 -34 -12 -20 -35 52 -13 -7 58 -4 -17 -45 -25 -28 -33 -1 -56 61 -61
right_child=2 3 8 7 10 22 12 13 25 18 26 23 36 33 31 27 32 -19 34 20 -22 40 -24 55 -26 -27 56 -29 -30 -31 -32 57 44 47 -36 37 -38 -39 -40 -41 41 -43 -44 54 -46 -47 -48 -49 -50 -51 -52 -53 -54 -55 59 -57 -58 -59 -60 60 -62 -63
leaf_value=-0.0021077962033214399 0.010052971773563568 -0.001606868534101564 0.028092586426431101 0.0021043240529655476 0.0026905527105485633 0.012926607324402099 -0.0051906142354763611 0.020392181431035564 0.070352706527733483 0.028181497308433442 0.0090498265133890799 0.0050037397004579799 -0.0034474066414356347 0.021325958308140148 0.0014103347843013193 0.0045091238460430753 0.019810446809739791 0.055273932114394214 0.040180200237857282 0.00022912643015882183 0.0054754164045451104 0.015945329548335788 0.044001965769102647 0.0092405786879526386 0.00066922099226882548 0.045721948972458452 0.035888109081417277 0.013277440004568375 0.04944830913426114 0.0051799572291824645 -0.00050651433075263178 0.005434606677407171 0.030185188062561059 0.034073038950220617 0.028736751369516391 -0.00077977272601943226 -0.0019265065026703141 0.0025012304067283512 0.025086830771290553 -0.0035737674387089115 0.022758975829775784 0.04772775882498595 0.016023267646863387 0.0033145989177359586 0.066935395641832166 0.048438167759964068 0.068902153407645106 0.070168635193605597 0.039687371586699542 0.008342994805830348 0.038007065733171412 0.016476495609236901 0.06053521736808444 0.010654782326230083 0.0062860393474081996 0.015406068466289072 0.0043670174885170618 0.0012653151146011282 0.0022843908981978688 0.015486071074295719 0.014040063952156404 0.0024575009447768952
leaf_weight=18689 1658 16387 231 8711 5701 191 36124 116 228 202 963 4436 27084 190 14194 897 1181 168 34 9812 2393 506 27 1623 8063 60 62 1409 44 4157 4120 2718 93 74 35 14991 13554 2143 63 8849 255 37 751 837 14.999999999999998 10.999999999999998 58 15.999999999999998 716 2102 29 46 15.999999999999998 747 1654 490 19 1146 729 241 650 431
leaf_count=18689 1658 16387 231 8711 5701 191 36124 116 228 202 963 4436 27084 190 14194 897 1181 168 34 9812 2393 506 27 1623 8063 60 62 1409 44 4157 4120 2718 93 74 35 14991 13554 2143 63 8849 255 37 751 837 15 11 58 16 716 2102 29 46 16 747 1654 490 19 1146 729 241 650 431
internal_value=4.5296e-07 -0.000680393 0.0236553 0.00249803 -0.00268295 0.00109228 -0.00312513 0.00580458 0.0450982 0.0173472 0.00228526 0.00474803 -0.00395542 0.0123118 0.000561893 0.0109809 0.0159259 0.0399553 0.0367442 -0.000151943 0.0012582 0.013835 0.00812927 0.00720126 -0.000856067 0.0652563 0.0109758 0.0100634 0.0284397 0.00309833 0.00135108 0.00201114 0.0211226 0.0275566 0.0502913 -0.00118277 -0.00294027 -0.000369104 0.00789052 -0.0048726 0.0196171 0.0259552 0.0119169 0.00762004 0.0353928 0.00950472 0.058397 0.0406163 0.0372723 0.0060782 0.0162712 -0.00189876 0.030238 0.0073051 0.00711917 0.0106734 0.0285704 0.00421676 -0.00194263 0.00814886 0.0105367 0.007139
internal_weight=223177 216933 6244 83848 133085 58836 122209 25012 1419 4825 10876 21519 85611 3493 54713 3213 4496 1131 329 36655 12205 3207 4123 8651 24450 288 1055 3053 160 12868 9821 18058 1289 280 127 36598 40638 17134 4096 44973 798 292 2409 4033 108 974 92 90 963 6538 220 19464 247 1644 3813 2113 81 3864 19418 2976 1322 672
internal_count=223177 216933 6244 83848 133085 58836 122209 25012 1419 4825 10876 21519 85611 3493 54713 3213 4496 1131 329 36655 12205 3207 4123 8651 24450 288 1055 3053 160 12868 9821 18058 1289 280 127 36598 40638 17134 4096 44973 798 292 2409 4033 108 974 92 90 963 6538 220 19464 247 1644 3813 2113 81 3864 19418 2976 1322 672
cat_boundaries=0 1 2 3 4 5
cat_threshold=1 23 1 65 133
is_linear=0
shrinkage=0.05


Tree=3
num_leaves=63
num_cat=5
split_feature=25 3 25 25 25 4 25 3 4 20 7 25 3 5 13 4 25 7 25 25 13 25 4 7 4 4 25 13 1 4 3 2 7 25 4 4 0 7 4 25 2 2 7 4 3 5 4 9 2 7 2 25 9 4 4 4 13 9 17 3 5 25
split_gain=1674.59 581.882 466.1 124.097 97.4451 81.6272 68.3711 36.7645 26.8584 23.5053 19.5486 16.0004 15.9414 15.8214 15.4977 13.2124 12.3759 11.7624 11.3065 10.9353 9.71527 9.46468 9.09962 8.93364 8.49022 8.21738 7.32786 6.756 6.70315 6.10386 5.99131 5.71521 5.4771 5.43978 5.19595 4.75765 4.61915 4.56558 4.48252 4.43765 4.32058 4.18217 4.10955 4.09192 4.0109 4.19422 3.96496 3.93964 4.42397 3.86317 3.80289 3.77358 3.89931 3.8781 3.6711 3.60363 3.59833 3.56149 3.52752 3.4884 3.43604 3.35381
threshold=2.5092592239379887 1.5234838128089907 1.5751879811286928 4.0178570747375497 2.0192307233810429 0.26231032609939581 7.5895721912384042 1.0240827202796938 0.45781700313091284 0 4.5000000000000009 3.0185185670852666 0.82449087500572216 1.08067923784256 1 0.38524730503559118 4.6726188659667978 4.5000000000000009 1.0954545736312868 10.898990154266359 2 1.8603895902633669 0.67660304903984081 4.5000000000000009 0.22737204283475879 0.41499744355678564 12.053571224212648 3 2.0126758217811589 0.42832587659358984 1.9807872772216799 1.8688347935676577 4.5000000000000009 1.3141447305679324 0.62128168344497692 0.52831989526748668 1.7005987167358401 4.5000000000000009 0.83149969577789318 1.7709789872169497 1.2424533367156985 0.89587974548339855 4.5000000000000009 0.16338063031435016 1.4250421524047854 0.72459271550178539 0.26646591722965246 38.500000000000007 1.4978661537170412 4.5000000000000009 2.6735538244247441 10.898990154266359 39.500000000000007 0.17786153405904773 0.83149969577789318 0.46853503584861761 4 39.500000000000007 1.0489975214004519 1.8228375315666201 0.48814228177070623 7.9242856502532968
decision_type=2 2 2 2 2 2 2 2 2 1 2 2 2 2 9 2 2 2 2 2 9 2 2 2 2 2 2 9 2 2 2 2 2 2 2 2 2 2 2 2 2 2 2 2 2 2 2 2 2 2 2 2 2 2 2 2 9 2 2 2 2 2
left_child=2 3 5 7 8 9 16 11 14 33 20 24 17 15 39 51 -3 27 -11 -8 -7 37 43 47 40 56 38 -6 59 -22 50 44 -26 -1 -23 -19 60 -10 57 -4 -2 46 -20 -13 45 -17 -16 54 -49 -40 -18 52 -5 -53 -9 -29 -12 -15 -35 -21 -24 -47
right_child=1 6 4 13 12 10 19 23 21 18 25 22 -14 26 41 31 30 35 42 28 29 34 36 -25 32 -27 -28 55 -30 -31 -32 -33 -34 58 -36 -37 -38 -39 49 -41 -42 -43 -44 -45 -46 61 -48 48 -50 -51 -52 53 -54 -55 -56 -57 -58 -59 -60 -61 -62 -63
leaf_value=-0.003122135699876686 0.0019883863682920531 0.028540120504906438 0.00048295410830156315 0.0095404739982625324 0.0008984491185117287 -0.0013356166365882426 0.052569455527496978 0.0085278081183608641 0.0010645024096448312 -0.0055339057049602148 -1.6788967636723168e-05 0.004148355333827276 0.008532204319260904 0.019430097461223126 -0.0022479129851030173 0.017533901996416471 0.036750438417391403 0.0053880165499833599 -0.0044564571244834197 0.028203989303495627 -0.0032808677806854302 0.0030209990892018828 0.0051812884985490085 0.021319686062956096 0.0073152743639640014 0.0010902756681588702 0.061366235461440016 0.0031493124349159414 0.075516614486029407 -0.0015178935806811214 0.048673838781860233 0.030177513077849334 0.01053363114744117 -0.0014438762951230737 0.0060566779539503899 0.0086728411854207297 0.025876179589759851 0.0029788621556392863 0.032319972230927217 0.0021740873482621768 0.014186994000320578 0.0011545236567653339 -0.0032616815269044595 0.010975288912140137 0.031128254251193945 0.022652962629011397 -0.00057413651992694866 0.016037250332826224 0.030425872611054242 0.051522809241622142 0.064803712189425031 0.0095360739101277691 0.019380772553729827 0.051708621298538829 0.014713377422441602 0.0052905228656568853 -0.001616980885166085 0.036391489588973883 0.0055539994767313042 0.060603538763287904 0.015883598827025919 0.036944779823069561
leaf_weight=11327 799 332 8669 307 1889 17092 350 358 9567 21188 5415 247 3130 100 5861 496 459 2870 20864 9.9999999999999982 20694 4412 85 636 4041 6242 22 3831 116 6453 171 258 1984 5347 2081 1807 108 4628 100 7035 80 2084 11056 2178 113 728 8956 273 68 38 12.999999999999998 10.000000000000002 153 12.999999999999998 762 4075 10063 47 186 100 755 45
leaf_count=11327 799 332 8669 307 1889 17092 350 358 9567 21188 5415 247 3130 100 5861 496 459 2870 20864 10 20694 4412 85 636 4041 6242 22 3831 116 6453 171 258 1984 5347 2081 1807 108 4628 100 7035 80 2084 11056 2178 113 728 8956 273 68 38 13 10 153 13 762 4075 10063 47 186 100 755 45
internal_value=5.37105e-07 0.0154023 -0.00121738 0.012349 0.00206924 -0.00293162 0.0445398 0.0103195 0.00100378 -0.00412132 -0.00166952 0.0090871 0.00529479 0.022681 0.00010951 0.0211382 0.0364499 0.00459421 -0.00463779 0.0582161 -0.00227269 0.00241294 0.0119125 0.016356 0.00770583 -0.000440766 0.0333228 0.00360803 0.0669118 -0.00286094 0.0405211 0.0232838 0.00837605 -0.00249415 0.00399478 0.00665836 0.0160762 0.00168901 0.0311197 0.00124008 0.00310579 -0.000940869 -0.0040428 0.0102822 0.0219912 0.0211712 -0.00123656 0.0141904 0.0189293 0.0376774 0.0375472 0.0138393 0.0128278 0.0337098 0.0127416 0.00424827 -0.00105853 0.0249082 -0.00120763 0.0577318 0.0148073 0.0234961
internal_weight=223177 16355 206822 14804 70895 135927 1551 12374 53293 69968 65959 10277 17602 2430 32605 2123 975 14472 53108 576 44239 20688 3373 2097 6904 21720 307 9795 226 27147 643 1640 6025 16860 6493 4677 948 14195 285 15704 879 16901 31920 2425 1382 1269 14817 1461 341 138 472 483 460 23 1120 7906 15478 147 5533 110 840 773
internal_count=223177 16355 206822 14804 70895 135927 1551 12374 53293 69968 65959 10277 17602 2430 32605 2123 975 14472 53108 576 44239 20688 3373 2097 6904 21720 307 9795 226 27147 643 1640 6025 16860 6493 4677 948 14195 285 15704 879 16901 31920 2425 1382 1269 14817 1461 341 138 472 483 460 23 1120 7906 15478 147 5533 110 840 773
cat_boundaries=0 1 2 3 4 5
cat_threshold=1 271 127 29760 85
is_linear=0
shrinkage=0.05


Tree=4
num_leaves=63
num_cat=6
split_feature=25 3 25 25 25 24 15 15 3 25 3 3 15 10 25 25 25 15 13 15 19 25 24 10 10 25 19 15 10 19 20 15 15 15 22 22 25 25 24 3 23 10 15 3 3 24 25 22 3 3 19 5 8 15 15 15 15 15 2 10 10 25
split_gain=1513.79 635.866 302.062 146.616 73.7467 50.5945 45.1721 41.3931 27.9761 26.7314 25.5799 25.021 22.2142 18.1099 15.6493 14.2721 13.9196 12.8618 12.4802 9.64554 9.53953 8.70927 8.59797 8.58799 8.15445 7.97719 7.75171 7.69698 7.94648 7.31495 7.24123 6.82139 6.73945 6.49783 5.84662 5.58221 5.19324 5.02754 5.02002 4.9452 4.65449 4.64268 4.59058 4.4879 4.37275 4.30626 4.2997 4.09334 3.93918 4.00925 3.92445 3.84569 3.8127 3.78776 3.60855 3.59225 4.94878 3.77639 3.56589 3.50719 3.44647 3.43581
threshold=2.2247475385665898 1.4619477391242983 1.5108695626258852 3.0930736064910893 7.2583334445953378 19.500000000000004 2.7350000143051152 1.235000014305115 0.86490574479103099 5.3397436141967782 0.67018654942512523 0.65352252125740062 3.7999999523162846 1.0000000180025095e-35 4.6726188659667978 10.898990154266359 1.8603895902633669 2.7000000476837163 0 3.8750000000000004 1 1.8681159615516665 16.500000000000004 1.0000000180025095e-35 1.0000000180025095e-35 1.1143791079521181 2 0.64000001549720775 1.0000000180025095e-35 3 4 3.8549998998641972 9.9499998092651385 0.71999999880790722 8.5000000000000018 8.5000000000000018 1.8047618865966799 4.1835014820098886 21.500000000000004 0.75831696391105663 0.42261904478073126 1.0000000180025095e-35 1.7749999761581423 1.1641668081283572 1.5234838128089907 14.500000000000002 1.3021739125251772 7.5000000000000009 0.77309229969978344 0.57116553187370311 5 0.4284189641475678 6.5000000000000009 1.235000014305115 0.48999999463558203 0.64000001549720775 0.24000000208616259 1.060000002384186 1.2424533367156985 1.0000000180025095e-35 1.0000000180025095e-35 4.3550419807434091
decision_type=2 2 2 2 2 2 2 2 2 2 2 2 2 2 2 2 2 2 9 2 1 2 2 2 2 2 1 2 2 1 1 2 2 2 2 2 2 2 2 2 2 2 2 2 2 2 2 2 2 2 1 2 2 2 2 2 2 2 2 2 2 2
left_child=2 3 5 8 14 13 16 9 17 30 -9 18 20 19 47 44 29 27 36 46 -7 -13 41 -12 43 -14 -19 -2 50 -4 37 -15 -25 -17 -16 52 -8 -5 55 42 -21 -20 -18 -10 -6 -33 -1 -3 49 58 -29 -22 -35 -52 -31 56 61 -57 -11 -23 -38 -32
right_child=1 4 6 7 15 12 11 10 24 48 23 21 25 31 34 33 39 26 22 40 51 59 -24 32 -26 -27 -28 28 -30 54 38 45 -34 35 -36 -37 60 -39 -40 -41 -42 -43 -44 -45 -46 -47 -48 -49 -50 -51 53 -53 -54 -55 -56 57 -58 -59 -60 -61 -62 -63
leaf_value=-0.002536421729090646 0.014421600852854944 0.023766529065805345 0.0030975268416887011 0.019074154512391518 0.019993520307466917 6.2001634720536335e-05 6.0251517925707879e-05 0.0089520799685182239 0.008207411213422498 0.02596147783557274 0.014615382384617945 0.0013513047278947881 -0.0055381667504356118 0.00032085748301725555 0.034887822051881491 0.03500008826224494 0.0054910957071170052 0.0053242497784599645 -0.00078901989886785901 -0.0038103626384259921 -0.0034600902920956461 0.0036298263659744904 -0.0020269534057670725 0.019504681810133873 0.014495117780229031 -0.0040953445617987359 0.001284605699988101 0.0018276282723390395 0.0091468834218645708 0.014075493022303759 0.017182947825125777 -0.00011465230194182189 0.034271143349020469 0.05950856719084803 0.046065403403834609 0.070648895321892405 0.0010457487619979604 0.031147205378724646 0.0081332374315273761 0.006916835793518066 -0.002533307508187367 0.0014590251783410263 0.0030186260665252349 0.01346027549845881 0.049235359588456401 -0.0020397456687301727 -0.00090855096033492459 0.03767123004678407 0.035089055098916862 0.016694995042917486 0.010011109884565524 -0.001528755482201843 0.026264960278991528 0.0057154699549492602 0.00073858893376521292 0.012312235415796388 0.024784726523144021 0.020634077670538674 0.042574968467409186 0.0071194807917156419 0.003569282499953651 -0.0018468346900385683
leaf_weight=7246 354 405 6539 194 13.999999999999998 2815 10885 2068 1972 119 1417 4363 16485 8002 471 19 2789 3933 6921 13675 13459 2257 11553 566 1095 23006 1737 600 2586 51 170 4045 91 32 163 170 4104 162 160 1525 15006 3437 5804 518 401 10358 9247 63 293 77 591 3201 12.999999999999998 4110 7740 417 310 208 47 1066 2025 27
leaf_count=7246 354 405 6539 194 14 2815 10885 2068 1972 119 1417 4363 16485 8002 471 19 2789 3933 6921 13675 13459 2257 11553 566 1095 23006 1737 600 2586 51 170 4045 91 32 163 170 4104 162 160 1525 15006 3437 5804 518 401 10358 9247 63 293 77 591 3201 13 4110 7740 417 310 208 47 1066 2025 27
internal_value=5.71457e-07 0.0114474 -0.0014808 0.00930947 0.0405283 -0.00294571 0.0011279 0.0158335 0.00695022 0.0214072 0.012893 0.000214778 -0.00401609 -0.00201167 0.0326366 0.0539137 0.00286859 0.00593437 -0.000299879 -0.00258816 -0.00263353 0.00282183 -0.00108862 0.0168194 0.0108904 -0.00469777 0.00409929 0.00719627 0.00687116 0.00186545 0.018243 -0.000849098 0.0215625 0.0638837 0.0377763 0.0663955 0.0007158 0.0245893 0.0164887 0.0042888 -0.00314239 -4.25822e-05 0.00382174 0.00930268 0.048266 -0.00149945 -0.00162405 0.0256566 0.0311212 0.0263039 0.00575989 -0.00308747 0.0500953 0.00624349 0.000825654 0.0176644 0.0208214 0.0150926 0.0307182 0.00475097 0.00188038 0.0145498
internal_weight=223177 25573 197604 23822 1751 126545 71059 6326 17496 2184 4142 46611 58966 67579 1102 649 24448 13911 38925 45174 19475 7686 21911 2074 3585 39491 5670 8241 7887 14330 1648 22405 657 234 634 215 17014 356 1292 10118 28681 10358 8593 2490 415 14403 16493 468 536 243 5301 16660 45 4701 7791 1132 507 625 166 3323 6129 197
internal_count=223177 25573 197604 23822 1751 126545 71059 6326 17496 2184 4142 46611 58966 67579 1102 649 24448 13911 38925 45174 19475 7686 21911 2074 3585 39491 5670 8241 7887 14330 1648 22405 657 234 634 215 17014 356 1292 10118 28681 10358 8593 2490 415 14403 16493 468 536 243 5301 16660 45 4701 7791 1132 507 625 166 3323 6129 197
cat_boundaries=0 1 2 3 4 5 6
cat_threshold=2079 3 39 11 1 80
is_linear=0
shrinkage=0.05


Tree=5
num_leaves=63
num_cat=5
split_feature=25 25 25 25 4 25 6 15 4 6 20 4 25 6 15 25 7 7 22 22 25 7 15 4 19 6 15 15 20 4 25 15 13 4 5 2 7 22 7 17 15 15 4 15 15 2 19 15 25 15 15 15 24 7 22 4 22 15 4 17 17 17
split_gain=1422.19 539.226 261.82 123.547 57.5734 47.0422 43.4668 42.9724 28.5927 25.6061 25.1639 22.9393 18.7346 14.0146 13.3688 12.7324 12.0665 11.569 11.5104 11.3822 10.6975 10.0359 9.05727 7.92048 7.73834 7.64256 7.46489 7.15554 6.94203 6.79114 6.67848 6.30825 6.22437 6.12063 5.77856 5.69225 5.58518 5.65184 5.44781 5.35656 5.25067 5.24891 5.69499 4.9776 4.87589 4.75581 4.62831 4.62334 4.60015 4.58447 4.39129 4.2456 4.18145 4.15767 4.11369 4.10849 4.01521 3.9126 3.87628 3.73866 3.55677 3.54145
threshold=2.2041666507720952 4.0178570747375497 1.5108695626258852 6.2247474193573007 0.3115904182195664 3.0185185670852666 3.5000000000000004 2.7350000143051152 0.52831989526748668 1.5000000000000002 0 0.3197352141141892 10.898990154266359 1.5000000000000002 1.235000014305115 2.0192307233810429 4.5000000000000009 4.5000000000000009 8.5000000000000018 11.500000000000002 1.0801282525062563 4.5000000000000009 5.9900000095367441 0.69456586241722118 1 1.5000000000000002 1.7749999761581423 1.235000014305115 2 0.58579984307289135 4.6035714149475107 0.85499998927116405 3 0.88140293955802929 0.40584765374660497 0.89587974548339855 4.5000000000000009 3.5000000000000004 3.5000000000000004 1.0117677450180056 1.9049999713897707 0.48999999463558203 0.46219892799854284 3.8750000000000004 3.4550000429153447 2.0126758217811589 4 1.8750000000000002 10.898990154266359 0.71999999880790722 1.2849999666213991 2.0399999618530278 24.500000000000004 5.5000000000000009 23.500000000000004 0.3758122473955155 5.5000000000000009 2.7000000476837163 0.57306143641471874 1.0535946488380434 0.99999997019767772 1.0231473445892336
decision_type=2 2 2 2 2 2 2 2 2 2 1 2 2 2 2 2 2 2 2 2 2 2 2 2 1 2 2 2 1 2 2 2 9 2 2 2 2 2 2 2 2 2 2 2 2 2 1 2 2 2 2 2 2 2 2 2 2 2 2 2 2 2
left_child=2 5 4 9 10 11 12 15 21 30 22 40 34 36 28 24 25 43 -14 26 -12 32 39 53 50 -13 -8 -15 -11 -29 -3 -27 -9 51 -5 -16 37 -7 54 47 45 -26 -43 -6 -22 -2 -23 -1 -21 -20 -4 -18 -50 -10 -36 -48 -40 -33 -19 -42 -58 -53
right_child=1 3 7 6 17 13 19 8 23 14 20 16 18 27 35 -17 33 58 49 48 44 46 -24 -25 41 31 -28 29 -30 -31 -32 57 -34 -35 38 -37 -38 -39 56 -41 59 42 -44 -45 -46 -47 55 -49 52 -51 -52 61 -54 -55 -56 -57 60 -59 -60 -61 -62 -63
leaf_value=0.0022975195076367387 0.0062175538893239381 0.022452698970349006 0.006587536960999979 0.04843184941473222 -0.0010114225714420422 0.011383802012607497 0.023945874700708681 -0.00023136720867297287 0.0012147674281082173 0.030006993315143844 -0.0049323990804189775 0.0094831091469902516 0.039706208752456312 0.014510515096002872 0.009877253916326335 0.0054196240910598823 0.011333903166768137 -0.00021760896743881915 0.033166870473837838 0.029346710039046639 -0.0025935300722404655 0.0014340932197313603 -0.0041253524614627201 0.0051192272961843709 0.011814080068966174 0.01265477240261375 0.0049401915986811776 0.007198426018190306 0.019096116193275996 0.01255374086765515 0.031187951182528276 0.0066141393055602201 -0.0018685883389400505 0.014890162967155377 0.033446617036178364 0.019079508602865912 0.022520786412516508 0.019896234525409062 0.037319468645349491 0.0026994517891069385 0.0016066180863935871 0.00032723768484187513 0.0027114978860168231 -0.002378012982223756 -0.003868433030559372 0.039269531806847002 -0.0017916116453958815 -0.0019034435660241413 0.070163926679785077 0.065207564613526184 0.0029355344201814023 0.0075905511500919233 0.033156238525908516 0.0041178793142223882 0.062589249714412751 0.0012281549385024751 0.067262352829376065 0.0042675409443538054 0.0049096004849246231 0.0094269976266537041 0.045842183374921214 0.017893317330684236
leaf_weight=682 803 367 914 194 10902 476 150 10308 7321 204 21874 1947 78 966 547 3727 1431 13312 12.999999999999998 53 9879 7098 4249 2108 118 339 80 1441 539 1015 571 4425 13338 525 372 246 351 337 139 711 2517 6774 3979 17204 31532 10.999999999999998 2828 15858 18 170 8536 2543 14.999999999999998 1486 12.999999999999998 1870 25 2998 379 163 128 87
leaf_count=682 803 367 914 194 10902 476 150 10308 7321 204 21874 1947 78 966 547 3727 1431 13312 13 53 9879 7098 4249 2108 118 339 80 1441 539 1015 571 4425 13338 525 372 246 351 337 139 711 2517 6774 3979 17204 31532 11 2828 15858 18 170 8536 2543 15 1486 13 1870 25 2998 379 163 128 87
internal_value=3.09966e-05 0.0109526 -0.00142697 0.0280542 -0.00278645 0.00795458 0.0396582 0.00101718 0.000127361 0.0212592 -0.00353518 0.00678984 0.044241 0.0124713 0.0172733 0.00273225 0.00767776 -0.00126752 0.0560603 0.0232171 -0.00403734 -0.000561642 -0.00205684 0.00236506 0.0022391 0.00667761 0.017362 0.0108546 0.0221022 0.00941409 0.0277783 0.00597312 -0.00115598 0.0097939 0.0406874 0.0127403 0.0172184 0.0149205 0.038454 -0.00154705 0.00315554 0.00132443 0.00120998 -0.00184811 -0.00356442 0.00667511 0.000629326 -0.00172991 0.0387798 0.0629781 0.00328587 0.00913348 0.0536443 0.00170522 0.0344596 -0.000587304 0.0436899 0.00566714 -7.52754e-05 0.00208446 0.0494165 0.00793393
internal_weight=223284 26297 196987 3922 126582 22375 1448 70405 46357 2474 84785 17789 1132 4586 1536 24048 14295 41797 261 316 63285 35442 21500 10915 20321 9709 230 3422 743 2456 938 7762 23646 4586 871 793 1164 813 677 17251 3494 10871 10753 28106 41411 814 11796 16540 86 183 9450 4061 33 8807 385 4698 292 7423 13691 2680 153 2630
internal_count=223284 26297 196987 3922 126582 22375 1448 70405 46357 2474 84785 17789 1132 4586 1536 24048 14295 41797 261 316 63285 35442 21500 10915 20321 9709 230 3422 743 2456 938 7762 23646 4586 871 793 1164 813 677 17251 3494 10871 10753 28106 41411 814 11796 16540 86 183 9450 4061 33 8807 385 4698 292 7423 13691 2680 153 2630
cat_boundaries=0 1 2 3 4 5
cat_threshold=1 11 1 2078 39
is_linear=0
shrinkage=0.05


Tree=6
num_leaves=63
num_cat=8
split_feature=25 3 25 25 3 15 3 4 4 15 15 4 15 25 3 19 20 3 25 19 15 20 3 7 25 4 25 5 4 19 7 25 1 19 7 4 7 13 7 15 15 15 1 7 7 2 15 4 5 15 19 7 7 7 3 25 15 4 2 5 4 4
split_gain=1283.64 515.781 237.406 128.222 48.0593 47.7789 43.7868 41.2744 32.7336 24.7899 23.6745 17.0813 14.2356 13.8899 12.8484 11.7939 11.0647 10.9307 10.4277 9.96773 9.81797 9.52322 9.28995 9.08246 8.9833 8.86565 7.60458 7.31432 7.14095 6.77196 6.13053 5.99502 5.89354 5.81476 5.79617 5.70238 4.98814 4.88706 4.75065 4.65341 4.35264 3.97032 3.95431 3.94967 3.77278 3.66511 3.63105 3.623 3.72786 3.61925 3.58874 3.58704 3.48014 3.37658 3.33639 3.28263 8.75684 3.24278 3.24118 3.22759 3.35027 3.20814
threshold=2.2041666507720952 1.5234838128089907 1.4564394354820254 4.0178570747375497 2.0560278892517094 2.8249999284744267 0.85681083798408519 0.26231032609939581 0.48908375203609472 0.85499998927116405 1.235000014305115 0.30154648423194891 3.5999999046325688 2.0192307233810429 1.2190051078796389 0 1 0.58839139342308056 2.6939799785614018 2 2.5199999809265141 3 0.81046715378761303 4.5000000000000009 6.0185184478759775 0.36497980356216436 10.898990154266359 1.4084495306015017 0.46219892799854284 4 4.5000000000000009 8.2094297409057635 1.4978661537170412 5 4.5000000000000009 0.12432577461004259 4.5000000000000009 6 4.5000000000000009 0.90500000119209301 0.48999999463558203 1.9900000095367434 2.6020033359527592 3.5000000000000004 3.5000000000000004 1.4978661537170412 4.9749999046325692 0.40848188102245336 0.94223657250404369 9.9499998092651385 7 4.5000000000000009 4.5000000000000009 4.5000000000000009 1.8475548028945925 10.898990154266359 2.7999999523162846 0.34867249429225927 1.4978661537170412 0.67330348491668712 0.85404136776924144 0.81183066964149486
decision_type=2 2 2 2 2 2 2 2 2 2 2 2 2 2 2 1 1 2 2 1 2 1 2 2 2 2 2 2 2 1 2 2 2 1 2 2 2 9 2 2 2 2 2 2 2 2 2 2 2 2 1 2 2 2 2 2 2 2 2 2 2 2
left_child=2 3 7 6 24 13 9 12 15 21 16 33 29 19 34 30 27 55 36 39 -19 45 38 37 54 -17 -6 -5 40 -1 -7 47 41 -11 -8 -14 -13 -9 -10 -4 -21 44 -28 -26 -20 -2 61 -18 59 -36 -46 -37 -16 -24 -3 -12 -57 -39 -35 60 -49 -25
right_child=1 4 5 10 26 8 14 23 22 11 17 18 35 -15 52 25 31 20 32 28 -22 -23 53 46 43 -27 42 -29 -30 -31 -32 -33 -34 58 49 51 -38 57 -40 -41 -42 -43 -44 -45 50 -47 -48 48 -50 -51 -52 -53 -54 -55 -56 56 -58 -59 -60 -61 -62 -63
leaf_value=-9.2065863967368805e-05 0.026083404254587512 0.02683828654110413 0.010414295140444972 0.029157177080184112 0.045968976791889736 -0.00079879767469042285 0.0089485723534440658 -0.001454250083743791 0.00058524070576346004 -0.0012001397204246915 0.0079477724918965518 0.0046846107744263499 -0.0050359972999204682 0.0050622864605633748 0.014447977403010554 -0.0028014900034596737 0.010909789078046699 0.0096368827381163504 0.0074845287206317355 0.009462886726923473 0.022138250237687972 0.012563416216616302 0.0034627769978406893 -0.00017010144683907161 0.033729874251766018 -0.00047873535461487543 0.053762717448751531 0.063824961383057668 0.002572203914178478 -0.0029332903292599265 0.00093056182135488558 0.033729019036072672 0.013020133284430994 0.0032711274903629243 0.012261183773501966 -0.0042156453968846637 0.0073165929123113821 -0.0033332791063056416 0.0026006384326724488 0.0028044580262218794 3.6010104563562177e-05 0.0064397243386531723 0.069748811358990886 0.04367772528419564 0.0031376767231074834 0.05762644722952065 -0.0016471687057157049 0.013097710007272889 0.015627858429117857 0.022637352060999857 0.014335829897027266 -0.0030552588853885853 0.02075514606710642 0.0077813958311814431 0.036944934538483597 0.054890616226742274 -0.0038405052209196018 -0.0020778450854570924 0.010690156596147811 0.027561549301546695 0.032585075198067824 0.028023084983377178
leaf_weight=2419 31 543 205 450 300 15371 2889 12017 8885 781 488 5601 14273 3862 725 11100 116 227 766 124 524 1028 1453 8932 256 6531 133 15.999999999999998 4553 16457 7686 79 642 2529 1175 19512 2671 10728 4365 11207 9311 2149 62 178 109 13.999999999999998 7197 101 228 92 532 10179 323 663 101 13.000000000000002 11.999999999999998 9947 157 227 29 9.9999999999999982
leaf_count=2419 31 543 205 450 300 15371 2889 12017 8885 781 488 5601 14273 3862 725 11100 116 227 766 124 524 1028 1453 8932 256 6531 133 16 4553 16457 7686 79 642 2529 1175 19512 2671 10728 4365 11207 9311 2149 62 178 109 14 7197 101 228 92 532 10179 323 663 101 13 12 9947 157 227 29 10
internal_value=2.95121e-05 0.0104055 -0.00135562 0.00863887 0.0381671 0.00063021 0.00742807 -0.00287282 -0.000224621 0.00619952 0.0193519 0.00570362 -0.00372026 0.00226788 0.0114426 -0.000967224 0.0242494 0.0145187 0.00656701 0.00184279 0.018368 0.013559 0.0017414 -0.00178216 0.0322264 -0.00194027 0.0510857 0.0303717 0.00094521 -0.00257105 -0.000222005 0.0205819 0.00859886 0.0025967 0.0101914 -0.00421356 0.00553515 -0.00226136 0.00124957 0.00293911 0.000160532 0.0077989 0.0589042 0.0378305 0.00987069 0.0361137 -0.000811146 0.0190885 0.0206996 0.0130203 0.0127128 -0.00381801 0.0163985 0.00481858 0.0284366 0.00887138 0.0265975 -0.00272821 0.00369327 0.0239194 0.017505 -0.0001377
internal_weight=223284 26297 196987 24724 1573 85316 22214 111671 56054 17010 2510 15937 62840 29262 5204 40688 1246 1264 12470 25400 751 1073 15366 48831 1078 17631 495 466 13988 18876 23057 780 4198 3467 4156 43964 8272 32692 13250 11412 9435 3556 195 434 1407 45 16139 701 585 1267 641 29691 1048 2116 644 513 25 20675 2686 357 130 8942
internal_count=223284 26297 196987 24724 1573 85316 22214 111671 56054 17010 2510 15937 62840 29262 5204 40688 1246 1264 12470 25400 751 1073 15366 48831 1078 17631 495 466 13988 18876 23057 780 4198 3467 4156 43964 8272 32692 13250 11412 9435 3556 195 434 1407 45 16139 701 585 1267 641 29691 1048 2116 644 513 25 20675 2686 357 130 8942
cat_boundaries=0 1 2 3 4 5 6 7 8
cat_threshold=39 1 11 1 3 80 3351 83
is_linear=0
shrinkage=0.05


Tree=7
num_leaves=63
num_cat=6
split_feature=25 3 25 25 3 25 3 15 15 15 3 20 15 3 23 15 22 25 25 3 23 15 20 24 25 7 20 25 25 7 7 21 23 15 15 13 22 0 25 5 13 13 1 2 15 7 7 22 25 3 5 2 5 2 2 15 5 15 7 17 7 1
split_gain=1158.65 465.531 214.705 115.74 43.3729 40.5775 39.5097 35.0472 22.3733 21.3698 19.9135 13.8543 12.6272 11.5944 11.4151 11.3659 10.7149 10.3342 10.0005 9.8621 9.48864 8.85723 8.60354 8.13752 8.10238 7.43466 7.32077 6.0184 5.44332 5.25659 5.22998 5.11214 5.10425 4.84154 4.54083 4.99983 4.40787 3.90999 3.86724 3.83377 3.72406 3.71648 3.68564 3.65221 3.64954 3.55784 3.54091 3.49734 4.84356 3.43809 3.4158 5.28163 3.91653 3.31801 3.30461 3.26469 3.21625 3.22845 3.13795 3.11032 3.10047 3.05604
threshold=2.2041666507720952 1.5234838128089907 1.5108695626258852 4.0178570747375497 2.0560278892517094 1.2565789222717287 0.85681083798408519 2.7350000143051152 0.85499998927116405 1.235000014305115 0.81046715378761303 0 3.8750000000000004 1.2190051078796389 0.36607143282890325 2.8249999284744267 8.5000000000000018 2.0192307233810429 7.5895721912384042 0.58839139342308056 0.42261904478073126 2.5199999809265141 1 20.500000000000004 6.0185184478759775 4.5000000000000009 2 3.0930736064910893 1.8480769395828249 4.5000000000000009 4.5000000000000009 1.5000000000000002 0.16071429103612903 6.4749999046325692 1.9049999713897707 3 4.5000000000000009 2.6735538244247441 1.891812860965729 0.82814118266105663 4 5 2.0126758217811589 1.2424533367156985 1.8500000238418581 3.5000000000000004 4.5000000000000009 11.500000000000002 9.409586429595949 1.0658636689186098 0.94223657250404369 1.0000000180025095e-35 0.67651557922363292 1.4978661537170412 1.4978661537170412 9.9499998092651385 1.3270480036735537 0.71999999880790722 4.5000000000000009 1.0130037665367129 4.5000000000000009 1.4978661537170412
decision_type=2 2 2 2 2 2 2 2 2 2 2 1 2 2 2 2 2 2 2 2 2 2 1 2 2 2 1 2 2 2 2 2 2 2 2 9 2 2 2 2 9 9 2 2 2 2 2 2 2 2 2 2 2 2 2 2 2 2 2 2 2 2
left_child=2 3 5 6 24 11 8 17 22 18 14 33 40 30 31 27 42 34 26 47 -14 -21 54 60 -3 -16 -5 29 -27 -10 -8 38 39 59 -4 43 61 -18 -9 -17 -7 -33 -6 -36 -25 -26 -22 -11 -49 -12 51 52 -28 -34 -2 -32 -38 -58 -15 -1 -13 -20
right_child=1 4 7 9 16 12 13 10 15 19 49 23 20 58 25 32 37 -19 36 21 46 -23 -24 44 45 28 50 -29 -30 -31 55 41 53 -35 35 -37 56 -39 -40 -41 -42 -43 -44 -45 -46 -47 -48 48 -50 -51 -52 -53 -54 -55 -56 -57 57 -59 -60 -61 -62 -63
leaf_value=-0.0018028749555460651 0.02478342738325956 0.027015641823223302 0.003189224932865472 0.026913264115085562 0.032493245813832124 -6.215729508368414e-05 0.0085011592046056132 -0.00068483395614698638 0.0050533797121545014 0.0069489524479015331 0.0038748335683419081 -0.0035018988048188767 -0.0028171011176942595 0.013725678109808055 -8.5213620721565997e-05 -0.00015469798510567994 0.050025075947116776 0.0048955426491655643 0.034018049008109952 0.0091552507676486011 -0.0017076183064549848 0.021031548767082287 0.011935306573553885 -0.0021798026061624477 0.032044039136151559 0.00093164916102511414 0.0098394628483322241 0.0093711114685094358 0.0037113349212882737 0.0077458436394537743 0.011648176713215677 -0.00057632109775919828 0.0040344506924012624 -0.0038135944314202606 0.0016336873643030302 -0.00091388676037655972 0.034774811417902805 0.062341162486504648 0.0024351212492919458 0.022477731015045604 -0.0013300164029073141 -0.0024879046567178563 0.047596978084950517 0.004628608580859961 -0.0045204530343874814 0.041495065496484601 -4.4106378367897669e-05 0.0092052346833471979 0.039983733417234602 0.010586169408389337 0.013221141568324574 0.027641458265865605 0.021990817631344275 0.0094976075856680001 0.054765559500413591 0.021506713400721293 0.041262382740098254 0.078352552726127137 0.019717710060863036 0.0024596777963465733 -0.0022949387009925026 0.015447444803285497
leaf_weight=12558 31 644 5973 353 107 12338 2889 3911 5497 456 2326 15898 21609 725 18433 905 213 3727 46 227 9823 524 1028 1793 256 6741 128 1528 2388 2724 1175 4044 4968 3263 11427 1801 86 104 1331 19 10932 6974 71 1120 25126 178 4753 37 20 209 247 169 143 296 13.999999999999998 92 18.000000000000004 9.9999999999999982 323 442 8047 46
leaf_count=12558 31 644 5973 353 107 12338 2889 3911 5497 456 2326 15898 21609 725 18433 905 213 3727 46 227 9823 524 1028 1793 256 6741 128 1528 2388 2724 1175 4044 4968 3263 11427 1801 86 104 1331 19 10932 6974 71 1120 25126 178 4753 37 20 209 247 169 143 296 14 92 18 10 323 442 8047 46
internal_value=2.81193e-05 0.00988599 -0.00128785 0.00820763 0.0362607 -0.00251894 0.00705726 0.000925481 0.00589021 0.018386 0.000121883 -0.00336151 -0.00156756 0.0108708 -0.000127257 0.00541908 0.0485341 0.00247435 0.0230392 0.0137935 -0.00215196 0.0174501 0.012882 -0.00376781 0.0306164 0.000492438 0.0210283 0.00648361 0.00165935 0.00594621 0.00968197 -0.00117799 0.00374107 -0.00209046 0.00203002 0.00154708 0.0331523 0.0540998 0.000106434 0.000307659 -0.0006586 -0.00178953 0.0385692 0.00189995 -0.00436474 0.0359405 -0.00116552 0.00842839 0.0201434 0.00443052 0.0179936 0.0206578 0.0162756 0.00434277 0.0343228 0.0123696 0.03981 0.0549185 0.0155789 -0.00165755 -0.00309651 0.0248139
internal_weight=223284 26297 196987 24724 1573 126582 22214 70405 17010 2510 46357 67127 59455 5204 43822 15937 495 24048 1246 1264 36185 751 1073 50864 1078 27562 1040 9749 9129 8221 4156 16260 6188 16263 20321 14348 206 317 5242 924 23270 11018 178 12547 26919 434 14576 513 57 2535 687 440 271 5264 45 1267 114 28 1048 13000 23945 92
internal_count=223284 26297 196987 24724 1573 126582 22214 70405 17010 2510 46357 67127 59455 5204 43822 15937 495 24048 1246 1264 36185 751 1073 50864 1078 27562 1040 9749 9129 8221 4156 16260 6188 16263 20321 14348 206 317 5242 924 23270 11018 178 12547 26919 434 14576 513 57 2535 687 440 271 5264 45 1267 114 28 1048 13000 23945 92
cat_boundaries=0 1 2 3 4 5 6
cat_threshold=1 1 1 20487 11541 8198
is_linear=0
shrinkage=0.05


Tree=8
num_leaves=63
num_cat=6
split_feature=25 25 25 25 4 25 4 15 21 22 4 4 25 4 15 21 19 7 7 4 7 19 7 15 19 4 15 4 15 15 15 22 4 15 25 19 15 4 25 2 4 15 9 21 4 25 2 8 2 15 9 5 19 1 1 15 15 2 17 15 19 22
split_gain=1045.78 397.181 194.283 92.0173 39.8243 36.5819 34.7162 31.5718 26.6815 21.1043 19.2008 17.7169 13.253 11.1 10.7834 10.6496 9.33884 9.21098 9.18938 8.53827 7.9865 7.80667 7.15091 5.86538 5.52019 5.25071 5.09409 4.97918 5.27594 4.91762 4.78666 4.76711 4.68548 4.57899 4.48904 4.35018 4.26035 4.25852 4.24724 4.20875 4.14244 3.93882 3.91535 3.86586 3.63856 3.63042 3.6231 3.65435 3.59714 3.58921 3.50807 4.39647 3.4915 3.46998 3.43878 3.4336 3.40561 3.32973 3.27823 3.26092 3.25761 3.1994
threshold=2.2041666507720952 4.0178570747375497 1.4564394354820254 6.2247474193573007 0.52831989526748668 3.0185185670852666 0.24782942235469821 2.8249999284744267 1.5000000000000002 8.5000000000000018 0.3589713722467423 0.3197352141141892 10.898990154266359 0.3238517045974732 3.5999999046325688 1.5000000000000002 0 4.5000000000000009 4.5000000000000009 1.5140435099601748 4.5000000000000009 1 4.5000000000000009 9.9499998092651385 2 0.28470559418201452 0.48999999463558203 0.78589871525764476 2.0399999618530278 2.6750000715255742 0.90500000119209301 1.5000000000000002 0.84186539053916942 3.7500000000000004 1.9393382072448733 3 1.9049999713897707 0.69456586241722118 2.0645833015441899 2.0126758217811589 0.12432577461004259 0.64000001549720775 24.500000000000004 1.5000000000000002 0.41151143610477453 1.7290210127830508 1.8688347935676577 10.500000000000002 2.2499048709869389 0.71999999880790722 45.500000000000007 0.53612464666366588 4 1.4978661537170412 0.89587974548339855 2.8750000000000004 2.0399999618530278 1.0000000180025095e-35 1.0481190681457522 2.5199999809265141 5 5.5000000000000009
decision_type=2 2 2 2 2 2 2 2 2 2 2 2 2 2 2 2 1 2 2 2 2 1 2 2 1 2 2 2 2 2 2 2 2 2 2 1 2 2 2 2 2 2 2 2 2 2 2 2 2 2 2 2 1 2 2 2 2 2 2 2 1 2
left_child=2 5 6 10 7 11 14 16 9 42 35 36 50 21 24 23 30 37 27 46 33 -9 60 53 -1 -17 -18 28 48 -10 -4 -25 56 52 -19 -3 39 55 -28 -2 -16 -27 54 -29 -22 -24 -12 -48 -13 -14 51 -11 -8 61 -5 -6 -20 -52 -38 -49 -15 -7
right_child=1 3 4 8 17 15 20 13 29 12 19 18 49 22 40 25 26 34 32 -21 44 -23 45 31 -26 41 38 43 -30 -31 -32 -33 -34 -35 -36 -37 58 -39 -40 -41 -42 -43 -44 -45 -46 -47 47 59 -50 -51 57 -53 -54 -55 -56 -57 -58 -59 -60 -61 -62 -63
leaf_value=-6.0961839399980819e-05 0.0053373724213833691 0.012115381569543287 0.0097942811200174233 0.027854421070277233 0.0026172778821982315 0.010234425432308568 0.00035923129663994221 -0.00063774218152791115 0.023469209097519581 0.04351451279175951 0.017754876439953941 0.0067800772933554361 0.030186885880663039 7.8661647170544474e-05 -0.0045780383500250493 0.0024516981421855454 0.0094671675045366679 0.0032976170367635033 0.0097580102058262945 0.027417234352144739 -0.0011852822414483836 -0.0026949568399980296 0.000338223847577646 0.0039804776335121512 -0.0027415967511660918 0.016672870259448688 0.00021526241044527952 0.0091548742905944707 0.0041810084520786652 0.0058192977166721081 0.0024922240368418351 0.022656888350551088 0.012365731732125303 -0.0025229860657869259 0.0062203809512249107 0.00094841543356802131 0.0011738609368616491 0.0037982652580628206 0.0037423126390657871 0.036427339562424672 -0.0035180044136190916 0.0083189112430796363 0.026025811294466919 0.0037800459919355347 0.00055795817865096306 0.0024880794701826353 0.021863616128177155 0.022645127909223302 0.029880741648158134 0.05763976582278927 0.038535563070126219 0.030044909468363714 -0.0017462147813302438 0.016000432043819898 0.037734430054445212 0.00068420688305261955 0.006668810601395363 0.061673869360298207 0.0083341112246052129 0.054611287706464687 -0.0012891532650338813 0.015779750170782324
leaf_weight=2213 803 220 230 141 3684 1660 2441 9041 247 114 1520 2658 13.999999999999998 7904 14273 359 160 3966 1396 336 13946 9465 5726 41 15224 159 11100 1517 5083 48 10035 229 650 23329 1976 158 2509 2311 925 10.999999999999998 26302 1369 227 434 3807 2994 206 15.999999999999998 17 176 37 142 10136 455 271 6129 2540 31 171 18 9670 314
leaf_count=2213 803 220 230 141 3684 1660 2441 9041 247 114 1520 2658 14 7904 14273 359 160 3966 1396 336 13946 9465 5726 41 15224 159 11100 1517 5083 48 10035 229 650 23329 1976 158 2509 2311 925 11 26302 1369 227 434 3807 2994 206 16 17 176 37 142 10136 455 271 6129 2540 31 171 18 9670 314
internal_value=2.67531e-05 0.00939219 -0.00122348 0.0240696 0.000572961 0.00681915 -0.00259599 1.29804e-05 0.0340845 0.0375238 0.0182048 0.00579197 0.0450946 -0.000753851 -0.00344394 0.0108022 0.00154345 0.00265718 0.00657232 0.0200769 -0.00167915 -0.001692 -9.33797e-05 0.0128201 -0.00240328 0.00791292 0.000604927 0.00569933 0.00512955 0.0206172 0.00265383 0.0198419 0.00841926 -0.00210816 0.00427051 0.00780793 0.00259783 0.00186604 0.000487019 0.00576807 -0.00389102 0.00919251 0.03142 0.00796206 -0.000811175 0.00107697 0.0186713 0.0244446 0.00692987 0.0556602 0.038868 0.0360773 -0.00133829 0.0120367 0.0343729 0.00141045 0.00776596 0.0492324 0.00163289 0.0398255 -0.000674379 0.0111198
internal_weight=223284 26297 196987 3922 85316 22375 111671 67250 1448 1153 2474 17789 514 44800 58012 4586 22450 18066 14295 2096 53659 18506 26294 2699 17437 1887 12185 9709 7758 295 10265 270 4586 35906 5942 378 3494 12124 12025 814 40575 1528 639 1951 17753 8720 1760 240 2675 190 324 256 12577 2429 412 9813 3936 68 2680 34 17574 1974
internal_count=223284 26297 196987 3922 85316 22375 111671 67250 1448 1153 2474 17789 514 44800 58012 4586 22450 18066 14295 2096 53659 18506 26294 2699 17437 1887 12185 9709 7758 295 10265 270 4586 35906 5942 378 3494 12124 12025 814 40575 1528 639 1951 17753 8720 1760 240 2675 190 324 256 12577 2429 412 9813 3936 68 2680 34 17574 1974
cat_boundaries=0 1 2 3 4 5 6
cat_threshold=11 39 3 44 3 23
is_linear=0
shrinkage=0.05


Tree=9
num_leaves=63
num_cat=11
split_feature=25 3 25 25 4 3 3 15 15 20 4 15 3 25 22 4 4 7 25 20 3 15 15 15 19 19 5 20 4 19 4 25 17 19 17 7 26 25 25 7 19 15 7 22 15 19 18 19 0 0 25 4 7 3 7 8 9 17 15 5 4 7
split_gain=943.963 384.553 175.951 93.3252 47.8723 35.4276 26.7259 24.6264 22.998 19.5632 15.7362 14.4712 13.3692 12.1809 12.1533 11.0835 9.95903 8.92865 8.62434 7.92879 7.31964 7.16847 6.88526 6.28325 6.49538 6.08602 5.8603 5.64142 5.52391 4.93011 4.77025 4.74183 4.59103 4.559 5.94789 4.50746 4.38625 5.19596 4.34382 4.26198 4.19949 4.16353 4.06471 3.86685 3.7619 3.85429 3.7372 3.71818 3.65094 3.81079 3.53756 4.19242 3.51139 3.4194 3.36462 3.33549 3.31849 3.31002 3.1821 3.22979 3.12844 3.09227
threshold=2.2041666507720952 1.5234838128089907 1.5751879811286928 3.5092592239379887 0.31579695641994482 1.9169304966926577 0.85681083798408519 3.4550000429153447 1.235000014305115 0 0.48908375203609472 1.9049999713897707 1.1871660947799685 7.5895721912384042 8.5000000000000018 0.3197352141141892 0.53646472096443187 4.5000000000000009 1.0954545736312868 1 1.1538739204406741 5.9900000095367441 1.9049999713897707 0.85499998927116405 2 3 0.63396525382995617 4 0.66472846269607555 5 0.73798841238021862 6.0185184478759775 1.0117677450180056 6 0.99999997019767772 4.5000000000000009 8.5000000000000018 4.9309523105621347 9.9412240982055682 4.5000000000000009 7 1.8750000000000002 4.5000000000000009 4.5000000000000009 1.9650000333786013 8 9 10 1.4978661537170412 2.0126758217811589 2.9459064006805424 0.54280081391334545 4.5000000000000009 0.77309229969978344 4.5000000000000009 7.5000000000000009 23.500000000000004 1.059288561344147 2.4850000143051152 0.88265162706375133 0.36497980356216436 5.5000000000000009
decision_type=2 2 2 2 2 2 2 2 2 1 2 2 2 2 2 2 2 2 2 1 2 2 2 2 1 1 2 1 2 1 2 2 2 1 2 2 2 2 2 2 1 2 2 2 2 1 1 1 2 2 2 2 2 2 2 2 2 2 2 2 2 2
left_child=2 3 4 6 9 31 11 16 13 21 29 23 26 19 -7 47 22 44 -11 36 54 32 33 27 -25 -24 40 -2 61 57 -28 -3 41 34 -4 -17 37 -5 -16 -18 -10 -1 -20 -15 -6 -46 -35 -13 -21 -50 -26 -52 58 -27 -8 -32 -39 -9 -14 -60 -31 -12
right_child=1 5 7 8 17 14 20 10 12 18 28 15 52 43 38 35 39 -19 42 48 -22 -23 25 24 50 53 30 -29 -30 60 55 -33 -34 46 -36 -37 -38 56 -40 -41 -42 -43 -44 -45 45 -47 -48 -49 49 -51 51 -53 -54 -55 -56 -57 -58 -59 59 -61 -62 -63
leaf_value=0.0022489595420475935 0.034738285989459765 0.023546801703946782 0.010654256938571107 0.015848030025183348 0.00093111776348445618 0.033787421066096543 0.0071140955252656504 -0.00015872235590119768 0.007395279436621903 -0.004051992807637279 0.00057493090323091712 0.0025890625134556635 0.0043491174373123309 0.022256777710589731 0.04221073001820589 0.0041958014406610344 0.0027955016069197316 0.00013865194540805005 -0.0032072125470576657 0.013409295815456633 0.012700602101588155 -0.003384409830974937 0.0022531773136650443 0.0010153726563293158 0.0064796810503046313 0.00019698197456526341 0.0087755183887862874 0.010572685153562187 0.0037959603876768348 -0.0023794705056961931 0.011872695770548747 0.031546323737033491 0.0026604433374952689 0.0057286009352766993 0.00013768807555597363 0.0066571509365604079 0.048669608372338809 0.036086270662676938 0.053117040170746838 0.0053110617029968801 -0.0019092413045550161 -0.0014850061697724384 -0.0021817003777590475 0.036305137891420328 -0.00033498230932509158 -0.0017623127606534999 0.0024100213166385592 -0.0013122479802456552 0.027039513893573276 0.012895030277811206 0.0075437933312014665 0.015607669065227911 0.024378996905882674 0.0050050855818693455 0.010537169586787985 0.021139114003277011 0.022774651888481733 0.007833033059045251 0.01455832273625382 0.026638574323237258 -0.00043136065892397375 0.003219557222735397
leaf_weight=779 25 590 147 202 1718 310 2346 10991 508 23266 6617 1957 57 92 215 5773 5083 15140 28301 899 1221 4513 6894 486 2554 10766 763 833 2313 5508 258 281 752 1873 1576 2763 15.999999999999998 71 177 2531 158 17349 14736 114 5958 23465 1564 879 113 86 445 257 156 383 1050 161 155 131 253 73 3304 1329
leaf_count=779 25 590 147 202 1718 310 2346 10991 508 23266 6617 1957 57 92 215 5773 5083 15140 28301 899 1221 4513 6894 486 2554 10766 763 833 2313 5508 258 281 752 1873 1576 2763 16 71 177 2531 158 17349 14736 114 5958 23465 1564 879 113 86 445 257 156 383 1050 161 155 131 253 73 3304 1329
internal_value=2.549e-05 0.00892333 -0.00116232 0.00739788 -0.00216328 0.0328947 0.00602074 0.00106852 0.0142534 -0.0028372 5.34785e-05 0.00505146 0.0110565 0.0186154 0.0412677 0.00409321 0.00206285 -0.000857061 -0.00327589 0.0170801 0.00937259 -0.00159362 0.00154757 0.00741918 0.00653081 0.00108653 0.00902927 0.0112866 0.00164478 -0.000765234 0.0111466 0.0261367 -0.00116527 0.00315866 0.0010324 0.00499316 0.0227416 0.0217495 0.0471603 0.00363242 0.0052628 -0.00132426 -0.0028562 0.0300692 -0.00134131 -0.00147417 0.00420781 0.00138261 0.0147844 0.0209615 0.00732685 0.0105049 0.0179946 0.000362321 0.00817422 0.0154494 0.0269928 -6.40151e-05 0.0153754 0.0172861 -0.00164775 0.00101792
internal_weight=223284 26297 196987 24724 135977 1573 20589 61010 4135 89696 30193 15972 2387 1748 702 11372 30817 46281 66303 1542 4617 23393 23203 4600 3742 18043 1848 858 10259 19934 1182 871 18880 5160 1723 8536 444 428 392 7614 666 18128 43037 206 31141 29423 3437 2836 1098 199 3256 702 539 11149 3396 419 226 11122 383 326 8812 7946
internal_count=223284 26297 196987 24724 135977 1573 20589 61010 4135 89696 30193 15972 2387 1748 702 11372 30817 46281 66303 1542 4617 23393 23203 4600 3742 18043 1848 858 10259 19934 1182 871 18880 5160 1723 8536 444 428 392 7614 666 18128 43037 206 31141 29423 3437 2836 1098 199 3256 702 539 11149 3396 419 226 11122 383 326 8812 7946
cat_boundaries=0 1 2 3 4 5 6 7 8 9 10 11
cat_threshold=1 1 80 3 1 39 80 15 3 1 39
is_linear=0
shrinkage=0.05


Tree=10
num_leaves=63
num_cat=7
split_feature=25 25 3 25 4 3 3 13 19 3 25 25 4 4 7 24 4 7 25 4 7 25 22 7 19 7 19 19 22 23 25 9 4 3 19 0 4 4 17 11 2 11 7 21 22 25 23 2 22 5 7 4 22 9 17 25 17 19 2 4 2 2
split_gain=821.113 334.119 189.698 64.9686 58.4954 44.0544 22.4224 15.0984 14.0188 13.6367 13.0982 12.8837 11.8239 9.45836 9.26537 8.80895 8.72925 7.22416 7.18749 7.0906 6.28994 6.0549 5.87488 5.65963 5.57111 5.28383 5.27267 5.20695 5.08731 4.99398 4.94418 4.55494 4.2168 4.20759 4.19633 4.15851 4.15151 3.99092 3.97824 3.89287 4.7721 4.08507 3.88871 3.69721 3.66036 3.63878 3.59957 3.42759 3.42219 3.39266 3.35711 3.30817 7.0506 3.26505 3.24465 3.1734 3.1017 3.09446 2.99681 2.99094 2.94545 2.93828
threshold=3.0930736064910893 1.6742423772811892 1.7825004458427431 2.0851448774337773 0.26231032609939581 1.1388223767280581 0.86490574479103099 0 1 2.0761638879776005 6.0185184478759775 5.6961536407470712 0.3304573148488999 0.30946086347103124 4.5000000000000009 22.500000000000004 0.37952010333538061 4.5000000000000009 1.0954545736312868 0.66472846269607555 4.5000000000000009 10.898990154266359 11.500000000000002 4.5000000000000009 2 4.5000000000000009 3 4 3.5000000000000004 0.76785713434219371 4.3550419807434091 41.500000000000007 0.46853503584861761 1.2221247553825381 5 1.2424533367156985 0.66472846269607555 0.69934228062629711 1.0083957910537722 16.500000000000004 1.8688347935676577 6.5000000000000009 3.5000000000000004 1.5000000000000002 5.5000000000000009 2.6733334064483647 0.44642856717109686 2.8029010295867924 4.5000000000000009 0.99753385782241832 4.5000000000000009 0.17786153405904773 18.500000000000004 24.500000000000004 0.99999997019767772 1.3141447305679324 0.99999997019767772 6 1.2424533367156985 0.77787399291992199 0.89587974548339855 1.8688347935676577
decision_type=2 2 2 2 2 2 2 9 1 2 2 2 2 2 2 2 2 2 2 2 2 2 2 2 1 2 1 1 2 2 2 2 2 2 1 2 2 2 2 2 2 2 2 2 2 2 2 2 2 2 2 2 2 2 2 2 2 1 2 2 2 2
left_child=1 4 5 12 7 11 13 38 20 44 25 19 27 34 37 31 42 45 -9 26 32 35 24 33 59 28 30 -3 -7 -26 -2 43 -6 -8 56 -11 -16 57 55 40 41 -24 -10 49 -4 -15 -27 -30 -37 -12 -20 -41 -53 -28 -46 -1 60 -14 -29 -13 -5 -55
right_child=2 3 9 6 8 10 23 18 16 21 15 22 14 17 36 -17 -18 -19 50 -21 -22 -23 39 -25 29 46 53 58 47 -31 -32 -33 -34 -35 -36 48 -38 -39 -40 51 -42 -43 -44 -45 54 -47 -48 -49 -50 -51 -52 52 -54 61 -56 -57 -58 -59 -60 -61 -62 -63
leaf_value=-0.0023037695837861819 0.0087487167913372407 -0.0019097425718585506 0.024538251428410068 0.004366753329481699 -0.0009630646284235064 0.011675621280322658 0.0058589579530802004 -0.003990474210409857 -0.0026905238837816084 0.070252683906271915 0.027446017317571594 0.020076370223789594 0.0015825489446344449 0.0031902457438787281 0.0026960537229050378 0.074261679330674735 -0.00069753390013842188 0.0059736403749114705 -0.003178767479961118 0.012358484751555357 0.00082507922716401746 0.049687440907660217 0.014073632896890467 0.010437871893853637 0.008856940936881854 0.03335559038766292 0.0022493765940087861 0.00026714505115744237 0.017981740381921324 0.026966136450036648 0.015269521094174504 0.014586831559322985 0.0006777878887350993 0.011452377754886948 0.0026264037971433741 0.02224033729768185 0.0061633564850750548 0.0037005425018172113 0.0015279914718073139 -0.0037400382023503767 0.068965418622045235 0.043845508175534537 -0.0014457683255757932 0.016726437598510613 0.05225014950446321 0.0056051459302224431 0.020163999450126271 0.044163309562354147 0.039125283167026487 0.040188026922462441 -0.0021430297293899832 0.045475317458802234 -0.0048599762422544468 0.0068957642126515548 0.032513800780848187 -0.0008871597585728019 -0.0018591938166498036 0.0002393614866874094 0.004535423018356295 0.036337965361015523 0.032027599181946337 0.02159233998269916
leaf_weight=10453 1491 3139 159 79 18402 490 2693 21158 13291 9.9999999999999982 161 72 8600 8368 8277 9.9999999999999982 19740 4928 22650 1633 11247 204 22 1370 300 62 461 6785 603 44 365 67 4970 387 3099 37 967 1389 967 12.999999999999998 9.9999999999999982 26 11935 51 24 1927 374 12.999999999999998 221 83 12015 18.000000000000004 10.999999999999998 725 253 6381 965 8589 438 50 10.999999999999998 36
leaf_count=10453 1491 3139 159 79 18402 490 2693 21158 13291 10 161 72 8600 8368 8277 10 19740 4928 22650 1633 11247 204 22 1370 300 62 461 6785 603 44 365 67 4970 387 3099 37 967 1389 967 13 10 26 11935 51 24 1927 374 13 221 83 12015 18 11 725 253 6381 965 8589 438 50 11 36
internal_value=-1.22484e-06 -0.000589394 0.0156278 0.00250718 -0.00184276 0.0129072 0.00455603 -0.00285856 -0.00090298 0.0371644 0.0194086 0.0105478 0.00122856 0.00382044 0.00176553 0.0278547 -0.00148512 0.0043977 -0.0032631 0.00968872 -0.000146235 0.0430872 0.0176865 0.00775778 0.0152976 0.0173661 0.00827033 -0.000212736 0.0155099 0.0108788 0.00998077 0.0265387 -0.000613926 0.00656374 0.0017037 0.0380279 0.00305937 0.00112146 -0.00158692 0.0287423 0.0372108 0.0303616 -0.00210181 0.0292304 0.0307326 0.0036428 0.0220586 0.0185495 0.0367327 0.0318156 -0.00281993 0.0168685 0.0262597 0.00554078 0.0342601 -0.0017671 -0.00101717 0.000912741 0.000525995 0.024777 0.00783481 0.00760032
internal_weight=223319 215220 8099 62011 153209 7191 23827 73624 79585 908 1914 5277 38184 19377 27822 372 44966 15223 55823 4711 34619 472 566 4450 466 1542 3078 10362 1106 344 1856 362 23372 3080 4154 268 9244 18578 17801 100 58 48 25226 295 436 10295 436 616 258 244 34665 42 29 1222 277 16834 1055 17189 7223 122 90 761
internal_count=223319 215220 8099 62011 153209 7191 23827 73624 79585 908 1914 5277 38184 19377 27822 372 44966 15223 55823 4711 34619 472 566 4450 466 1542 3078 10362 1106 344 1856 362 23372 3080 4154 268 9244 18578 17801 100 58 48 25226 295 436 10295 436 616 258 244 34665 42 29 1222 277 16834 1055 17189 7223 122 90 761
cat_boundaries=0 1 2 3 4 5 6 7
cat_threshold=30 23 8 44 80 80 27
is_linear=0
shrinkage=0.05


Tree=11
num_leaves=63
num_cat=7
split_feature=25 25 3 25 4 3 15 3 15 15 25 25 3 15 4 13 24 15 25 7 19 19 3 7 3 15 18 17 7 19 22 3 17 3 15 25 9 19 15 22 15 19 2 7 4 4 21 25 3 15 7 2 2 3 21 4 25 2 24 7 15 25
split_gain=741.191 301.556 171.231 58.6378 52.8322 39.7673 21.176 20.2355 15.9678 12.9194 12.4197 11.8269 10.9023 10.0793 9.37712 8.10037 7.95664 7.9175 7.74436 7.36456 7.05505 6.68021 6.24828 5.29778 5.22193 5.04427 5.03873 4.8536 4.78926 4.74164 4.71014 4.57362 5.34855 4.33065 4.26268 4.25967 4.12991 4.09173 8.09372 4.02988 3.74819 4.98289 4.79128 3.74809 3.70054 3.6572 3.55232 3.49669 3.36251 3.34321 3.32275 3.16247 3.12381 3.11174 3.0216 2.98968 2.90777 2.81471 2.9735 2.74611 2.7043 4.12732
threshold=3.0930736064910893 1.6742423772811892 1.7825004458427431 2.0851448774337773 0.24782942235469821 1.1388223767280581 1.235000014305115 0.86490574479103099 3.8549998998641972 3.7999999523162846 7.5895721912384042 6.0185184478759775 0.43144677579402929 1.8750000000000002 0.37952010333538061 0 22.500000000000004 4.9249999523162851 5.6961536407470712 4.5000000000000009 1 2 0.67018654942512523 4.5000000000000009 1.0974304080009463 2.7350000143051152 3 1.023587226867676 3.5000000000000004 4 5.5000000000000009 2.2539523839950566 0.99999997019767772 1.4338732957839968 0.48999999463558203 1.1026315689086916 20.500000000000004 5 1.7749999761581423 17.500000000000004 0.85499998927116405 6 2.2499048709869389 4.5000000000000009 0.78589871525764476 0.44337664544582372 1.5000000000000002 4.3550419807434091 0.83186119794845592 9.9749999046325701 2.5000000000000004 1.2424533367156985 0.89587974548339855 0.86490574479103099 1.5000000000000002 0.3589713722467423 6.5092592239379892 1.8688347935676577 8.5000000000000018 4.5000000000000009 0.24000000208616259 8.2094297409057635
decision_type=2 2 2 2 2 2 2 2 2 2 2 2 2 2 2 9 2 2 2 2 1 1 2 2 2 2 1 2 2 1 2 2 2 2 2 2 2 1 2 2 2 1 2 2 2 2 2 2 2 2 2 2 2 2 2 2 2 2 2 2 2 2
left_child=1 4 5 12 9 6 18 13 20 21 30 27 17 40 43 23 36 37 29 25 -6 -1 50 44 59 -14 31 33 34 -2 -4 32 -12 57 -22 -11 54 -3 -39 -28 42 -42 46 -10 -15 -17 -5 -31 -21 -32 -8 -30 -23 -27 -13 -19 -24 -7 -59 -9 -20 -62
right_child=2 3 10 7 8 11 22 24 14 35 26 16 19 15 -16 45 -18 55 60 48 28 52 56 -25 -26 53 39 -29 51 47 49 -33 -34 -35 -36 -37 -38 38 -40 -41 41 -43 -44 -45 -46 -47 -48 -49 -50 -51 -52 -53 -54 -55 -56 -57 -58 58 -60 -61 61 -63
leaf_value=0.000235665439701601 0.014544400977308074 -0.00084135963675249488 0.021266791914087924 0.012341449395830787 0.0011451999029808222 0.012084044412811204 0.0034612937522312311 0.0052705891580305904 -0.0024353046019509241 -0.0038901982584764448 0.052468248896265973 0.035933516528235669 0.0025614484035122805 0.0026439761017854756 -0.0006802122993056995 0 0.07058535852644704 -0.002326602941953527 0.014654723528879641 0.0029444839394235996 0.027342984728685779 -0.002370778191771057 0.010033772993344438 0.0054735257495996887 0.010028415375537236 0.00021837670912382658 0.040826603056283751 0.025300602487945707 2.9218044522541229e-05 0.0099899951625291167 0.029018047568122703 0.011565659212994862 0.025739509075151684 0.018978821300109742 -0.0011771952181640426 -0.0028934002614169254 0.021209267766212139 0.0050281539476772323 0.0008613154506109486 0.054742866366821297 0.0007601719166752623 0.0057862901347607541 0.039018234371683981 -0.0012604932193392663 0.0068937880078848842 0.0027615094120714135 0.0052518739237102227 -0.0014402916594964297 0.0064820991453388398 0.041918346599025935 0.007570406730606655 0.0037047728043749237 4.8975731447234552e-05 0.0034355946863342708 0.014211854979914812 7.3938312588636896e-05 0.028890966701705309 0.01278520025070385 0.029211472951748554 0.008494463796886181 0.019664026761713603 0.03451853183513369
leaf_weight=3360 1133 2550 143 319 8584 717 827 2179 20482 18007 32 107 4984 6115 21357 2553 9.9999999999999982 3124 108 5751 12.999999999999998 17417 1303 3225 1310 7409 335 144 11390 346 184 25 49 567 13667 26686 235 1335 9219 66 599 3332 12.999999999999998 10189 561 2255 405 82 764 74 1237 617 1440 837 20 2211 21 60 54 961 149 71
leaf_count=3360 1133 2550 143 319 8584 717 827 2179 20482 18007 32 107 4984 6115 21357 2553 10 3124 108 5751 13 17417 1303 3225 1310 7409 335 144 11390 346 184 25 49 567 13667 26686 235 1335 9219 66 599 3332 13 10189 561 2255 405 82 764 74 1237 617 1440 837 20 2211 21 60 54 961 149 71
internal_value=-1.09308e-06 -0.000559906 0.0148478 0.00238191 -0.00175063 0.012263 0.0100213 0.00432837 -0.000932982 -0.00280514 0.0353094 0.0184401 0.00116716 0.00362955 -0.00148498 0.00298638 0.0264669 0.000292564 0.0142662 0.00198365 -9.48227e-05 -0.0018192 0.00765261 0.00380371 0.00737004 0.00130539 0.04054 0.0164989 -0.000509654 0.0127891 0.0286753 0.0306158 0.0364123 0.0155869 -0.00114953 -0.00329513 0.0252152 0.000953875 0.00138759 0.0431426 0.00565502 0.00503838 0.00893614 -0.0020452 0.00300194 0.00129159 0.00838377 0.0076108 0.00336019 0.0327523 0.00592664 0.000218538 -0.00218457 0.00054558 0.032566 -0.00133082 0.0103388 0.0132646 0.0206287 0.00625909 0.0212751 0.0244942
internal_weight=223319 215220 8099 62011 153209 7191 5277 23827 86299 66910 908 1914 38184 19377 52028 14709 372 18439 1889 19745 34271 22217 3388 9901 4450 13230 507 1542 25687 1561 401 106 81 1398 13680 44693 362 13104 10554 401 4668 3931 737 30671 6676 4808 724 428 6515 258 2064 12007 18857 8246 127 5335 1324 831 114 3140 328 220
internal_count=223319 215220 8099 62011 153209 7191 5277 23827 86299 66910 908 1914 38184 19377 52028 14709 372 18439 1889 19745 34271 22217 3388 9901 4450 13230 507 1542 25687 1561 401 106 81 1398 13680 44693 362 13104 10554 401 4668 3931 737 30671 6676 4808 724 428 6515 258 2064 12007 18857 8246 127 5335 1324 831 114 3140 328 220
cat_boundaries=0 1 2 3 4 5 6 7
cat_threshold=26887 3 3 1 13 80 80
is_linear=0
shrinkage=0.05


Tree=12
num_leaves=63
num_cat=7
split_feature=25 25 25 25 4 6 6 4 15 15 15 22 4 4 7 22 4 15 25 15 19 1 7 7 7 4 7 22 4 15 25 15 7 5 0 25 4 9 15 17 8 15 19 1 19 19 15 17 15 9 1 25 19 7 8 5 5 19 19 15 15 8
split_gain=669.108 272.17 135.105 52.9287 47.8546 27.5419 25.4216 15.7825 13.5839 12.4197 11.8244 11.4053 11.1534 10.0782 8.6715 8.60913 7.49818 7.48328 7.06988 7.02516 7.0174 6.59151 6.09892 5.22522 5.20818 5.09027 4.98666 6.14802 4.69695 5.54753 4.51244 4.40338 4.36079 4.35829 4.30041 4.11246 4.01326 3.95006 3.885 3.85249 3.66294 3.65847 3.63859 3.57556 3.54365 3.52182 3.46192 3.41127 3.32493 3.24541 3.19887 3.19354 3.17789 3.14951 3.51243 3.34108 3.13438 3.10903 3.07887 3.21619 3.04027 3.02668
threshold=3.0930736064910893 1.6742423772811892 6.2247474193573007 2.0851448774337773 0.26231032609939581 1.5000000000000002 3.5000000000000004 0.54280081391334545 3.5999999046325688 3.8549998998641972 1.235000014305115 4.5000000000000009 2.071452379226685 0.45405413210392004 4.5000000000000009 11.500000000000002 0.42278739809989935 3.2549999952316289 8.7752523422241229 2.4850000143051152 0 1.4978661537170412 4.5000000000000009 4.5000000000000009 4.5000000000000009 1.2304403185844424 3.5000000000000004 26.500000000000004 0.78589871525764476 1.4900000095367434 1.0954545736312868 0.48999999463558203 4.5000000000000009 0.72079333662986766 1.8688347935676577 4.3550419807434091 0.91485717892646801 24.500000000000004 0.99500000476837169 1.0167906880378725 6.5000000000000009 0.85499998927116405 1 2.0126758217811589 2 3 3.2999999523162846 1.0062371492385866 1.9650000333786013 30.500000000000004 2.3502402305603032 3.8908729553222661 4 5.5000000000000009 2.5000000000000004 0.99753385782241832 1.036263167858124 5 6 1.2849999666213991 2.7350000143051152 5.5000000000000009
decision_type=2 2 2 2 2 2 2 2 2 2 2 2 2 2 2 2 2 2 2 2 1 2 2 2 2 2 2 2 2 2 2 2 2 2 2 2 2 2 2 2 2 2 1 2 1 1 2 2 2 2 2 2 1 2 2 2 2 1 1 2 2 2
left_child=1 4 5 13 8 11 12 19 20 22 25 24 26 17 28 38 32 58 -17 41 -1 33 31 60 35 52 27 37 29 -9 -10 -6 -11 45 -14 -2 -16 -4 53 57 -29 -5 -43 -37 -33 -12 -35 -19 -46 61 -36 -48 -7 54 -8 -56 -28 -21 59 -3 -15 -20
right_child=2 3 6 7 9 10 15 14 30 16 21 -13 34 23 36 18 -18 47 49 39 -22 -23 -24 -25 -26 -27 56 40 -30 -31 -32 44 -34 46 50 43 -38 -39 -40 -41 -42 42 -44 -45 48 -47 51 -49 -50 -51 -52 -53 -54 -55 55 -57 -58 -59 -60 -61 -62 -63
leaf_value=0.00045824483505937463 0.0090447856628574092 0.0062043934012242048 0.027584774304211912 0.0081349461293274295 0.030943655591827258 0.013621775222121905 0.039784671527308392 0.0076642643699754353 -0.0036704243625086891 -0.0021221623195242945 -0.0034872598141170216 0.02117392650084049 0.025413286532835019 0.002431476259958174 0.006899785500709541 0.011598200030454598 -0.00033678321224903134 -0.00076036220691370676 0.03683211717130911 0.0029202323659922721 -0.0019534268714546765 0.012266884633502461 0.00093957344355300094 0.0032333515187449365 0.01852782143831113 0.03762214888832463 0.030573113006514344 0.030634116857975447 0.0063467906525692371 0.0029781857507005191 -0.0026849608034892254 0.00055000760408012775 -0.00091727497306381099 0.0064059437356609019 0.036248571315527132 0.014024013570928967 0.011888855614241191 0.017591182594624385 0.0036995457868505403 0.0067111274083859656 0.073984985422379898 0.00064706983235985596 0.004433348031191978 0.030650140219332312 0.00061222922404345094 0.0048795259416940847 0.0082566176006882274 0.0043086225760292285 -0.0012625521018082035 0.0218453035782478 0.048131239362168565 0.017265438859505364 0.0078733584989567462 0.034988734392977471 0.016470797592850247 -0.0037735542461919628 0.042176069346563864 0.00077141360300123866 0.0005408355701142486 0.0018301767040128398 0.00076261781117968109 0.06788029553936728
leaf_weight=3552 641 469 271 557 10.999999999999998 1182 10.999999999999998 743 18405 22695 138 715 44 4373 2997 36 13703 9962 22 2851 19935 538 10465 5733 337 20 276 11.000000000000002 2450 4286 31732 5460 11250 966 111 213 470 163 110 398 9.9999999999999982 772 4132 39 2881 1021 249 343 13120 17 135 167 452 20 61 30 79 4171 5861 4148 7295 13.999999999999998
leaf_count=3552 641 469 271 557 11 1182 11 743 18405 22695 138 715 44 4373 2997 36 13703 9962 22 2851 19935 538 10465 5733 337 20 276 11 2450 4286 31732 5460 11250 966 111 213 470 163 110 398 10 772 4132 39 2881 1021 249 343 13120 17 135 167 452 20 61 30 79 4171 5861 4148 7295 14
internal_value=-9.24918e-07 -0.000531871 0.0141075 0.00226293 -0.00166309 0.011127 0.0281091 0.00411222 -0.00258187 -0.000813069 0.00906577 0.0161394 0.0317266 0.00110883 0.00550869 0.0156909 -0.00132444 0.00036525 0.0289377 0.0029251 -0.00158913 0.00722977 -4.99768e-05 0.00199663 0.0132073 0.0124799 0.0286841 0.0251585 0.00454873 0.00367165 -0.00304683 -0.000532498 -0.00172299 0.00616087 0.0401947 0.011192 0.00757789 0.0238479 0.0105773 0.00192209 0.0517672 0.00428694 0.00384871 0.0166281 -0.000549008 0.00389079 0.0080606 -0.000591117 -0.000924104 0.0405773 0.0428068 0.0118884 0.0121668 0.0167294 0.0130695 0.00974513 0.0331804 0.00164985 0.0013063 0.0022708 0.00138853 0.0491995
internal_weight=223319 215220 8099 62011 153209 6678 1421 23827 73624 79585 4733 1945 1100 38184 10946 321 47648 20783 89 12881 23487 3079 31937 17401 1230 1654 810 455 7479 5029 50137 21472 33945 2541 290 893 3467 434 232 7420 21 5461 4904 252 21461 1159 1382 10305 16001 53 246 416 1634 122 102 91 355 7022 10478 4617 11668 36
internal_count=223319 215220 8099 62011 153209 6678 1421 23827 73624 79585 4733 1945 1100 38184 10946 321 47648 20783 89 12881 23487 3079 31937 17401 1230 1654 810 455 7479 5029 50137 21472 33945 2541 290 893 3467 434 232 7420 21 5461 4904 252 21461 1159 1382 10305 16001 53 246 416 1634 122 102 91 355 7022 10478 4617 11668 36
cat_boundaries=0 1 2 3 4 5 6 7
cat_threshold=3 80 3 80 13 3 11
is_linear=0
shrinkage=0.05


Tree=13
num_leaves=63
num_cat=12
split_feature=3 4 3 15 4 5 4 15 4 3 15 15 22 5 15 19 19 19 15 19 19 15 19 15 19 4 3 4 3 17 19 19 9 17 15 4 20 17 1 15 3 4 5 15 19 18 4 4 11 1 5 15 5 3 4 4 11 2 2 1 9 3
split_gain=526.102 216.954 100.382 75.704 43.7487 32.8155 28.4502 26.759 17.0617 16.7389 15.6954 14.5284 10.1419 9.03505 8.78826 7.88783 7.87015 7.70722 7.37626 7.07175 7.06569 6.99515 9.50235 8.51017 6.54313 6.48718 6.13452 6.12176 5.90514 5.80078 5.75023 5.6703 5.31091 5.1239 4.78251 4.77792 4.66116 5.54592 4.37288 3.96917 3.83453 3.72821 4.6157 3.68201 5.04547 3.64639 3.60774 3.91843 3.30173 3.39832 3.24667 3.17876 3.0875 3.07404 3.05562 3.02615 3.02428 2.95598 2.95379 3.39828 2.8679 2.83516
threshold=1.1062431931495669 0.48908375203609472 1.8475548028945925 3.5999999046325688 0.71418395638465892 0.56600928306579601 0.26231032609939581 1.9049999713897707 0.28104855120182043 1.4338732957839968 1.235000014305115 0.9650000035762788 8.5000000000000018 0.71469828486442577 0.48999999463558203 0 1 2 1.7749999761581423 3 4 1.8500000238418581 5 0.90500000119209301 6 0.91485717892646801 0.82669693231582653 0.48311585187911993 0.53046777844429027 0.99999997019767772 7 8 2.5000000000000004 1.0394583940505984 0.90500000119209301 0.3758122473955155 9 0.99999997019767772 2.1383330821990971 0.64000001549720775 2.5294920206069951 0.97744944691658031 0.4483849853277207 1.9049999713897707 10 11 1.5140435099601748 0.43603627383708959 14.500000000000002 1.8688347935676577 1.2033676505088808 0.9650000035762788 1.1524950861930849 0.82449087500572216 0.29718907177448278 0.17383629083633426 12.500000000000002 2.3502402305603032 0.89587974548339855 1.4978661537170412 52.500000000000007 0.60894009470939647
decision_type=2 2 2 2 2 2 2 2 2 2 2 2 2 2 2 1 1 1 2 1 1 2 1 2 1 2 2 2 2 2 1 1 2 2 2 2 1 2 2 2 2 2 2 2 1 1 2 2 2 2 2 2 2 2 2 2 2 2 2 2 2 2
left_child=1 3 9 5 7 8 15 14 16 13 19 36 -4 -2 -3 -5 -1 -8 31 32 53 22 23 45 -20 -12 35 52 55 -24 -16 34 -6 43 54 -19 37 -7 -29 -32 50 42 -34 57 -45 -18 47 -11 49 -43 -14 -48 56 -9 -10 -17 -15 -13 -22 -60 -35 -50
right_child=2 4 12 6 10 11 17 20 18 46 25 33 40 27 30 28 21 26 24 -21 58 -23 29 -25 -26 -27 -28 38 -30 -31 39 -33 41 60 -36 -37 -38 -39 -40 -41 -42 48 -44 44 -46 -47 51 -49 61 -51 -52 -53 -54 -55 -56 -57 -58 -59 59 -61 -62 -63
leaf_value=0.00062391154845053542 0.0092834560480248973 0.014825253042686476 0.027260933772580404 -0.00069902207423594464 0.045179845757832182 0.049096011173054087 0.00030377782393437676 0.00074936550104563141 0.036721504425948813 0.043091731904246283 0.0046331214033649461 0.0033043843475269738 0.034300755494871195 0.0066624866899516163 0.0015567220778054231 -0.0033296839683769246 0.014045641501528412 -0.0018263431913099805 0.0014104279581198624 0.0056380378789356979 0.0022131537684142262 -0.0019946185604172695 0.0079591853499101084 0.0020231579619848744 -0.00036059670749759081 0.0082082506849825276 0.0056681658310893676 0.013305027882641027 0.0019290583660615597 -0.001981127750341637 0.014213896020590398 0.00089766398451276866 0.036185332443287123 0.0065138945808072141 0.0034959335905066606 -0.00075593223707446158 0.007738954646491149 0.011768257020227012 0.026714789304778355 0.0056901684662018894 0.046664208564564498 0.020884219453982247 0.011527432182202703 0.0031246403941518983 0.00053974699699476021 0.045133807879310477 0.034712029263420929 0.01619719763250739 -0.003871098363044246 0.045700274210005873 0.056765776666817737 0.021034639986713347 0.054639962685009674 0.0029836900552976855 0.009684711150539229 -0.0025436799761603627 0.034811804569694391 0.023630474209373826 0.0038034054514951027 0.011855823813526669 0.031316708040631511 0.019458097974835897
leaf_weight=5071 1666 246 377 4434 14.999999999999998 14.999999999999998 8271 15877 10.999999999999998 13.999999999999998 5193 2565 291 14.999999999999998 940 26725 74 26747 7521 317 7811 19165 153 2013 16946 1687 308 659 622 3459 143 2733 20 445 1617 17117 849 31 68 3486 114 36 435 2680 6400 10.999999999999998 51 680 14.999999999999998 24 18 316 11.999999999999998 1707 243 22771 29 18 1805 142 11.999999999999998 83
leaf_count=5071 1666 246 377 4434 15 15 8271 15877 11 14 5193 2565 291 15 940 26725 74 26747 7521 317 7811 19165 153 2013 16946 1687 308 659 622 3459 143 2733 20 445 1617 17117 849 31 68 3486 114 36 435 2680 6400 11 51 680 15 24 18 316 12 1707 243 22771 29 18 1805 142 12 83
internal_value=-7.4023e-07 -0.000341214 0.0172986 -0.00108493 0.00298879 0.000168115 -0.00192856 0.00217267 -0.000332977 0.0136525 0.00634197 0.0024407 0.0332857 0.0113738 0.00561007 -0.00272803 -0.00117066 -0.00109684 0.000529749 0.0123883 0.00156713 -0.00153633 0 0.00266808 0.000184033 0.00551059 -0.00135898 0.0158133 -0.00290672 -0.00155417 0.0051125 0.00236585 0.0154505 0.00198616 0.00447889 -0.00140875 0.00858953 0.0241289 0.0145697 0.00601124 0.0386358 0.0149596 0.01263 0.00178205 0.0013073 0.0181759 0.018906 0.0167531 0.0216244 0.0309534 0.0356435 0.0229579 0.0318141 0.000966017 0.0108893 -0.00296818 0.0253657 0.00344887 0.0026461 0.00439384 0.00718282 0.015836
internal_weight=223319 219009 4310 179027 39982 72032 106995 32157 59017 3510 7825 13015 800 2449 4815 54552 29946 52443 29071 945 27342 24875 5710 2098 24467 6880 44172 783 50118 3612 4569 4604 628 12120 1871 43864 895 46 727 3629 423 613 455 11663 9080 85 1061 694 158 60 309 367 56 17584 254 49496 44 2583 9758 1947 457 98
internal_count=223319 219009 4310 179027 39982 72032 106995 32157 59017 3510 7825 13015 800 2449 4815 54552 29946 52443 29071 945 27342 24875 5710 2098 24467 6880 44172 783 50118 3612 4569 4604 628 12120 1871 43864 895 46 727 3629 423 613 455 11663 9080 85 1061 694 158 60 309 367 56 17584 254 49496 44 2583 9758 1947 457 98
cat_boundaries=0 1 2 3 4 5 6 7 8 9 10 11 12
cat_threshold=5 3 5 13 108 44 3 80 43 1 2 1
is_linear=0
shrinkage=0.05


Tree=14
num_leaves=63
num_cat=7
split_feature=25 25 3 25 25 3 3 13 22 25 20 7 25 4 4 4 0 25 7 4 4 4 22 19 7 4 2 19 25 2 17 13 5 24 22 7 7 3 9 7 3 17 8 0 25 2 25 1 6 5 4 4 7 22 9 22 13 25 13 3 7 4
split_gain=554.746 226.726 126.738 44.2682 38.9838 28.3012 15.1478 12.1603 9.92242 9.0544 8.79304 8.7381 8.70763 8.54537 6.9313 6.63862 6.01758 5.63435 5.61336 5.31391 4.82962 4.8268 4.67515 4.8328 4.44238 4.17812 4.76099 4.209 4.79558 4.04071 3.82366 3.81646 3.77167 3.76524 3.76384 3.58035 3.41852 3.37316 3.33292 3.19598 3.14352 3.05342 3.00497 2.98838 4.49488 2.94492 2.94372 2.82796 2.75269 3.00702 3.42584 2.71745 2.68656 3.24313 2.65696 2.58667 2.57679 2.5646 2.5415 2.59389 2.51183 2.48245
threshold=3.0930736064910893 1.6742423772811892 1.7825004458427431 2.0851448774337773 1.2565789222717287 1.1388223767280581 0.86490574479103099 0 5.5000000000000009 5.6961536407470712 1 4.5000000000000009 4.3550419807434091 0.3508265763521195 0.31579695641994482 0.48311585187911993 1.7005987167358401 10.898990154266359 4.5000000000000009 0.21279980987310412 0.61059561371803295 0.38524730503559118 11.500000000000002 2 4.5000000000000009 0.85404136776924144 2.1383330821990971 3 4.3060202598571786 1.2424533367156985 1.0247724652290346 4 1.1308063864707949 6.5000000000000009 10.500000000000002 4.5000000000000009 3.5000000000000004 0.47343152761459356 28.500000000000004 4.5000000000000009 1.2221247553825381 1.0886573195457461 5.5000000000000009 3.2769666910171513 9.409586429595949 1.2424533367156985 2.6733334064483647 2.2499048709869389 2.5000000000000004 1.1099417805671694 0.47651304304599768 0.69934228062629711 4.5000000000000009 5.5000000000000009 24.500000000000004 19.500000000000004 5 8.4807405471801776 6 0.53395280241966259 4.5000000000000009 0.54830616712570202
decision_type=2 2 2 2 2 2 2 9 2 2 1 2 2 2 2 2 2 2 2 2 2 2 2 1 2 2 2 1 2 2 2 9 2 2 2 2 2 2 2 2 2 2 2 2 2 2 2 2 2 2 2 2 2 2 2 2 9 2 9 2 2 2
left_child=1 4 5 11 10 9 14 29 43 16 -1 21 30 36 37 -14 25 -10 46 -12 31 58 23 -11 40 26 27 28 -2 35 52 -13 -18 -25 -27 -6 -9 45 42 -17 -8 48 55 44 -4 -5 -16 -48 -30 50 -50 -23 53 -7 -29 -24 -20 -35 59 -3 -15 -52
right_child=2 3 8 6 7 12 24 13 17 22 19 20 15 60 18 39 32 -19 56 -21 -22 51 38 33 -26 34 -28 54 41 -31 -32 -33 -34 57 -36 -37 -38 -39 -40 -41 -42 -43 -44 -45 -46 -47 47 -49 49 -51 61 -53 -54 -55 -56 -57 -58 -59 -60 -61 -62 -63
leaf_value=-0.0014076086222292276 0.0065340124643468367 -0.00020409715021137546 0.019509163394288074 0.00026742893873559512 -0.00057634324348578253 0.0079362350738138264 0.0047221866066104456 -0.0023470989524796582 0.030484287318485133 0.021224194558663048 -0.0031642739573962218 0.0025910663172678547 0.040557032090629816 -0.0009160715064203428 0.0025831783875737129 0.016601979006377738 0.0143736670947267 0.040604080368064489 0.0060010019304112096 -0.0021195022639720184 0.0045127676024134594 0.0008154242572542803 0.034324107856698517 0.022577954914057605 0.0087644105162231756 0.010158044154518545 0.016168695892088986 0.0010950589775415877 -0.0036919232427545775 0.0021504432375138282 0.022232809385380754 0.00071688410642636565 -0.0058007583833643503 0.0090458852164857686 0.034019618468326435 0.00055050945145263225 -0.0012829691423450924 0.0041019910119940882 0.015220179921109044 0.023459179946332252 0.0095580690002174257 0.037605064996510507 0.055971855811836314 -0.0024090456599292678 0.038610153041506223 0.0059040116610192435 0.0045370840290620265 0.021167700392304711 0.0093472854050145899 -0.012434021649915758 0.030226082229949627 0.0031336814556658364 0.015897146248659493 0.016432435272697089 0.0057615684663918434 0.0040691621343393143 0.0035449943404189006 -0.0028326688474635785 -0.0015311524522132838 0.0027805550821807055 0.00022553996998000219 0.01554688439005787
leaf_weight=16232 1610 5708 184 3195 21852 503 2693 15782 471 122 30402 5664 36 14532 8258 626 453 203 2960 20367 1763 14287 28 44 1370 781 127 499 26 1916 95 5279 24 245 17 10402 14525 911 50 242 387 11.999999999999998 11.999999999999998 11.999999999999998 38 250 1880 26 197 10.999999999999998 40 1389 265 147 797 9.9999999999999982 1897 55 3260 834 7199 117
leaf_count=16232 1610 5708 184 3195 21852 503 2693 15782 471 122 30402 5664 36 14532 8258 626 453 203 2960 20367 1763 14287 28 44 1370 781 127 499 26 1916 95 5279 24 245 17 10402 14525 911 50 242 387 12 12 12 38 250 1880 26 197 11 40 1389 265 147 797 10 1897 55 3260 834 7199 117
internal_value=-6.01715e-07 -0.000484051 0.0128456 0.00206678 -0.00151653 0.0106217 0.00375802 -0.000813306 0.0304497 0.00873019 -0.00242126 0.00101129 0.0158334 -0.0012944 0.00315333 0.0194094 0.00800965 0.0335452 0.00366278 -0.00274525 0.00208247 0.000476891 0.0147162 0.0125841 0.00638983 0.00740685 0.00664566 0.00627817 0.0077238 -8.00873e-05 0.0126261 0.00169044 0.0133471 0.00863246 0.0106768 -0.000212775 -0.00183727 0.00139537 0.0245794 0.018522 0.00533173 0.0126534 0.0337897 0.0215016 0.0228171 0.000678081 0.00299336 0.00476767 0.0118655 0.0129881 0.0137954 0.00102118 0.0116209 0.00986761 0.00393851 0.0265251 0.00506253 0.00685127 -0.000393055 0.000175402 -0.000537651 0.0193355
internal_weight=223319 215220 8099 62011 153209 7191 23827 86208 908 5277 67001 38184 1914 52038 19377 904 4711 674 15021 50769 12706 25478 566 466 4450 4234 3436 3309 2013 34170 1010 10943 477 344 798 32254 30307 4356 100 868 3080 403 50 234 222 3445 10164 1906 391 365 354 15676 915 650 1296 38 4857 300 9802 6542 21731 157
internal_count=223319 215220 8099 62011 153209 7191 23827 86208 908 5277 67001 38184 1914 52038 19377 904 4711 674 15021 50769 12706 25478 566 466 4450 4234 3436 3309 2013 34170 1010 10943 477 344 798 32254 30307 4356 100 868 3080 403 50 234 222 3445 10164 1906 391 365 354 15676 915 650 1296 38 4857 300 9802 6542 21731 157
cat_boundaries=0 1 2 3 4 5 6 7
cat_threshold=95 1 8 44 5 6 406
is_linear=0
shrinkage=0.05


Tree=15
num_leaves=63
num_cat=5
split_feature=3 4 3 4 4 5 3 24 5 13 24 5 7 4 4 2 22 4 7 7 1 1 3 7 4 24 7 13 5 19 2 19 23 2 4 24 5 1 22 23 11 4 7 13 23 4 2 3 9 2 23 7 4 4 2 7 11 23 11 2 3 1
split_gain=429.81 183.738 77.7184 53.0264 33.516 27.6115 20.768 20.4355 18.9482 18.8119 13.3585 10.245 8.88313 8.4804 7.22243 7.14585 6.00412 6.00197 5.86208 5.82553 5.8166 5.47983 5.10406 4.99583 4.91908 5.43379 4.63859 4.63589 4.5769 4.51083 4.27499 4.16039 3.89575 3.88589 3.79006 6.2935 3.59407 3.55411 3.45249 3.44427 3.42251 4.39497 3.36465 3.30071 3.27918 3.90417 3.26572 3.2346 3.20855 3.12287 3.11084 3.06283 2.90096 2.87021 2.85368 3.18388 4.28283 3.17328 2.94066 2.81061 2.77117 2.7582
threshold=1.0974304080009463 0.48908375203609472 1.5234838128089907 0.3115904182195664 0.66472846269607555 0.55065473914146434 2.0761638879776005 17.500000000000004 0.82280811667442333 0 14.500000000000002 0.95358675718307506 4.5000000000000009 0.99939545989036571 0.36553788185119634 0.89587974548339855 17.500000000000004 0.17786153405904773 4.5000000000000009 4.5000000000000009 2.5249279737472539 2.0126758217811589 0.63037616014480602 4.5000000000000009 1.1731069684028628 10.500000000000002 4.5000000000000009 1 0.71573761105537426 2 1.0000000180025095e-35 3 0.30357143282890325 2.1383330821990971 0.38372664153575903 15.500000000000002 0.98929679393768322 2.6020033359527592 1.5000000000000002 0.69642856717109691 19.500000000000004 1.2905877232551577 4.5000000000000009 4 0.55357143282890331 0.60335519909858715 1.2424533367156985 1.3994143009185793 2.5000000000000004 1.8688347935676577 0.26785714924335485 4.5000000000000009 0.37952010333538061 0.42278739809989935 2.9174053668975835 4.5000000000000009 8.5000000000000018 0.51785713434219371 21.500000000000004 2.1383330821990971 0.82669693231582653 1.4978661537170412
decision_type=2 2 2 2 2 2 2 2 2 9 2 2 2 2 2 2 2 2 2 2 2 2 2 2 2 2 2 9 2 1 2 1 2 2 2 2 2 2 2 2 2 2 2 9 2 2 2 2 2 2 2 2 2 2 2 2 2 2 2 2 2 2
left_child=1 3 11 5 10 9 54 12 13 46 19 26 29 18 27 22 21 -11 59 36 -16 -8 50 47 25 30 38 -9 -17 60 -10 33 -29 -12 -14 -36 43 -26 49 -18 -25 -42 -19 -3 -21 -46 51 -13 -15 -2 -7 -1 -31 -40 55 56 -4 -57 -59 -6 -5 -41
right_child=2 4 6 7 8 15 16 14 24 17 31 23 34 48 20 28 39 42 -20 44 -22 -23 -24 40 37 -27 -28 32 -30 52 -32 -33 -34 -35 35 -37 -38 -39 53 61 41 -43 -44 -45 45 -47 -48 -49 -50 -51 -52 -53 -54 -55 -56 57 -58 58 -60 -61 -62 -63
leaf_value=-0.0012990701967147984 0.0018188521642531375 0.0013490656839125128 0.024752038998764443 4.003561415263625e-05 0.0030559288889664849 0.0012378077811147257 0.025201003703033312 -0.00068231535796314563 0.00018695271393680054 -0.0027949255989306501 0.0059205666398120691 0.012145931836747609 -0.00029564501528089003 -0.0072519303163599714 0.0036828498593716149 0.0034708656794256113 0.06398566376030175 -0.0022186176151591458 0.0058805771262036097 0.0039443188882847327 0.035902462814148543 0.03719634368336594 0.0049337471749025166 0.038492387572686783 0.017887656421758515 0.013581375092462511 0.012696553300256791 0.0046399043471928849 0.011512365458099571 -0.0017008926631635749 0.01092293452471982 0.0027710757490096802 0.0012948341325977673 0.021323921063344155 0.00047069469578083157 0.0031486837586561806 0.021559793399691017 0.04432446719794874 0.01984408941009886 0.016260815874950308 0.0034384574875977246 0.039499892746197418 -0.0012199510518670145 -0.00019383536813909744 0.00096168019628362512 0.003875381336916828 0.0015513140179281024 0.027738884371880115 0.0098430726675985489 0.020964181972103136 -0.001295713192494867 -0.00016859483892414358 -0.0006705706601690981 0.0086087923158465213 0.044241310166948628 0.040123297592738812 0.016372400944115049 0.01925699398365073 0.030338388101085741 0.014973711354022255 0.0064008433091476136 0.04605715924169311
leaf_weight=17886 289 11896 213 10519 6220 2942 207 2450 182 34585 1982 176 7762 28 3655 794 22 25162 2881 2792 13.999999999999998 186 641 48 98 539 782 1069 229 10935 191 1666 4734 42 9007 2903 21 14.999999999999998 60 10.999999999999998 22 13.999999999999998 12730 4886 3842 1645 1405 42 812 23 2059 9026 18278 1401 12.999999999999998 31 577 187 93 50 174 34
leaf_count=17886 289 11896 213 10519 6220 2942 207 2450 182 34585 1982 176 7762 28 3655 794 22 25162 2881 2792 14 186 641 48 98 539 782 1069 229 10935 191 1666 4734 42 9007 2903 21 15 60 11 22 14 12730 4886 3842 1645 1405 42 812 23 2059 9026 18278 1401 13 31 577 187 93 50 174 34
internal_value=1.26636e-05 -0.000299611 0.0154296 -0.000982909 0.00277361 -0.00168496 0.0243533 7.21578e-05 0.00511913 -0.00189109 0.00187538 0.0105109 -0.0003059 0.00445403 0.00196184 0.00143141 0.0333112 -0.00231804 0.00401164 0.00146185 0.00380813 0.0308989 0.000733198 0.0192358 0.0115962 0.0103641 0.00947692 0.0011404 0.0052768 -0.000734616 0.00569932 0.00468483 0.00190869 0.00621301 0.000563525 0.00112388 0.000926495 0.0214773 0.00805342 0.0473193 0.0296602 0.0176714 -0.00188325 0.000900249 0.00254776 0.00183617 -0.000797021 0.0151843 0.00926649 0.00325249 0.000193708 -0.000920109 -0.00105605 0.00907495 0.0206472 0.0203601 0.0186409 0.0247037 0.022965 0.003152 0.000143933 0.0389367
internal_weight=223178 218747 4431 178959 39788 107459 1574 71500 11016 100794 28772 2857 59578 9991 11922 6665 460 72477 9151 25082 3669 393 5642 302 1025 912 2555 8253 1023 39906 373 3690 5803 2024 19672 11910 16803 113 1773 67 84 36 37892 16782 8279 5487 28317 218 840 312 5001 26912 29213 1461 1114 1101 790 311 280 6270 10693 45
internal_count=223178 218747 4431 178959 39788 107459 1574 71500 11016 100794 28772 2857 59578 9991 11922 6665 460 72477 9151 25082 3669 393 5642 302 1025 912 2555 8253 1023 39906 373 3690 5803 2024 19672 11910 16803 113 1773 67 84 36 37892 16782 8279 5487 28317 218 840 312 5001 26912 29213 1461 1114 1101 790 311 280 6270 10693 45
cat_boundaries=0 1 2 3 4 5
cat_threshold=31 29808 19 13 190
is_linear=0
shrinkage=0.05


Tree=16
num_leaves=63
num_cat=5
split_feature=3 4 3 4 4 5 24 5 20 3 24 19 22 4 4 5 5 4 19 23 4 7 1 4 7 4 24 23 7 4 19 6 11 9 1 23 5 13 24 5 11 7 23 4 1 7 7 7 22 4 26 23 7 7 23 7 7 16 7 5 16 16
split_gain=387.999 169.695 63.7997 48.0891 31.1564 25.1158 18.9094 17.1091 16.9992 14.4324 12.4443 8.71051 8.19066 8.74658 8.01122 7.67112 6.94424 5.41626 5.32008 5.0368 5.50988 4.98548 4.58527 4.58378 4.56858 4.34124 5.31377 4.27537 4.27048 3.88928 3.84426 4.24844 3.83168 4.64239 3.8036 3.75879 3.71199 3.64498 3.45446 3.19574 3.09001 3.03624 2.97056 2.93128 2.9303 2.91018 2.85096 2.84084 2.74748 2.69858 2.61764 2.57094 2.54739 2.53606 2.49816 2.48723 2.46185 2.98802 2.44776 2.69728 2.43536 2.54054
threshold=1.1241942048072817 0.48908375203609472 1.8475548028945925 0.3115904182195664 0.66472846269607555 0.55065473914146434 18.500000000000004 0.82814118266105663 0 1.4619477391242983 14.500000000000002 1 18.500000000000004 2.071452379226685 0.95292010903358471 0.96123886108398449 0.74560940265655529 0.17786153405904773 2 0.42261904478073126 0.37996783852577215 4.5000000000000009 2.4414010047912602 0.3758122473955155 4.5000000000000009 1.1731069684028628 10.500000000000002 0.55357143282890331 4.5000000000000009 0.47459125518798834 3 4.5000000000000009 19.500000000000004 21.500000000000004 2.6020033359527592 0.66071426868438732 0.73314395546913158 4 16.500000000000004 0.97890859842300426 12.500000000000002 4.5000000000000009 0.26785714924335485 0.32209518551826483 1.2424533367156985 4.5000000000000009 4.5000000000000009 3.5000000000000004 1.5000000000000002 0.8672274947166444 1.0000000180025095e-35 0.23214285820722583 4.5000000000000009 2.5000000000000004 0.44642856717109686 3.5000000000000004 4.5000000000000009 0.014235583599656822 3.5000000000000004 0.72363388538360607 0.13660289347171786 0.1104119122028351
decision_type=2 2 2 2 2 2 2 2 1 2 2 1 2 2 2 2 2 2 1 2 2 2 2 2 2 2 2 2 2 2 1 2 2 2 2 2 2 9 2 2 2 2 2 2 2 2 2 2 2 2 2 2 2 2 2 2 2 8 2 2 8 10
left_child=1 3 9 5 10 8 11 14 56 15 18 19 13 27 21 29 42 -10 28 20 -5 -6 36 -13 54 26 -9 52 39 43 31 -12 40 -34 48 -14 37 -8 -25 -3 -26 -19 50 -2 -33 -21 -31 -15 -27 -48 -7 60 53 -4 -17 -22 57 -1 -45 -60 61 -18
right_child=2 4 12 6 7 16 22 25 17 -11 30 23 35 47 -16 24 51 41 -20 45 55 -23 -24 38 32 34 -28 -29 -30 46 -32 44 33 -35 -36 -37 -38 -39 -40 -41 -42 -43 -44 58 -46 -47 49 -49 -50 -51 -52 -53 -54 -55 -56 -57 -58 -59 59 -61 -62 -63
leaf_value=-0.0011797335410810164 -0.0025892987455679289 0.0013760879561841776 0.036955273835365794 0.00058991300574894512 0.0029450621823287303 0.0032243386180271271 0.0032549116281875793 0.0052257851324471688 -0.002655179805649758 0.017300879549523095 0.0045967199258119418 -0.0013626461503048574 0.063249129593654835 0.029652843077811943 0.0079282876660350457 0.026128279450654643 0.0077990035610720947 -0.0021076872053053873 0.00052637822770627808 -0.0003964363259736166 0.0018265390977954853 0.0054976511596764562 0.026334664409415204 -0.00042131600755107687 0.029146882567588423 0.036403296088540794 0.013102597002501213 0.020772758404806232 0.003230664497767119 0.0072510115105624542 0.0026684004399399617 0.0076404298207415448 -0.0058273496802981571 0.032585096715203446 0.042914817218454727 0.036150941870096702 0.0059604883696909045 -4.8121049449020761e-05 0.0017736055417334981 0.021866261875208137 0.060923580654704851 -0.0011589540352374744 -0.00052385218384153303 0.012908938998205628 0.016156200282953125 0.00083812486535421882 0.0069023200632971089 0.041085603815730322 0.0130196181607279 0.014021347244054228 0.00046432168286409569 0.0013343278872889894 0.049666475879019172 0.013536450276104964 0.01095275417488349 0.0046597596623563697 -0.00010212645914707726 0.0033189688574218647 0.022315254078894817 0.050758972636482741 -0.012529489001695147 0.029476734240215727
leaf_weight=18414 14.999999999999998 9939 31 7214 6111 1605 2941 365 34585 972 1482 14848 21 141 1318 35 495 25162 10352 14454 1737 2797 21 17778 22 14.999999999999998 528 433 4820 1372 1677 415 12.999999999999998 19 15.999999999999998 39 848 1170 1993 19 12.999999999999998 12730 2469 53 136 7127 213 98 89 373 1859 217 20 20 134 1411 9527 376 42 10.999999999999998 13.999999999999998 13.999999999999998
leaf_count=18414 15 9939 31 7214 6111 1605 2941 365 34585 972 1482 14848 21 141 1318 35 495 25162 10352 14454 1737 2797 21 17778 22 15 528 433 4820 1372 1677 415 13 19 16 39 848 1170 1993 19 13 12730 2469 53 136 7127 213 98 89 373 1859 217 20 20 134 1411 9527 376 42 11 14 14
